[{"type":"conv","filters":[{"data":[0.1978573352098465,-0.06417441368103027,-0.1977546364068985,0.4702109098434448,0.11711025983095169,0.281219482421875,0.11747774481773376,0.14221851527690887,0.19981737434864044],"shape":[3,3,1]},{"data":[-0.12239924818277359,0.34744930267333984,0.16041946411132812,0.261482834815979,-0.008944902569055557,-0.1589210480451584,0.1393376588821411,0.4063342809677124,-0.4464854598045349],"shape":[3,3,1]},{"data":[0.37722957134246826,-0.37529364228248596,-0.21159395575523376,-0.46966320276260376,-0.0019138911738991737,-0.004751129075884819,-0.10454830527305603,0.4003911316394806,-0.46369946002960205],"shape":[3,3,1]},{"data":[-0.07291825860738754,-0.29719144105911255,-0.11293038725852966,0.43657389283180237,0.15717169642448425,-0.30914729833602905,-0.09707802534103394,-0.3733895719051361,-0.3695751130580902],"shape":[3,3,1]},{"data":[0.1528308391571045,-0.3240686357021332,0.18316100537776947,0.272722065448761,-0.38025185465812683,-0.06799110025167465,0.19902458786964417,-0.3713679313659668,-0.42572423815727234],"shape":[3,3,1]},{"data":[-0.33492738008499146,-0.01093622762709856,-0.26707249879837036,-0.18897421658039093,0.3094334602355957,0.2296934872865677,0.28349000215530396,0.409804105758667,0.16340979933738708],"shape":[3,3,1]},{"data":[0.07533932477235794,-0.4069402813911438,-0.3818545341491699,0.08342812955379486,-0.18501637876033783,0.13918547332286835,0.13177445530891418,-0.07642994821071625,-0.055237915366888046],"shape":[3,3,1]},{"data":[-0.2659626603126526,-0.09864867478609085,-0.00989493541419506,-0.44375696778297424,-0.024037526920437813,0.3759293854236603,-0.46841394901275635,0.14969608187675476,0.1892824023962021],"shape":[3,3,1]}],"biases":[0.009999999776482582,0.009999999776482582,0.009999999776482582,0.009999999776482582,0.009999999776482582,0.009999999776482582,0.009999999776482582,0.009999999776482582]},{"type":"maxpool"},{"type":"dense","weights":[0.032142575830221176,-0.0021199206821620464,-0.029545430094003677,0.02083701081573963,-0.0016498195473104715,0.02822355553507805,-0.009417297318577766,-0.014416750520467758,-0.02062571980059147,-0.01865752600133419,-0.0007286194013431668,-0.01984025351703167,0.000790356018114835,0.006777025759220123,0.03330652788281441,0.016325559467077255,-0.029858769848942757,-0.000605823181103915,0.010914936661720276,0.021496225148439407,-0.017054086551070213,-0.01669723354279995,-0.004224495496600866,0.030441995710134506,-0.026339607313275337,-0.007742670830339193,-0.01727144420146942,0.009690633974969387,0.009083010256290436,-0.004866485483944416,-0.028199777007102966,0.022887011989951134,-0.012165740132331848,-0.029248209670186043,-0.0009154785657301545,-0.012997744604945183,-0.0002118245611200109,0.01104328315705061,0.011589642614126205,0.027828708291053772,-0.009115337394177914,-0.017572851851582527,0.009087878279387951,-0.03275284171104431,0.02436365745961666,-0.012855025008320808,-0.002699328353628516,0.013101653195917606,-0.018650460988283157,-0.01677277311682701,0.0013011973351240158,-0.021696459501981735,0.008036806248128414,-0.011626284569501877,0.017441844567656517,-0.001334763248451054,0.029036905616521835,-0.025709211826324463,-0.021424882113933563,-0.011097602546215057,-0.0274306982755661,0.0314251147210598,0.01438569463789463,-0.011509235017001629,-0.02112189307808876,-0.0028808671049773693,-0.01921197958290577,-0.023225486278533936,0.015568150207400322,-0.004922740161418915,0.0055992621928453445,0.0022011075634509325,-0.01641017384827137,0.03262151777744293,0.018402397632598877,0.003017311915755272,0.013488284312188625,-0.009053473360836506,0.024196967482566833,0.01661461405456066,-0.0024450693745166063,-0.013607379049062729,-0.02747168391942978,-0.01600131019949913,0.007856105454266071,-0.01805729977786541,0.006144127808511257,0.024149270728230476,0.012623786926269531,0.015169174410402775,-0.0272977352142334,-0.009433675557374954,0.01675364561378956,0.00021689817367587239,-0.008756501600146294,0.013908619992434978,0.03303450718522072,-0.031281549483537674,0.010142790153622627,0.02281058207154274,0.013380104675889015,-0.004240695387125015,0.03206997737288475,-0.03168352693319321,-0.020365731790661812,-0.006649602670222521,0.0014411197043955326,-0.0199151448905468,-0.028628956526517868,-0.02053546905517578,0.006595378741621971,0.004721301607787609,-0.029253315180540085,-0.012433108873665333,0.020986268296837807,0.028780773282051086,0.004030471667647362,0.004440641030669212,0.03231038898229599,0.0007897291798144579,0.02200709655880928,0.02271983213722706,-0.031756505370140076,0.02500324323773384,0.007674046326428652,-0.02242821641266346,-0.00936441496014595,-0.01890316605567932,0.004179644398391247,-0.0044772084802389145,-0.017924055457115173,0.0125880790874362,0.009541671723127365,0.0191546268761158,-0.030811918899416924,0.026517003774642944,0.011681705713272095,0.00012165588123025373,0.022331777960062027,-0.016618521884083748,-0.03200250864028931,0.004431842360645533,-0.016705222427845,0.0332157239317894,-0.014937523752450943,0.03117048181593418,-0.015511195175349712,0.0026885448023676872,-0.02615445666015148,0.0250246562063694,0.003757194383069873,0.0006402645376510918,-0.008745318278670311,-0.011962393298745155,0.02001062035560608,-0.022233417257666588,-0.02134372480213642,-0.02080683596432209,-0.011943568475544453,-0.025053178891539574,-0.02453998476266861,0.02507293038070202,0.024414317682385445,-0.02947770617902279,0.03029664419591427,-0.01767064817249775,0.0025136172771453857,0.031128250062465668,-0.013056769035756588,0.023450981825590134,-0.020839884877204895,-0.032519157975912094,0.025597840547561646,0.03236570581793785,-0.0172636266797781,0.01655634678900242,-0.017197007313370705,-0.018710710108280182,0.015410007908940315,-0.009951855055987835,0.012020892463624477,0.016432080417871475,-0.009046290069818497,-0.02680039405822754,0.03291718661785126,-0.021745063364505768,-0.003124502021819353,0.03088747337460518,-0.004089626017957926,0.01850057579576969,-0.022615833207964897,-0.01872367225587368,-0.010313063859939575,-0.003090547863394022,0.03215545043349266,-0.013001913204789162,-0.010734344832599163,-0.0057322862558066845,-0.02916603721678257,-0.004863380920141935,-0.027322817593812943,0.019368615001440048,0.015021915547549725,-0.001961803063750267,0.00022673809144180268,0.001662091352045536,0.0001280588039662689,0.004409190732985735,0.02708543837070465,-0.02799415960907936,0.02756773680448532,0.0011007505236193538,0.00021651526913046837,0.007117737550288439,-0.007105767726898193,0.025218185037374496,0.023123061284422874,0.03086870349943638,-0.023940054699778557,-0.02291465550661087,0.006925595458596945,0.02772730402648449,-0.004557131789624691,-0.015364672988653183,0.031288646161556244,0.00042654070421122015,-0.020740745589137077,-0.029321052134037018,-0.01303116139024496,0.02994598262012005,-0.02237529307603836,-0.024250809103250504,-0.025841036811470985,-0.006365964189171791,-0.0024974660482257605,-0.020891457796096802,-0.025053968653082848,-0.013873533345758915,-0.009800704196095467,0.0006423598388209939,-0.01375266257673502,-0.016512254253029823,-0.014954023994505405,0.02833917923271656,0.010038098320364952,-0.022325662896037102,0.01912030577659607,0.019337305799126625,-0.013092173263430595,0.020573562011122704,-0.0160669032484293,-0.014164584688842297,0.027625797316432,0.013644473627209663,0.02387232333421707,0.009613226167857647,0.019326621666550636,-0.012676548212766647,0.008646401576697826,-0.020514028146862984,-0.02958153374493122,-0.029244493693113327,0.004995716270059347,0.030877530574798584,-0.024825764819979668,-0.011424891650676727,0.012970286421477795,0.010436203330755234,0.019877241924405098,-0.02219296805560589,-0.01237037405371666,0.01509822066873312,-0.002396340249106288,-0.011364606209099293,0.003683930030092597,-0.01648058369755745,-0.03142653405666351,-0.002230340614914894,0.015921439975500107,0.020318087190389633,0.0013665355509147048,-0.010922471061348915,-0.023145509883761406,0.02081652358174324,-0.02762381173670292,-0.029931722208857536,0.028433259576559067,0.002458416623994708,-0.00837658066302538,-0.03002224862575531,-0.03252050653100014,0.006802372634410858,-0.02332356944680214,-0.02220548316836357,-0.026955612003803253,-0.0013428109232336283,0.023763392120599747,-0.026324346661567688,0.023352958261966705,0.022095052525401115,-0.007989180274307728,0.014176377095282078,0.02836751379072666,-0.011960657313466072,0.006575434468686581,-0.00354480161331594,0.010583029128611088,0.0014170358190312982,-0.013626405037939548,0.002097672550007701,-0.030484996736049652,-0.014084595255553722,-0.006911872420459986,0.02351825125515461,-0.02391372062265873,-0.029492616653442383,0.002029297174885869,0.025612421333789825,0.019975563511252403,-0.009060339070856571,-0.01625368744134903,0.0006919432780705392,-0.019394589588046074,-0.002785446122288704,0.022854650393128395,-0.02244032546877861,0.0005962012801319361,-0.003935806918889284,0.00938284769654274,-0.0027675828896462917,-0.01826961152255535,-0.016053199768066406,0.02059795707464218,-0.00028331318753771484,0.016977909952402115,0.01002186257392168,-0.003426153678447008,-0.020924925804138184,-0.022919395938515663,-0.008581595495343208,0.009985104203224182,0.00921109039336443,0.019282156601548195,-0.006010762881487608,-0.028676988556981087,0.027455374598503113,0.010024860501289368,0.014997259713709354,0.02429111674427986,0.022759435698390007,0.027548542246222496,0.031197840347886086,-0.00851092953234911,-0.01233375072479248,0.01884656585752964,0.03112472966313362,-0.03136860206723213,-0.02300632931292057,0.0023030333686619997,0.02249053679406643,-0.012452260591089725,-0.0034369551576673985,-0.006124216131865978,0.023723257705569267,0.008047693409025669,-0.018703028559684753,-0.011445816606283188,0.005537724122405052,0.0026060764212161303,0.027556346729397774,-0.015076675452291965,-0.014013489708304405,-0.016154343262314796,-0.012572635896503925,-0.006169657688587904,-0.03252403438091278,-0.02147318236529827,-0.02238771878182888,-0.026830075308680534,-0.015608052723109722,-0.024275990203022957,0.020973704755306244,-0.019616223871707916,0.016247926279902458,0.0020358567126095295,0.0318712443113327,-0.02691543661057949,-0.032577190548181534,-0.01654563471674919,0.02356356382369995,-0.0074785551987588406,0.0012451985385268927,-0.0035649507772177458,0.0010971869342029095,0.008267858996987343,-0.010723398067057133,-0.028396829962730408,0.0018564284546300769,-0.010073560290038586,-0.03130043298006058,-0.023130731657147408,-0.01731647551059723,0.027385368943214417,-0.016029758378863335,-0.018588680773973465,0.016301605850458145,-0.0047136154025793076,-0.016855519264936447,-0.011840716935694218,0.005889161489903927,0.0106319859623909,-0.024841148406267166,0.007354474626481533,-0.01553113479167223,0.023783192038536072,-0.025445830076932907,-0.024780528619885445,-0.01662689447402954,-0.029607824981212616,-0.0028034031856805086,-0.01735076680779457,0.024860139936208725,0.0016215435462072492,0.012110932730138302,0.010181836783885956,0.015569915063679218,0.009944182820618153,-0.005199078936129808,-0.004033146426081657,0.032895151525735855,0.016551416367292404,0.005241146311163902,0.028990687802433968,-0.03304570913314819,-0.004259065724909306,0.026601199060678482,-0.005210789851844311,0.024304941296577454,-0.03104635328054428,0.0014974141959100962,-0.018699338659644127,0.00983909796923399,0.0008909155731089413,0.011437841691076756,-0.0009390407358296216,-0.0028914958238601685,-0.011717181652784348,-0.003923445008695126,0.01765258237719536,-0.017166530713438988,0.011428136378526688,-0.0018949037184938788,0.01269217673689127,0.02261320874094963,-0.0032391382846981287,0.01048697717487812,0.0164896622300148,0.013717703521251678,-0.023414332419633865,-0.008907216601073742,-0.02175268903374672,0.011790369637310505,-0.028930556029081345,-0.005379193462431431,-0.0067781200632452965,-0.014866485260426998,0.02860272489488125,-0.0005368960555642843,0.01278640516102314,0.0018905185861513019,-0.02563922293484211,0.0045856875367462635,0.010697572492063046,0.0036326146218925714,-0.01905028708279133,0.02785779908299446,0.025913279503583908,0.023043114691972733,0.019830577075481415,0.013079934753477573,-0.006737525574862957,0.02466585673391819,0.01370333880186081,-0.02713516168296337,0.0297346543520689,0.004570718389004469,0.010198146104812622,0.009896107949316502,-0.0035180929116904736,-0.010254362598061562,0.014953697100281715,-0.014510348439216614,-0.029429299756884575,0.012717056088149548,-0.01826235093176365,0.016566650941967964,0.019360631704330444,0.023652955889701843,-0.0026674794498831034,0.007560723461210728,-0.0111232940107584,-0.01378979254513979,0.0028565372340381145,-0.03298657760024071,0.00024529334041289985,0.01615302823483944,-0.02816339209675789,-0.01758982613682747,0.027298837900161743,0.01689864881336689,-0.001729517593048513,-0.029532648622989655,-0.022851599380373955,0.023421596735715866,-0.029693501070141792,0.021175535395741463,-0.019561275839805603,-0.017122389748692513,0.019577238708734512,0.026653418317437172,-0.006870766170322895,0.007542858831584454,-0.022882796823978424,0.023633848875761032,-0.02063550427556038,0.03287139907479286,0.03015504777431488,-0.02124595455825329,-0.014333736151456833,-0.02331443503499031,0.0031710932962596416,-0.027520809322595596,0.004211815539747477,-0.03153228387236595,-0.023967085406184196,0.006608062889426947,0.0009024479077197611,0.029170822352170944,-0.029376335442066193,0.010482735000550747,0.005407191812992096,0.02468726597726345,-0.029398852959275246,-0.004244862124323845,0.026693006977438927,-0.003151122946292162,0.011588201858103275,0.017065923660993576,-0.008202504366636276,-0.030510101467370987,0.0311285313218832,-0.0042263539507985115,0.0037416385021060705,0.032012131065130234,-0.009864273481070995,0.01662074774503708,-0.018372846767306328,-0.01338129211217165,-0.0023894866462796926,-0.0284440815448761,-0.01785709522664547,0.0021718235220760107,0.023887351155281067,-0.01418470498174429,0.02163722738623619,0.0012313375482335687,0.02344897948205471,-0.02616719901561737,0.010981149971485138,0.02330251783132553,0.010284612886607647,0.02447723224759102,0.011015675961971283,-0.01633535884320736,-0.003093317151069641,0.027171967551112175,-0.02771645039319992,-0.019096264615654945,0.0005169442156329751,-0.029145188629627228,-0.004748606588691473,0.021628599613904953,0.0330774150788784,0.0016691578784957528,0.003401081543415785,-0.02924375794827938,-0.03156555816531181,-0.026844589039683342,-0.012241114862263203,0.028518475592136383,-0.027856646105647087,-0.0032871600706130266,-0.02985059842467308,-0.005578962154686451,0.013295927084982395,0.017751608043909073,-0.03221843019127846,0.02346986159682274,-0.021613629534840584,0.003261720994487405,-0.014577842317521572,0.005025540478527546,-0.02095882222056389,-0.014682356268167496,0.0027794749476015568,-0.008959908969700336,0.0121455704793334,-0.028186075389385223,0.03221188485622406,-0.015489151701331139,-0.016621820628643036,0.004174984060227871,-0.005020334385335445,-0.014324508607387543,0.01122192945331335,0.00937171932309866,0.02952256239950657,0.0081703569740057,-0.016598572954535484,0.0014640438603237271,0.0011807699920609593,-0.022225942462682724,-0.013888129033148289,-0.03285994380712509,0.00029635263490490615,0.018592972308397293,-0.025359811261296272,-0.02836477942764759,-0.022926457226276398,0.009655988775193691,-0.0017031511524692178,0.029689328745007515,-0.014158107340335846,-0.012480394914746284,0.03040378913283348,0.021960293874144554,-0.028358951210975647,-0.02519204653799534,0.032232966274023056,-0.007580840494483709,0.013016105629503727,-0.022334996610879898,0.023153506219387054,-0.009199033491313457,0.028250228613615036,-0.008373761549592018,-0.010859481990337372,0.014010220766067505,0.03189852088689804,0.029916517436504364,-0.03047083131968975,-0.026875194162130356,0.013903194107115269,-0.0029002679511904716,0.007438392378389835,-0.01685819774866104,0.03282149136066437,0.029021328315138817,0.030696803703904152,0.015763407573103905,-0.00309003796428442,0.00907105952501297,-0.030818669125437737,0.024026835337281227,-0.03176342695951462,0.02106374129652977,-0.031356535851955414,0.003301305463537574,-0.014105703681707382,-0.020333051681518555,0.00936482660472393,-0.02363288588821888,0.021641917526721954,0.006723741069436073,0.03298317268490791,-0.012871550396084785,-0.003912085201591253,-0.010837082751095295,-0.029351281002163887,0.009237431921064854,-0.008360211737453938,-0.007535484619438648,0.009308391250669956,-0.028164809569716454,0.025554150342941284,-0.02232345938682556,-0.004336868412792683,-0.021454330533742905,-0.030412273481488228,-0.021387958899140358,0.013323899358510971,0.021610166877508163,0.003491130890324712,-0.027837980538606644,0.029652709141373634,0.022198868915438652,-0.019809236750006676,0.010502658784389496,0.00008580771100241691,0.03169191628694534,-0.0020051398314535618,0.021853132173419,-0.012996746227145195,-0.0018743920372799039,0.03166836127638817,0.015840819105505943,0.03268258273601532,0.01301028672605753,0.027270235121250153,-0.011795710772275925,0.0021809751633554697,-0.025054344907402992,0.014184514060616493,0.020625360310077667,-0.03148374333977699,0.019997986033558846,-0.030318809673190117,0.008647508919239044,0.02592223696410656,-0.009766386821866035,0.015416392125189304,-0.0011704476783052087,-0.03076421655714512,0.021854516118764877,-0.0215114988386631,-0.032879624515771866,0.0028849495574831963,-0.006086715962737799,0.006579784210771322,-0.005632324144244194,0.027968812733888626,-0.011472989805042744,-0.008759165182709694,-0.010123981162905693,0.007427021861076355,0.027741195634007454,-0.02312728390097618,0.011952618137001991,-0.026451019570231438,0.019042782485485077,-0.0018308189464733005,0.013476602733135223,-0.013706966303288937,-0.03289872035384178,0.01818162202835083,0.0042234924621880054,-0.004094647243618965,-0.026777705177664757,0.00887367594987154,-0.019078679382801056,-0.002166065387427807,-0.029600633308291435,0.023987919092178345,-0.02032632939517498,0.013738047331571579,-0.0007054013549350202,0.0003824812883976847,0.024132633581757545,0.025487706065177917,-0.014065953902900219,0.0023971647024154663,-0.0013302983716130257,0.004805599804967642,-0.018891645595431328,-0.010743578895926476,-0.02787967212498188,-0.0214937012642622,0.018430598080158234,-0.00541375856846571,0.0071765282191336155,-0.014291765168309212,0.012798653915524483,0.008187035098671913,-0.017990874126553535,-0.029179345816373825,-0.024814588949084282,0.02442510798573494,-0.016810517758131027,0.004687598906457424,0.029910853132605553,0.028192540630698204,0.005400431342422962,0.010892429389059544,-0.011983653530478477,0.020809581503272057,-0.012487174943089485,-0.025423189625144005,0.02765856310725212,-0.01764249987900257,-0.007212347351014614,-0.00681259436532855,0.010887064039707184,-0.010299677960574627,0.03163757175207138,-0.0233457051217556,0.03133167698979378,-0.029643012210726738,0.012535296380519867,0.024249883368611336,0.0013074311427772045,-0.0009124664939008653,-0.018995175138115883,-0.030799951404333115,0.016090523451566696,-0.03187042474746704,-0.02291964180767536,0.03310508653521538,0.029913656413555145,0.019548526033759117,0.008212197571992874,0.004381193779408932,0.001370013109408319,-0.008341238833963871,-0.033282242715358734,0.029881443828344345,0.006655585020780563,-0.032756149768829346,0.025592640042304993,-0.013011863455176353,-0.020839480683207512,0.0020896587520837784,0.0011744907824322581,-0.03199801594018936,0.02905835583806038,-0.01570846512913704,-0.008804408833384514,-0.025549618527293205,-0.01478563155978918,-0.01620103418827057,-0.018869629129767418,0.004008038435131311,0.030490687116980553,-0.022200264036655426,0.012158739380538464,-0.020777275785803795,0.03297337889671326,-0.022107165306806564,0.001206376706250012,0.024182751774787903,0.006782903335988522,0.020099442452192307,-0.005070764105767012,-0.029279043897986412,0.016573697328567505,-0.03206396475434303,0.009974107146263123,0.007667376659810543,0.011110866442322731,0.0071774693205952644,0.032668836414813995,0.0027111205272376537,0.026108961552381516,0.02494513802230358,-0.02697513811290264,0.007145487237721682,0.003424676600843668,-0.00008616118429927155,-0.018539953976869583,-0.015238062478601933,0.012618118897080421,-0.009080230258405209,-0.026785587891936302,-0.0035286489874124527,0.006794643122702837,0.0011760665802285075,0.027315838262438774,0.007207234390079975,0.020197389647364616,0.025334879755973816,-0.020542239770293236,0.028951264917850494,-0.02392273023724556,-0.0042479862459003925,-0.025907251983880997,-0.004792101215571165,0.009305944666266441,0.032460205256938934,-0.015022888779640198,-0.006774235982447863,0.004851911216974258,0.01560500729829073,-0.03246097266674042,-0.006118918769061565,0.0008345676469616592,0.00910460390150547,0.020855767652392387,0.011306745931506157,-0.011033764109015465,0.00800703652203083,0.01706147938966751,0.015162848867475986,0.014317614026367664,0.0021841407287865877,0.010063104331493378,0.028210613876581192,0.03206171840429306,-0.01966104470193386,-0.025625476613640785,0.012850980274379253,-0.024225739762187004,-0.01847560703754425,-0.03157929331064224,0.0016138929640874267,0.0027444285806268454,0.00229360768571496,-0.03199484571814537,0.008154663257300854,-0.030194515362381935,0.023000529035925865,-0.03149380162358284,0.023633377626538277,0.009808249771595001,0.027558283880352974,-0.00949027482420206,0.023996928706765175,0.014788367785513401,-0.00035660184221342206,0.013048063963651657,0.022210972383618355,0.028396500274538994,-0.02698574773967266,-0.00038735431735403836,-0.03189587965607643,-0.027302229776978493,-0.019763747230172157,-0.00022285492741502821,0.019866550341248512,0.030091533437371254,0.010595438070595264,0.027410997077822685,-0.007421810179948807,-0.01648085191845894,-0.001818232936784625,-0.03034280054271221,0.0101064033806324,0.02212916500866413,0.002786596305668354,0.01103401929140091,0.0011547139147296548,0.007662270218133926,0.006685984320938587,0.025699058547616005,-0.011507676914334297,0.007141257636249065,0.01884683035314083,0.02877284400165081,0.025638960301876068,0.026243796572089195,0.028873324394226074,0.014607307501137257,-0.017713041976094246,-0.0213514044880867,-0.025382662191987038,0.020033573731780052,0.013636982068419456,0.012467772699892521,0.02268531173467636,-0.023722216486930847,0.02954290807247162,0.0041481442749500275,0.011788112111389637,-0.0203994270414114,0.02869032509624958,-0.02024351805448532,0.003809502348303795,-0.016568200662732124,-0.014240912161767483,0.006204689387232065,0.025505919009447098,0.009607329033315182,0.03248604014515877,-0.029550040140748024,0.028040464967489243,0.026497093960642815,0.030860964208841324,0.029782412573695183,-0.0012468139175325632,-0.015390167012810707,-0.027424883097410202,-0.014618078246712685,-0.0067881569266319275,-0.006687297485768795,-0.032619524747133255,0.006619699764996767,0.01988888904452324,0.025904254987835884,0.013683132827281952,0.0014176116092130542,-0.000047275978431571275,-0.0316791757941246,0.009612170048058033,0.02428913488984108,0.017278533428907394,0.002859660657122731,0.024714283645153046,0.0028945435769855976,0.01020459271967411,-0.020398052409291267,-0.00890269409865141,-0.009940248914062977,0.021574916318058968,0.026243070140480995,-0.03233136981725693,0.03042280673980713,-0.002144062425941229,0.0282638818025589,0.02564062736928463,0.005523654632270336,0.010174884460866451,0.0015619732439517975,0.0228517297655344,0.014484460465610027,0.02203153446316719,0.02615194022655487,-0.0053132823668420315,0.01632159762084484,-0.031114952638745308,0.016934406012296677,-0.00884952861815691,0.03083323873579502,0.006296047940850258,-0.015953492373228073,-0.022008005529642105,0.0057965912856161594,-0.009128706529736519,-0.0172579288482666,-0.020220372825860977,0.004417837597429752,0.022231852635741234,0.01854811981320381,0.02386823296546936,0.029866352677345276,0.026712549850344658,-0.02647748775780201,0.003477561054751277,-0.016586845740675926,-0.020566057413816452,0.004730080720037222,0.028261052444577217,-0.03045755624771118,0.02517249621450901,-0.0025333911180496216,0.0023376632016152143,0.02909296378493309,-0.026965327560901642,0.0020524614956229925,0.03313348442316055,0.02529735304415226,-0.028119094669818878,-0.015765167772769928,-0.009519544430077076,-0.028853343799710274,0.014850297942757607,-0.025801120325922966,-0.0016975811449810863,-0.023779653012752533,-0.0008653391851112247,-0.03195776790380478,-0.01793253980576992,0.01684865914285183,0.028530295938253403,0.027879586443305016,0.026857493445277214,-0.018346738070249557,0.0319051519036293,0.01792880706489086,0.02279043197631836,-0.014565234072506428,0.005422600544989109,-0.01908167265355587,-0.006997722201049328,-0.026729000732302666,0.0049566421657800674,0.02369251474738121,0.005837264470756054,0.01900145597755909,0.03232412785291672,-0.029955361038446426,-0.0016083912923932076,0.0001901067007565871,-0.01225387491285801,-0.02969691902399063,0.00939524918794632,0.004601377062499523,-0.03258666768670082,-0.02041166089475155,-0.018741242587566376,0.029865972697734833,-0.02620120905339718,-0.022442717105150223,-0.030435830354690552,0.0069285607896745205,0.024146439507603645,-0.014624087139964104,-0.023924630135297775,0.005572406109422445,0.003950371406972408,0.01590140350162983,0.024832701310515404,-0.011370307765901089,-0.011784221045672894,0.005696944892406464,0.0014907937729731202,-0.02369089052081108,-0.008232460357248783,-0.017164655029773712,-0.017753947526216507,-0.016506947576999664,-0.026126811280846596,-0.004607294220477343,0.010476453229784966,0.029281895607709885,0.01563761942088604,-0.025237692520022392,0.009421071037650108,0.02792341075837612,0.03286436200141907,0.030631715431809425,-0.025954142212867737,-0.00022420415189117193,0.026739418506622314,0.0066092489287257195,-0.005962673109024763,0.024166831746697426,0.02008841373026371,0.016714325174689293,-0.019588517025113106,-0.0003186262329109013,0.0021872103679925203,-0.023829389363527298,0.032540831714868546,0.01720430888235569,0.006886725779622793,0.006208545528352261,0.019308755174279213,0.007441089488565922,0.0025506725069135427,-0.013055854476988316,0.03217427805066109,-0.01484944112598896,-0.008227961137890816,-0.028228431940078735,0.029761485755443573,-0.01673574559390545,-0.01665337383747101,0.0018652197904884815,0.03236664459109306,0.03283319249749184,0.031849589198827744,0.006299508269876242,-0.02510981261730194,0.02819903939962387,-0.008428655564785004,0.01375078409910202,-0.015033390372991562,-0.030222583562135696,0.006219298578798771,0.02381705678999424,-0.012794502079486847,-0.029180537909269333,-0.0058412398211658,0.031132813543081284,0.03304995223879814,-0.027829311788082123,0.011595482006669044,-0.02305600978434086,0.020513543859124184,-0.029130904003977776,-0.01165615301579237,0.022216245532035828,0.003911360166966915,0.002159323776140809,-0.026345601305365562,-0.0009519423474557698,-0.0075127361342310905,-0.01988094486296177,0.03289974108338356,-0.03208920359611511,-0.017613349482417107,-0.001075996900908649,0.017350399866700172,0.026536690071225166,-0.024323470890522003,0.020999830216169357,0.006890435237437487,0.0050905137322843075,0.009296351112425327,0.027741089463233948,-0.02547859027981758,0.0042432816699147224,0.023022741079330444,-0.006754524074494839,0.0038793261628597975,-0.03064168430864811,-0.01151539571583271,-0.014454666525125504,0.026765266433358192,0.02404143288731575,0.0077993921004235744,-0.02346692606806755,0.027145054191350937,0.01015778724104166,-0.003924638032913208,-0.008770406246185303,-0.02263326570391655,-0.028168056160211563,-0.004546258132904768,0.004301253240555525,-0.03138986602425575,-0.029847148805856705,-0.0029927771538496017,-0.023377709090709686,-0.01930927112698555,-0.027113405987620354,-0.03290301933884621,-0.01059176679700613,-0.03137606382369995,-0.002166786463931203,-0.01603834517300129,0.0095200901851058,0.02246091514825821,0.01753229834139347,0.03264230117201805,0.01259057130664587,-0.007285415194928646,-0.009593363851308823,0.010222367942333221,0.015878314152359962,-0.025444261729717255,-0.023714521899819374,-0.029388323426246643,0.012004927732050419,-0.020820509642362595,0.026461970061063766,0.0000011152762908750447,0.023872023448348045,0.0009037005947902799,-0.0114773353561759,0.013794941827654839,-0.03113579750061035,0.02860487625002861,0.022790640592575073,-0.01442539319396019,0.022787541151046753,0.008669227361679077,0.006172536872327328,0.023168301209807396,0.011240418069064617,-0.00390889635309577,-0.0026178385596722364,-0.010145772248506546,0.02597336657345295,-0.019590850919485092,-0.029759638011455536,-0.033133283257484436,-0.015256545506417751,-0.003419278422370553,-0.02655942365527153,-0.02961665391921997,-0.02258879877626896,0.009223147295415401,0.0028600692749023438,0.0040078056044876575,0.0018672904698178172,-0.002230966230854392,-0.0013495322782546282,-0.009682144038379192,0.019541947171092033,-0.013428077101707458,-0.011709063313901424,-0.020889917388558388,-0.024916265159845352,-0.015786033123731613,0.028637444600462914,0.024779727682471275,-0.0033031124621629715,0.031033899635076523,-0.016194552183151245,0.004042555578052998,0.003751430893316865,0.02187107317149639,0.023915542289614677,-0.016293173655867577,-0.00025854192790575325,0.021672042086720467,-0.005800892598927021,0.001820033648982644,-0.026419639587402344,0.030922263860702515,0.020657755434513092,-0.026279861107468605,-0.028598492965102196,0.01516163069754839,-0.024301746860146523,0.03165432810783386,0.028195081278681755,-0.0008919444517232478,-0.012061351910233498,-0.02269279956817627,0.022965746000409126,-0.0019270139746367931,-0.018739139661192894,0.033135976642370224,0.013572966679930687,0.01191928330808878,-0.02424546703696251,-0.02995803765952587,0.03224917873740196,0.02719675749540329,-0.023670393973588943,0.02282104641199112,-0.017802748829126358,0.016933338716626167,-0.018105579540133476,-0.02158544212579727,-0.00534143066033721,-0.0010384382912889123,-0.005383710376918316,-0.022334454581141472,0.0037311140913516283,-0.004959593061357737,-0.032264646142721176,0.016180800274014473,-0.030621729791164398,0.00020383362425491214,0.01708247885107994,0.002074438612908125,-0.0018982470501214266,0.017727090045809746,0.005214843433350325,-0.021294184029102325,-0.0038123466074466705,-0.02666306309401989,-0.028625912964344025,-0.031089719384908676,-0.029352854937314987,0.0288478285074234,-0.02678755857050419,0.005811964627355337,0.012152045033872128,-0.0047568054869771,0.013400955125689507,-0.012403753586113453,-0.015500969253480434,-0.009476222097873688,0.011966670863330364,0.01768500916659832,0.028442855924367905,-0.01405287254601717,0.013409980572760105,0.0030324971303343773,-0.013914954848587513,0.017443539574742317,-0.028855184093117714,-0.016387751325964928,-0.029380207881331444,-0.0036553998943418264,-0.03140166401863098,0.00948153156787157,-0.03154296427965164,0.030786581337451935,-0.02557072788476944,0.019971372559666634,0.008109556511044502,0.021122118458151817,0.015021522529423237,-0.012126864865422249,-0.017221571877598763,-0.017051534727215767,0.02694001980125904,-0.023956337943673134,0.015311237424612045,0.009378554299473763,0.019984371960163116,0.018813058733940125,-0.023004140704870224,-0.029137467965483665,-0.0300328079611063,0.026499470695853233,0.012568842619657516,-0.030837293714284897,0.013303295709192753,-0.015885083004832268,0.017602842301130295,-0.0010084073292091489,0.02858177199959755,0.0013615296920761466,0.005465269088745117,-0.02892010286450386,-0.00656244857236743,-0.017263250425457954,0.016623781993985176,-0.010541439987719059,-0.017370177432894707,-0.02125672996044159,0.027854053303599358,0.025680989027023315,0.015987027436494827,-0.0256462711840868,-0.004164577927440405,-0.02463204599916935,0.026817288249731064,0.009616807103157043,-0.017661266028881073,-0.021363507956266403,-0.01716785319149494,-0.004758004564791918,0.02996693179011345,-0.01415081974118948,-0.032145850360393524,0.0181793961673975,0.021843085065484047,-0.021548325195908546,-0.03126269206404686,0.020184166729450226,-0.029455194249749184,-0.015887770801782608,-0.006713694892823696,-0.005738597828894854,-0.027975749224424362,0.0020461399108171463,-0.00766105717048049,-0.00981101393699646,-0.0013139465590938926,0.008554168976843357,0.024442434310913086,0.01677592471241951,-0.019802967086434364,0.02880794368684292,0.03264010697603226,-0.015416603535413742,0.029445141553878784,0.00916193425655365,-0.02768622897565365,-0.0327744334936142,-0.03047456592321396,0.003947659395635128,0.020206930115818977,0.006222548894584179,-0.016399549320340157,0.021745285019278526,0.03113885223865509,0.009792983531951904,0.018673695623874664,0.03176962211728096,-0.015686675906181335,0.0006881810841150582,-0.006331542041152716,0.010769210755825043,-0.029832905158400536,0.027001406997442245,-0.020261749625205994,0.0010754053946584463,-0.02362542413175106,0.023665979504585266,0.014949331991374493,-0.011306308209896088,0.004219170194119215,0.008716101758182049,0.02438684180378914,0.022757234051823616,-0.031462494283914566,-0.0238681398332119,-0.02631317637860775,0.028194792568683624,-0.02515125274658203,-0.01971791684627533,0.0029640167485922575,0.002159621100872755,-0.00913364626467228,0.008002442307770252,-0.020397020503878593,0.01652626320719719,0.028143584728240967,-0.012248070910573006,-0.00381952291354537,0.006097449455410242,0.00044407372479327023,0.02673964388668537,-0.0036563787143677473,0.013202064670622349,0.01586369052529335,-0.016609570011496544,0.013676907867193222,0.018733002245426178,-0.02195524051785469,0.02053121104836464,0.026441622525453568,-0.019443979486823082,-0.013874486088752747,0.026245534420013428,0.007419277913868427,-0.00519427377730608,-0.027621127665042877,-0.011755448766052723,0.004085538908839226,0.01787654682993889,0.022733978927135468,0.002265474060550332,-0.0015500375302508473,-0.01169811375439167,-0.030781785026192665,0.019896281883120537,-0.005050511099398136,-0.005984864197671413,-0.02601037733256817,-0.012736453674733639,0.02846979908645153,-0.014075510203838348,-0.027676615864038467,0.03280122950673103,-0.00489152641966939,-0.004263631533831358,0.031195998191833496,-0.010298818349838257,-0.03061695396900177,-0.03179983049631119,-0.015755999833345413,0.0033496522810310125,-0.02683301828801632,-0.006522179115563631,-0.027575291693210602,-0.009424685500562191,0.006819318514317274,-0.014731315895915031,-0.02140582539141178,0.029481375589966774,-0.02856379561126232,-0.0030378929805010557,0.01093229278922081,-0.005174138583242893,0.021997619420289993,-0.03085818514227867,-0.0033074007369577885,-0.018092861399054527,-0.011382808908820152,-0.02434966340661049,-0.007734290324151516,-0.014990822412073612,0.026925601065158844,-0.005200880579650402,-0.02446535788476467,-0.026233360171318054,0.0024515604600310326,-0.011066497303545475,-0.002300941850990057,0.017211340367794037,-0.004878212232142687,-0.030811931937932968,-0.0294259674847126,-0.015777355059981346,0.030442632734775543,-0.02898668684065342,-0.025412630289793015,-0.0031109850388020277,0.004777010064572096,0.020200690254569054,-0.029926463961601257,0.02894275262951851,-0.001683683367446065,-0.03074367344379425,0.009170983918011189,-0.005717835854738951,-0.020078102126717567,0.026565097272396088,-0.015443828888237476,-0.0027918510604649782,-0.0146780451759696,-0.00031055373256094754,0.0036315973848104477,0.019672546535730362,-0.019612904638051987,0.02419687993824482,0.0077292718924582005,-0.02509077824652195,0.0215571578592062,0.03043678030371666,0.030433129519224167,0.010195951908826828,-0.019353600218892097,-0.025072403252124786,-0.02364247664809227,0.024466799572110176,-0.013401995413005352,0.02976738102734089,0.0037839666474610567,0.015526809729635715,-0.006383257452398539,-0.0078045944683253765,0.007053992245346308,0.026596181094646454,-0.018844539299607277,0.027884453535079956,0.02491036243736744,0.0029105644207447767,0.019754335284233093,-0.016979975625872612,0.028217880055308342,0.025927504524588585,0.015965331345796585,-0.029694857075810432,-0.011057727038860321,-0.0071928007528185844,0.019587572664022446,-0.01811322756111622,0.021077753975987434,0.014722302556037903,-0.018303122371435165,-0.01855459064245224,-0.014604494906961918,0.0048988894559443,0.029409345239400864,-0.0325581356883049,-0.031980760395526886,-0.026671042665839195,0.0033468131441622972,0.016066361218690872,-0.032055702060461044,0.011580372229218483,0.027972780168056488,-0.018252057954669,0.016430245712399483,0.008122636005282402,0.0004306604969315231,0.012456955388188362,-0.011721051298081875,0.0011798578780144453,-0.029264213517308235,0.026748215779662132,-0.027580158784985542,0.017490826547145844,0.022784598171710968,-0.0038467533886432648,-0.011720061302185059,0.02900133840739727,0.0022288498003035784,-0.004636040888726711,0.02713264711201191,0.002111491048708558,-0.015339349396526814,-0.020237961784005165,0.005642659496515989,0.0015106211649253964,0.0015916156116873026,-0.02715287171304226,-0.004209979437291622,-0.00007959182403283194,0.029162628576159477,-0.015408954583108425,-0.029352055862545967,-0.018018687143921852,-0.013743174262344837,-0.0004032845317851752,-0.00942971371114254,-0.00010190525063080713,0.03120184689760208,-0.01236057374626398,0.025356613099575043,-0.015189631842076778,0.029077770188450813,-0.031045623123645782,-0.021867379546165466,-0.022350160405039787,-0.02942710742354393,-0.004192437510937452,0.0280133206397295,0.012722820043563843,-0.004481703508645296,-0.02357998676598072,0.0018912696978077292,-0.008556048385798931,-0.009105845354497433,0.03022308088839054,-0.031070614233613014,0.02412347123026848,0.02762213721871376,-0.004175294656306505,-0.02554706297814846,0.007518354337662458,-0.021914763376116753,0.014596479013562202,0.026442157104611397,0.026829224079847336,-0.017173757776618004,-0.03302683308720589,0.01291426457464695,-0.017645496875047684,-0.0193876214325428,0.03292934224009514,-0.010915473103523254,-0.0038839830085635185,0.012263285927474499,-0.0072803678922355175,0.007714512757956982,0.03196508809924126,-0.02633582428097725,0.019406868144869804,0.0165321696549654,0.017550410702824593,0.0017100491095334291,-0.028240535408258438,0.011992567218840122,0.024218697100877762,-0.009667418897151947,-0.01934785209596157,-0.02533973567187786,-0.030757036060094833,0.018999185413122177,-0.010658632963895798,0.016853390261530876,0.006393115036189556,0.011864613741636276,0.02415449544787407,0.0013761675218120217,-0.01887814700603485,0.01867896318435669,-0.004297267645597458,0.019890422001481056,0.007498512510210276,-0.007939877919852734,-0.012540191411972046,-0.004374835640192032,0.0101983193308115,0.0018742505926638842,0.03307763487100601,0.016875678673386574,0.007757454179227352,-0.021034156903624535,0.01790701039135456,-0.0005783352535218,-0.015188448131084442,-0.02785288356244564,-0.02637653984129429,-0.010997936129570007,-0.029135311022400856,-0.019707780331373215,-0.01974445767700672,0.009244839660823345,0.010929618030786514,0.0038691244553774595,-0.026623327285051346,-0.0027014026418328285,-0.03141026943922043,-0.021381892263889313,0.007769280578941107,0.022213399410247803,-0.021258564665913582,-0.033005230128765106,0.0007345015183091164,0.009906873106956482,0.030133547261357307,-0.0001341329625574872,0.028126440942287445,0.003206071211025119,-0.001280569238588214,0.02210756205022335,0.0035600513219833374,-0.018361438065767288,0.010092084296047688,0.033223751932382584,0.016103290021419525,-0.014517243020236492,0.011437895707786083,0.025218438357114792,0.025113914161920547,-0.016981368884444237,0.012145300395786762,-0.015682777389883995,-0.014246983453631401,-0.019727515056729317,-0.01248120330274105,-0.0009964776691049337,-0.0072681959718465805,0.002369305118918419,0.018526850268244743,-0.03135612607002258,-0.005993575789034367,-0.006111295893788338,-0.024278823286294937,0.032029103487730026,-0.02008175104856491,-0.009007631801068783,0.021019456908106804,0.013694670051336288,-0.02508658915758133,-0.018862973898649216,0.029250135645270348,-0.03089733235538006,-0.000575411191675812,-0.0155715923756361,0.010594937019050121,-0.03038577362895012,-0.032547589391469955,-0.01850195601582527,0.022860033437609673,-0.02678028680384159,-0.019199268892407417,-0.02461870387196541,-0.01654108054935932,-0.03233721852302551,0.018252873793244362,0.0037711879704147577,0.027797186747193336,-0.006325991824269295,-0.013498689979314804,-0.02589871734380722,0.024511992931365967,0.0036375466734170914,0.010583448223769665,-0.0011138806585222483,0.029874619096517563,0.018312616273760796,-0.03264585882425308,0.023940715938806534,-0.024767987430095673,-0.024883493781089783,0.01814551092684269,0.024907328188419342,-0.022603604942560196,-0.021939048543572426,-0.03165512904524803,-0.02838141657412052,-0.00013562508684117347,-0.024206310510635376,0.025277556851506233,0.030054736882448196,0.025907984003424644,-0.0051992773078382015,0.00001064984462573193,-0.02925604209303856,-0.029873287305235863,-0.024764560163021088,-0.0071319714188575745,0.023949207738041878,-0.003809477435424924,-0.026318345218896866,0.027692576870322227,-0.00703581515699625,-0.027998942881822586,-0.011895830743014812,0.01191991101950407,0.0015438117552548647,0.030932798981666565,-0.03162751719355583,0.006841305177658796,0.01654406450688839,0.029160020872950554,0.03203655779361725,0.018820984289050102,0.006195900030434132,-0.03209475427865982,-0.022327210754156113,0.0053094602189958096,0.0012670058058574796,-0.001651935512199998,0.011848301626741886,0.01627911999821663,-0.022840330377221107,0.030140085145831108,0.022202540189027786,0.005126203875988722,-0.023080401122570038,0.033078599721193314,0.00011266346700722352,0.0012451597722247243,0.0018491977825760841,0.00916130281984806,-0.029357949271798134,0.010797961615025997,-0.017152955755591393,0.030476311221718788,-0.008461486548185349,-0.024443121626973152,0.005545981228351593,0.02347218617796898,0.03319300711154938,0.015493342652916908,-0.00500616105273366,-0.023277100175619125,0.005476442165672779,-0.020047549158334732,0.013343796133995056,-0.017471332103013992,-0.008615280501544476,0.01898963190615177,-0.03184932470321655,-0.03205987811088562,0.021877875551581383,-0.023509463295340538,-0.023919066414237022,-0.007875853218138218,0.015385722741484642,0.009970796294510365,0.02184833586215973,0.013140907511115074,-0.0006716798525303602,-0.024319283664226532,-0.011859233491122723,-0.023362958803772926,0.032984659075737,-0.010436149314045906,-0.014018322341144085,-0.021207116544246674,-0.023739542812108994,0.010768124833703041,-0.006635610945522785,-0.0028678199741989374,0.007717812433838844,-0.010280540212988853,-0.029086440801620483,0.013220993801951408,0.027856653556227684,0.019163120537996292,0.02116093598306179,-0.026876036077737808,0.012470463290810585,0.012445212341845036,-0.02315804921090603,-0.015167857520282269,-0.02817438915371895,0.024513917043805122,-0.018473109230399132,-0.013496489264070988,0.022805966436862946,-0.01963641121983528,-0.01309389527887106,0.022981084883213043,-0.030406605452299118,0.023454269394278526,0.01411468256264925,0.026637718081474304,0.017105933278799057,0.020447826012969017,-0.02262336201965809,0.024925528094172478,-0.0034611900337040424,0.031303003430366516,-0.011242374777793884,0.0184936560690403,0.029622137546539307,0.02493968792259693,0.00771548505872488,-0.004516202956438065,0.007336381357163191,0.0106602618470788,0.0017612830270081758,-0.02132548578083515,0.022394828498363495,-0.02642076089978218,0.02268161065876484,-0.014121734537184238,-0.02398270182311535,-0.004190993029624224,0.030637746676802635,-0.012148215435445309,0.020994102582335472,-0.028565267100930214,0.010674122720956802,0.025613008067011833,0.032494183629751205,0.011373207904398441,-0.008147754706442356,-0.006575118284672499,0.004501593764871359,-0.02729830890893936,-0.007666231133043766,0.0065429918467998505,0.03189675882458687,0.00919159036129713,0.0007930505671538413,0.006030803546309471,-0.03127766400575638,0.031431544572114944,0.03315504267811775,0.020541220903396606,-0.020240457728505135,0.0021643834188580513,0.010855428874492645,0.03322439268231392,-0.007506225723773241,0.030345125123858452,-0.02309575304389,0.025457868352532387,-0.019319169223308563,0.008340632542967796,-0.0063546583987772465,0.006377286743372679,-0.0017804818926379085,-0.021480975672602654,0.00015217327745631337,-0.019804958254098892,0.02813117764890194,-0.014405977912247181,-0.014425675384700298,-0.03016943857073784,-0.020925208926200867,0.027016080915927887,0.017449332401156425,-0.000585012836381793,0.011959617026150227,-0.006615585181862116,-0.007141783367842436,-0.027625178918242455,-0.007916156202554703,-0.004563847556710243,-0.02654162235558033,-0.026549233123660088,0.028559621423482895,-0.005624034907668829,-0.004440888296812773,-0.028177602216601372,0.009970592334866524,0.007185134571045637,-0.012116961181163788,-0.02424364909529686,-0.008316587656736374,0.006591120269149542,0.031741030514240265,-0.03304737061262131,0.007899470627307892,0.030501838773489,0.006435377988964319,-0.0053879814222455025,0.020493382588028908,-0.011822342872619629,0.03257973492145538,-0.01562720164656639,0.022688915953040123,-0.021123593673110008,-0.022222528234124184,-0.0145273981615901,0.004312172997742891,0.013293118216097355,-0.0037644917611032724,0.016696080565452576,0.020832765847444534,-0.02476794645190239,0.005683425813913345,0.017418650910258293,0.026327218860387802,0.012025718577206135,0.0019682948477566242,-0.010362907312810421,-0.015234926715493202,-0.01959218829870224,0.013721130788326263,0.008011659607291222,-0.018542353063821793,0.011705613695085049,0.0134782325476408,0.03298521041870117,-0.00592563021928072,0.008383426815271378,0.02174449898302555,0.013961710967123508,-0.007617052178829908,-0.029928186908364296,-0.017385251820087433,0.004488067701458931,-0.02968677133321762,-0.02528238669037819,0.010525502264499664,-0.02680250257253647,0.0020913698244839907,0.009508643299341202,0.01676882803440094,-0.012968013994395733,0.005773640237748623,-0.0027036613319069147,0.02612140215933323,-0.02777135744690895,-0.008421018719673157,-0.0014531835913658142,-0.027792872861027718,-0.015892822295427322,0.012652682140469551,0.02679472789168358,-0.020417654886841774,0.011174563318490982,0.029836729168891907,-0.017520559951663017,0.02547050453722477,0.020229261368513107,0.020007522776722908,0.013043337501585484,0.02505279891192913,0.020072195678949356,-0.0018994384445250034,-0.014102737419307232,-0.00046867283526808023,-0.0020933528430759907,0.007015463430434465,-0.01554927323013544,0.0017693864647299051,-0.030571097508072853,-0.018865467980504036,-0.004116580355912447,-0.028202777728438377,0.030033234506845474,-0.002103300066664815,0.031799543648958206,-0.026023725047707558,-0.027503125369548798,0.012722879648208618,0.012279336340725422,0.020219095051288605,-0.031555306166410446,-0.030097827315330505,0.03013233281672001,-0.004600202664732933,-0.0001580883254064247,0.018854282796382904,0.027948644012212753,-0.011860724538564682,-0.02570434659719467,-0.004038013983517885,0.01967502199113369,0.02461019717156887,0.023648809641599655,0.033158645033836365,0.0064405640587210655,0.009506111033260822,-0.002316559897735715,-0.022489596158266068,-0.005144244991242886,0.003605292411521077,0.017658783122897148,0.014216176234185696,-0.010592363774776459,0.010696286335587502,0.011352398432791233,-0.0005940080154687166,0.014157187193632126,-0.010187382809817791,0.007394118700176477,0.02932533621788025,0.011763308197259903,-0.011867164634168148,-0.023531001061201096,0.0006188469124026597,-0.004656078293919563,0.010975990444421768,-0.011649063788354397,0.0172151830047369,-0.01645798794925213,0.01582524925470352,-0.007126159500330687,0.0146712651476264,-0.02558690868318081,-0.02376687154173851,-0.027338042855262756,-0.020347079262137413,0.02492046356201172,0.0029640705324709415,-0.026514464989304543,-0.013407636433839798,-0.014571769163012505,0.0056772357784211636,-0.000033786825952120125,0.03242943435907364,0.009802112355828285,-0.009849516674876213,0.01888740248978138,-0.012975193560123444,0.00804801844060421,-0.022039072588086128,-0.027459243312478065,0.01756451092660427,-0.0007664310396648943,0.005745642818510532,0.00759841175749898,-0.012680115178227425,-0.014587604440748692,0.018989982083439827,0.011918466538190842,-0.01878688856959343,0.010876394808292389,-0.024120960384607315,0.014615791849792004,0.019880440086126328,0.024725260213017464,0.017987575381994247,0.0075547657907009125,-0.029042456299066544,-0.001951751415617764,-0.008134594187140465,-0.01915755867958069,0.0015484557952731848,0.013788596726953983,0.007432887330651283,-0.015887480229139328,-0.015855569392442703,-0.02550371363759041,-0.03132248297333717,-0.018881676718592644,0.0204133503139019,-0.015058829449117184,0.025586966425180435,0.02384108304977417,-0.005424997769296169,-0.002253343351185322,-0.01577344350516796,0.02348341979086399,-0.011949341744184494,-0.020236121490597725,-0.01639261096715927,0.019543422386050224,-0.01929011568427086,0.00717835733667016,0.029255131259560585,-0.020380135625600815,-0.01756087876856327,-0.024515889585018158,-0.007951279170811176,0.023139720782637596,-0.002453161869198084,-0.010349639691412449,-0.023034922778606415,0.0031610087025910616,0.017643360421061516,-0.0077766962349414825,0.018227627500891685,-0.014640363864600658,0.020120631903409958,-0.01618761382997036,-0.019334325566887856,0.01808643899857998,-0.031029654666781425,0.026437101885676384,0.026344792917370796,0.009581944905221462,-0.009221663698554039,0.0026794946752488613,0.007339296862483025,-0.01348522212356329,0.015199561603367329,0.016871700063347816,0.03209378942847252,-0.008233465254306793,-0.016129471361637115,-0.01738111861050129,-0.002677718410268426,0.025556601583957672,0.006312553770840168,-0.03106038272380829,0.017971105873584747,0.014787288382649422,0.008498460985720158,0.0008276787702925503,0.0023476346395909786,-0.020474860444664955,-0.03269316628575325,0.016603894531726837,0.025316281244158745,-0.031185520812869072,0.02960805967450142,0.017029231414198875,0.0016691582277417183,-0.011612470261752605,-0.013344465754926205,-0.004224543459713459,0.016473926603794098,-0.003683554008603096,-0.006932237185537815,-0.027662109583616257,-0.020998992025852203,-0.02414517290890217,0.030497971922159195,0.012085012160241604,-0.031441010534763336,0.0054318527691066265,0.020047564059495926,0.0072126369923353195,0.031036492437124252,-0.021403079852461815,0.02973397634923458,0.028910702094435692,-0.004090075381100178,-0.01799819804728031,0.007872826419770718,0.0003807953908108175,-0.025964688509702682,0.026102736592292786,0.030096817761659622,-0.020409487187862396,0.02847530134022236,0.008475728332996368,0.03048192523419857,0.03063247725367546,0.023465648293495178,-0.01880846731364727,0.0010848395759239793,0.025000058114528656,0.005114308558404446,0.008150004781782627,0.0035962939728051424,-0.013602730818092823,0.009325562976300716,0.02848367765545845,0.01584944687783718,-0.03065411001443863,0.00846041925251484,-0.016564680263400078,0.002671316498890519,-0.005232217721641064,-0.02156136929988861,-0.013946453109383583,0.013701771385967731,-0.022926919162273407,0.008214307017624378,0.001319020870141685,-0.022796811535954475,-0.009187733754515648,-0.013631979003548622,0.015446056611835957,-0.011236241087317467,0.025667056441307068,0.00749190803617239,-0.030016887933015823,0.021125802770256996,-0.01891426369547844,-0.008308661170303822,0.00870978832244873,0.012202354148030281,0.004873431753367186,0.03223798796534538,0.008464628830552101,-0.010637299157679081,0.015893317759037018,0.0008008989389054477,0.028485575690865517,-0.02054976299405098,0.00849293451756239,-0.015167277306318283,0.029929861426353455,-0.01106202695518732,0.0063603660091757774,-0.016499221324920654,0.02443307265639305,-0.0014821536606177688,-0.02125280350446701,0.023440882563591003,0.0000668800130370073,0.03264731913805008,-0.013589968904852867,-0.011155662126839161,0.02642320841550827,-0.01997712068259716,-0.00479618925601244,0.03160553425550461,0.004383913706988096,-0.01408922579139471,0.003609349951148033,0.004819427616894245,-0.032688241451978683,-0.02291303686797619,0.014986654743552208,0.027495913207530975,-0.013001369312405586,-0.009968479163944721,0.011542747728526592,-0.029164211824536324,-0.02775205299258232,0.006913261488080025,-0.015381298027932644,0.015841232612729073,0.019634820520877838,0.018345210701227188,0.006916225887835026,-0.010687986388802528,0.02584494836628437,-0.01271718367934227,0.018479136750102043,-0.027452630922198296,-0.011680892668664455,0.018511060625314713,0.004792327992618084,0.015578663907945156,0.023589331656694412,-0.007982548326253891,0.007733060047030449,0.007871042937040329,-0.007992677390575409,0.02680148370563984,-0.012360955588519573,0.0023022908717393875,-0.01958549953997135,-0.01619718037545681,-0.003752581076696515,0.02275119535624981,-0.027774788439273834,-0.007012584712356329,0.020204486325383186,0.031747352331876755,0.0019335802644491196,-0.0035482323728501797,-0.0007774072582833469,-0.02659856341779232,0.010029624216258526,-0.023847265169024467,0.02637478895485401,-0.015154619701206684,0.02496962994337082,0.03179221600294113,0.024665124714374542,0.018873484805226326,-0.03034330904483795,-0.020567648112773895,-0.0034711656626313925,-0.007375803776085377,0.005838183686137199,-0.011134897358715534,0.02878245711326599,-0.028799401596188545,0.011859610676765442,-0.0061310939490795135,-0.019162671640515327,-0.009645462036132812,0.02462003007531166,0.02551097422838211,-0.011513762176036835,0.005296438001096249,0.003197298850864172,-0.03283846378326416,-0.027333660051226616,0.018908213824033737,-0.030710380524396896,0.011609533801674843,0.01809699833393097,-0.001509769121184945,-0.008063055574893951,0.01876743510365486,0.03133357688784599,0.0008056298829615116,0.021581551060080528,-0.015934688970446587,-0.0012119458988308907,0.004807032644748688,0.028822580352425575,-0.019095370545983315,0.017548583447933197,0.0157829187810421,-0.008549561724066734,0.02559957467019558,0.002163737779483199,-0.013128167949616909,0.028584839776158333,-0.005615418776869774,-0.004051677417010069,-0.026714546605944633,-0.014889080077409744,-0.017422212287783623,0.011338470503687859,-0.01842034049332142,-0.016588322818279266,-0.03203194588422775,-0.014954296872019768,-0.023305118083953857,0.012698187492787838,-0.024223918095231056,-0.004148229956626892,-0.0041724503971636295,0.022597240284085274,0.015034922398626804,0.003104129573330283,0.03133908659219742,-0.0037302174605429173,0.009301393292844296,0.018015839159488678,0.004815045744180679,0.025409990921616554,0.017908824607729912,0.008926419541239738,-0.0027897669933736324,-0.007679902017116547,0.006982609163969755,0.02420867420732975,0.024488486349582672,-0.02900623343884945,-0.003953156992793083,-0.019173316657543182,0.030171344056725502,-0.0002897840167861432,0.03265891596674919,-0.007323822472244501,0.030756110325455666,-0.02619299478828907,0.032683245837688446,0.024980491027235985,-0.015013285912573338,-0.024872368201613426,-0.02078673616051674,0.032011501491069794,-0.0009418589761480689,-0.026492852717638016,-0.012182774022221565,-0.030178632587194443,-0.02077125385403633,-0.032080959528684616,-0.013697413727641106,0.013804364018142223,0.020451745018363,-0.015722153708338737,0.013260303065180779,0.02097339928150177,0.030060917139053345,-0.0049165780656039715,0.001586747937835753,-0.022149985656142235,0.02907807193696499,-0.02356836013495922,-0.006381681188941002,0.0019158741924911737,-0.0047413939610123634,0.025184687227010727,0.00946893822401762,0.014124758541584015,-0.02046281471848488,-0.024982376024127007,0.028550099581480026,0.023006074130535126,-0.030908646062016487,0.010437420569360256,0.032268647104501724,0.02117370441555977,-0.01772433891892433,-0.007265841588377953,0.0011083511635661125,0.0020088546443730593,-0.03308471664786339,-0.023065125569701195,0.0010227016173303127,0.02821599878370762,0.011334147304296494,0.006445788312703371,0.011813987046480179,0.03114348091185093,0.0051880343817174435,0.029428327456116676,0.02862282283604145,0.008780477568507195,-0.030387772247195244,0.0324837788939476,-0.014159832149744034,0.024486767128109932,-0.006013369653373957,0.030996618792414665,-0.023602917790412903,-0.013454725965857506,0.011555948294699192,0.013060667552053928,0.03268760070204735,-0.02183251827955246,-0.00011464214185252786,-0.019769348204135895,-0.02932184375822544,-0.021377364173531532,-0.007711742073297501,-0.013504711911082268,-0.0001180067120003514,0.017176484689116478,0.0271538607776165,0.024171629920601845,-0.009411872364580631,0.03231389820575714,-0.01806681416928768,0.016170592978596687,0.007960034534335136,0.019650615751743317,-0.024251671507954597,0.03155526518821716,0.020688263699412346,-0.03055962547659874,-0.01960636116564274,-0.017168458551168442,0.022551273927092552,-0.03315013274550438,-0.010973218828439713,0.016241565346717834,0.02042728289961815,0.0041556041687726974,-0.02325598895549774,-0.026442578062415123,0.03036103956401348,0.03287370875477791,-0.018911058083176613,0.020812297239899635,0.03188987448811531,-0.0029394684825092554,-0.03166252374649048,-0.01557526458054781,-0.03274009749293327,0.007617115043103695,0.030934710055589676,0.003489406080916524,-0.0016732851509004831,0.020851828157901764,0.013707662932574749,0.029410995543003082,-0.029435258358716965,-0.02411041408777237,-0.010233661159873009,-0.02989952266216278,0.026705238968133926,-0.012726222164928913,-0.029422294348478317,0.03202907741069794,-0.006608139723539352,-0.003885937388986349,-0.030227843672037125,0.009300166741013527,-0.003024857258424163,-0.03132103383541107,0.010514695197343826,0.0020744255743920803,0.0002392505411989987,-0.01854238286614418,0.03275467827916145,-0.03074195608496666,0.021579433232545853,-0.001609344151802361,0.028082285076379776,0.03155677020549774,-0.03226768970489502,0.00508902408182621,0.027894580736756325,0.006913844030350447,0.004828166216611862,-0.025622423738241196,0.01623876951634884,-0.028010625392198563,0.0035261246375739574,-0.0287447739392519,0.007030559238046408,0.0019725088495761156,0.0019171921303495765,-0.01110487524420023,0.028777141124010086,-0.0027791992761194706,-0.00923464447259903,-0.002438001800328493,-0.012586193159222603,-0.027689892798662186,0.03143467754125595,-0.025244396179914474,0.007446602918207645,-0.02422666922211647,-0.028570758178830147,-0.020927276462316513,-0.012334661558270454,0.022249750792980194,0.0015190044650807977,-0.0009521788451820612,0.024419650435447693,-0.03222651034593582,-0.01298605091869831,0.005158470943570137,0.006808362435549498,-0.01535149198025465,-0.016044937074184418,0.007841146551072598,0.00013787239731755108,0.030695971101522446,-0.011229545809328556,-0.030653590336441994,-0.0017008610302582383,0.02508624829351902,-0.02228250727057457,-0.0005369368009269238,-0.0013100530486553907,0.021941890940070152,-0.030924037098884583,-0.029266836121678352,-0.012996488250792027,-0.0030043981969356537,0.0003223239036742598,-0.02677871473133564,0.032424770295619965,0.018133148550987244,-0.01708720438182354,-0.0033246076200157404,-0.01647051051259041,-0.004779582377523184,0.012780035845935345,-0.006430779118090868,-0.022024432197213173,-0.015221063047647476,-0.016589950770139694,-0.003613221924751997,-0.023128286004066467,-0.004176821559667587,0.021107543259859085,-0.023210488259792328,0.02512579783797264,0.002533986698836088,0.0009599917102605104,0.008174614049494267,0.02501405030488968,-0.0042364513501524925,0.00860188901424408,0.002540344139561057,-0.02255532704293728,0.03288353607058525,-0.02432514913380146,0.007345209363847971,0.01319487951695919,0.024768630042672157,0.02261386439204216,0.026001302525401115,-0.0007134415209293365,-0.015514255501329899,0.020825989544391632,0.025355953723192215,-0.005875108297914267,-0.024508772417902946,0.0047104028053581715,0.0009477312560193241,-0.015680182725191116,0.026866136118769646,0.02805035375058651,-0.006131892092525959,-0.012238424271345139,0.00014614046085625887,-0.023343713954091072,-0.00272300373762846,-0.005779224913567305,0.018242215737700462,-0.010779738426208496,-0.027688300237059593,0.027834642678499222,-0.02983863465487957,0.0012253791792318225,0.00844169594347477,-0.004774695262312889,0.029582835733890533,0.01954547129571438,0.00642316835001111,-0.010881518945097923,0.013568945229053497,0.019487660378217697,-0.0051276120357215405,0.027976801618933678,0.00855043064802885,-0.01825368031859398,-0.020986264571547508,-0.019233129918575287,0.02983403205871582,0.030539125204086304,-0.016115877777338028,-0.027462517842650414,0.0189224760979414,0.026696428656578064,0.025231176987290382,0.005898273549973965,-0.0317796915769577,0.010278663598001003,0.012757214717566967,0.02420760691165924,0.02189711481332779,0.0073554799892008305,-0.012925740331411362,-0.008672842755913734,-0.024090168997645378,0.02376122958958149,0.015497456304728985,0.025525208562612534,0.005740927066653967,0.033231645822525024,0.02554008550941944,-0.022234192118048668,-0.0003650131984613836,0.008941705338656902,0.018514323979616165,-0.009874198585748672,-0.00260904710739851,0.00396787840873003,-0.013118094764649868,0.023300211876630783,-0.020147548988461494,-0.029058950021862984,-0.021417617797851562,-0.01923150196671486,0.021841611713171005,0.02199363149702549,-0.018688049167394638,0.03107338771224022,-0.01342021208256483,0.02700723335146904,-0.030478591099381447,0.02817757986485958,0.032398056238889694,-0.001010041101835668,0.018500449135899544,-0.012437320314347744,0.03244263678789139,0.022206230089068413,-0.0038637688849121332,-0.00854039192199707,-0.025385402143001556,-0.03328375518321991,0.028719719499349594,0.008430331945419312,-0.012169773690402508,0.01996035687625408,-0.01540319249033928,0.0011980856070294976,-0.010409215465188026,0.02563570626080036,-0.01074547041207552,0.013551759533584118,0.009345971047878265,0.03328206390142441,-0.007353677414357662,-0.023115461692214012,0.022948913276195526,-0.001779345446266234,0.02293422631919384,0.016905995085835457,-0.026366639882326126,0.029639452695846558,-0.00906983483582735,-0.0017090890323743224,-0.009487641043961048,0.011227238923311234,0.012625578790903091,-0.027530288323760033,-0.023841138929128647,-0.006240627262741327,-0.019199971109628677,0.022198140621185303,0.014047029428184032,-0.005408143624663353,-0.010246725752949715,-0.008844587020576,-0.008227312937378883,0.020727235823869705,0.028698677197098732,0.010746626183390617,0.004842017777264118,0.01150144450366497,-0.02852170355618,-0.012227662838995457,-0.013800819404423237,-0.003401737194508314,-0.023107925429940224,0.02764134295284748,-0.009476784616708755,-0.014531501568853855,-0.005504723638296127,0.03074210323393345,0.010058404877781868,-0.0005339052295312285,0.02458977699279785,0.00568692060187459,0.03029593452811241,-0.025704309344291687,-0.015362583100795746,0.03263947740197182,0.0013637006049975753,-0.01767083629965782,0.002207558834925294,-0.025190522894263268,0.02058282122015953,-0.01215606089681387,-0.007546806242316961,0.004852069541811943,0.02730492874979973,0.033226676285266876,0.00012688311107922345,-0.01584547944366932,0.020239679142832756,-0.03004586324095726,-0.022970566526055336,0.017142223194241524,-0.016599491238594055,-0.001999418018385768,-0.0008539814152754843,-0.008956103585660458,0.015266995877027512,-0.022893423214554787,0.02634086273610592,0.006340252235531807,-0.018185431137681007,-0.02291061356663704,0.013165637850761414,0.029042923822999,0.026063041761517525,0.017064370214939117,-0.015428143553435802,0.0035023691598325968,-0.01780865155160427,-0.01978912018239498,0.02948305569589138,0.02213153801858425,-0.0174882635474205,0.015885403379797935,-0.016965853050351143,-0.0031171482987701893,0.019297150894999504,-0.01269505824893713,0.015450622886419296,-0.023752260953187943,0.017596596851944923,0.02262095734477043,0.022756392136216164,0.010424460284411907,-0.00025757946423254907,-0.014656221494078636,0.02910526469349861,-0.002703071804717183,-0.0033648258540779352,0.015821129083633423,0.007956149987876415,-0.029392313212156296,-0.015170813538134098,0.0060648429207503796,-0.019923759624361992,0.031167175620794296,-0.03304941952228546,-0.004373823758214712,0.009531106799840927,0.01298687793314457,-0.030514921993017197,-0.030332980677485466,0.005969671998172998,0.01397959515452385,-0.02244134619832039,0.013148825615644455,-0.010251699015498161,-0.0036803833208978176,-0.02149556390941143,-0.020703710615634918,-0.016712553799152374,0.007839771918952465,-0.029067177325487137,0.001123380963690579,-0.0018512175884097815,-0.024888040497899055,-0.014990288764238358,0.01651497557759285,0.010041716508567333,0.0292823389172554,-0.0178499985486269,0.014207589440047741,0.012029728852212429,-0.013375859707593918,-0.026462547481060028,0.009649212472140789,-0.011142842471599579,-0.007544234860688448,-0.015530312433838844,0.0037114035803824663,0.015563491731882095,0.023444846272468567,-0.013384157791733742,0.026909498497843742,0.03199721500277519,0.01941533014178276,0.01301356591284275,0.007456373423337936,-0.03055134415626526,0.026417266577482224,-0.018192769959568977,0.021826688200235367,0.005849627777934074,-0.015299192629754543,0.014550807885825634,-0.024314794689416885,0.01837662234902382,-0.012109591625630856,-0.009270780719816685,-0.020667821168899536,-0.00036133869434706867,-0.0021627885289490223,0.03330068662762642,0.030938398092985153,0.008087878115475178,0.009479450061917305,-0.018515396863222122,0.028285237029194832,0.02133955992758274,0.003312672721222043,-0.00781741738319397,0.012846321798861027,0.0125377606600523,0.00711699016392231,-0.018286028876900673,0.019498605281114578,-0.02097870595753193,0.026179201900959015,-0.0319184809923172,0.006803111173212528,0.029051069170236588,0.012235998176038265,-0.02275143936276436,-0.014939087443053722,-0.023969536647200584,0.01926247775554657,-0.019388938322663307,0.014922073110938072,-0.01637895219027996,-0.017581544816493988,0.01883447729051113,-0.005567212123423815,-0.03118906356394291,-0.010451004840433598,-0.01622663252055645,-0.0014752036659047008,-0.03121851198375225,0.00681455060839653,0.01109183020889759,-0.01116433646529913,-0.02882683277130127,0.012753255665302277,0.023813903331756592,0.020136306062340736,-0.010354982689023018,0.025063173845410347,0.0011391817824915051,-0.017534935846924782,0.01990399695932865,-0.004930912517011166,-0.03082803450524807,0.027548260986804962,0.010739670135080814,-0.01995585486292839,-0.011399246752262115,-0.019864428788423538,0.023064864799380302,-0.0034095875453203917,-0.029149161651730537,0.032538339495658875,0.03280235081911087,0.020512579008936882,-0.02358698844909668,0.019907141104340553,-0.032801732420921326,0.016997234895825386,0.013572068884968758,-0.012572803534567356,0.009677929803729057,-0.013795243576169014,0.029060356318950653,0.015132538974285126,-0.012141727842390537,-0.015295722521841526,-0.032294485718011856,0.009227648377418518,0.019845791161060333,0.010285526514053345,0.01941152848303318,0.009016464464366436,-0.012878154404461384,0.001268835156224668,-0.009228368289768696,-0.022151868790388107,-0.013140294700860977,0.018312808126211166,-0.026398956775665283,-0.01996111124753952,-0.016021454706788063,-0.008989221416413784,0.023259494453668594,-0.0305679589509964,-0.009437620639801025,0.029071956872940063,0.019753189757466316,-0.03141367435455322,0.030432313680648804,-0.025917792692780495,-0.011089390143752098,0.03188672661781311,0.002161726588383317,0.0084668705239892,-0.028562400490045547,-0.029164936393499374,0.001291819615289569,-0.03277194872498512,0.019973549991846085,-0.031130308285355568,0.00034430745290592313,-0.014548994600772858,0.011479126289486885,-0.0123482970520854,0.02710338495671749,0.006678296253085136,-0.02368510328233242,-0.02559923566877842,0.013441614806652069,-0.03252576291561127,0.022369220852851868,0.021818391978740692,-0.02947215922176838,0.015582341700792313,-0.009998512454330921,-0.0011529000476002693,0.025365374982357025,0.02986934594810009,0.02287781797349453,-0.017768619582057,-0.023668712005019188,0.00018965895287692547,0.01771828718483448,-0.008982411585748196,0.01552017591893673,-0.00546133890748024,0.014144646003842354,0.0014517414383590221,0.002076369244605303,-0.021885719150304794,0.0003138635656796396,-0.006055030971765518,-0.03330745920538902,-0.030043892562389374,-0.01616767793893814,-0.019789937883615494,0.02545713260769844,0.02006511017680168,0.00996365211904049,-0.0005594484973698854,-0.031453195959329605,0.003640619572252035,-0.0016971591394394636,-0.02150604873895645,-0.0333142951130867,0.02552194520831108,-0.031056944280862808,-0.028242962434887886,0.009835654869675636,-0.014997069723904133,-0.018045006319880486,0.026930710300803185,-0.0228186696767807,-0.017753243446350098,-0.00993822980672121,0.01469968818128109,0.023388370871543884,-0.02520807273685932,0.018569525331258774,0.03281684219837189,-0.025948792695999146,-0.004169896710664034,-0.0035100856330245733,0.006364254280924797,-0.03226659446954727,0.025828612968325615,-0.02050032652914524,0.018940862268209457,0.008620177395641804,-0.007326832972466946,0.032810792326927185,-0.0025112794246524572,0.027921242639422417,0.02030889503657818,0.028084037825465202,0.024409262463450432,0.02299029752612114,-0.008595225401222706,0.03138895332813263,-0.02322632074356079,0.003865053877234459,0.00048617651918902993,-0.005762430839240551,0.02576659619808197,0.017677389085292816,-0.009133231826126575,-0.02045157179236412,0.015744701027870178,-0.03273187205195427,0.002929363399744034,-0.026248322799801826,0.007976651191711426,0.021316824480891228,0.03156456723809242,-0.008055978454649448,-0.02778935804963112,-0.0027810733299702406,0.019812582060694695,-0.02558945305645466,-0.017715096473693848,0.0000996402814052999,-0.012067588977515697,0.030927428975701332,0.019638780504465103,-0.028377173468470573,-0.0015269864816218615,0.007780472282320261,0.018503300845623016,0.00984156969934702,0.02102617919445038,0.011354024522006512,0.014814438298344612,0.012649358250200748,0.017405841499567032,-0.00067752948962152,-0.029867541044950485,-0.01816100813448429,-0.009165307506918907,-0.019619088619947433,-0.02939722128212452,0.013817576691508293,0.007563361898064613,-0.01684396155178547,0.02284032106399536,0.01659521460533142,-0.018880372866988182,-0.00256415200419724,-0.0289612989872694,-0.008927379734814167,0.023852011188864708,0.008909862488508224,-0.011778941377997398,0.0009959177114069462,-0.01159653253853321,0.027330344542860985,0.024911582469940186,-0.000847051152959466,0.017163589596748352,-0.010755746625363827,-0.021376222372055054,-0.01863190159201622,-0.005662421230226755,-0.02026621252298355,0.02067510038614273,-0.02562769316136837,0.022934651002287865,-0.027563748881220818,-0.023482585325837135,0.012215937487781048,0.012499452568590641,-0.022089146077632904,0.03074485808610916,-0.017312129959464073,-0.00245841545984149,0.030328916385769844,0.030845049768686295,-0.018626656383275986,-0.014437838457524776,0.01418045163154602,-0.010467246174812317,-0.025153566151857376,-0.005472102668136358,-0.032721612602472305,-0.02174016460776329,0.024955598637461662,0.025351794436573982,-0.02196234092116356,0.014782718382775784,-0.01050683856010437,0.008518817834556103,-0.011400488205254078,-0.014667918905615807,0.002555001527070999,0.028553256765007973,-0.006699712947010994,0.00732434680685401,0.02304382435977459,-0.007393168285489082,-0.028776202350854874,0.00532811414450407,0.02827431634068489,-0.02249750867486,-0.00817058328539133,-0.03142988309264183,-0.01668379083275795,-0.0017752785934135318,-0.020892513915896416,0.014029549434781075,-0.031887803226709366,-0.02015417069196701,-0.0003850119246635586,-0.0016295972745865583,0.014888857491314411,-0.009865105152130127,0.028859471902251244,-0.024037078022956848,-0.006866521202027798,0.011539315804839134,-0.012581956572830677,-0.030218403786420822,-0.02495291642844677,-0.021701104938983917,0.025044932961463928,0.02744210697710514,-0.032446980476379395,0.002800658345222473,0.02366473153233528,-0.023492198437452316,-0.0014756956370547414,-0.021826375275850296,0.002631130628287792,0.008715217001736164,-0.02338753454387188,-0.016285015270113945,-0.025572622194886208,0.013273564167320728,-0.025979187339544296,0.005099902395159006,0.024706445634365082,-0.030584650114178658,-0.0033487346954643726,0.022951044142246246,-0.007023908197879791,-0.0017231006640940905,-0.030108196660876274,-0.0024732190649956465,0.008228602819144726,0.028742147609591484,-0.004278976935893297,0.0038989707827568054,-0.0003688285651151091,-0.029043762013316154,0.013595023192465305,-0.0318048894405365,-0.020624594762921333,0.027139868587255478,-0.012910067103803158,-0.01780189946293831,-0.0034910438116639853,0.032702840864658356,-0.027190012857317924,-0.014186782762408257,0.000043709023884730414,-0.013590991497039795,0.008909729309380054,0.01227921899408102,0.009670128114521503,-0.014219678938388824,0.02286670356988907,0.014689184725284576,0.013261428102850914,0.004372378811240196,0.010428027249872684,-0.0028762794099748135,0.020956803113222122,-0.022389693185687065,-0.0026537824887782335,0.00282128038816154,0.018820732831954956,0.011547413654625416,0.030015354976058006,0.02906733937561512,0.008792231790721416,-0.03123229183256626,-0.008053837344050407,0.012116803787648678,-0.012282000854611397,-0.021145742386579514,0.022632412612438202,-0.026941213756799698,-0.014147031120955944,-0.01774427480995655,-0.023722145706415176,-0.026402799412608147,0.006049193441867828,0.014886707067489624,0.013496371917426586,0.012800849974155426,-0.02833123877644539,0.016206543892621994,0.0238109789788723,-0.028562089428305626,0.020116209983825684,0.012198371812701225,-0.02413817122578621,-0.0037689448799937963,0.0010917570907622576,0.025633351877331734,0.023520268499851227,-0.017543522641062737,-0.02612941339612007,0.005112010054290295,-0.016881810501217842,-0.0176271703094244,-0.025003138929605484,-0.005447464995086193,0.017763445153832436,0.016543103381991386,0.008920716121792793,0.0023696706630289555,-0.022159790620207787,0.017401181161403656,-0.00782046653330326,-0.008781862445175648,0.006119987461715937,0.007803768385201693,-0.028679974377155304,-0.01709091104567051,-0.014667587354779243,-0.009139226749539375,-0.016274482011795044,-0.007796299643814564,-0.02336127683520317,0.007921082898974419,0.02202732115983963,-0.0017253065016120672,0.029090700671076775,0.003132312325760722,-0.031125931069254875,-0.006606587674468756,-0.03287333622574806,-0.025954490527510643,-0.012115420773625374,-0.03110186755657196,-0.020039165392518044,-0.013650977984070778,-0.02435559220612049,-0.019834373146295547,-0.03112920932471752,0.014669978991150856,0.020073123276233673,-0.016745151951909065,0.0029165782034397125,0.03278941661119461,0.023876504972577095,-0.002726099221035838,0.0024056287948042154,0.010256610810756683,0.03167298436164856,0.012131388299167156,-0.010667911730706692,-0.006308375857770443,0.025304697453975677,-0.011443974450230598,-0.010240801610052586,0.011164145544171333,-0.0006029958603903651,0.03107362613081932,-0.005161691457033157,-0.029948929324746132,-0.01650075800716877,0.0159133430570364,-0.0035066481214016676,-0.024616122245788574,-0.021611416712403297,-0.02506561204791069,0.03095363639295101,-0.027239561080932617,0.027910923585295677,-0.028833143413066864,0.024043085053563118,-0.0036008695606142282,0.016898667439818382,-0.008230107836425304,-0.0019381456077098846,0.003596016438677907,-0.011992990039288998,-0.015565295703709126,0.018110385164618492,-0.025914592668414116,0.005531758535653353,-0.02069598250091076,-0.010567093268036842,0.01096505206078291,-0.023728014901280403,0.02043457143008709,-0.02818993665277958,0.019442901015281677,-0.009698720648884773,0.023783709853887558,-0.02581064961850643,0.0037410918157547712,-0.012025230564177036,0.017735863104462624,-0.014921586960554123,-0.021175704896450043,0.015258104540407658,0.009381327778100967,0.009544847533106804,0.0166428554803133,-0.030617952346801758,-0.004143820144236088,0.008361712098121643,-0.01938239112496376,-0.02138540893793106,0.02669120579957962,-0.024758903309702873,0.026049423962831497,-0.026065383106470108,0.0279098991304636,-0.02696719951927662,-0.005400327034294605,-0.021965477615594864,-0.018792783841490746,-0.01719530299305916,0.004387661814689636,0.008656375110149384,0.007995905354619026,0.02394227124750614,0.011109510436654091,-0.017232360318303108,0.02992101013660431,-0.012451381422579288,0.010606122203171253,0.022490384057164192,0.028338102623820305,0.03045429289340973,0.011559237726032734,0.03085532784461975,-0.0005045561701990664,0.02408449910581112,-0.0029513610061258078,0.006607851944863796,-0.031984202563762665,-0.022117076441645622,0.02768406644463539,-0.0012723467079922557,0.0319063775241375,-0.01748972199857235,0.022119777277112007,-0.021998336538672447,0.015571254305541515,-0.013842003419995308,0.01899409480392933,0.02790115959942341,0.0016940725035965443,0.009231454692780972,0.014763685874640942,0.026001794263720512,-0.02314513921737671,0.022519271820783615,-0.014612676575779915,0.001901778276078403,0.015684179961681366,-0.006839248351752758,0.01289104949682951,-0.0010780597804114223,-0.01579076051712036,0.023401500657200813,0.011205626651644707,-0.015426578000187874,-0.029171181842684746,-0.020770244300365448,-0.012137219309806824,-0.02965068444609642,0.011212673969566822,-0.01483276765793562,0.011819698847830296,-0.01143584493547678,-0.026751114055514336,0.004609337542206049,-0.001128022326156497,-0.0037220430094748735,-0.01968698389828205,-0.02595205046236515,-0.0058426279574632645,-0.02547278068959713,0.02031942829489708,0.02807765267789364,0.015058276243507862,0.022761404514312744,-0.014441314153373241,-0.004698046483099461,-0.028617212548851967,-0.02402646280825138,-0.012805267237126827,0.022981466725468636,0.03284395858645439,0.027895497158169746,-0.0035988856106996536,-0.029002424329519272,-0.008726801723241806,-0.000012785656508640386,0.00035988990566693246,0.025188924744725227,0.0323232002556324,-0.01464658323675394,-0.004190366715192795,0.009754685685038567,0.005795743782073259,-0.020244678482413292,-0.015069231390953064,0.009708728641271591,0.02205810695886612,0.01838817447423935,0.006076904479414225,-0.002555512124672532,-0.03189593181014061,-0.024593548849225044,-0.03322893753647804,0.017963360995054245,0.017934083938598633,-0.02395804598927498,0.015019594691693783,0.007370114326477051,-0.007361449766904116,0.01862259954214096,-0.018621915951371193,-0.003953690640628338,-0.02572508342564106,-0.019046509638428688,0.012153311632573605,0.007043206132948399,0.018148453906178474,0.00017880494124256074,-0.03296373412013054,-0.020010028034448624,0.011845514178276062,-0.03305866941809654,-0.011460081674158573,0.0016324586467817426,-0.005795298144221306,0.003397761844098568,0.018127314746379852,0.011568982154130936,0.010063623078167439,-0.01798282377421856,-0.004960767924785614,-0.02067692019045353,-0.005134731996804476,0.021703843027353287,0.032974109053611755,-0.014761540107429028,-0.027125662192702293,-0.015986179932951927,-0.023565614596009254,-0.016807544976472855,-0.006353755947202444,0.022045815363526344,-0.008181660436093807,0.02034916542470455,0.01797104999423027,0.0046099391765892506,-0.001131707918830216,-0.00957984384149313,0.008678424172103405,-0.015296421013772488,-0.007252347655594349,-0.019468823447823524,0.00939694233238697,0.004850014112889767,-0.011520549654960632,0.033328406512737274,0.023237017914652824,-0.004395156633108854,0.009298523887991905,-0.0179684329777956,0.0034331169445067644,0.02036665566265583,-0.013241330161690712,0.008785956539213657,-0.007970566861331463,0.02125956304371357,0.017281942069530487,0.012302761897444725,-0.007214426528662443,0.0326881967484951,-0.031108127906918526,0.014394992962479591,0.02568989060819149,-0.01863924413919449,-0.0004470774147193879,0.024875296279788017,0.03322108834981918,0.02647623047232628,-0.007031985092908144,-0.016594916582107544,-0.022194666787981987,-0.02996949851512909,-0.011323949322104454,0.006250299979001284,-0.01890254020690918,0.013367129489779472,0.013955753296613693,-0.016183890402317047,0.0039197481237351894,0.022608185186982155,-0.00020245590712875128,-0.0224472563713789,-0.016907958313822746,-0.013246207498013973,-0.0009503916371613741,-0.027758413925766945,-0.010159451514482498,-0.025070441886782646,0.026736265048384666,0.015805469825863838,-0.0273550096899271,0.014400213025510311,0.01740136370062828,-0.00728182727470994,0.02219388820230961,0.015777159482240677,-0.029131272807717323,0.025271568447351456,-0.02727760560810566,0.03040648251771927,-0.016262143850326538,0.0014639711007475853,0.01728999614715576,0.031988803297281265,-0.024008456617593765,-0.007365578785538673,0.015648508444428444,0.006956285331398249,0.025103209540247917,0.030773047357797623,-0.010311330668628216,0.011198234744369984,-0.00995449535548687,0.004846846219152212,-0.011866063810884953,0.027145426720380783,-0.012567011639475822,-0.014951731078326702,-0.004826693795621395,-0.03127385675907135,0.032645635306835175,0.003399860579520464,0.005320587661117315,-0.006284773349761963,0.00044316009734757245,-0.01598350517451763,0.009523450396955013,-0.02702310122549534,0.00014594582899007946,-0.03176311030983925,-0.03125334903597832,0.011641483753919601,-0.009096845053136349,-0.00890563428401947,0.00869118981063366,-0.00001060554768628208,0.019862763583660126,0.03151443228125572,-0.004194431472569704,-0.02895464561879635,-0.01677299104630947,0.020702727138996124,0.014741184189915657,-0.008866229094564915,0.013969654217362404,-0.02449629455804825,0.016155721619725227,-0.007822616957128048,0.006112903822213411,-0.021297598257660866,0.02655573934316635,0.0023359081242233515,0.0032778491731733084,-0.026099029928445816,-0.02155531384050846,0.033322665840387344,0.01148950681090355,-0.0277682114392519,-0.02829884923994541,-0.02253839001059532,-0.0309956856071949,0.005045387893915176,0.0167466439306736,-0.01805909164249897,0.023902537301182747,-0.007753352168947458,0.010161099024116993,0.01662890426814556,-0.01788133755326271,0.01336178183555603,-0.023162811994552612,0.0061098737642169,-0.03158426657319069,0.026668036356568336,-0.024813320487737656,0.004693184979259968,-0.028933171182870865,0.009186570532619953,0.015360943973064423,0.02119510807096958,0.005241584964096546,0.024967269971966743,0.005851792171597481,-0.000024046801627264358,0.03301579877734184,0.0020145338494330645,0.0223441980779171,-0.026973571628332138,0.016357863321900368,-0.016384467482566833,0.033133961260318756,-0.01011909730732441,0.02133278362452984,-0.01546538807451725,0.01769745536148548,0.02009192481637001,0.016843443736433983,0.021161599084734917,-0.013620095327496529,-0.0039306567050516605,0.024071628227829933,-0.000546496594324708,-0.02900737337768078,-0.027948789298534393,-0.004784231074154377,0.025643695145845413,0.00886288657784462,0.005673637613654137,-0.015675200149416924,0.007521051447838545,-0.0014028259320184588,-0.028525281697511673,0.0038435531314462423,0.02434658445417881,0.009938454255461693,0.031503260135650635,0.03163345530629158,-0.022809362038969994,-0.0255146287381649,-0.026054618880152702,0.010191334411501884,-0.010459741577506065,-0.01831507869064808,-0.02395821176469326,-0.02926609478890896,-0.020178213715553284,0.031182263046503067,-0.017904814332723618,-0.004007834475487471,-0.023531418293714523,-0.019592687487602234,0.0011906034778803587,0.02175416424870491,0.027065331116318703,0.01645294390618801,0.024156995117664337,-0.02377188764512539,-0.02112666890025139,-0.025416992604732513,-0.01358033437281847,-0.007278885692358017,0.030674178153276443,-0.014398647472262383,-0.009487312287092209,-0.03168278560042381,0.016920531168580055,-0.02620577998459339,0.011994651518762112,0.004460534546524286,0.0007576285861432552,-0.025061162188649178,-0.025561876595020294,0.025181792676448822,0.02163119427859783,-0.022382711991667747,0.011201535351574421,-0.020694950595498085,-0.008575020357966423,-0.02646603249013424,0.002287124050781131,-0.017704211175441742,0.014458362944424152,-0.019312750548124313,-0.009695395827293396,-0.02073659561574459,-0.030893338844180107,-0.015229666605591774,-0.0015618704492226243,-0.0045955791138112545,-0.008566265925765038,0.01270771399140358,-0.008311537094414234,-0.011590715497732162,-0.02328239195048809,0.015328080393373966,-0.011948555707931519,-0.0032980632968246937,-0.017241444438695908,0.001151329604908824,0.007982295006513596,0.019844435155391693,0.014923825860023499,-0.02756868675351143,-0.02845771610736847,-0.01562099251896143,0.005153876729309559,0.005349153187125921,-0.0181979238986969,-0.011111347004771233,-0.032223962247371674,-0.012384779751300812,0.03331026807427406,-0.02957962639629841,0.020853346213698387,0.009093701839447021,0.02531892992556095,0.03195670247077942,0.029055539518594742,0.0280001237988472,4.41201393641677e-7,0.006835174281150103,0.011998015455901623,0.029572922736406326,0.03242975473403931,0.013390586711466312,0.01190529577434063,0.01926509477198124,-0.026475710794329643,0.007928970269858837,-0.0007456940365955234,0.016517728567123413,-0.021254397928714752,-0.02104106917977333,0.029239343479275703,0.02972443960607052,0.01574012264609337,0.019656868651509285,-0.032023265957832336,-0.03280400484800339,0.009242349304258823,-0.02218022756278515,0.019717441871762276,-0.019886096939444542,-0.006628969218581915,0.03316430002450943,0.005101531744003296,-0.007923093624413013,-0.0229671411216259,0.018314024433493614,-0.013127957470715046,-0.0240333192050457,0.0017414086032658815,0.017786609008908272,-0.019582999870181084,0.0014224248006939888,-0.0020977912936359644,0.010016444139182568,-0.024656670168042183,0.023323610424995422,0.01606685481965542,-0.006841413211077452,-0.022254396229982376,0.024813655763864517,0.0005968528566882014,-0.009656333364546299,0.004298705141991377,0.013661054894328117,-0.020621713250875473,0.011112445034086704,0.002284741960465908,-0.019529104232788086,0.010567530989646912,-0.007931169122457504,-0.011094923131167889,-0.0032282965257763863,0.001705834292806685,-0.0029781777411699295,0.02662438526749611,0.01902555115520954,0.029427114874124527,0.026463299989700317,0.01382854487746954,-0.02619883045554161,0.031183602288365364,0.021750101819634438,-0.0017277211882174015,0.023703856393694878,0.00831865705549717,0.005109960678964853,0.016055215150117874,-0.008656005375087261,-0.025930237025022507,-0.0041342321783304214,0.010313763283193111,0.0075228954665362835,0.004374509211629629,-0.03280673921108246,0.02331661619246006,-0.017637133598327637,0.028468569740653038,0.0293849166482687,-0.005428334232419729,0.013379662297666073,0.011441106908023357,0.013682855293154716,-0.015760721638798714,-0.022153355181217194,0.00794296246021986,-0.020078448578715324,-0.006760668475180864,0.016981415450572968,0.0301639586687088,-0.02961892820894718,-0.023276258260011673,0.0007400883478112519,-0.022739088162779808,0.028490442782640457,0.0015157083980739117,0.03218934312462807,-0.0012916801497340202,-0.017228931188583374,-0.0018330474849790335,-0.026520734652876854,0.007203721906989813,-0.028442369773983955,0.026215795427560806,0.02764807641506195,-0.00534122483804822,0.030933057889342308,0.005238866899162531,0.003197319805622101,0.027027105912566185,0.013921935111284256,0.02374710701406002,-0.0009175295126624405,-0.028488360345363617,0.03173534572124481,0.00929598230868578,-0.027898309752345085,0.008774980902671814,-0.02193409949541092,0.004883615765720606,-0.03122730553150177,-0.010255998000502586,-0.032618194818496704,0.006460442207753658,-0.015055013820528984,-0.032855480909347534,-0.0010631860932335258,0.020066305994987488,0.02743113413453102,0.02658512443304062,0.008728406392037868,0.03199001029133797,-0.029966279864311218,-0.007930305786430836,0.0018615794833749533,-0.012160644866526127,0.02470426633954048,0.020916996523737907,-0.001574886147864163,0.01393908727914095,0.012044059112668037,-0.025210237130522728,0.029623232781887054,-0.014752764254808426,-0.020499033853411674,-0.012549652718007565,0.015897884964942932,0.015171919949352741,0.02409827522933483,-0.016581932082772255,0.028946585953235626,-0.026310088112950325,0.01623990759253502,-0.019694563001394272,-0.024211011826992035,-0.0004007386160083115,0.009133696556091309,0.030899573117494583,0.008740853518247604,0.019291389733552933,-0.01852528005838394,0.002245040610432625,-0.02715308964252472,-0.010194096714258194,0.017978116869926453,-0.0033478504046797752,-0.026381907984614372,0.008586269803345203,-0.013391217216849327,-0.00935186818242073,-0.016803357750177383,-0.02826511487364769,0.012977907434105873,-0.028752289712429047,-0.02016875334084034,-0.019753193482756615,-0.0329524427652359,-0.016530685126781464,-0.021118994802236557,0.0127432094886899,0.014304257929325104,0.012980681844055653,0.032495610415935516,-0.004248109180480242,-0.016354339197278023,-0.025927986949682236,-0.010133433155715466,0.026369314640760422,-0.007754581049084663,-0.012548686936497688,-0.02372361719608307,0.0037089339457452297,0.025706229731440544,0.021752625703811646,0.021580640226602554,-0.009235355071723461,0.02383781597018242,0.021282611414790154,0.013411304913461208,-0.02751818113029003,-0.021912721917033195,-0.031698860228061676,0.028071949258446693,0.01103923562914133,0.0014628630597144365,-0.0253540500998497,0.031006164848804474,0.023789240047335625,0.0102427052333951,-0.011129354126751423,0.008601485751569271,-0.029250772669911385,0.00887918472290039,0.014113967306911945,0.023632174357771873,-0.005810713395476341,-0.0011112800566479564,0.01772516407072544,0.028699854388833046,-0.0004700157733168453,0.008619636297225952,0.03216094151139259,-0.007544690743088722,-0.018893005326390266,-0.03130611404776573,-0.008335523307323456,-0.02521752379834652,0.0096030468121171,0.028604168444871902,-0.0008344156667590141,-0.005806271452456713,-0.012170162051916122,0.03266819939017296,-0.028475381433963776,0.031786203384399414,0.0031458886805921793,0.03231316804885864,-0.003201118903234601,-0.014256375841796398,0.021482927724719048,0.008146866224706173,-0.02599077858030796,-0.004364308435469866,-0.030260447412729263,0.0017237415304407477,0.01257648691534996,0.0250140018761158,-0.010347199626266956,-0.0032350874971598387,0.007243344560265541,0.03100615367293358,0.01991645246744156,0.0010406234068796039,0.0019797785207629204,0.030205734074115753,0.030372830107808113,-0.008028305135667324,0.022477000951766968,-0.00407033134251833,0.022219518199563026,0.010967827402055264,0.027896368876099586,-0.02574802003800869,0.010122682899236679,-0.024642247706651688,0.010180887766182423,0.0013865154469385743,0.019331207498908043,0.00023894953483249992,0.024209782481193542,-0.014207147993147373,-0.022149676457047462,-0.012853088788688183,-0.030502799898386,0.02887951210141182,0.005936951842159033,0.03057437390089035,-0.021219361573457718,0.03223678469657898,0.0024699848145246506,-0.0015458720736205578,0.0016969478456303477,-0.025867002084851265,0.0213801097124815,0.02170155942440033,-0.0067077684216201305,-0.026289211586117744,0.03240209072828293,-0.003639137139543891,-0.02563154324889183,-0.016504524275660515,0.020123986527323723,-0.023621290922164917,-0.01836097426712513,0.017533110454678535,0.007134742569178343,-0.010920635424554348,0.023230649530887604,-0.012392330914735794,0.01998036913573742,-0.022409671917557716,-0.032790567725896835,0.02052866481244564,0.025427326560020447,-0.019394969567656517,-0.022322194650769234,-0.013792734593153,0.032347604632377625,-0.024531304836273193,0.029773157089948654,-0.013219494372606277,0.010855572298169136,0.031954940408468246,0.01820240542292595,0.0015142816118896008,-0.01718103513121605,-0.023255065083503723,0.030721623450517654,0.008796162903308868,0.003431565361097455,0.021220222115516663,0.021325450390577316,0.015090495347976685,-0.03208312764763832,-0.02430637925863266,-0.01697826385498047,0.002769395476207137,0.011832651682198048,-0.025639111176133156,0.01579374447464943,-0.022891977801918983,-0.008340423926711082,-0.013344421051442623,-0.009189372882246971,0.0079721100628376,-0.0005646487115882337,0.03320841118693352,0.014581252820789814,0.011357052251696587,-0.019913408905267715,0.007411535829305649,0.027925532311201096,0.0024529932998120785,-0.005790787748992443,0.01820811629295349,0.0001410498225595802,-0.0157915186136961,-0.017770178616046906,-0.02121306024491787,-0.013192849233746529,0.03315567597746849,-0.019048115238547325,-0.030938714742660522,-0.02388237975537777,-0.0018751673633232713,-0.014587560668587685,-0.007370016071945429,-0.03071402572095394,0.021407268941402435,0.03109762817621231,0.03137733042240143,-0.02596246264874935,0.01059762854129076,-0.013735946267843246,-0.03302578255534172,-0.026884108781814575,-0.022470131516456604,0.02570207044482231,0.01866738125681877,0.022450286895036697,-0.014400034211575985,0.02613702230155468,0.0016155097400769591,0.0008254915592260659,-0.010020793415606022,0.028777267783880234,0.012803379446268082,-0.003673106897622347,0.025920026004314423,0.0013145850971341133,0.002819068729877472,0.00433769728988409,0.02681344375014305,0.017364991828799248,-0.029787292703986168,0.022893017157912254,0.02625943161547184,-0.0028347629122436047,0.008062108419835567,0.018475882709026337,0.008922258391976357,0.03146067261695862,-0.01972814090549946,0.028295399621129036,0.004303680267184973,-0.011201475746929646,0.025004928931593895,0.015729300677776337,-0.0029047715943306684,-0.014836283400654793,0.005253550596535206,-0.007897960022091866,0.018946092575788498,-0.02380312606692314,0.029200412333011627,-0.018866650760173798,0.015399380587041378,0.02555844560265541,0.022042719647288322,-0.026683170348405838,0.011242480017244816,0.015509025193750858,0.020724430680274963,0.01609630323946476,-0.000673841976094991,0.02515392377972603,0.008820583112537861,0.03296980634331703,0.033204495906829834,-0.009021803736686707,-0.018950792029500008,0.02757267653942108,0.015489136800169945,0.025952313095331192,-0.02850877121090889,-0.0017246840288862586,0.02880467101931572,-0.011051632463932037,-0.024213381111621857,0.029049329459667206,-0.010939370840787888,0.02599603682756424,-0.017536412924528122,-0.008806295692920685,-0.03230198100209236,0.030560219660401344,0.02168576791882515,0.03066745400428772,0.02703000418841839,0.0322873592376709,-0.0326354019343853,-0.03010813519358635,0.005214552860707045,0.01000948902219534,0.016312111169099808,0.011160251684486866,-0.013335217721760273,-0.02192956767976284,-0.015481383539736271,0.008537974208593369,-0.00043692905455827713,-0.017259804531931877,-0.02586393803358078,0.02814657613635063,0.011175992898643017,0.02754213474690914,0.02429281547665596,0.025509856641292572,-0.005878946278244257,-0.032656364142894745,-0.021834449842572212,-0.017814738675951958,0.013050362467765808,-0.015622450038790703,0.01971643976867199,0.001583465258590877,-0.02958766371011734,-0.029015257954597473,0.02811526507139206,0.02343103289604187,0.030742842704057693,-0.02799900807440281,0.017671117559075356,-0.02394772320985794,-0.022564483806490898,-0.0030282619409263134,0.03066493384540081,0.03257809951901436,-0.02017640881240368,-0.025530992075800896,-0.012604027055203915,0.014876492321491241,-0.02614855021238327,0.028651073575019836,-0.011594354175031185,0.02977006696164608,-0.005396351683884859,-0.03216954320669174,-0.028804250061511993,0.018823551014065742,-0.0226274486631155,-0.012825642712414265,0.009876281023025513,0.025946125388145447,0.018263041973114014,-0.014801657758653164,-0.0008722782949917018,-0.005459011998027563,0.02592093124985695,-0.012658161111176014,-0.014692665077745914,0.025899624451994896,-0.0060739372856915,-0.011854014359414577,0.003817404853180051,-0.023011915385723114,0.001626914250664413,-0.01475825347006321,-0.003373895538970828,-0.006882537622004747,-0.02035464346408844,-0.03191463649272919,0.027266191318631172,0.015077577903866768,0.018346695229411125,0.012419579550623894,-0.005273548886179924,0.011085092090070248,0.0025404635816812515,0.02229376696050167,0.005315365735441446,-0.020560014992952347,-0.02878730557858944,-0.006032480392605066,-0.028270138427615166,0.013488664291799068,-0.029618456959724426,-0.022652707993984222,-0.033322110772132874,-0.003174469107761979,0.017433688044548035,0.006413326133042574,0.01748412847518921,0.0006257363129407167,0.02091786451637745,-0.026308203116059303,0.0008173136739060283,-0.007875633426010609,0.002273602643981576,-0.01119350828230381,-0.0041435188613832,0.019187958911061287,0.02149849198758602,0.02738370932638645,-0.00009135193977272138,-0.014850546605885029,0.022480105981230736,0.02414024993777275,-0.03226834163069725,0.01693120039999485,0.01792840100824833,0.021657204255461693,0.023444078862667084,0.00394038762897253,-0.0007176863728091121,-0.0032090465538203716,-0.014656628482043743,0.0017004306428134441,0.0303355623036623,-0.005738050676882267,-0.012562562711536884,-0.015825022011995316,0.00008861660899128765,0.016124840825796127,0.0025942064821720123,0.0310148224234581,0.029843533411622047,-0.027556609362363815,-0.028915811330080032,-0.011347680352628231,-0.01039687730371952,-0.019086573272943497,-0.002640922088176012,0.0021087233908474445,0.020761888474225998,0.007025495171546936,0.02917601726949215,0.019174788147211075,-0.022886410355567932,0.03203023225069046,0.0074327969923615456,0.00905585940927267,0.03171161562204361,0.029375789687037468,0.009214947000145912,-0.010691085830330849,0.02526480332016945,-0.003597682574763894,-0.014453690499067307,0.01529213972389698,-0.027928750962018967,-0.005725035909563303,0.01615755446255207,0.024707015603780746,-0.019674401730298996,-0.022011766210198402,0.015860307961702347,-0.011781932786107063,0.01748267188668251,0.009359571151435375,-0.028173325583338737,0.00542378518730402,0.026318712159991264,-0.01337469182908535,0.026196863502264023,-0.00951568316668272,0.015789564698934555,0.028265755623579025,-0.024722708389163017,0.031237341463565826,0.019840439781546593,0.0035258985590189695,0.006949979811906815,-0.013003052212297916,0.02223036251962185,-0.0018608816899359226,-0.030339116230607033,-0.02152424305677414,-0.0039559416472911835,-0.00133163807913661,0.02088809758424759,-0.006820863112807274,0.008991559967398643,0.008633052930235863,0.03248818591237068,0.0022584504913538694,-0.014035549014806747,0.009099176153540611,-0.019945407286286354,0.032090842723846436,0.005922145675867796,0.026021072641015053,0.0030196746811270714,0.010543432086706161,-0.012565466575324535,0.008573232218623161,-0.0013028018875047565,-0.006777550559490919,0.027899321168661118,0.02484016679227352,0.00915930699557066,-0.00160576484631747,-0.02678512968122959,0.015413299202919006,0.010059245862066746,-0.016048984602093697,0.003978208173066378,-0.0047300527803599834,-0.013213311322033405,-0.0013699185801669955,0.024568842723965645,0.007947725243866444,0.02398364245891571,-0.033080559223890305,-0.00796729139983654,0.011257034726440907,0.010426548309624195,0.0044451202265918255,-0.012673445977270603,-0.010713175870478153,-0.007286147214472294,-0.0106047997251153,-0.01535861101001501,0.005771635100245476,-0.004341576248407364,-0.023686608299613,0.016817176714539528,-0.019500335678458214,-0.005785349290817976,-0.019037140533328056,0.0030007746536284685,-0.009452812373638153,-0.0234750434756279,-0.019060427322983742,0.014757591299712658,-0.00193051528185606,-0.030325453728437424,0.03254454582929611,-0.011537793092429638,0.03176701441407204,-0.02024434693157673,0.002770497463643551,0.025845054537057877,-0.018975993618369102,-0.017029326409101486,0.0021423937287181616,0.013710626401007175,-0.03176955133676529,-0.01821889542043209,-0.007528635673224926,0.023071054369211197,-0.011478377506136894,-0.03291753679513931,-0.0156045351177454,-0.014986625872552395,-0.0024015549570322037,0.0010711963986977935,-0.0026687579229474068,-0.018888188526034355,0.02570672519505024,0.007662711665034294,-0.027206584811210632,-0.0005275649600662291,0.01400813926011324,-0.03296535089612007,0.03296557441353798,-0.004534009378403425,-0.009310724213719368,0.03078833967447281,-0.006028876639902592,-0.008733139373362064,0.012541958130896091,-0.00414483854547143,