[{"type":"conv","filters":[{"data":[-0.13154898583889008,-0.2518616020679474,0.2606285512447357,0.19458742439746857,-0.15908950567245483,-0.3622627258300781,-0.12149979919195175,-0.4602799713611603,0.018392642959952354],"shape":[3,3,1]},{"data":[-0.19411683082580566,0.060579560697078705,0.3182363510131836,0.290447473526001,-0.20332187414169312,0.033995091915130615,-0.4153556525707245,-0.20722819864749908,-0.14338208734989166],"shape":[3,3,1]},{"data":[0.14835125207901,0.32987678050994873,-0.4571164548397064,-0.04559225216507912,0.3099224865436554,-0.007624887395650148,0.08959365636110306,-0.29244574904441833,-0.2551594376564026],"shape":[3,3,1]},{"data":[0.30374693870544434,-0.258797287940979,-0.38248905539512634,-0.10840267688035965,-0.11783257126808167,-0.323172003030777,0.16153593361377716,0.3699531555175781,0.36046016216278076],"shape":[3,3,1]},{"data":[0.4478561282157898,0.38865453004837036,0.2660186290740967,0.19649137556552887,0.130548894405365,0.2522689998149872,0.1876477599143982,0.3819853663444519,-0.12222597002983093],"shape":[3,3,1]},{"data":[-0.40411537885665894,-0.08465580642223358,-0.3236551582813263,0.23173865675926208,-0.35848405957221985,0.449069082736969,-0.03404762223362923,0.21060018241405487,-0.3679055869579315],"shape":[3,3,1]},{"data":[0.33579176664352417,0.39212745428085327,-0.42855116724967957,-0.24755734205245972,-0.33069372177124023,0.31311431527137756,-0.2679016888141632,-0.22950761020183563,0.32705849409103394],"shape":[3,3,1]},{"data":[0.4514647126197815,-0.09517215937376022,0.06425124406814575,-0.3932863175868988,0.13766151666641235,0.035656485706567764,-0.27823135256767273,0.42457568645477295,-0.39434516429901123],"shape":[3,3,1]}],"biases":[0.009999999776482582,0.009999999776482582,0.009999999776482582,0.009999999776482582,0.009999999776482582,0.009999999776482582,0.009999999776482582,0.009999999776482582]},{"type":"maxpool"},{"type":"dense","weights":[-0.0027685118839144707,-0.02183990180492401,-0.022431878373026848,-0.019672464579343796,-0.023082531988620758,0.027229659259319305,0.005668309051543474,-0.007010792847722769,0.005252457223832607,0.017704539000988007,-0.005744447465986013,-0.01584204100072384,0.006477679591625929,-0.023501157760620117,-0.0121402433142066,0.0020420625805854797,-0.02591804787516594,0.024845387786626816,-0.024849645793437958,-0.01881442219018936,-0.02740178070962429,-0.016869012266397476,0.011793164536356926,-0.014146814122796059,0.010480406694114208,0.02337687276303768,0.014805037528276443,0.00784599781036377,-0.03256828710436821,-0.006456931587308645,0.02355429157614708,0.02766851894557476,-0.03246846795082092,0.012299833819270134,-0.004976791329681873,0.03166983276605606,-0.017697805538773537,0.01277741976082325,0.0101246926933527,0.019337890669703484,-0.029601769521832466,-0.02410523220896721,0.009167651645839214,0.015865296125411987,-0.027723336592316628,-0.027728933840990067,-0.012420039623975754,-0.009911035187542439,0.0013347113272175193,-0.007774068973958492,-0.0290139839053154,-0.030631903558969498,-0.0053734504617750645,-0.017233241349458694,-0.010731467045843601,0.017203662544488907,0.001896715722978115,-0.017167557030916214,-0.012827436439692974,0.0200237724930048,-0.03164563700556755,0.02801106870174408,-0.002886211033910513,0.019359417259693146,-0.004592547193169594,-0.007348658517003059,-0.003961050417274237,0.0236168522387743,0.004682654049247503,0.016550643369555473,0.031613826751708984,-0.010442765429615974,-0.010130612179636955,0.027777910232543945,-0.020484402775764465,0.029037659987807274,-0.014032995328307152,0.03183995559811592,0.016341878101229668,-0.004262477625161409,-0.023389777168631554,-0.0005584223545156419,0.020948318764567375,-0.028002144768834114,0.017181873321533203,0.031955696642398834,-0.017335383221507072,-0.029744133353233337,-0.028242722153663635,-0.014926239848136902,0.02840561605989933,-0.02300061658024788,-0.03316609188914299,-0.03176601603627205,0.0023829108104109764,0.009199930354952812,-0.013095471076667309,0.024265887215733528,-0.0014805641258135438,-0.024295007809996605,-0.026392027735710144,-0.02000129222869873,0.007929815910756588,0.02463676407933235,-0.026972156018018723,0.008639227598905563,-0.031903404742479324,-0.012741947546601295,-0.013354834169149399,-0.028579624369740486,-0.00022280111443251371,0.005017622373998165,-0.028701504692435265,-0.001295550842769444,-0.016864852979779243,0.019828855991363525,-0.014623167924582958,-0.0069269584491848946,-0.013409189879894257,0.0171338003128767,0.003488850547000766,-0.0221627838909626,-0.02891029790043831,0.025928687304258347,-0.0037591734435409307,0.025632869452238083,-0.001302695949561894,0.014103907160460949,-0.02160368114709854,0.02742859162390232,-0.0007265907479450107,0.027192112058401108,0.008164675906300545,0.02019030787050724,-0.011911630630493164,0.022874444723129272,-0.004958249628543854,-0.002266881987452507,-0.03324782848358154,-0.03035721369087696,-0.015429390594363213,-0.01145803090184927,-0.023895198479294777,0.020926853641867638,0.014047648757696152,0.015192356891930103,0.022254815325140953,-0.006632884033024311,0.030527951195836067,-0.02856285125017166,-0.0029271955136209726,-0.010950134135782719,-0.03210798650979996,0.013718151487410069,0.03126883879303932,0.0269163828343153,0.02467275969684124,-0.01842484436929226,0.03283747285604477,-0.022790273651480675,0.025126690044999123,0.00244574761018157,0.01720646768808365,0.02332412824034691,0.010497297160327435,-0.016860641539096832,0.004254333209246397,-0.007461851462721825,0.004948539659380913,0.012474262155592442,-0.006379752419888973,-0.021403735503554344,0.012094425037503242,-0.004512390121817589,0.03179768845438957,-0.013492124155163765,0.00043638719944283366,0.031223250553011894,-0.02835778146982193,0.020841965451836586,0.025762392207980156,-0.02651168406009674,0.025528941303491592,-0.028335826471447945,0.016795342788100243,-0.026571521535515785,0.012119622901082039,-0.028114091604948044,0.021849485114216805,-0.011970308609306812,0.012027066200971603,0.009903338737785816,0.03166516497731209,-0.014166092500090599,0.009482352994382381,-0.016721026971936226,-0.011300716549158096,-0.02941199578344822,0.03130118548870087,-0.012705765664577484,-0.0005772517761215568,-0.029804661870002747,0.024228062480688095,-0.012844596989452839,-0.03222684562206268,0.0201561339199543,0.0005042416742071509,0.01871551387012005,-0.01684722490608692,-0.033330462872982025,0.019399277865886688,-0.031995631754398346,0.006360152270644903,-0.026651782914996147,-0.029782401397824287,0.023669622838497162,-0.011397691443562508,-0.009825159795582294,0.016006777063012123,0.029841432347893715,0.018928563222289085,0.013050147332251072,0.027158621698617935,0.019399797543883324,-0.014287722297012806,0.005127120763063431,-0.020021287724375725,-0.026181334629654884,0.024849222972989082,-0.023692641407251358,0.018105221912264824,-0.024720996618270874,-0.023686761036515236,0.027025308459997177,0.0012088400544598699,-0.02156716026365757,-0.029475651681423187,-0.028116749599575996,-0.025344284251332283,-0.016925659030675888,0.02214287966489792,-0.007266373839229345,-0.009351198561489582,0.023246843367815018,-0.01313804928213358,-0.010893458500504494,-0.010656259022653103,0.027357950806617737,0.012283126823604107,0.00107896130066365,-0.020688334479928017,-0.02567611075937748,0.029195228591561317,0.00564581947401166,-0.021451422944664955,0.010030890814960003,-0.023790227249264717,0.02422279864549637,-0.0181583259254694,-0.01915040984749794,0.029069693759083748,0.02518104948103428,0.008218491449952126,-0.023193014785647392,0.017885694280266762,0.0095370439812541,0.031317755579948425,0.025361455976963043,0.0035764104686677456,0.03160446137189865,0.027709735557436943,0.013515922240912914,0.0231899693608284,0.005513286683708429,0.029119718819856644,-0.0017327783862128854,-0.020892368629574776,-0.008113143965601921,0.019048074260354042,-0.014716100879013538,0.01075090654194355,-0.03196251392364502,0.0048051378689706326,-0.014932562597095966,-0.012737785466015339,-0.015815144404768944,0.01694968342781067,-0.014664055779576302,0.016843972727656364,-0.022965656593441963,-0.021670088171958923,0.0009562057675793767,0.021836062893271446,-0.016642387956380844,-0.02330366149544716,0.0035280936863273382,0.030956557020545006,0.0024930790532380342,0.01159350760281086,-0.017868302762508392,-0.015691369771957397,-0.013103793375194073,-0.012566978111863136,0.02118409425020218,-0.03040020726621151,0.02346300333738327,-0.011400552466511726,-0.0236363522708416,-0.012723674066364765,0.0215592198073864,-0.013333568349480629,0.01650594174861908,-0.030956832692027092,-0.0165912713855505,-0.03330938518047333,0.0283731110394001,-0.02677628956735134,0.01733192801475525,0.022728316485881805,-0.03163152560591698,0.02306433580815792,-0.03179154545068741,-0.0015745429554954171,-0.03325366601347923,-0.0035799737088382244,-0.013840856030583382,-0.0028249239549040794,0.02561170980334282,-0.02700512856245041,-0.006948466412723064,-0.020827990025281906,-0.0028997808694839478,-0.024739770218729973,0.019591758027672768,-0.002377274679020047,-0.010557270608842373,0.012237625196576118,-0.007960744202136993,0.0056428462266922,-0.01815316081047058,0.0220083836466074,-0.008002705872058868,0.015283347107470036,-0.009471626952290535,-0.0006734322523698211,0.003270877758041024,-0.03108036518096924,-0.0027753436006605625,-0.023416191339492798,-0.02110120840370655,0.01466341596096754,-0.017291158437728882,-0.013412533327937126,0.0024826922453939915,0.021038230508565903,-0.012217951007187366,-0.01158951222896576,-0.004878771957010031,0.024348042905330658,-0.002282374771311879,-0.01152029074728489,0.0020297577138990164,-0.02030952088534832,-0.0250377357006073,-0.02154199220240116,-0.01363216619938612,-0.009578162804245949,-0.004431466106325388,-0.016283810138702393,0.024127991870045662,0.015826139599084854,0.008293437771499157,-0.016993632540106773,-0.002034768695011735,-0.005223288666456938,-0.015326759777963161,0.004268024116754532,0.006126175634562969,-0.027504149824380875,-0.01573016121983528,0.010530956089496613,-0.023973189294338226,-0.020951250568032265,0.028409535065293312,-0.029258061200380325,0.018977364525198936,-0.01125322561711073,0.006146765314042568,-0.011106915771961212,-0.02058287523686886,-0.012360491789877415,0.012395348399877548,0.002711894456297159,-0.029832417145371437,0.000790206715464592,0.005749719217419624,-0.008177165873348713,-0.009260458871722221,0.01634318381547928,0.002275279490277171,-0.004525420255959034,-0.022070305421948433,-0.02021288499236107,0.030044475570321083,-0.024228105321526527,0.009883900173008442,-0.012386815622448921,-0.00025513535365462303,-0.015182483941316605,0.011201505549252033,-0.007245202548801899,0.021267319098114967,0.01197613961994648,0.0013036407763138413,-0.017892153933644295,0.027760842815041542,0.024173473939299583,-0.03039458394050598,0.011630363762378693,-0.0038798265159130096,0.011439692229032516,0.028640685603022575,-0.011624263599514961,0.0003743668203242123,-0.02022474631667137,-0.00606195256114006,0.008662804029881954,0.00478168623521924,-0.021675005555152893,-0.0006036777049303055,-0.026119230315089226,0.030435319989919662,0.03067409247159958,-0.012151103466749191,-0.02264370396733284,-0.026159053668379784,0.02206781692802906,0.028703538700938225,0.02139342576265335,-0.0050043873488903046,0.032655369490385056,-0.012369229458272457,-0.02711363136768341,-0.024979040026664734,-0.03183968737721443,-0.024070071056485176,0.021941272541880608,-0.015646230429410934,0.028174467384815216,0.016973022371530533,0.030319785699248314,0.010217154398560524,-0.012506659142673016,-0.03165789321064949,0.006879336200654507,0.028564734384417534,-0.027991343289613724,0.030069593340158463,-0.015674402937293053,-0.02951701730489731,0.012352067977190018,-0.01612277142703533,0.00808081217110157,-0.014440221711993217,-0.01147772092372179,0.031118471175432205,0.027182232588529587,-0.008893241174519062,-0.0008511480991728604,0.01839183084666729,-0.023946359753608704,-0.007594708818942308,-0.01022357027977705,-0.03193710371851921,-0.024923980236053467,-0.009779727086424828,-0.00827033445239067,-0.00653090188279748,0.03052719309926033,-0.02717728167772293,-0.009363065473735332,-0.012350725010037422,0.013869259506464005,-0.009163493290543556,-0.003701801411807537,0.021107157692313194,0.004507710225880146,0.003089076606556773,-0.01986926980316639,0.0016102889785543084,0.028445245698094368,0.014297882094979286,-0.007154359482228756,0.011181945912539959,-0.011710455641150475,-0.023511942476034164,-0.027605872601270676,0.004905825015157461,0.0019061168422922492,0.0010752961970865726,0.011729556135833263,-0.022381417453289032,0.03083846904337406,0.003817044198513031,-0.03265385329723358,0.014275719411671162,-0.03055041842162609,-0.031762514263391495,-0.01624392345547676,0.004741111304610968,-0.023627663031220436,-0.029975051060318947,0.021318579092621803,0.00784394983202219,-0.02154400758445263,0.0075304522179067135,0.030290763825178146,0.007977485656738281,-0.005805738735944033,0.011949287727475166,0.006618783343583345,-0.003592274384573102,-0.026100730523467064,-0.032017212361097336,-0.0240969005972147,-0.019166190177202225,0.006979231722652912,-0.007440608460456133,-0.032303787767887115,-0.0010616532526910305,0.030664345249533653,-0.012192989699542522,-0.014690701849758625,-0.002818001201376319,0.02902437001466751,-0.03206862881779671,-0.03299819678068161,0.0296382587403059,-0.01665673591196537,0.007168397773057222,0.0026111071929335594,0.016447605565190315,0.01136008556932211,-0.028963962569832802,-0.019429035484790802,0.0141935795545578,0.0191093310713768,-0.00046841296716593206,-0.021724846214056015,-0.031410761177539825,0.0016219113022089005,-0.01833031326532364,-0.020894523710012436,0.029543645679950714,-0.018054494634270668,0.00551075441762805,0.031294744461774826,0.03269023448228836,-0.0017666699131950736,-0.02107061818242073,0.023022107779979706,-0.0017111257184296846,-0.0016868921229615808,-0.03012344054877758,-0.004656965844333172,-0.03228391334414482,0.030094413086771965,-0.008438780903816223,-0.02012401632964611,0.009420298039913177,0.0022209256421774626,0.0053831953555345535,0.013350913301110268,0.0052351453341543674,-0.002660049358382821,-0.002147288527339697,0.017439307644963264,-0.006156787276268005,0.016109205782413483,0.005059323739260435,-0.015484265983104706,0.005034218542277813,0.01626007817685604,-0.0031046997755765915,-0.024319378659129143,0.0018414681544527411,-0.025954486802220345,0.02112864889204502,0.00587009871378541,0.02297019585967064,-0.004660096950829029,0.02924962341785431,-0.02794591151177883,-0.01468092855066061,-0.02318384312093258,0.0015475025866180658,0.031034432351589203,-0.018040623515844345,0.027869248762726784,0.008118385449051857,-0.008828884921967983,0.02281450480222702,-0.022616563364863396,-0.0330016203224659,0.03148660436272621,-0.010339930653572083,0.018826456740498543,-0.030031254515051842,-0.005088419653475285,0.0005397708155214787,0.0036930034402757883,-0.020968332886695862,0.026563256978988647,-0.00783144123852253,-0.002528922166675329,-0.03126688674092293,0.029869655147194862,-0.026859275996685028,0.011587915942072868,-0.017423927783966064,-0.002293206052854657,-0.027494674548506737,0.02958941087126732,0.023641668260097504,0.014753267168998718,0.03299020603299141,-0.0224741343408823,0.001730110845528543,-0.008541131392121315,-0.025927521288394928,-0.015226173214614391,-0.007947760634124279,-0.00589033542200923,-0.027151701971888542,0.032862357795238495,0.017937837168574333,-0.026947060599923134,-0.030508527532219887,-0.002200179034844041,-0.015235708095133305,-0.006713769398629665,-0.027209756895899773,0.018020102754235268,-0.013166438788175583,0.028565680608153343,-0.017249977216124535,0.005105656571686268,0.011846574023365974,0.03010280430316925,0.013370494358241558,0.026579298079013824,0.029122039675712585,0.02805628627538681,0.01834980398416519,0.0057180700823664665,0.024541907012462616,0.010823717340826988,0.029085800051689148,-0.005803519859910011,-0.017539503052830696,-0.02118929661810398,-0.026200905442237854,0.020079731941223145,-0.012904711067676544,0.0018769027665257454,-0.019657563418149948,0.009043566882610321,-0.0008516954258084297,0.016813859343528748,-0.022197265177965164,0.011597619391977787,0.02701474353671074,-0.013757181353867054,-0.013293759897351265,0.03327052667737007,0.022421013563871384,0.01881718449294567,0.022202767431735992,0.0285414457321167,-0.012853189371526241,0.023118149489164352,0.01779630407691002,-0.028385289013385773,-0.031225737184286118,0.020967012271285057,-0.026004213839769363,0.005330938845872879,0.0045042443089187145,0.002544383518397808,0.018187671899795532,0.021877627819776535,-0.0044186473824083805,0.024898532778024673,0.011133735068142414,0.005978051107376814,-0.022164693102240562,0.004388230387121439,-0.0013461768394336104,-0.016113832592964172,-0.03258013725280762,0.008489647880196571,-0.03198320418596268,-0.031072944402694702,-0.03163996338844299,0.03270437568426132,0.011735815554857254,-0.011693596839904785,-0.026060279458761215,-0.02775431238114834,-0.005435781553387642,-0.018146902322769165,0.027692848816514015,-0.003803395666182041,-0.02158830128610134,-0.030621565878391266,-0.002531939186155796,-0.006658457685261965,-0.01644657924771309,0.012296958826482296,0.030043667182326317,-0.019856417551636696,-0.0033183996565639973,-0.023648496717214584,0.00142351642716676,-0.027009425684809685,0.009590706788003445,-0.014384540729224682,0.004659497644752264,0.02856997773051262,0.010259110480546951,-0.0030378084629774094,0.015467018820345402,-0.022872528061270714,0.014825090765953064,-0.006742906756699085,0.026706108823418617,-0.03207355737686157,0.026148231700062752,-0.000830732868053019,0.007765539456158876,0.006351863965392113,0.015285172499716282,0.01239530649036169,-0.02588149718940258,0.008405781351029873,-0.02255561761558056,0.018023008480668068,-0.015308422967791557,0.005409543402493,0.008858835324645042,-0.03068404830992222,-0.030662864446640015,-0.0048843431286513805,0.019039271399378777,-0.009781488217413425,0.028067609295248985,-0.015068737789988518,-0.01791873387992382,-0.02051779255270958,-0.026005322113633156,0.0037749898619949818,0.02110804058611393,0.03046991489827633,-0.0055220420472323895,0.012496051378548145,-0.02256164699792862,0.015688778832554817,0.02248695120215416,0.0008640282321721315,0.003815904026851058,-0.021861528977751732,-0.025446521118283272,0.0027087267953902483,0.02308371290564537,-0.015792448073625565,0.016840539872646332,0.02082074247300625,-0.027968741953372955,0.022920917719602585,0.020648304373025894,0.03177652135491371,0.012164637446403503,0.021297132596373558,0.004512603394687176,0.008316428400576115,-0.019941773265600204,-0.010020622052252293,0.017793096601963043,0.021292299032211304,0.02905830554664135,-0.02514766715466976,0.000603162799961865,0.026536857709288597,-0.032977331429719925,-0.0074722724966704845,-0.02734214812517166,0.02883709780871868,-0.03306414932012558,-0.0030977041460573673,-0.01685364730656147,0.007364653050899506,0.028679348528385162,-0.02693052776157856,-0.017027204856276512,0.030309271067380905,0.000013314031093614176,-0.013082216493785381,-0.013391315937042236,-0.01449429802596569,0.0107505451887846,-0.014584599994122982,0.005625347141176462,0.026268245652318,-0.01917346939444542,0.0015671756118535995,0.002926216460764408,0.022500712424516678,0.010419106110930443,0.00978906825184822,-0.026666855439543724,-0.0199152659624815,-0.014714555814862251,0.003954378422349691,-0.022154737263917923,0.010202447883784771,0.006696947850286961,-0.014410316944122314,0.02935432642698288,0.01931990310549736,-0.026202399283647537,0.030459579080343246,0.03312011435627937,-0.013325784355401993,0.01781529188156128,-0.009164954535663128,0.018975690007209778,0.01647462137043476,-0.023061979562044144,-0.02675178460776806,-0.0016250588232651353,-0.024595340713858604,0.02064729854464531,0.02905813790857792,-0.023966781795024872,-0.029911408200860023,-0.013902493752539158,0.007264112122356892,-0.002709185006096959,0.015203454531729221,0.029076186940073967,-0.022053126245737076,-0.024385778233408928,-0.01575099304318428,-0.03161318600177765,-0.0223411675542593,0.019216496497392654,-0.01728670671582222,-0.011462230235338211,0.01838560588657856,-0.01823129877448082,-0.007530326955020428,0.026018252596259117,0.022558994591236115,-0.008982384577393532,0.0292440764605999,0.009861477650702,0.02261684276163578,0.029447218403220177,-0.008647581562399864,-0.026283591985702515,-0.019078409299254417,0.02491120435297489,-0.03315122053027153,-0.007895296439528465,0.003194283926859498,0.019794052466750145,0.017345495522022247,-0.02760802023112774,-0.031298186630010605,0.02494964376091957,-0.00019842265464831144,0.008965611457824707,-0.014404800720512867,-0.014718256890773773,0.002974085044115782,-0.0037537356838583946,-0.015528609044849873,0.01364830695092678,-0.01257532648742199,-0.0125129958614707,0.004783221520483494,-0.021321281790733337,-0.024545108899474144,-0.003559116506949067,0.0034372080117464066,0.025558551773428917,-0.0329345278441906,0.03165142610669136,-0.013928733766078949,0.007272340357303619,-0.01992981508374214,-0.010449687950313091,-0.0035408728290349245,-0.030604949221014977,0.008990919217467308,-0.008418945595622063,-0.019994664937257767,0.003370633814483881,0.0033416764345020056,-0.016213176771998405,-0.0022922458592802286,0.023320745676755905,0.006113292649388313,0.021750200539827347,0.005650351755321026,0.010061612352728844,0.002137945033609867,0.001601955620571971,0.025878626853227615,-0.02407591976225376,-0.020358769223093987,0.01579688861966133,-0.010511009953916073,-0.03259265422821045,-0.025255398824810982,0.003392549930140376,-0.003964965231716633,-0.003835896262899041,0.005713379941880703,0.009750853292644024,0.023997027426958084,0.008809620514512062,-0.005302428733557463,-0.0033218723256140947,0.017752153798937798,0.0011459923116490245,0.0047638085670769215,0.03076409362256527,-0.029815830290317535,0.03222867473959923,0.02731030061841011,0.0014821973163634539,-0.019295744597911835,0.017947018146514893,-0.0068057808093726635,-0.010243503376841545,0.019889116287231445,0.00019321504805702716,-0.029910260811448097,0.01727127470076084,0.016286369413137436,-0.018969986587762833,-0.017332063987851143,0.008431566879153252,-0.014340211637318134,-0.012622685171663761,0.017681477591395378,-0.019323701038956642,0.014447913505136967,-0.013087576255202293,-0.0007635392248630524,0.024912118911743164,0.013375982642173767,0.008012684062123299,-0.011856162920594215,-0.023436110466718674,-0.0034742511343210936,0.001255622017197311,0.006058679893612862,-0.023170987144112587,0.005163400433957577,-0.007059138733893633,0.008664237335324287,0.0161720160394907,0.0057052974589169025,0.015943460166454315,0.026299236342310905,0.029769275337457657,-0.018995998427271843,-0.0076326956041157246,-0.01620970480144024,-0.008485480211675167,0.001397988060489297,-0.02932213991880417,-0.005171888042241335,0.01865547150373459,0.017242221161723137,0.01047641970217228,0.004250105004757643,-0.0015625853557139635,0.01982014998793602,-0.032765042036771774,-0.013361521065235138,-0.015568065457046032,-0.00813955906778574,0.018084747716784477,0.01834271289408207,0.025709422305226326,-0.00300384103320539,-0.0025768529158085585,0.024379054084420204,-0.002190694445744157,-0.007636485155671835,0.027895791456103325,-0.018512219190597534,0.008629174903035164,-0.001262594130821526,0.019069552421569824,-0.015948845073580742,-0.03328552469611168,-0.015079538337886333,0.02518473193049431,-0.030992399901151657,0.012378981336951256,0.014464600943028927,0.025473738089203835,-0.005340574309229851,0.004216417670249939,-0.017104381695389748,0.028936395421624184,0.014186504296958447,0.006199970375746489,-0.012607865035533905,0.03321737423539162,0.024903221055865288,-0.026895394548773766,0.0012179713230580091,0.0322289913892746,-0.008950160816311836,-0.02994677424430847,0.012644218280911446,-0.0007731139776296914,-0.017234154045581818,0.025603162124753,-0.02306077443063259,-0.022571023553609848,-0.01334301382303238,-0.023013344034552574,0.013737923465669155,-0.008823348209261894,0.019341731444001198,0.02137710526585579,0.0012871155049651861,-0.03210222348570824,-0.030590355396270752,-0.022157294675707817,0.008563983254134655,0.01352497935295105,0.022133197635412216,0.031879883259534836,0.030703574419021606,0.015124063938856125,-0.019774870947003365,-0.028425410389900208,-0.003264774102717638,0.013320675119757652,-0.0029401008505374193,-0.01812424696981907,-0.0039650979451835155,0.004664571024477482,-0.010744065046310425,-0.014822653494775295,0.019175369292497635,0.005566748790442944,0.02439662255346775,-0.00294378399848938,0.024806836619973183,0.012640643864870071,0.015157817862927914,0.021795835345983505,0.032802682369947433,0.018161915242671967,0.02037874050438404,-0.01543032843619585,0.020066533237695694,-0.027209468185901642,-0.0034457154106348753,0.011118982918560505,-0.005878172814846039,-0.007978648878633976,0.010712596587836742,0.003744079964235425,-0.0243020448833704,-0.012247053906321526,-0.010043667629361153,0.02297929860651493,-0.00998010765761137,-0.029662175104022026,0.019312672317028046,0.021129712462425232,0.020861059427261353,0.0069760531187057495,-0.023041514679789543,0.001536450581625104,-0.009349512867629528,0.010971334762871265,0.019320692867040634,-0.004065305460244417,0.006386336870491505,-0.030203819274902344,0.0104719502851367,0.0022881045006215572,-0.014430615119636059,0.015665598213672638,0.023544153198599815,0.005661757197231054,-0.012298090383410454,0.0142066590487957,0.014694789424538612,-0.012604107148945332,-0.02963903732597828,-0.016416311264038086,0.014344978146255016,0.02185385301709175,-0.0039027207531034946,-0.029589973390102386,0.018767831847071648,0.003605002537369728,-0.02126927115023136,-0.01829669065773487,-0.031028755009174347,-0.03084106184542179,0.0037998324260115623,-0.024107253178954124,-0.021742427721619606,-0.021979084238409996,-0.030568042770028114,0.018818259239196777,-0.0088770417496562,-0.01802956499159336,0.007241089828312397,0.03210277110338211,0.015350674279034138,-0.03311838209629059,-0.004630813375115395,0.01887606456875801,0.02801521122455597,-0.015019914135336876,-0.012531225569546223,-0.01350235752761364,0.03008495829999447,-0.006410361733287573,-0.010447265580296516,0.0021767595317214727,-0.005456950515508652,-0.010172194801270962,-0.02527185156941414,0.023422103375196457,-0.027366457507014275,-0.029841257259249687,-0.02611463889479637,0.024995261803269386,0.015964535996317863,0.0024898999836295843,0.0018151894910261035,-0.03174912929534912,0.019908994436264038,-0.013046681880950928,-0.02291480265557766,0.007305169012397528,0.02159581519663334,-0.03310920298099518,-0.011135335080325603,-0.024973038583993912,0.02113036811351776,-0.021741988137364388,0.012144552543759346,-0.025482062250375748,-0.017780840396881104,0.021497583016753197,-0.015083720907568932,0.018148241564631462,0.027224060148000717,-0.0300835520029068,0.028086107224225998,0.014781549572944641,0.025635406374931335,-0.02852504886686802,-0.0011228438233956695,0.02717348374426365,0.0014955607475712895,0.01692664436995983,0.018566222861409187,-0.017396170645952225,0.03148645535111427,-0.026573730632662773,-0.024658864364027977,0.029012639075517654,-0.013272400945425034,0.026745853945612907,0.02941317856311798,-0.023759562522172928,-0.00836862251162529,0.029920287430286407,-0.027536863461136818,-0.032007209956645966,-0.011607899330556393,0.004812763072550297,0.029734669253230095,-0.008262841030955315,0.005964422598481178,0.025684714317321777,0.00435231439769268,-0.002484822180122137,0.008564053103327751,-0.00871959887444973,-0.014842282049357891,0.032998666167259216,0.021251069381833076,-0.00212483131326735,-0.011004384607076645,-0.0161585696041584,0.030462883412837982,-0.02706156112253666,0.011901555582880974,-0.017128923907876015,-0.023638345301151276,0.018009701743721962,-0.027784736827015877,0.0028623847756534815,0.022372398525476456,-0.015608318150043488,0.026020292192697525,0.00565426517277956,0.020198361948132515,0.03021584451198578,0.02677588351070881,0.015028235502541065,0.014648960903286934,-0.019541054964065552,0.015356057323515415,-0.01676585152745247,0.02157057449221611,0.005268672946840525,-0.0015122871845960617,0.00437241792678833,0.004535416606813669,-0.004543174058198929,0.01322086900472641,0.00240753754042089,0.009477214887738228,-0.0183024313300848,-0.02545817196369171,0.012750296853482723,-0.014281773939728737,0.02163291908800602,0.009667596779763699,-0.0263687577098608,0.02762543596327305,0.018796494230628014,0.024250507354736328,0.025373386219143867,-0.008368179202079773,-0.01606026478111744,0.019140370190143585,0.005732529330998659,-0.0026465801056474447,-0.026126448065042496,0.00017030980961862952,-0.007443817798048258,-0.021996721625328064,-0.011116416193544865,0.005634442437440157,0.008810904808342457,0.025477210059762,0.030827121809124947,-0.004231973551213741,-0.029227737337350845,-0.028261689469218254,-0.032664116472005844,-0.005980003159493208,0.0010342352325096726,0.02608468569815159,-0.01763705164194107,0.012292913161218166,0.015180756337940693,0.028229443356394768,-0.01794532686471939,0.03280745446681976,-0.030253857374191284,-0.025047287344932556,-0.0161648727953434,0.024065284058451653,0.0011349288979545236,0.023787543177604675,-0.012417824938893318,-0.032869189977645874,0.000781367823947221,0.006294299382716417,0.01817982643842697,-0.014403795823454857,0.028565330430865288,-0.020319847390055656,-0.008476316928863525,0.01162771973758936,-0.0297533106058836,0.017657021060585976,-0.006488230545073748,-0.008945806883275509,-0.03250791132450104,0.030952561646699905,-0.0012851670617237687,0.01347284484654665,0.011455888859927654,-0.013208823278546333,0.02831679955124855,0.021254265680909157,-0.004920686595141888,0.01774873398244381,-0.00826051365584135,0.027500424534082413,0.01692722924053669,0.030863355845212936,0.016487833112478256,-0.01683109998703003,0.03137778863310814,-0.0025462652556598186,-0.017682649195194244,0.0047913300804793835,-0.033095911145210266,-0.012678751721978188,0.02335040271282196,0.03150917962193489,-0.027679473161697388,0.01855834387242794,0.011090059764683247,0.006280644331127405,0.02528519555926323,-0.005854915827512741,0.0022168238647282124,0.004883523564785719,-0.014689418487250805,0.007384779397398233,-0.024480637162923813,-0.025726202875375748,-0.018110783770680428,-0.017817996442317963,-0.0320604145526886,0.005134754814207554,0.025530127808451653,-0.026307912543416023,-0.021154142916202545,-0.00561549374833703,0.026922255754470825,-0.031523510813713074,0.0032585812732577324,-0.018592629581689835,-0.03187420591711998,-0.023946134373545647,-0.023533891886472702,0.019609441980719566,-0.02697719819843769,-0.024713989347219467,0.00012300035450607538,-0.01627574861049652,0.02422734908759594,-0.01893264800310135,-0.0216111671179533,-0.005423883907496929,0.004906144458800554,0.03266271948814392,-0.02739732712507248,-0.027563953772187233,0.012873933650553226,-0.020565710961818695,-0.030056575313210487,0.02935793250799179,0.0046579474583268166,-0.0017327142413705587,0.00885273888707161,0.027063388377428055,-0.020821209996938705,0.012167147360742092,-0.01593656651675701,0.0032939384691417217,0.007555749733000994,-0.0270199216902256,-0.0033409041352570057,0.0169683825224638,0.012035132385790348,-0.03134762868285179,-0.005271182395517826,0.012641730718314648,-0.020325740799307823,0.0010794561821967363,0.009496919810771942,-0.011296531185507774,0.018196457996964455,-0.014619478955864906,0.01836983487010002,0.029360799118876457,0.02765173837542534,0.02007206901907921,-0.01655595749616623,0.007063556462526321,0.01234744768589735,-0.011510075069963932,-0.023731321096420288,0.0008325175731442869,0.001028538914397359,-0.026270341128110886,-0.018131211400032043,-0.013676751405000687,-0.01036980003118515,0.02110842615365982,-0.014245361089706421,0.0072067975997924805,0.0194441806524992,-0.02271919697523117,-0.025978747755289078,0.021592877805233,-0.012774455361068249,0.023183658719062805,-0.03300594165921211,-0.004815747495740652,0.022544126957654953,-0.006872997153550386,0.03216702863574028,-0.03155076131224632,0.02875882014632225,0.008321622386574745,0.025218825787305832,-0.007300177123397589,-0.02054585888981819,0.025136644020676613,-0.02580011822283268,-0.024922611191868782,-0.0024958348367363214,-0.029344381764531136,0.030451469123363495,-0.026385976001620293,0.013301359489560127,-0.022874899208545685,-0.01600925251841545,0.019152646884322166,0.008036105893552303,0.00041684976895339787,0.007915540598332882,0.029442381113767624,-0.011267246678471565,0.029283422976732254,-0.005870192777365446,0.02212042175233364,0.0021922446321696043,0.008382662199437618,0.009919751435518265,0.022943375632166862,0.023611033335328102,0.006260383874177933,0.02503490075469017,-0.009936816059052944,-0.013765375129878521,0.0026617494877427816,0.012098069302737713,-0.031147057190537453,-0.016490094363689423,-0.012222010642290115,0.01593797653913498,0.015079302713274956,-0.024055130779743195,-0.01798238232731819,0.025492899119853973,0.018369460478425026,0.015592500567436218,-0.015928568318486214,0.005697714630514383,-0.011274262331426144,0.028326068073511124,0.029690371826291084,0.0064615290611982346,0.013575807213783264,-0.024754086509346962,0.025110065937042236,0.014383272267878056,-0.0041504292748868465,-0.02891366556286812,0.0010129839647561312,-0.00849436316639185,0.02574116550385952,0.010299604386091232,0.02811463177204132,-0.0288065355271101,0.027883918955922127,-0.01915539987385273,0.005092671141028404,0.022633366286754608,0.021781791001558304,-0.02638668194413185,-0.02226393297314644,-0.008675492368638515,-0.010572551749646664,-0.0026742657646536827,0.03010694868862629,-0.018714699894189835,-0.020690957084298134,0.0069468701258301735,0.03331812471151352,0.014039086177945137,-0.0024503767490386963,-0.021311713382601738,-0.030405422672629356,-0.016767460852861404,-0.02180822566151619,-0.028530772775411606,-0.02169748954474926,0.014777879230678082,0.009594004601240158,0.006944072432816029,0.023168206214904785,-0.02713179402053356,-0.029134489595890045,0.011346552520990372,0.016837934032082558,0.02940000407397747,0.016960492357611656,-0.01936078816652298,0.00002356732147745788,0.0011755959130823612,-0.004823228344321251,-0.032416973263025284,0.00232415902428329,-0.010991876013576984,-0.018463008105754852,-0.0013145440025255084,-0.03080863691866398,0.02287101373076439,-0.031371697783470154,-0.021845627576112747,-0.0037136448081582785,0.029929962009191513,-0.02419723942875862,-0.005453874822705984,0.013521217741072178,-0.015764692798256874,0.00925446581095457,-0.0311959907412529,0.028889412060379982,-0.007417547516524792,-0.020754927769303322,-0.030332379043102264,0.020714417099952698,-0.02030142955482006,-0.017509056255221367,0.005907476879656315,0.0075944154523313046,-0.00842244178056717,0.015851739794015884,0.011731396429240704,-0.005275452509522438,-0.019110513851046562,-0.010726213455200195,-0.030816592276096344,0.023675398901104927,-0.0066688163205981255,-0.008988730609416962,0.004730063024908304,-0.00154754554387182,-0.002769934246316552,-0.005486516747623682,0.01778487302362919,0.017229735851287842,-0.01821896806359291,-0.00033539513242430985,-0.020729688927531242,-0.01692233607172966,-0.03045286238193512,0.019235309213399887,0.02978493459522724,0.0023729936219751835,0.02184486947953701,-0.006875409744679928,0.00469642598181963,0.004896476864814758,0.00857783667743206,-0.025706632062792778,0.026658378541469574,0.030638694763183594,0.02097146399319172,-0.03009658493101597,-0.02477550506591797,0.032181087881326675,-0.008306720294058323,-0.00212769559584558,-0.022369684651494026,0.010905352421104908,0.005058686248958111,-0.020745333284139633,0.004071698058396578,-0.017813853919506073,0.016495561227202415,0.019891789183020592,0.012060101144015789,0.025452768430113792,0.024987097829580307,0.029033493250608444,0.009331143461167812,0.016059627756476402,-0.030566032975912094,0.005837497301399708,0.028887823224067688,0.0014423290267586708,0.008714944124221802,-0.01720421202480793,-0.007229471579194069,0.005725699942559004,-0.029094045981764793,-0.014120103791356087,0.02906303107738495,0.024198759347200394,0.02239139936864376,-0.01864658109843731,-0.007658937945961952,0.004894723650068045,-0.0073250881396234035,-0.027023188769817352,-0.031566306948661804,0.018826888874173164,-0.029774198308587074,0.01772911474108696,-0.009383912198245525,-0.006565451622009277,0.03084579110145569,-0.022033916786313057,0.012458296492695808,0.02934582531452179,0.029295116662979126,0.027440166100859642,0.026799233630299568,0.00888159777969122,-0.015930715948343277,0.01184896845370531,-0.00560843525454402,0.03134063258767128,0.011478926986455917,-0.0024082253221422434,-0.0013001789338886738,-0.01755802519619465,-0.016922596842050552,-0.028419112786650658,0.019670430570840836,0.016869474202394485,0.0028876899741590023,-0.006385444197803736,0.020861269906163216,-0.0005403694231063128,-0.02497265674173832,0.023774659261107445,0.0037352200597524643,-0.01567772962152958,-0.02026997320353985,0.028445042669773102,0.020734835416078568,-0.012938647530972958,-0.015096769668161869,0.029411260038614273,0.004383811727166176,-0.0162347462028265,-0.006864883936941624,0.016710281372070312,-0.01502064149826765,-0.01011676900088787,-0.021621568128466606,0.03022873029112816,0.01567603275179863,-0.018989527598023415,0.002795402193441987,-0.03226061165332794,0.03147844225168228,-0.026046188548207283,-0.017242949455976486,-0.0018230408895760775,-0.016228294000029564,-0.006268905010074377,0.010287280194461346,-0.03245767951011658,0.030983014032244682,-0.01363024115562439,-0.029149407520890236,-0.015242734923958778,-0.0039269276894629,-0.027620552107691765,-0.01534599345177412,0.03294194117188454,-0.00017859326908364892,0.026115627959370613,0.005218832287937403,-0.027581529691815376,-0.01753314584493637,-0.030530141666531563,-0.014202510938048363,0.021766532212495804,-0.028358137235045433,-0.027344562113285065,-0.017976798117160797,0.012157873250544071,0.02729080058634281,-0.020015323534607887,0.02357850782573223,0.018375033512711525,-0.013864593580365181,0.0069720991887152195,0.0006468480569310486,0.02126120589673519,0.028910866007208824,-0.026650696992874146,0.02050000987946987,-0.026071462780237198,-0.006722381338477135,-0.002631433540955186,0.01618797518312931,0.032794032245874405,-0.0011777224717661738,-0.025284357368946075,-0.014623195864260197,0.016956167295575142,0.013678067363798618,-0.02648482844233513,-0.00493943877518177,0.028056498616933823,0.025322020053863525,-0.02854437753558159,0.029333265498280525,0.0008951614727266133,-0.00505266897380352,0.031997546553611755,0.018028372898697853,0.026924671605229378,0.024465816095471382,0.005465052090585232,-0.00616442272439599,-0.014378557913005352,0.012486271560192108,-0.018419720232486725,-0.011250934563577175,-0.010826458223164082,-0.029078340157866478,0.029807383194565773,-0.01520503032952547,0.02137655019760132,0.029493199661374092,0.009474067017436028,-0.012557584792375565,-0.012394716031849384,-0.03281578794121742,0.007219916675239801,-0.0008323041838593781,0.024050237610936165,-0.014850235544145107,0.001269325613975525,-0.014833175577223301,0.017253262922167778,-0.017703456804156303,0.025180531665682793,-0.018598072230815887,0.018533524125814438,-0.009677063673734665,-0.004797038156539202,-0.021094059571623802,-0.014616163447499275,-0.01437310315668583,-0.030008092522621155,-0.01681085117161274,0.0019379910081624985,-0.030971767380833626,-0.009280412457883358,-0.031007947400212288,-0.01481547299772501,-0.018224133178591728,0.015792883932590485,0.020908858627080917,-0.021690549328923225,-0.0053477161563932896,-0.03197252377867699,0.021230043843388557,-0.018603460863232613,0.0077897426672279835,-0.001288963365368545,0.02676987648010254,-0.021185917779803276,-0.007198463659733534,-0.031044600531458855,-0.0325658917427063,0.0054125674068927765,-0.026018377393484116,-0.028393391519784927,-0.02868722192943096,-0.00031622653477825224,0.018776914104819298,-0.008047915995121002,-0.028441296890378,-0.011448254808783531,-0.0021036609541624784,-0.003305814228951931,-0.02073638327419758,-0.015523147769272327,0.02695673704147339,-0.0020839546341449022,-0.0076226238161325455,0.028923265635967255,0.01297101378440857,0.004077875521034002,-0.025752920657396317,-0.017971724271774292,0.03328796848654747,0.004882187582552433,-0.009762102738022804,-0.015383795835077763,0.029324069619178772,-0.019734028726816177,-0.026192156597971916,-0.011525348760187626,-0.023109018802642822,0.032948777079582214,0.0027630433905869722,0.01051066629588604,-0.018381912261247635,0.021651262417435646,-0.03288528323173523,0.008415178395807743,0.005824098829180002,-0.01460942905396223,-0.03204004839062691,0.03060775436460972,-0.03135376051068306,0.032172393053770065,-0.018770139664411545,0.0013747396878898144,0.02238793671131134,0.0021626222878694534,0.0284564308822155,0.032876886427402496,-0.01719057373702526,0.029933542013168335,0.029903540387749672,-0.006412176880985498,0.022520670667290688,-0.0032534697093069553,0.013032365590333939,-0.017672762274742126,0.018096378073096275,-0.003572801360860467,-0.0021250664722174406,-0.008705557323992252,-0.0016094183083623648,-0.031370487064123154,0.014451231807470322,-0.02096172422170639,-0.031449224799871445,-0.0288408100605011,-0.013250220566987991,-0.0006456921109929681,0.0014941986883059144,0.03013433702290058,0.008299754932522774,0.025093186646699905,0.0219311211258173,-0.001876590307801962,-0.021665537729859352,-0.02576538547873497,-0.011283330619335175,-0.011932547204196453,-0.02101765386760235,0.018738029524683952,0.021797284483909607,-0.026119297370314598,0.030833397060632706,0.020227234810590744,0.028652627021074295,0.024083901196718216,-0.024144792929291725,-0.01653091236948967,-0.009251871146261692,0.022955479100346565,0.03255385160446167,-0.029460620135068893,0.012246118858456612,-0.006870446261018515,-0.007729310542345047,-0.006367124151438475,0.024019677191972733,-0.02017391100525856,0.0030597399454563856,0.030781764537096024,0.030694695189595222,-0.0037376685068011284,0.02353767864406109,0.007541872560977936,-0.004816936329007149,0.011684921570122242,0.021740270778536797,-0.01716257445514202,-0.028375545516610146,0.007047953084111214,0.0013175730127841234,0.005269396584481001,-0.028916018083691597,0.03267921134829521,-0.023921722546219826,-0.017364080995321274,0.008857709355652332,0.010206470265984535,0.003150181146338582,-0.029383841902017593,0.018752338364720345,0.02124708518385887,0.023173926398158073,-0.026591483503580093,-0.011407489888370037,-0.004267635755240917,-0.023304007947444916,-0.0276611540466547,0.03149372711777687,0.013907737098634243,-0.0023692590184509754,0.009676411747932434,-0.02323785610496998,-0.01251077838242054,0.010901528410613537,0.01486225426197052,-0.032277971506118774,0.008268333971500397,0.017686108127236366,0.033261265605688095,0.024096114560961723,0.008918734267354012,0.02207452990114689,-0.03223542869091034,-0.03029821813106537,0.0289752334356308,-0.014442911371588707,-0.03256756067276001,-0.03095262683928013,0.022677777335047722,0.005726308096200228,-0.027222877368330956,0.01133644673973322,-0.007326333783566952,-0.012905187904834747,0.029620861634612083,0.009858164004981518,0.01339702494442463,-0.015919046476483345,-0.02285602129995823,0.029380692169070244,0.015019531361758709,-0.007676790934056044,-0.005377327091991901,0.01924188807606697,-0.017480749636888504,0.01578083261847496,-0.02342044748365879,0.006363614462316036,0.014554635621607304,0.0158968735486269,0.026497364044189453,0.019963158294558525,0.007805893663316965,0.0113940155133605,0.0266872551292181,0.005436443258076906,0.023779040202498436,0.011523659341037273,0.03115813247859478,0.0017639785073697567,0.014128031209111214,-0.0011610087240114808,-0.02599111571907997,0.00907784141600132,-0.025507159531116486,0.012024665251374245,-0.030863597989082336,0.018758434802293777,-0.03134077414870262,-0.016198361292481422,-0.00928894616663456,-0.028453119099140167,0.015418664552271366,0.0295600276440382,-0.011838284321129322,-0.030841916799545288,0.020270606502890587,-0.024515757337212563,0.009905928745865822,-0.007810577750205994,0.011984280310571194,0.0052831596694886684,0.004524593707174063,0.030995678156614304,-0.00045862916158512235,-0.017859429121017456,-0.022316252812743187,0.031059693545103073,-0.030491486191749573,-0.011131459847092628,0.012044969946146011,-0.018639804795384407,-0.010236081667244434,0.024369722232222557,0.003132176585495472,0.007158794440329075,0.011830398812890053,-0.024637889117002487,-0.011522977612912655,-0.022365035489201546,0.019893405959010124,-0.01408972218632698,-0.00234131864272058,-0.023490222170948982,-0.025529231876134872,-0.017742792144417763,0.024412663653492928,0.033212654292583466,0.031210850924253464,0.00026961593539454043,0.0322432816028595,-0.01629175990819931,-0.02441413700580597,0.030536720529198647,0.016039501875638962,0.021119067445397377,0.020028771832585335,-0.022150030359625816,0.02272857166826725,-0.03201232850551605,0.013909486122429371,-0.02452082186937332,0.025337953120470047,0.0059095327742397785,0.026154275983572006,-0.013949074782431126,-0.02986857295036316,0.0015842020511627197,-0.01516034733504057,0.0028919957112520933,0.033012859523296356,0.002576756291091442,-0.026428736746311188,-0.004106657579541206,0.028567278757691383,-0.031207947060465813,0.0042425827123224735,-0.010574104264378548,0.021170681342482567,0.015443486161530018,0.01341702789068222,-0.006152507849037647,0.007015349343419075,-0.006294691003859043,-0.027049986645579338,-0.006900913547724485,0.03126977011561394,-0.032803975045681,-0.01724863238632679,0.0035576161462813616,-0.012286227196455002,0.0017667481442913413,0.028706220909953117,0.005379279609769583,0.021314706653356552,-0.0037593189626932144,0.004759122617542744,0.00946045946329832,0.0028453408740460873,0.02363262139260769,0.01783677376806736,0.014206764288246632,0.02212165668606758,0.025060856714844704,0.015687651932239532,0.004503360018134117,-0.008738617412745953,0.009124726988375187,-0.025048717856407166,0.02315252088010311,-0.013650142587721348,-0.022101452574133873,-0.018918359652161598,-0.02188265137374401,-0.02694552019238472,-0.02264038659632206,-0.023545311763882637,0.02200363390147686,0.02572784572839737,0.015876274555921555,-0.011342206969857216,0.019882583990693092,-0.011497443541884422,-0.006801954936236143,-0.018848387524485588,-0.012402717024087906,-0.03255711868405342,-0.01945069245994091,0.015407399274408817,-0.03206116706132889,0.007439105771481991,0.013344567269086838,-0.028122590854763985,0.0015078396536409855,-0.007727464195340872,-0.031602997332811356,-0.021762559190392494,0.011576028540730476,0.012281673960387707,0.012687441892921925,0.020622609183192253,-0.01847957633435726,-0.019076507538557053,-0.016079455614089966,0.004437437746673822,-0.02493901364505291,0.01194858644157648,0.03126906231045723,0.00681303208693862,-0.022232379764318466,-0.012951095588505268,0.01108358521014452,0.006248819641768932,-0.003826107131317258,-0.006264420226216316,-0.0014539366820827127,0.00830785371363163,-0.027402780950069427,0.0024091084487736225,-0.027292724698781967,-0.004849521908909082,-0.03160879388451576,0.029190504923462868,0.027014732360839844,0.032804615795612335,-0.020229488611221313,-0.02900153025984764,0.025827914476394653,0.016824524849653244,-0.016503799706697464,-0.0003924211487174034,-0.021870557218790054,0.015573707409203053,0.0000249393233389128,-0.017635559663176537,-0.029557405039668083,-0.031018946319818497,-0.03116728365421295,-0.010333170183002949,-0.010221910662949085,-0.020538583397865295,-0.029452336952090263,0.003873989451676607,-0.005590717773884535,-0.020060468465089798,0.01600825786590576,0.03114539384841919,-0.015284545719623566,0.011429978534579277,0.03038274496793747,-0.0217414740473032,-0.030164124444127083,0.027467701584100723,0.02015850692987442,-0.033313725143671036,0.027648083865642548,-0.02724817581474781,-0.032555244863033295,0.02774873562157154,0.0032283018808811903,-0.0006105653010308743,-0.03212975710630417,0.013633050955832005,0.010701291263103485,0.009029919281601906,-0.03265431523323059,0.014367318712174892,-0.0011001364327967167,-0.021253293380141258,-0.018351146951317787,0.03267206996679306,-0.0027615968137979507,0.02593075856566429,0.012281181290745735,-0.010606852360069752,0.013341715559363365,0.028466129675507545,0.0018117256695404649,-0.027088725939393044,-0.0007128642173483968,-0.0010885815136134624,-0.011881865561008453,-0.023419523611664772,0.0029006798285990953,0.013307747431099415,-0.011372053995728493,0.016331827268004417,0.019655507057905197,0.018068358302116394,-0.0030586046632379293,0.013826712034642696,0.017551183700561523,-0.016314003616571426,0.026605315506458282,0.019687123596668243,0.001295023481361568,0.021434344351291656,-0.002404180122539401,0.017398511990904808,-0.0037549673579633236,-0.02589872106909752,0.011678176932036877,0.004978085868060589,-0.0016111431177705526,0.00623852014541626,0.031442418694496155,0.028720971196889877,0.01557864062488079,-0.029540130868554115,0.013795177452266216,-0.017473718151450157,-0.02533537894487381,0.02648366056382656,0.02637847326695919,-0.0005987207987345755,0.00787443295121193,-0.0023300601169466972,-0.027092527598142624,0.02018468827009201,0.008923716843128204,0.018542828038334846,0.015001438558101654,-0.007997440174221992,-0.01572364568710327,0.015488033182919025,0.010045594535768032,0.002584048779681325,0.021940995007753372,0.024617770686745644,0.021479526534676552,-0.025058697909116745,-0.03305831179022789,0.010194012895226479,0.0235458891838789,-0.01715708337724209,0.014049175195395947,-0.013922549784183502,-0.02753402478992939,0.00630589947104454,0.029974671080708504,0.03301113098859787,0.024745065718889236,0.019784457981586456,0.01577136293053627,0.00019363850879017264,-0.009834381751716137,-0.017436591908335686,0.019804030656814575,-0.017241844907402992,0.004167074803262949,0.019955502822995186,-0.03145195543766022,-0.008635198697447777,-0.0030372049659490585,0.0035645219031721354,0.0001032549116644077,-0.006786017213016748,0.02921965904533863,-0.029328444972634315,0.01702974922955036,0.012626604177057743,-0.02828005701303482,-0.014691337943077087,-0.020134104415774345,-0.02037566341459751,0.025582248345017433,-0.008438614197075367,0.0037690496537834406,-0.0025490073021501303,0.028450481593608856,-0.024615058675408363,-0.017003051936626434,-0.032106779515743256,0.029399488121271133,-0.023897839710116386,-0.012191546149551868,0.0292162224650383,0.029803326353430748,-0.02860287018120289,0.0246118251234293,0.012189351953566074,-0.014735267497599125,0.009382147341966629,-0.002212988678365946,0.007839960046112537,0.0319155789911747,-0.010228807106614113,-0.013692634180188179,-0.005702849477529526,-0.012913200072944164,0.029944108799099922,0.02922215685248375,-0.0164076779037714,0.004252927377820015,0.009738273918628693,0.012111215852200985,0.026416825130581856,-0.005924311000853777,0.030992455780506134,0.0052695912308990955,-0.01803315244615078,0.007778264582157135,-0.03319980576634407,-0.011115886270999908,-0.025620680302381516,-0.030481113120913506,0.020731408149003983,-0.0028901284094899893,0.028031209483742714,-0.032273069024086,-0.02106774039566517,0.022151470184326172,0.03268220275640488,0.024238793179392815,0.028037570416927338,-0.018008247017860413,-0.0167682021856308,0.012680504471063614,0.03282738849520683,0.022942420095205307,-0.03148355334997177,-0.003654172644019127,0.012650973163545132,0.017137106508016586,-0.009860323742032051,0.01081809401512146,-0.02028053067624569,0.008940078318119049,0.007595348637551069,0.013466251082718372,-0.013601912185549736,-0.006968962028622627,-0.01210231427103281,-0.028103215619921684,-0.0071412078104913235,-0.032730378210544586,0.015667056664824486,0.030851740390062332,0.029869547113776207,-0.015867309644818306,-0.01741417683660984,-0.019428687170147896,0.02730490267276764,0.008558015339076519,0.004595652222633362,-0.009022661484777927,-0.022924376651644707,0.022015227004885674,0.031565625220537186,0.016302956268191338,0.021675225347280502,-0.027978360652923584,-0.024899626150727272,-0.011326492764055729,-0.020042814314365387,0.011936623603105545,-0.006319793406873941,0.012294836342334747,0.023663004860281944,-0.012419413775205612,-0.012762715108692646,0.016938837245106697,0.030985072255134583,-0.0014656439889222383,0.02009693905711174,0.03210688754916191,-0.02886759303510189,0.008375169709324837,-0.024707447737455368,0.0002158324496122077,-0.004540619906038046,0.013272407464683056,0.014272548258304596,0.005818085744976997,-0.020938077941536903,0.031229594722390175,-0.0023398902267217636,0.019462309777736664,-0.02843933366239071,0.016882937401533127,0.005307676736265421,-0.002921000123023987,0.006986065302044153,0.03095337562263012,0.006847890093922615,-0.026979513466358185,0.029738549143075943,0.013215536251664162,0.02647135779261589,0.009536528028547764,0.014603415504097939,-0.008113594725728035,-0.02522021345794201,0.013173443265259266,-0.00970354862511158,-0.001133318175561726,-0.023967647925019264,0.010475611314177513,0.019061090424656868,0.019388586282730103,-0.02036862261593342,0.02304445207118988,0.027567846700549126,-0.022051572799682617,0.003891271771863103,0.015768839046359062,-0.018330248072743416,-0.003560638753697276,0.0034547708928585052,0.018125368282198906,-0.027463123202323914,0.0315147340297699,0.012922869995236397,-0.012891999445855618,0.0320238433778286,0.011426354758441448,0.02215900830924511,0.014100661501288414,-0.009579640813171864,0.004454735666513443,0.018519386649131775,-0.00035625966847874224,-0.019765658304095268,-0.01846974343061447,0.02616100199520588,-0.02089765854179859,0.012482654303312302,0.014930544421076775,0.0196726955473423,0.00920858234167099,0.024698279798030853,0.004172157496213913,0.018684709444642067,0.03325273096561432,-0.02239137515425682,0.011640544980764389,-0.01092642080038786,0.03000214509665966,0.030650634318590164,0.0241923239082098,0.0027972511015832424,0.030845584347844124,0.01775955967605114,0.01944858208298683,-0.02122003212571144,0.02335887961089611,0.02168169990181923,0.016954682767391205,0.013478872366249561,0.020682333037257195,0.03264118358492851,-0.02948218770325184,-0.03176741674542427,0.012802288867533207,-0.006115183234214783,0.009542461484670639,-0.023737581446766853,0.01660039648413658,0.0022694673389196396,-0.028177188709378242,-0.00039722208748571575,0.030476288869976997,0.01652217097580433,-0.02343508042395115,-0.015105090104043484,-0.030037622898817062,-0.013850457966327667,-0.01359283085912466,-0.026012975722551346,0.004010620526969433,0.023067675530910492,-0.013972917571663857,-0.011380920186638832,0.014844057150185108,0.01096369605511427,-0.008027088828384876,0.019025515764951706,0.0034958613105118275,-0.004976342897862196,0.01640971750020981,0.02959904819726944,0.023980971425771713,-0.02019023708999157,-0.012003702111542225,-0.021048519760370255,0.029193835332989693,-0.023357924073934555,-0.02627374418079853,0.012381868436932564,-0.00451273238286376,-0.02685420587658882,0.019412459805607796,0.028102891519665718,-0.01299934834241867,-0.023561473935842514,0.009565304033458233,0.027651384472846985,-0.013981007970869541,-0.01772485114634037,0.015458439476788044,0.03234890475869179,0.02189384028315544,0.029162563383579254,-0.01443447731435299,0.03258699178695679,0.00017917320656124502,0.02533070743083954,0.03257206827402115,-0.02670316770672798,-0.008136252872645855,-0.006804759614169598,0.008904685266315937,0.015097923576831818,0.012511306442320347,-0.03137927129864693,0.0327790267765522,-0.02597138099372387,-0.023502519354224205,0.028648676350712776,0.016272619366645813,-0.010911766439676285,-0.0039117527194321156,-0.021787205711007118,0.0323605015873909,0.01825203187763691,0.020400451496243477,-0.023183448240160942,0.004277797415852547,0.008575154468417168,-0.020116019994020462,0.004561758134514093,-0.015420318581163883,-0.0027424206491559744,-0.030177177861332893,0.02154291234910488,-0.01534018013626337,0.006041788961738348,0.008816762827336788,0.013621684163808823,0.0016249781474471092,-0.026018459349870682,-0.023503052070736885,0.019968923181295395,-0.009371640160679817,0.014692268334329128,0.020630797371268272,0.00413673697039485,-0.02373640239238739,-0.0033188911620527506,-0.0029942025430500507,0.02400498278439045,-0.00014204309263732284,-0.031770478934049606,-0.0004570799646899104,0.023931214585900307,-0.0039231074042618275,-0.013524350710213184,-0.022543104365468025,-0.02236470952630043,-0.03097238577902317,0.009869770146906376,0.029643546789884567,0.007047437131404877,0.022017978131771088,0.0076170931570231915,0.012115268968045712,-0.027170633897185326,-0.009674709290266037,-0.003903172444552183,-0.02718477137386799,0.01400268729776144,-0.007948868907988071,0.03197209909558296,0.022010019049048424,0.01673099212348461,0.0004986730054952204,0.01569858379662037,-0.007734200451523066,-0.02819191850721836,-0.005778033751994371,-0.0010598977096378803,0.02192719653248787,0.029869575053453445,0.014381635934114456,0.005933783948421478,0.0022976133041083813,-0.021259281784296036,-0.0021030122879892588,-0.001811702037230134,0.00952934194356203,0.00959631148725748,-0.008614171296358109,0.01392589695751667,0.030838370323181152,-0.013900001533329487,-0.03309900313615799,-0.018878376111388206,0.004760071635246277,-0.012749315239489079,0.02531101182103157,-0.016471752896904945,-0.001483989879488945,-0.0316682867705822,0.022235669195652008,-0.0310677457600832,-0.0024780300445854664,-0.015460179187357426,0.027908505871891975,-0.016445200890302658,0.01345481164753437,-0.0046506039798259735,0.018295083194971085,-0.006867815740406513,-0.029651397839188576,0.01356425229460001,0.02438555844128132,-0.005941398907452822,-0.026989510282874107,0.03158927336335182,0.015828564763069153,0.012725718319416046,-0.03218885138630867,-0.016574781388044357,0.01808576099574566,-0.00872398354113102,0.011180425994098186,-0.0019298113184049726,0.0007149880402721465,-0.019609885290265083,0.009060228243470192,0.00762565154582262,0.01487966813147068,0.02565339207649231,0.011831847950816154,0.03258393332362175,-0.021802477538585663,0.025440217927098274,-0.01970539055764675,-0.011697478592395782,0.03207520395517349,-0.000022094702217145823,-0.0048775440081954,-0.02511180192232132,-0.030358120799064636,-0.001990156015381217,0.0228525772690773,-0.024194713681936264,-0.015759455040097237,-0.00007930497667985037,0.02876785397529602,-0.030681470409035683,-0.006758661940693855,0.027703432366251945,-0.004724161699414253,-0.027365902438759804,-0.02067475952208042,0.0023993069771677256,-0.014543685130774975,-0.017078788951039314,-0.016985533758997917,0.017666401341557503,-0.01835731789469719,-0.03290092200040817,-0.022433821111917496,0.026263989508152008,0.03193163126707077,0.005450292956084013,-0.004010748118162155,-0.031165599822998047,0.019791489467024803,-0.029539555311203003,-0.0287034772336483,0.004993284121155739,-0.015400435775518417,0.013408998027443886,-0.021836241707205772,-0.02223062701523304,-0.005730665288865566,-0.0036900267004966736,-0.007751922123134136,0.014053485356271267,0.0003289408632554114,-0.021775467321276665,-0.012622269801795483,-0.03246156871318817,0.013327368535101414,-0.013003992848098278,0.002760739764198661,-0.016973797231912613,-0.012328371405601501,-0.02337467484176159,0.008548441343009472,0.016189225018024445,-0.00833004992455244,-0.01988600194454193,0.028400633484125137,-0.01682852953672409,-0.008488094434142113,-0.022983184084296227,-0.024647384881973267,0.01915813982486725,0.01217707246541977,-0.008058062754571438,0.016467297449707985,0.025419745594263077,-0.005102537572383881,0.0065689170733094215,-0.01634972356259823,-0.025716569274663925,0.029687386006116867,0.004906197544187307,0.016375994309782982,-0.022213570773601532,-0.007390276994556189,-0.029888078570365906,-0.011498512700200081,0.009738890454173088,0.009361667558550835,0.005096821580082178,0.020082782953977585,-0.008644302375614643,-0.02105967327952385,0.0034400939475744963,-0.024161342531442642,-0.0033233652357012033,-0.008399930782616138,-0.010799896903336048,0.028924742713570595,0.030594391748309135,0.025523725897073746,0.017814626917243004,-0.003914178814738989,0.028529280796647072,0.02047315612435341,-0.019583120942115784,-0.004093984607607126,-0.029866956174373627,-0.02416503056883812,-0.01739807054400444,-0.0000685423074173741,0.024500859901309013,0.0227251797914505,-0.002653451869264245,-0.026493344455957413,-0.018331842496991158,0.012111803516745567,-0.0015383646823465824,0.02778216451406479,-0.012897555716335773,0.032308079302310944,0.021989762783050537,0.025903334841132164,-0.01859353296458721,0.0060021900571882725,-0.008238507434725761,-0.033113423734903336,-0.009602464735507965,0.02511291205883026,0.002814588602632284,-0.002288809511810541,0.00304110418073833,0.03125110641121864,-0.008610517717897892,0.026198308914899826,-0.006276966072618961,0.030895156785845757,-0.0028625656850636005,0.005593983922153711,-0.02628057822585106,0.029783476144075394,-0.011338339187204838,0.004314400255680084,0.02836979366838932,-0.030368341132998466,-0.012623384594917297,-0.0012074768310412765,0.022070493549108505,-0.010783323086798191,0.02519978955388069,-0.021362530067563057,-0.0009334906353615224,-0.005236854311078787,-0.007826261222362518,-0.017478710040450096,0.026033248752355576,-0.0221475288271904,-0.030594756826758385,0.013836825266480446,-0.004599874839186668,0.012496808543801308,0.018189135938882828,0.0004665686283260584,0.024465542286634445,-0.029705926775932312,0.03017706237733364,-0.019043082371354103,-0.03178329020738602,-0.015093116089701653,0.017542151734232903,-0.007941382005810738,0.030550982803106308,0.021524423733353615,0.032388996332883835,-0.02476581744849682,0.010654103010892868,0.030876219272613525,-0.018327249214053154,0.01788829267024994,0.01540403626859188,-0.020190149545669556,0.014527624472975731,0.012036849744617939,-0.014348766766488552,-0.01600596308708191,-0.004319966770708561,-0.026261551305651665,0.030085409060120583,-0.004617464262992144,0.014280447736382484,0.029503950849175453,0.02532845363020897,0.018483076244592667,0.0017989844782277942,0.006571005564182997,0.011180724017322063,-0.015477471053600311,-0.010401616804301739,-0.021166712045669556,-0.030383750796318054,-0.006323701236397028,-0.026691503822803497,-0.013642468489706516,-0.010277071967720985,-0.009091803804039955,-0.023152485489845276,-0.017166350036859512,0.012303095310926437,0.011465503834187984,0.008755037561058998,-0.024960651993751526,0.02974117174744606,-0.011616806499660015,0.00028879742603749037,0.028635798022150993,0.012420350685715675,0.02348925732076168,-0.003765916684642434,-0.003105871845036745,-0.028664739802479744,0.03022714890539646,-0.01577109843492508,0.018472380936145782,0.005040829069912434,-0.030818697065114975,-0.005756028927862644,-0.014768130145967007,-0.0051316795870661736,0.0009929947555065155,0.004257913213223219,0.010249580256640911,0.029586751013994217,0.02921810746192932,0.024776393547654152,-0.012889589183032513,0.028011111542582512,0.0029131267219781876,0.026395723223686218,0.02996646985411644,-0.011790694668889046,-0.011037834919989109,0.027950547635555267,-0.02783670648932457,-0.006357434671372175,0.02552833966910839,0.030238544568419456,-0.03329850733280182,-0.02443789690732956,-0.02547195553779602,-0.024421054869890213,0.005437562242150307,-0.01791912317276001,-0.0005101694841869175,-0.02091977186501026,-0.02484285458922386,-0.019332101568579674,-0.029923100024461746,0.010417036712169647,0.025120435282588005,-0.009855063632130623,-0.021325377747416496,-0.03322294354438782,0.012975022196769714,0.023839516565203667,-0.03258223831653595,0.025071272626519203,-0.011411582119762897,0.016141081228852272,0.030591536313295364,0.012424523942172527,0.006254496052861214,0.009091867133975029,0.003678120905533433,0.0037452985998243093,0.0007569989538751543,-0.02017752081155777,0.024527283385396004,0.031765516847372055,-0.017382271587848663,-0.023113807663321495,0.007347166538238525,0.01729334518313408,0.03203735873103142,0.0069487146101891994,0.023190727457404137,0.02714591473340988,-0.02436555176973343,0.03031962178647518,0.005566384643316269,0.022042034193873405,-0.022328445687890053,0.0084447730332613,0.008011095225811005,-0.005937176290899515,0.0035006720572710037,-0.004843008238822222,0.001172982738353312,-0.02721765823662281,0.015866193920373917,0.02932056039571762,0.009382779709994793,0.007628725375980139,0.015257982537150383,0.026739539578557014,-0.028175001963973045,0.027371883392333984,0.012211404740810394,0.021265018731355667,0.027904236689209938,0.008892016485333443,0.026778139173984528,0.013117758557200432,-0.011283930391073227,-0.014102143235504627,0.015610008500516415,0.022894438356161118,0.008545921184122562,0.030528590083122253,-0.027510767802596092,0.02245239168405533,-0.0017885436536744237,-0.03277596831321716,-0.029881799593567848,0.00898337084800005,-0.029336828738451004,-0.022633008658885956,0.024983564391732216,0.022899573668837547,0.01683606207370758,-0.005049264524132013,0.01278899610042572,0.003445262322202325,0.011813906952738762,0.01382826641201973,0.01652771420776844,0.01507900282740593,0.02437145635485649,-0.0018313160398975015,0.02550445683300495,0.022976862266659737,0.027848217636346817,0.030679812654852867,0.003960971720516682,0.003576890332624316,-0.01992519572377205,0.02311381883919239,0.0156844649463892,0.028353042900562286,-0.0190779659897089,0.02402251586318016,0.005693129729479551,-0.0032337727025151253,0.024217884987592697,0.013194586150348186,-0.03253334015607834,0.01696818135678768,-0.009862211532890797,-0.002825745614245534,0.01669135130941868,0.02711579203605652,0.02605411782860756,-0.007734875660389662,-0.01142402645200491,0.0319957472383976,-0.02262754738330841,-0.013116283342242241,-0.025320081040263176,-0.0327599011361599,0.024692311882972717,0.008484391495585442,-0.00030663012876175344,-0.013062193989753723,0.00905187614262104,0.025333445519208908,-0.023975567892193794,-0.022310463711619377,0.017858749255537987,0.027338718995451927,0.01110961101949215,0.02296932227909565,-0.0030433256179094315,-0.02932962030172348,0.006894063204526901,0.018780158832669258,0.0055556525476276875,0.012731519527733326,0.009981048293411732,-0.011201133020222187,0.008787165395915508,-0.008430578745901585,-0.012410301715135574,-0.024665774777531624,-0.00424220459535718,0.0016879064496606588,0.025581909343600273,-0.015522454865276814,0.03158684819936752,-0.015395577996969223,-0.03283598646521568,0.0019327383488416672,-0.02203325740993023,0.02928948774933815,-0.015980787575244904,-0.00301939039491117,0.03306499868631363,-0.0005981766153126955,0.026915838941931725,0.008226132951676846,-0.027096379548311234,-0.009682712145149708,0.014639178290963173,0.01818779483437538,0.00456576282158494,0.03314907103776932,-0.00664751511067152,0.015739496797323227,0.008548684418201447,0.0018958855653181672,0.0037580064963549376,-0.02622038498520851,-0.0017083650454878807,0.004063399042934179,0.018268093466758728,-0.031525325030088425,0.02397352084517479,0.001524785184301436,0.023431161418557167,0.030199453234672546,0.000020143703295616433,-0.031094975769519806,-0.026897091418504715,0.014226306229829788,-0.02356904000043869,0.006820980925112963,-0.01258297823369503,-0.020014755427837372,-0.0208174679428339,-0.008709554560482502,0.016388852149248123,0.027023322880268097,-0.0064260223880410194,0.032115302979946136,0.010705091059207916,-0.002369625261053443,0.013749777339398861,0.024322940036654472,0.012628593482077122,-0.012042929418385029,-0.010689923539757729,-0.032873623073101044,0.005130161996930838,0.01436904352158308,-0.001745650195516646,-0.030418619513511658,-0.001554155140183866,0.00567751657217741,0.017634671181440353,0.008893648162484169,0.008917504921555519,0.010813615284860134,-0.012687752954661846,-0.01990683190524578,-0.000401886209147051,0.0006686990382149816,-0.011834210716187954,-0.013900140300393105,-0.00865896325558424,0.03005955182015896,-0.01703430339694023,-0.003976911306381226,-0.00900224782526493,-0.01986895315349102,0.014199764467775822,-0.01027832180261612,-0.027265945449471474,-0.021795086562633514,0.014302218332886696,0.009783278219401836,-0.01559949479997158,-0.01707584224641323,-0.017353055998682976,-0.03303901478648186,0.00978212058544159,-0.023237813264131546,0.027110636234283447,0.00045302161015570164,0.003557808231562376,0.003710170742124319,-0.0016299050766974688,-0.02689243294298649,0.02308819815516472,0.015939120203256607,-0.02245558612048626,-0.0028741529677063227,-0.01229789201170206,0.024377742782235146,-0.022344958037137985,-0.0008484717691317201,-0.01516161672770977,0.009089387021958828,0.02729446068406105,-0.01095030177384615,-0.006870755925774574,-0.019862739369273186,-0.016544047743082047,0.026328934356570244,-0.022782767191529274,0.0017560425912961364,0.03207923844456673,0.01147893164306879,0.01586141437292099,-0.01857941970229149,0.02675829827785492,0.02062232606112957,0.013671641238033772,-0.0031560577917844057,0.005198814906179905,-0.009229574352502823,-0.024586400017142296,-0.033213045448064804,-0.003272713627666235,-0.03195473924279213,0.024064116179943085,-0.017899196594953537,-0.02688663825392723,0.00024358143855351955,-0.03003080189228058,0.02998296730220318,0.0013025242369621992,-0.01661221869289875,-0.028600845485925674,0.005056729074567556,0.01653534732758999,0.02503219246864319,0.025147022679448128,0.007123173214495182,-0.012851634062826633,-0.003855859162285924,0.016844017431139946,-0.028247956186532974,-0.02794823795557022,-0.02226058579981327,0.0000575283556827344,-0.023406874388456345,-0.024218451231718063,0.03156919404864311,0.02259797230362892,-0.00021950152586214244,0.01374384667724371,-0.0226836446672678,0.02999834530055523,0.008190085180103779,-0.021539853885769844,0.016628345474600792,-0.01954171061515808,0.03326026350259781,0.012104427441954613,-0.014215691015124321,0.01992555521428585,0.0183766707777977,-0.01002393290400505,-0.02575474977493286,0.006151706445962191,-0.01500625815242529,-0.003387255361303687,-0.029999159276485443,-0.011794168502092361,-0.0014689831295982003,-0.0021275412291288376,0.031632907688617706,-0.0009104335913434625,-0.024060187861323357,0.008799306116998196,0.018359074369072914,-0.01619429513812065,0.027094488963484764,0.02692597173154354,0.028253784403204918,0.0066495067439973354,-0.009581444784998894,0.02402753196656704,0.02400457300245762,0.015170111320912838,-0.01856546849012375,0.02417515404522419,-0.015542383305728436,-0.0010607171570882201,0.00649010855704546,-0.030495159327983856,0.026774847880005836,-0.009325077757239342,0.014577532187104225,-0.00017915900389198214,-0.027207566425204277,0.012700977735221386,0.02982967160642147,-0.008932184427976608,0.009893123991787434,0.005740574561059475,0.02375338040292263,-0.0009419664274901152,0.019552862271666527,-0.02327301912009716,-0.02819877490401268,0.02631022036075592,0.009114967659115791,-0.007281969767063856,-0.01136773731559515,0.002461852505803108,-0.03125813230872154,0.02905171923339367,0.011133760213851929,0.02283060923218727,0.0008299667970277369,0.02213263139128685,-0.01550743542611599,-0.006239557638764381,-0.01726461946964264,-0.02357538975775242,0.022276781499385834,0.00707497913390398,0.002529674908146262,0.018543552607297897,0.000918895413633436,-0.02475074678659439,0.02898969128727913,-0.028455154970288277,-0.0016717471880838275,-0.01583808846771717,-0.02198321744799614,0.005149149801582098,0.013027175329625607,0.007645048666745424,-0.022277403622865677,0.005780380219221115,0.02606694959104061,0.017930520698428154,0.02121855318546295,0.026428604498505592,0.006936879362910986,0.02025015279650688,-0.006790946237742901,-0.007781228981912136,0.016322769224643707,0.026643022894859314,-0.012509527616202831,0.007093248423188925,-0.024775680154561996,0.006165775936096907,0.014533106237649918,0.014744906686246395,-0.002045087283477187,0.0020571493078023195,0.011847689747810364,-0.027149366214871407,-0.009800832718610764,0.025081131607294083,-0.023534554988145828,0.027914151549339294,-0.013407393358647823,0.004593111574649811,-0.02291804924607277,-0.0047909351997077465,-0.028381234034895897,-0.02180764451622963,0.032736536115407944,0.02643456682562828,-0.026681773364543915,0.024689557030797005,0.005592777859419584,-0.014726081863045692,0.023070892319083214,0.02987186424434185,-0.030094288289546967,-0.005939947906881571,0.012069414369761944,0.012210872955620289,-0.013024335727095604,-0.008068612776696682,0.0022754957899451256,0.01180966105312109,-0.02588505484163761,0.024156073108315468,-0.023954415693879128,-0.004861588589847088,-0.013320310972630978,0.01944730244576931,0.03146610036492348,0.0319129042327404,0.021170319989323616,0.020266778767108917,0.0072495341300964355,0.01598815806210041,-0.008770930580794811,-0.005957368761301041,0.01829133741557598,-0.028774898499250412,0.03038213402032852,-0.004278798587620258,0.01690940372645855,0.0033258211333304644,-0.012526305392384529,-0.0062598735094070435,0.005915658548474312,-0.021145183593034744,0.009175627492368221,-0.003571001812815666,0.017849279567599297,0.005064114928245544,0.0278983972966671,-0.031007802113890648,0.006285130977630615,-0.014156414195895195,0.004015305545181036,0.023957619443535805,-0.022057553753256798,0.030591217800974846,-0.009175638668239117,-0.013556775636970997,0.02311423420906067,0.02683809958398342,-0.014858599752187729,0.007740141823887825,0.03256191685795784,-0.002913800301030278,0.031217196956276894,-0.028074562549591064,0.014686222188174725,0.025601128116250038,-0.019867759197950363,-0.02963014505803585,0.011074491776525974,-0.022712424397468567,0.014677724801003933,0.026437532156705856,-0.024797625839710236,-0.033007726073265076,-0.015669215470552444,-0.023198235780000687,0.030678793787956238,-0.021007513627409935,0.016599508002400398,0.017297714948654175,-0.032648224383592606,-0.004319590982049704,-0.02427363209426403,-0.008648664690554142,0.03158310800790787,-0.01581777073442936,0.024798022583127022,-0.03171682730317116,0.010501372627913952,0.013057478703558445,0.0030717975459992886,-0.01793053187429905,-0.01285541895776987,0.02009272389113903,0.0311982911080122,-0.020146600902080536,-0.00844854861497879,-0.01864565722644329,0.028058858588337898,0.029997946694493294,0.002638487610965967,0.0060675377026200294,-0.006032598204910755,0.00027674430748447776,0.0248539000749588,0.00011175940744578838,-0.019629474729299545,0.028876204043626785,-0.024126052856445312,-0.005209361203014851,-0.026675531640648842,0.00022568661370314658,-0.0164063461124897,0.022644147276878357,0.013107086531817913,0.015704376623034477,0.024262895807623863,-0.011682318523526192,-0.004357585217803717,0.02215382270514965,-0.02471090480685234,0.01720047928392887,0.008661232888698578,-0.0175931416451931,-0.010942182503640652,-0.014128978364169598,0.027075115591287613,0.02480710670351982,0.010591988451778889,-0.03239290416240692,-0.001293835579417646,-0.016549378633499146,-0.0301106758415699,-0.011150152422487736,0.015266584232449532,0.002127269050106406,0.028945229947566986,0.01398939173668623,-0.021679285913705826,0.0028245931025594473,0.021740121766924858,0.015662407502532005,-0.019560031592845917,0.02779652550816536,0.01908007450401783,0.023195020854473114,0.01907576620578766,-0.026166312396526337,-0.028588924556970596,-0.016173742711544037,-0.0037555682938545942,0.030690914019942284,-0.006179444491863251,-0.03194715455174446,-0.01103002019226551,-0.027018019929528236,-0.013877439312636852,-0.014528432860970497,0.03270980343222618,-0.016270097345113754,0.01674484834074974,-0.010017388500273228,0.006154108326882124,-0.030470604076981544,0.001425457769073546,-0.013818623498082161,-0.023022755980491638,0.005103603936731815,0.0249415785074234,0.008169557899236679,0.0119424257427454,-0.018060842528939247,-0.0273478701710701,-0.006526642479002476,-0.010617747902870178,-0.02120436728000641,-0.026787851005792618,-0.01842273771762848,0.029230330139398575,0.02845919318497181,0.01827912963926792,-0.006033895071595907,0.012740692123770714,-0.003949064761400223,0.004840328823775053,-0.006280902773141861,-0.026216650381684303,-0.029486214742064476,-0.008904716931283474,-0.028848852962255478,0.017454175278544426,-0.001958730397745967,0.01651845872402191,-0.00389918708242476,-0.01663387194275856,0.00031831811065785587,-0.005745167378336191,-0.004948373418301344,-0.0018234929302707314,-0.03090967983007431,-0.019935812801122665,-0.01952102966606617,0.022169429808855057,-0.030601605772972107,0.00714100431650877,0.0009485806804150343,0.0031080450862646103,-0.0090777687728405,-0.010407594032585621,0.02894485741853714,-0.022980328649282455,0.00998579990118742,-0.0185336135327816,-0.0031239516101777554,0.03231697529554367,-0.002385552739724517,0.012978953309357166,-0.02684064768254757,-0.007135766092687845,-0.03139283135533333,-0.008160042576491833,0.03167032077908516,0.027430808171629906,-0.0026056815404444933,0.022372232750058174,-0.010985414497554302,0.021119462326169014,-0.0075662145391106606,0.011530757881700993,0.019661474972963333,-0.01533965952694416,0.01912698894739151,0.015493477694690228,0.018173785880208015,-0.008206557482481003,0.015711601823568344,-0.02161102369427681,-0.02899000234901905,-0.02616565115749836,-0.028112608939409256,-0.01781836897134781,0.02161642722785473,0.009455285966396332,0.0018248235573992133,-0.0037280931137502193,0.016529744490981102,-0.0226405318826437,-0.0243806391954422,0.031120706349611282,0.021217163652181625,-0.03013261780142784,0.02365761622786522,0.020936425775289536,0.023195400834083557,0.006364779081195593,-0.018252193927764893,0.009544460102915764,0.002876203041523695,0.03257504850625992,-0.030172288417816162,0.03330922871828079,-0.01940283179283142,-0.025922346860170364,-0.008327378891408443,-0.02952604740858078,-0.01655742898583412,0.005883072502911091,-0.007933523505926132,0.021534189581871033,0.009706179611384869,0.030501512810587883,-0.01648247241973877,-0.008187764324247837,-0.032468032091856,0.0307411327958107,0.01855309121310711,0.0300320852547884,0.01339401863515377,0.027238374575972557,-0.015720589086413383,0.033254966139793396,0.013749949634075165,0.02918206714093685,0.018791941925883293,-0.010719828307628632,0.017867909744381905,-0.027627790346741676,0.004087904002517462,0.00391074875369668,0.021840285509824753,-0.022625450044870377,-0.007876463234424591,-0.020412616431713104,-0.025279002264142036,-0.002343707485124469,-0.0010097576305270195,0.03026726469397545,-0.007979883812367916,0.016692768782377243,0.008726612664759159,-0.031169459223747253,0.017185930162668228,0.01073653157800436,-0.030488377436995506,0.022044820711016655,0.021825004369020462,0.011574789881706238,-0.026457354426383972,-0.021197116002440453,0.023485660552978516,-0.024304034188389778,0.02261490933597088,-0.0008558786939829588,0.014031808823347092,-0.030811749398708344,-0.0194622240960598,0.012384633533656597,0.016717080026865005,-0.02102554403245449,0.010904028080403805,-0.00869406946003437,-0.01671743579208851,-0.011529006995260715,-0.010952423326671124,0.016205856576561928,-0.014312675222754478,-0.02412322536110878,0.0311978068202734,-0.027803367003798485,0.015245543792843819,0.009954229928553104,-0.012150849215686321,0.03111296519637108,-0.013975891284644604,-0.03190113976597786,-0.030354561284184456,-0.02714117243885994,-0.017706234008073807,-0.0186660997569561,-0.03211991861462593,0.02311386913061142,-0.030194610357284546,-0.012547464109957218,-0.013162238523364067,0.01162339560687542,-0.02739640884101391,-0.001209642505273223,0.01766374707221985,0.0009127476369030774,-0.02864839695394039,0.00019554355822037905,-0.027010373771190643,0.004147943574935198,-0.027430927380919456,0.004240171518176794,-0.031235340982675552,-0.024949776008725166,-0.019666248932480812,-0.03148168697953224,-0.0291806198656559,-0.013955462723970413,-0.031312089413404465,-0.008832509629428387,0.03243258595466614,0.011281577870249748,0.024487586691975594,-0.009541470557451248,0.005945730954408646,0.004545341711491346,-0.026004448533058167,-0.002183898352086544,-0.00641947565600276,0.010649686679244041,-0.008625860325992107,0.030110906809568405,-0.029732603579759598,0.00512905465438962,-0.021543879061937332,0.016735868528485298,0.0009369089966639876,0.02456209436058998,0.014584103599190712,-0.011951087042689323,0.02588062360882759,0.009513633325695992,0.004866344388574362,-0.026256663724780083,0.02450444921851158,0.028376126661896706,0.022485723719000816,0.009714171290397644,-0.02639082819223404,0.009363366290926933,0.027867557480931282,-0.019116755574941635,-0.004785977303981781,0.02165822684764862,0.03260152414441109,-0.018893884494900703,-0.01527385227382183,-0.0037063041236251593,-0.013421952724456787,0.014452898874878883,-0.0025097643956542015,-0.03012191690504551,-0.013242100365459919,0.0013080021599307656,-0.006525137461721897,0.033097244799137115,-0.018053224310278893,-0.01678663119673729,0.006913849618285894,0.007001243066042662,-0.03048531897366047,0.013884632848203182,-0.029962947592139244,-0.016478005796670914,-0.019028548151254654,0.011278914287686348,0.029683783650398254,-0.012504099868237972,-0.022711120545864105,-0.02774580754339695,0.008787255734205246,-0.0053018843755126,-0.004360985476523638,0.02234097197651863,-0.011843952350318432,-0.03162749111652374,0.001966657815501094,-0.01983289234340191,-0.018861893564462662,0.02406194806098938,0.0006495349807664752,0.02085619419813156,-0.019306648522615433,-0.028892001137137413,0.003922356758266687,0.017998037859797478,-0.017390405759215355,-0.0005832789465785027,-0.028832918033003807,0.030178599059581757,0.012782909907400608,-0.008514093235135078,-0.003023985307663679,-0.02616322599351406,0.01811496913433075,-0.005633332766592503,0.004319550469517708,0.023629428818821907,-0.006554244551807642,-0.01680673286318779,-0.0017635414842516184,-0.029204152524471283,-0.004058535676449537,0.025830145925283432,-0.029800202697515488,-0.03279009833931923,0.01354628149420023,0.019643962383270264,-0.006514723412692547,-0.02540281042456627,0.005960710346698761,-0.01333604846149683,0.02253759652376175,0.0027957046404480934,-0.01860348880290985,-0.03248095139861107,0.022554896771907806,0.0075715165585279465,-0.0008191409287974238,-0.0072908359579741955,-0.015866491943597794,-0.0023399407509714365,-0.02826394885778427,0.02612971141934395,-0.003959619905799627,0.005735103506594896,-0.002941341605037451,-0.0022241149563342333,-0.025811711326241493,0.0004834486171603203,-0.005892126355320215,-0.011057998985052109,0.0162342581897974,-0.00024480358115397394,-0.011827695183455944,0.007495075464248657,-0.008517210371792316,0.031832531094551086,-0.018742842599749565,0.0152480723336339,0.02888031303882599,0.024887606501579285,-0.004861089866608381,0.01750641129910946,-0.012713194824755192,0.022299736738204956,0.029183058068156242,-0.011174571700394154,0.020233968272805214,-0.009613563306629658,0.005196309182792902,-0.027259724214673042,0.01578281819820404,0.0035232079681009054,0.02624390833079815,-0.012906827963888645,-0.0009613208821974695,0.007876051589846611,0.008206418715417385,-0.007616985589265823,-0.010580765083432198,-0.014481444843113422,0.009232796728610992,0.010589045472443104,0.019929273054003716,0.007920321077108383,0.030124010518193245,0.009466416202485561,0.007805703207850456,0.028313158079981804,-0.03172561898827553,0.010530306957662106,-0.03086182475090027,-0.018198834732174873,-0.01923096925020218,0.019405895844101906,-0.003551073372364044,0.0032472468446940184,0.0002668976376298815,0.02918500080704689,-0.03166012465953827,0.010003394447267056,-0.03111855499446392,0.011010241694748402,-0.007988478988409042,0.023775458335876465,-0.009096273221075535,-0.01605602353811264,-0.020169725641608238,0.021450430154800415,0.004236757289618254,-0.008118954487144947,-0.022589875385165215,-0.010023720562458038,0.008691460825502872,-0.02429007738828659,-0.03211495280265808,0.02849539741873741,-0.03084379993379116,-0.024468807503581047,0.012401577085256577,-0.029362309724092484,0.03304525464773178,0.015829144045710564,-0.014482966624200344,-0.000011924549653485883,0.005034992471337318,-0.022168193012475967,0.0004701949656009674,-0.0034015111159533262,0.024709083139896393,-0.024099329486489296,0.017256293445825577,0.020554186776280403,0.027815310284495354,-0.02855094149708748,-0.026973383501172066,0.0014321451308205724,-0.02281235344707966,-0.006406515371054411,-0.03091864287853241,0.007212876807898283,-0.005302993580698967,0.004906411282718182,0.011255950666964054,0.02222970314323902,0.0183122381567955,0.033079296350479126,-0.028099026530981064,-0.020581079646945,-0.012477616779506207,0.019577428698539734,-0.0058712647296488285,0.028763677924871445,0.00402282876893878,-0.013967870734632015,0.02969699166715145,-0.012600000947713852,0.013941248878836632,-0.01798054575920105,0.01903379149734974,-0.03276420384645462,0.002671545837074518,0.03211910277605057,-0.02260296791791916,-0.017583053559064865,-0.0012824262958019972,0.010338067077100277,-0.0043887002393603325,-0.005941266659647226,0.024701189249753952,-0.01093673799186945,-0.02702387608587742,-0.01638714410364628,-0.028908243402838707,-0.010827087797224522,0.01014455035328865,0.010245341807603836,0.02814786322414875,0.026882899925112724,0.006148223765194416,-0.03228581324219704,-0.023696893826127052,-0.02210397645831108,0.022484488785266876,0.030382689088582993,0.022823793813586235,-0.013955987058579922,-0.02016042359173298,0.013447449542582035,-0.023995663970708847,-0.0055260262452065945,0.024770231917500496,0.025129329413175583,-0.018309617415070534,0.025274867191910744,0.027903828769922256,0.030250612646341324,0.006847512908279896,-0.01056867279112339,0.03175356611609459,0.006989679299294949,0.00972918514162302,-0.005933067295700312,-0.022082194685935974,-0.014939483255147934,-0.007912739180028439,0.021309558302164078,-0.032007697969675064,-0.01024959422647953,0.021488845348358154,-0.023616928607225418,0.008327272720634937,0.00698775565251708,-0.02294653095304966,-0.020455602556467056,0.027136318385601044,-0.031641602516174316,-0.018895618617534637,0.009761441498994827,-0.030888639390468597,0.0012306782882660627,0.008703773841261864,-0.013238681480288506,0.02777063101530075,-0.012454613111913204,-0.022941799834370613,0.019130799919366837,-0.014579283073544502,-0.002432632725685835,0.026998335495591164,0.012365374714136124,0.013361549004912376,0.032153479754924774,0.016570106148719788,0.021237680688500404,0.02808721549808979,0.02009686641395092,-0.028863929212093353,0.018852783367037773,-0.014685800299048424,0.029330559074878693,0.03204226866364479,-0.01559731736779213,-0.019041629508137703,-0.012240996584296227,-0.026103651151061058,0.02882065251469612,-0.009868280030786991,-0.02669670805335045,0.010725290514528751,-0.029783474281430244,0.015255292877554893,-0.023577844724059105,0.02851262502372265,0.03185628354549408,-0.01836271956562996,-0.015182268805801868,-0.0024721778463572264,-0.025529097765684128,0.017058202996850014,-0.012885509990155697,-0.00785025767982006,-0.007634899578988552,-0.0027918540872633457,-0.025803612545132637,0.0007798983133397996,-0.024725032970309258,0.03268623724579811,-0.010242036543786526,0.03042207844555378,-0.012505190446972847,-0.033057134598493576,-0.011139551177620888,-0.0013685132144019008,-0.008752549067139626,0.022694731131196022,-0.02567458525300026,0.0027963737957179546,-0.016197126358747482,-0.015033240430057049,-0.0028602166566997766,0.02708834782242775,0.01438717171549797,0.012042100541293621,0.024981124326586723,0.011911176145076752,-0.0027460812125355005,-0.021445060148835182,0.007127902936190367,0.031972736120224,-0.014695682562887669,0.00891367718577385,0.009942764416337013,-0.03014504909515381,0.01936941407620907,0.027565941214561462,-0.022965501993894577,-0.006110742688179016,-0.009175729006528854,0.011196872219443321,0.025072257965803146,-0.004712532740086317,0.009861955419182777,0.026070937514305115,-0.026459166780114174,0.030449287965893745,-0.014071769081056118,-0.011924092657864094,-0.009768873453140259,-0.004033498000353575,-0.004387774970382452,0.005719130393117666,-0.02527899108827114,0.01639823243021965,-0.02141766995191574,-0.012222116813063622,-0.01931830868124962,-0.0017305841902270913,0.015086404047906399,-0.028466401621699333,-0.014239010401070118,-0.008923022076487541,-0.030080795288085938,0.0312417633831501,-0.00387639575637877,0.0004346452478785068,-0.00585880596190691,-0.008700866252183914,0.004809726495295763,-0.007831171154975891,0.02474203333258629,-0.023843085393309593,0.017954550683498383,-0.007420400623232126,0.015323019586503506,-0.01931636407971382,0.0016437930753454566,0.0017095264047384262,-0.010783081874251366,-0.02919180504977703,0.03016803041100502,-0.0006805220618844032,-0.005367160774767399,0.024639835581183434,0.027374714612960815,-0.029400108382105827,-0.02095515839755535,-0.015029514208436012,0.03133251145482063,-0.008129844442009926,0.02170659974217415,0.02996557019650936,-0.003785941516980529,0.008958499878644943,0.021114135161042213,-0.028805889189243317,0.030319804325699806,0.01264637615531683,0.005114705301821232,-0.03081449493765831,-0.021279767155647278,-0.010347362607717514,-0.03211508318781853,0.022177446633577347,0.030405815690755844,0.026992319151759148,-0.0116047915071249,-0.004823518916964531,-0.02771894820034504,-0.01702885329723358,0.014821574091911316,0.026750940829515457,-0.03287152200937271,0.009527185000479221,0.006873379927128553,0.02080891840159893,-0.0014818652998656034,0.006501564756035805,-0.02591019496321678,-0.03326278179883957,-0.02250845357775688,-0.02176155149936676,-0.02473197691142559,0.011317560449242592,-0.022327903658151627,-0.008009688928723335,-0.005697567015886307,-0.029447197914123535,-0.0324719175696373,-0.017398642376065254,-0.0012399174738675356,0.016225114464759827,0.03252745792269707,-0.0049471682868897915,-0.019066892564296722,-0.02792368456721306,0.008939413353800774,-0.007366197649389505,-0.03063368983566761,0.013649350963532925,0.013405736535787582,0.012469758279621601,-0.006301200482994318,0.023846594616770744,-0.005454469937831163,-0.028080521151423454,0.011072738096117973,0.011699232272803783,0.025480039417743683,-0.032212842255830765,0.007106562610715628,0.028594480827450752,0.015360782854259014,0.0014743711799383163,-0.02066217176616192,0.009461157023906708,0.007921863347291946,0.023040587082505226,0.010336008854210377,-0.00705106183886528,0.010988151654601097,-0.027974702417850494,-0.012430453673005104,0.015518879517912865,-0.014414392411708832,0.012340238317847252,0.014712916687130928,0.003724524285644293,-0.018038861453533173,0.0014140700222924352,0.029780859127640724,-0.0032306828070431948,0.009816671721637249,0.002868400886654854,-0.033124230802059174,0.02201266586780548,0.004533189814537764,0.024816295132040977,-0.008436593227088451,0.021712420508265495,0.0026686193887144327,-0.0255829319357872,-0.030953211709856987,0.01991957612335682,-0.025177964940667152,0.014622548595070839,0.008245056495070457,-0.028352679684758186,0.000600052357185632,-0.0320683978497982,-0.009439700283110142,0.021641282364726067,0.0006259444635361433,0.020771317183971405,-0.023987924680113792,-0.0018435908714309335,0.012014198116958141,0.022701747715473175,-0.02770565077662468,-0.019500700756907463,-0.011596421711146832,-0.0050438083708286285,-0.0261604692786932,0.007560451049357653,0.0035699529107660055,0.01885855942964554,0.014113107696175575,0.012069931253790855,0.006998408120125532,0.0260135717689991,0.01091962493956089,-0.0082002067938447,0.01313900575041771,-0.0027415622025728226,0.028512049466371536,0.02994862012565136,-0.02625885047018528,-0.009987849742174149,0.02973439358174801,0.023985063657164574,-0.008432154543697834,-0.011293904855847359,0.014832391403615475,0.007118983659893274,0.030421661213040352,-0.011740793474018574,0.01221609115600586,-0.00493063498288393,-0.01991095580160618,-0.006213703192770481,0.0045843347907066345,-0.031598664820194244,-0.015048537403345108,0.009256314486265182,-0.02652544155716896,-0.015965692698955536,-0.0023931250907480717,-0.02563336491584778,0.013576117344200611,-0.02791753038764,-0.004053459037095308,0.015575320459902287,-0.030515683814883232,0.01155686192214489,0.01766541227698326,0.028450436890125275,-0.0013646576553583145,-0.006328043062239885,-0.007557221222668886,0.023731349036097527,-0.021791953593492508,0.003018454648554325,-0.009821279905736446,0.018553193658590317,-0.01969238370656967,-0.013339672237634659,-0.01842084527015686,-0.0069039976224303246,0.030571656301617622,0.0051664989441633224,-0.021071653813123703,-0.006477778311818838,0.002428768202662468,-0.007342779077589512,0.007895687595009804,0.03300917148590088,-0.014267594553530216,-0.02336183749139309,0.0174555666744709,0.03096098080277443,-0.008077332749962807,-0.02816014736890793,-0.009761403314769268,0.03229622542858124,0.0070133148692548275,0.016772808507084846,-0.012948424555361271,0.03235553577542305,-0.008127682842314243,0.0012611476704478264,0.032639775425195694,0.009800417348742485,0.024132343009114265,-0.022820040583610535,0.013433808460831642,0.016306059435009956,0.007581000216305256,-0.008187823928892612,0.016430411487817764,0.0195915549993515,0.013606824912130833,0.03267659619450569,0.026280121877789497,-0.022843049839138985,-0.023352328687906265,0.012847453355789185,0.024293305352330208,-0.006266061216592789,0.022800084203481674,-0.022901570424437523,0.017793554812669754,0.027917854487895966,0.014806918799877167,-0.011996690183877945,0.032723452895879745,-0.014034454710781574,-0.01417535264045,-0.022873038426041603,0.008764336816966534,0.011433745734393597,-0.01938321441411972,0.0039978427812457085,-0.02426666021347046,-0.015654301270842552,0.026964208111166954,0.016408681869506836,-0.0028894252609461546,0.0001567705039633438,-0.015290620736777782,0.02165864408016205,0.010568278841674328,-0.023725315928459167,-0.02466881461441517,-0.012990806251764297,-0.012925703078508377,-0.023368166759610176,0.020708279684185982,0.0282724779099226,-0.017024587839841843,-0.0043822466395795345,-0.0033630281686782837,0.015941783785820007,0.002197037450969219,0.00036405486753210425,0.017908547073602676,-0.006349522620439529,-0.025364940986037254,0.0024333233013749123,-0.0014209753135219216,-0.024144262075424194,0.013444256037473679,-0.001565401442348957,0.00555627653375268,-0.005703476723283529,0.027526283636689186,-0.03162924200296402,-0.028677383437752724,0.0020607118494808674,0.030809255316853523,-0.03269946202635765,0.0011026019928976893,-0.004327504429966211,-0.03148035332560539,0.02077154815196991,0.02504560351371765,0.022928403690457344,0.018961723893880844,0.01563171297311783,0.009576637297868729,-0.029199201613664627,0.021538492292165756,0.0017241030000150204,0.013821744360029697,-0.021204089745879173,0.03301532566547394,-0.031105050817131996,-0.008301833644509315,0.018296556547284126,-0.012761346995830536,-0.025080667808651924,0.006846361327916384,0.031150368973612785,0.02771759405732155,-0.011827251873910427,0.03200206160545349,0.018667543306946754,-0.025110673159360886,0.007954178377985954,0.03091173619031906,0.03031063638627529,0.002619215054437518,0.029860731214284897,0.03158963844180107,0.011434003710746765,-0.026809729635715485,-0.0005362287629395723,-0.016503317281603813,-0.02858230099081993,-0.03332570940256119,0.0005905196303501725,0.024311045184731483,-0.013653770089149475,0.013550950214266777,-0.011974265798926353,0.021822120994329453,-0.004177690017968416,0.017642216756939888,-0.01094831619411707,-0.028428001329302788,0.02182498387992382,-0.004941974766552448,-0.004573131911456585,0.017645588144659996,0.02117440290749073,0.0097322603687644,0.022585086524486542,-0.0163410734385252,0.018379444256424904,0.010571417398750782,-0.0073303296230733395,-0.01985052414238453,-0.013084156438708305,0.01511230319738388,0.013457180932164192,-0.01853257603943348,-0.015424944460391998,-0.017192520201206207,0.026407739147543907,0.002393637550994754,0.014632001519203186,-0.005082922056317329,-0.020597903057932854,0.03124186024069786,0.01023754570633173,0.01643584482371807,-0.022065836936235428,-0.0017906910507008433,0.014532175846397877,-0.027684666216373444,0.01952619105577469,-0.006799866911023855,0.020643332973122597,-0.012274583801627159,0.033254474401474,-0.027741406112909317,-0.014448164030909538,-0.02797151915729046,0.016198022291064262,0.022030897438526154,0.015930039808154106,-0.009069163352251053,-0.021773777902126312,0.010687755420804024,0.003423007670789957,-0.031136542558670044,-0.02034410834312439,-0.0028433697298169136,0.01299398671835661,0.006556911394000053,-0.007377304136753082,0.006013500038534403,-0.028922883793711662,0.03088199719786644,0.009185992181301117,-0.003810341004282236,0.03141413629055023,-0.013434411957859993,0.02471679449081421,-0.02938966266810894,0.015618272125720978,0.01983322761952877,0.012162111699581146,-0.024581970646977425,0.010078479535877705,0.02360835298895836,-0.00893385335803032,0.014016558416187763,-0.02543514594435692,0.03280927613377571,-0.02860291115939617,-0.0033706696704030037,-0.010144652798771858,-0.027022289112210274,-0.025721801444888115,-0.02364799939095974,0.02559582330286503,-0.022065449506044388,0.009427884593605995,0.022195493802428246,-0.032536543905735016,-0.00987940188497305,-0.032688044011592865,0.014813676476478577,-0.020215308293700218,-0.029454879462718964,0.028059203177690506,-0.007145639043301344,-0.017402857542037964,-0.02189522236585617,0.0190961342304945,0.031606800854206085,-0.016982657834887505,0.018670670688152313,0.027029411867260933,-0.005391841754317284,-0.0029772205743938684,-0.02570313587784767,-0.02535136230289936,-0.027701525017619133,0.008216817863285542,0.006352536380290985,-0.016439786180853844,0.008017939515411854,0.010992721654474735,-0.013782099820673466,0.005073630250990391,0.016651561483740807,-0.02519848197698593,0.014590732753276825,0.03164387866854668,0.006121292244642973,-0.02687813900411129,-0.004340482875704765,0.02904442697763443,0.008771476335823536,-0.00995943509042263,0.011489043943583965,0.027546534314751625,-0.00566116813570261,-0.03166421502828598,-0.0066081201657652855,0.03262348845601082,0.019884103909134865,-0.0070612165145576,0.029829829931259155,0.03147228807210922,0.0061232298612594604,-0.002827961463481188,0.03268086165189743,-0.018049290403723717,-0.011766714975237846,0.022292587906122208,-0.03308338671922684,-0.006212578155100346,0.012462526559829712,0.01711943931877613,0.01754455268383026,-0.0006549875251948833,0.030222155153751373,-0.02184261754155159,-0.017417829483747482,-0.02291885018348694,-0.021255873143672943,-0.016954634338617325,0.021365346387028694,-0.009577689692378044,-0.006625453941524029,-0.004704822786152363,0.018857453018426895,-0.003664590185508132,0.015988469123840332,0.019260423257946968,0.01454980205744505,-0.016957709565758705,-0.028361640870571136,-0.001518548815511167,-0.007032203022390604,-0.0050723436288535595,0.012518260627985,-0.02638016641139984,-0.024157138541340828,-0.004394838586449623,-0.011735491454601288,-0.02937321923673153,0.029203619807958603,0.00654998142272234,-0.03240007907152176,0.008924025110900402,0.011863557621836662,-0.020211853086948395,0.009498177096247673,-0.005651633255183697,0.008316845633089542,-0.01164752896875143,0.0016169729642570019,-0.016630923375487328,0.004325249698013067,0.01177471037954092,0.01029557827860117,-0.016359573230147362,-0.011179862543940544,0.012452274560928345,0.025181548669934273,-0.029644161462783813,-0.025186888873577118,-0.009152051992714405,0.02348065935075283,0.0028777364641427994,0.028022876009345055,0.010500508360564709,-0.02519095502793789,-0.004280155058950186,-0.01364109292626381,0.01126966904848814,0.022531932219862938,-0.030738914385437965,-0.0330081470310688,0.018256694078445435,0.013425099663436413,0.014271487481892109,-0.02696858160197735,-0.008811498060822487,-0.012686069123446941,-0.019254261627793312,0.028120141476392746,-0.0072675724513828754,-0.026585256680846214,0.020632868632674217,-0.0015863284934312105,-0.003958322573453188,-0.028133105486631393,-0.014778112061321735,-0.020553745329380035,0.015359098091721535,-0.03249999135732651,