[{"type":"conv","filters":[{"data":[0.13021691143512726,-0.07024635374546051,0.38375797867774963,0.23547513782978058,0.31423190236091614,-0.3446028232574463,-0.29820963740348816,0.3099789321422577,0.3774268329143524],"shape":[3,3,1]},{"data":[-0.2686922252178192,0.060217197984457016,-0.1878092885017395,0.24644140899181366,-0.3332514464855194,-0.09443057328462601,-0.11901380866765976,0.4376816153526306,0.24903476238250732],"shape":[3,3,1]},{"data":[0.32348087430000305,0.1515233963727951,0.15461158752441406,-0.33368074893951416,-0.04407695308327675,0.4682120084762573,0.21693962812423706,0.26139581203460693,0.007597558666020632],"shape":[3,3,1]},{"data":[-0.3347904682159424,-0.44484856724739075,-0.3369414508342743,0.16245615482330322,0.029503019526600838,-0.0643070638179779,0.36033815145492554,-0.20762473344802856,-0.13655433058738708],"shape":[3,3,1]},{"data":[0.04906832426786423,-0.28690508008003235,0.30717313289642334,0.27102166414260864,0.4552375376224518,0.2973937690258026,0.25831106305122375,0.29561662673950195,-0.19780994951725006],"shape":[3,3,1]},{"data":[-0.3664467930793762,-0.21646283566951752,0.10098337382078171,0.05514216050505638,-0.34809890389442444,0.12099495530128479,0.40986016392707825,-0.2367735207080841,-0.27184033393859863],"shape":[3,3,1]},{"data":[0.11975455284118652,-0.21638722717761993,-0.0021629082038998604,0.37613385915756226,0.10582051426172256,0.4167215824127197,-0.3030044436454773,0.19654451310634613,-0.08166171610355377],"shape":[3,3,1]},{"data":[0.05434867739677429,0.3987714648246765,0.05413711071014404,0.452820748090744,-0.1544642448425293,0.013330451212823391,0.4011780023574829,0.42238062620162964,-0.40077224373817444],"shape":[3,3,1]}],"biases":[0.009999999776482582,0.009999999776482582,0.009999999776482582,0.009999999776482582,0.009999999776482582,0.009999999776482582,0.009999999776482582,0.009999999776482582]},{"type":"maxpool"},{"type":"dense","weights":[-0.027809826657176018,-0.018045756965875626,-0.013595140539109707,-0.02934158965945244,0.03195285424590111,0.02789398841559887,0.03016652911901474,-0.0232855137437582,-0.03230152279138565,0.019049985334277153,0.03222771733999252,-0.007522095460444689,-0.03156344220042229,-0.006432223133742809,-0.006260362919420004,0.03244177624583244,-0.006596255581825972,-0.028068657964468002,0.017948608845472336,-0.027596037834882736,-0.011708271689713001,0.003293305868282914,-0.010391819290816784,-0.030112896114587784,-0.005828275345265865,-0.020996036008000374,0.003226357977837324,-0.013147720135748386,-0.003468698589131236,0.023351462557911873,0.02875290997326374,-0.01259591244161129,0.016857054084539413,-0.01831147074699402,-0.019695371389389038,0.031855303794145584,0.02832227572798729,0.033143870532512665,0.00928910356014967,-0.008818753063678741,-0.030085692182183266,0.007783466950058937,0.017811158671975136,0.00496061472222209,-0.008522859774529934,0.010829626582562923,0.009450827725231647,0.022744176909327507,0.0163707472383976,-0.028101082891225815,-0.026602191850543022,-0.019812988117337227,-0.010939761064946651,0.0014866819838061929,0.02414405345916748,-0.0006052562384866178,0.02092508226633072,-0.03181916102766991,-0.006650497671216726,0.003995918668806553,-0.022382786497473717,-0.003326758975163102,-0.0069587212055921555,-0.022857235744595528,0.025940192863345146,0.015653200447559357,0.02272897958755493,0.014507157728075981,-0.02543058805167675,-0.01261158101260662,0.0057667954824864864,0.03332488611340523,-0.01859712414443493,-0.009797305800020695,0.028507951647043228,0.010632873512804508,0.012522459030151367,-0.02815195731818676,-0.0013349783839657903,0.0028517397586256266,0.009337221272289753,0.001670246827416122,-0.029570553451776505,-0.007677547633647919,0.026683708652853966,0.012058474123477936,-0.011381395161151886,0.023683859035372734,0.013403680175542831,0.0322943739593029,0.009272821247577667,0.010029156692326069,0.0021244012750685215,-0.01066951360553503,0.029907338321208954,0.00009234862955054268,-0.00044529399019666016,-0.0002271453122375533,-0.019226446747779846,0.020789507776498795,0.029057113453745842,0.012592383660376072,-0.027289308607578278,0.014699706807732582,-0.02265305072069168,-0.0315701849758625,-0.010536961257457733,-0.012706747278571129,-0.006222212687134743,-0.027562759816646576,0.015146889723837376,0.009367125108838081,0.0025327964685857296,-0.024617718532681465,0.021845288574695587,0.00798699352890253,-0.015345715917646885,0.017365163192152977,-0.014792722649872303,0.0015328566078096628,0.009286176413297653,0.02192450873553753,0.007210206240415573,0.01428481750190258,0.026826418936252594,0.0005803253734484315,-0.008024620823562145,-0.018791215494275093,-0.03215691074728966,0.008851516991853714,-0.0228866133838892,-0.023472271859645844,0.03176824375987053,-0.03293246403336525,0.03242996707558632,0.029437828809022903,0.009174773469567299,-0.024112792685627937,0.0014295659493654966,0.0005634000990539789,-0.0028336807154119015,-0.0024598557502031326,-0.017876194790005684,0.0007719819550402462,-0.033139556646347046,0.0012494089314714074,0.0009585064835846424,0.03022127039730549,-0.023494908586144447,0.01640322618186474,0.030407829210162163,-0.024029307067394257,0.013530884869396687,0.00625236053019762,0.013156411238014698,0.0206734798848629,-0.024702919647097588,0.016851816326379776,-0.02342280000448227,0.01612371951341629,0.0021370179019868374,0.00214148941449821,0.027961833402514458,-0.018992390483617783,0.03142866492271423,-0.023801550269126892,0.0027241893112659454,-0.001753689139150083,0.004986821673810482,0.003034022403880954,-0.001620957162231207,-0.03015158884227276,-0.007734997197985649,-0.00845174677670002,-0.01352924108505249,0.009951453655958176,0.021630726754665375,-0.025631314143538475,0.026886075735092163,0.012149114161729813,0.016176939010620117,-0.007197591010481119,0.012203490361571312,0.022172674536705017,0.00020995292288716882,-0.014260693453252316,0.014692826196551323,0.032840315252542496,-0.001066412660293281,0.022992700338363647,-0.026610177010297775,0.02552204206585884,-0.0054976181127130985,-0.004309941083192825,-0.01695411093533039,0.026216425001621246,-0.02661355584859848,0.026593495160341263,0.002945053158327937,-0.021837415173649788,0.027858879417181015,-0.007214024662971497,0.021551406010985374,-0.008923586457967758,0.02226519025862217,-0.030209902673959732,0.024890804663300514,-0.0052964468486607075,-0.005396176595240831,0.026375221088528633,-0.019509833306074142,0.019404523074626923,-0.004665084183216095,0.03131267428398132,-0.03315914049744606,-0.02748563326895237,-0.02675756625831127,0.024149296805262566,0.00194374134298414,0.027135297656059265,-0.0006452077650465071,0.01451890543103218,0.021650107577443123,0.002916160738095641,-0.021592915058135986,0.015101584605872631,0.02095855213701725,0.033330898731946945,-0.022725073620676994,0.00040695141069591045,0.026580478996038437,-0.012867369689047337,-0.023329181596636772,-0.013192740269005299,-0.01963975839316845,0.014447592198848724,0.02936328575015068,-0.027893461287021637,0.0014988373732194304,0.01073208823800087,-0.02464044839143753,0.02347606234252453,0.00210319715552032,-0.0008608326897956431,-0.030081583186984062,-0.018344726413488388,-0.01761888712644577,0.03125499188899994,0.014690607786178589,0.013455627486109734,0.008152950555086136,-0.00862793531268835,0.023651767522096634,-0.0327320471405983,0.03142063692212105,0.010142099112272263,-0.005524578038603067,-0.02737819403409958,0.003762213047593832,0.020135389640927315,0.0055866786278784275,0.008070848882198334,-0.009983520954847336,-0.025869220495224,-0.007671927101910114,-0.012515297159552574,0.02769906260073185,-0.015708789229393005,-0.008349641226232052,-0.0037962403148412704,0.02723940834403038,0.01832081750035286,0.0068253097124397755,0.0012911864323541522,0.018551228567957878,0.025535039603710175,-0.02094140835106373,-0.004874454811215401,-0.014958953484892845,-0.004025885835289955,0.014417302794754505,-0.005643990356475115,-0.009555716998875141,-0.016133423894643784,-0.03117220290005207,-0.004068952985107899,-0.014345676638185978,0.011936558410525322,0.005899766925722361,-0.0014470318565145135,-0.0187220498919487,-0.0012288473080843687,-0.028034597635269165,0.009517692029476166,-0.026206210255622864,-0.010977650061249733,-0.0278069619089365,0.002219182439148426,-0.00841895118355751,0.011291595175862312,-0.02182219922542572,0.019230710342526436,0.02509721927344799,-0.014260527677834034,-0.011251354590058327,0.006117817014455795,-0.0203599464148283,0.004811502993106842,0.02121777832508087,0.013584875501692295,0.033009182661771774,-0.012681936845183372,-0.008081247098743916,0.013573759235441685,-0.028462959453463554,-0.021555420011281967,-0.02030208893120289,0.03164345398545265,-0.023505529388785362,0.001961552072316408,0.011898184195160866,-0.018454432487487793,-0.002568071009591222,-0.03031279891729355,0.003371436847373843,-0.03238482028245926,-0.023135004565119743,0.020757658407092094,0.01021086610853672,-0.016889339312911034,-0.02275562472641468,0.01516112219542265,0.025935741141438484,-0.008388876914978027,-0.029720356687903404,0.023114709183573723,0.026238085702061653,0.019992470741271973,0.018762484192848206,0.028286075219511986,0.021279167383909225,-0.006049018353223801,0.02990962192416191,0.027396658435463905,-0.022498145699501038,0.00684373639523983,-0.0036835293285548687,0.00793737918138504,0.018832875415682793,-0.0326194167137146,-0.027126384899020195,0.019836511462926865,0.0075746080838143826,0.022342368960380554,0.011007379740476608,0.004136696923524141,-0.025930052623152733,-0.0031473804265260696,0.003274288959801197,-0.01669841818511486,-0.019889017567038536,-0.0016716443933546543,0.02723221480846405,0.011125280521810055,-0.026120970025658607,-0.021286211907863617,-0.003896377282217145,0.0017209915677085519,-0.01715673692524433,0.005270466674119234,0.029528962448239326,0.02789252996444702,0.009707091376185417,-0.011413692496716976,-0.013887503184378147,0.017042603343725204,0.012957981787621975,-0.026642000302672386,0.027971483767032623,-0.00514009315520525,-0.01850496418774128,0.0092488843947649,-0.0038820113986730576,-0.02280476875603199,-0.02924969792366028,-0.004241631366312504,0.01691487245261669,0.00940797384828329,-0.022507213056087494,0.0022811891976743937,-0.029204243794083595,0.0028741522692143917,0.007571864873170853,-0.0023561606649309397,-0.023022208362817764,-0.00913996621966362,-0.0018035649554803967,0.008726092055439949,0.0035732374526560307,-0.015925031155347824,-0.0035716474521905184,0.006244021002203226,-0.0014458209043368697,-0.009861050173640251,0.023578738793730736,0.012044955976307392,-0.03130936995148659,-0.0012124632485210896,-0.002125668106600642,0.0025626462884247303,-0.01777300238609314,0.0026677227579057217,-0.005627982784062624,0.01509395707398653,-0.029962802305817604,-0.01770677976310253,0.014629900455474854,-0.019306661561131477,-0.033117424696683884,-0.006911315023899078,-0.01945270411670208,0.030297355726361275,-0.02001664601266384,0.014901299960911274,-0.008015211671590805,0.004051974043250084,0.029991507530212402,-0.019155047833919525,-0.027390092611312866,0.01259057130664587,0.023174099624156952,-0.01882641762495041,-0.00639359513297677,0.009714435786008835,-0.020902762189507484,0.023134004324674606,0.02143324352800846,-0.0003523393243085593,-0.019275739789009094,0.0271395742893219,0.023093650117516518,-0.009912842884659767,0.031499844044446945,0.008537856861948967,0.008975274860858917,0.02939525432884693,-0.004310240503400564,0.03072797879576683,-0.0024474230594933033,0.010314974002540112,0.023792147636413574,0.017186345532536507,-0.028064265847206116,0.0328092984855175,0.02170306257903576,-0.024369556456804276,-0.03272010385990143,-0.023399075493216515,-0.013315722346305847,-0.0020422691013664007,0.02812257595360279,-0.016592536121606827,0.012289841659367085,-0.01363725122064352,0.021649053320288658,-0.005033143796026707,-0.012132788076996803,-0.03037428669631481,-0.010119103826582432,0.008062432520091534,0.01899920403957367,-0.008932502940297127,0.029196981340646744,0.02400059998035431,-0.024377647787332535,0.030342357233166695,-0.025100789964199066,-0.018413592129945755,-0.004401490557938814,-0.013268684037029743,-0.017452184110879898,0.018198829144239426,0.02312067523598671,-0.025293421000242233,0.0067310999147593975,0.0036143783945590258,0.02389736846089363,0.021865403279662132,-0.020834380760788918,-0.029783781617879868,0.024064676836133003,-0.009014967828989029,0.025433765724301338,0.02948245406150818,-0.02308381162583828,0.030895719304680824,-0.02767982706427574,0.010108456946909428,-0.0014715449651703238,-0.005365477409213781,0.019048212096095085,-0.0024946783669292927,0.0293562114238739,-0.017786424607038498,0.032326702028512955,0.027719028294086456,-0.028911614790558815,0.00670190155506134,0.008874688297510147,0.03294849395751953,-0.00010656406811904162,-0.02741997502744198,0.030578697100281715,0.020169610157608986,0.0054299249313771725,0.008721542544662952,0.011396587826311588,0.012405790388584137,-0.005960898008197546,-0.03316912800073624,0.02746647596359253,-0.026391688734292984,0.014606796205043793,-0.008857989683747292,0.013772879727184772,-0.02862412855029106,-0.031174026429653168,-0.015828996896743774,-0.02845064550638199,0.028633052483201027,-0.014400460757315159,-0.013977758586406708,-0.002381813945248723,-0.03196166828274727,-0.02740485407412052,0.02794942818582058,0.023193273693323135,-0.011858134530484676,-0.005127009470015764,-0.010938124731183052,-0.0007565636187791824,0.0314931683242321,-0.020345665514469147,0.015813831239938736,0.02917831391096115,-0.0067320652306079865,-0.001024787314236164,0.011918574571609497,0.00044972350588068366,0.0236493106931448,0.031151490285992622,0.00844482984393835,-0.02458677627146244,-0.02290996164083481,0.03161162510514259,0.010050714015960693,-0.009236439131200314,0.008578581735491753,0.03268729895353317,-0.033065881580114365,-0.003731699427589774,-0.012708169408142567,0.0017110484186559916,0.028445221483707428,-0.026857810094952583,-0.0020300662145018578,-0.018813177943229675,-0.01630876027047634,0.03219723701477051,0.013437570072710514,-0.0009123706258833408,0.011920765042304993,0.0050675650127232075,0.016161413863301277,-0.03174103796482086,0.028652876615524292,0.003310667583718896,0.005258385092020035,0.011836693622171879,0.02491787262260914,0.014141891151666641,-0.0009834044612944126,-0.014507186599075794,-0.025677409023046494,-0.0023702371399849653,0.015901802107691765,-0.0015349253080785275,0.03293486684560776,-0.0029544516000896692,-0.009735895320773125,0.005053812172263861,-0.004201987292617559,0.032765474170446396,0.010023277252912521,0.007880184799432755,-0.023526445031166077,0.030850864946842194,0.007334234658628702,-0.006348855793476105,0.017263930290937424,0.003627913538366556,-0.024828804656863213,-0.014053774997591972,-0.015920598059892654,-0.02120284177362919,0.026678161695599556,-0.013753807172179222,0.033202968537807465,-0.006957461126148701,0.006698838900774717,0.02478235587477684,-0.02520422637462616,0.024593990296125412,-0.028333283960819244,0.013255194760859013,0.020307917147874832,-0.01582767814397812,-0.019022855907678604,-0.003640103153884411,-0.015466221608221531,0.0217139795422554,-0.022338010370731354,0.015453483909368515,-0.014095259830355644,-0.01901780068874359,-0.026820704340934753,-0.03073335438966751,-0.008888480253517628,-0.016567904502153397,0.008448765613138676,-0.012446008622646332,0.025058818981051445,0.008688127622008324,-0.02636372111737728,0.009356483817100525,-0.026955854147672653,-0.028451969847083092,-0.006871847901493311,0.027918923646211624,-0.02474839985370636,0.007519947364926338,-0.00514334999024868,0.009664037264883518,0.0015206598909571767,-0.016049699857831,0.019370120018720627,0.015000511892139912,0.02646835334599018,0.005842071957886219,-0.016549911350011826,0.002975180745124817,-0.01140743400901556,0.00105989258736372,0.017869306728243828,-0.0007738412241451442,0.018894365057349205,0.006431461777538061,-0.022387858480215073,0.020038625225424767,0.007364110089838505,0.02405458688735962,0.02368391864001751,-0.022520938888192177,-0.005447105038911104,0.024954378604888916,-0.01369853038340807,0.014461549930274487,-0.0019044755026698112,0.02810995653271675,-0.01721002534031868,-0.027402983978390694,-0.018938366323709488,-0.0292507391422987,0.02877093106508255,0.00048543911543674767,0.005226612091064453,-0.010422641411423683,0.027714738622307777,0.000027205471269553527,-0.017955953255295753,-0.01779487542808056,-0.032662533223629,0.019088339060544968,0.011440137401223183,0.009979412890970707,-0.025500964373350143,0.025935398414731026,-0.011101169511675835,0.01237932126969099,0.0162652675062418,0.025817934423685074,-0.009214949794113636,-0.016472332179546356,0.03168245777487755,0.032616712152957916,0.025128578767180443,-0.021025395020842552,0.011575388722121716,-0.025018146261572838,-0.003884174395352602,0.03161362558603287,0.02032298408448696,-0.008730614557862282,0.004296715836971998,-0.008375855162739754,0.020761745050549507,0.027282917872071266,0.006594973616302013,0.017493540421128273,0.0009416250395588577,0.025958765298128128,-0.021896742284297943,0.017435479909181595,0.00768439332023263,-0.03194490075111389,0.018428003415465355,0.015195420943200588,-0.0054476093500852585,0.03212496638298035,0.0023828991688787937,-0.029476813971996307,0.01180233247578144,0.02754771150648594,0.00456604827195406,-0.008177891373634338,0.027264198288321495,0.019622789695858955,0.031127268448472023,0.012756654061377048,-0.0004748326609842479,-0.007858740165829659,0.01031675934791565,0.01133930217474699,-0.007733508478850126,-0.03057175688445568,-0.010217148810625076,0.029557591304183006,0.006446752697229385,-0.00035987619776278734,-0.016386400908231735,-0.0016958055784925818,0.02186761610209942,0.026489276438951492,-0.025658955797553062,0.008033430203795433,-0.016502007842063904,0.015509648248553276,0.007507168687880039,0.006039354484528303,0.02646375447511673,0.010499769821763039,-0.003808401059359312,-0.023325618356466293,0.018939977511763573,0.0318751186132431,0.01854065991938114,0.026524733752012253,-0.030775466933846474,-0.023983677849173546,0.03230991214513779,-0.008913643658161163,0.006860713940113783,-0.01816493645310402,-0.01877669058740139,0.024250712245702744,-0.029266707599163055,0.019075950607657433,0.026214338839054108,0.016647351905703545,-0.0306698065251112,0.01611696183681488,-0.011931960470974445,-0.009259361773729324,-0.006897962652146816,0.026318533346056938,0.012753265909850597,0.013260077685117722,-0.02823377400636673,0.01691770926117897,-0.012999649159610271,-0.0007569396402686834,-0.023502754047513008,0.018255110830068588,-0.018210086971521378,0.029735302552580833,0.013511454686522484,-0.014745568856596947,-0.0315508134663105,-0.0038655425887554884,-0.020739251747727394,-0.0041271112859249115,0.033170197159051895,0.026072639971971512,0.03303549066185951,0.008999004028737545,-0.015305995009839535,0.026533326134085655,0.03190518543124199,-0.02352694422006607,-0.010497351177036762,0.008154121227562428,-0.020357443019747734,-0.02009107545018196,0.025980034843087196,0.005385051481425762,0.009706289507448673,0.02566586248576641,0.02103770337998867,-0.023910077288746834,0.028773991391062737,0.004747878294438124,0.010809523984789848,0.012176327407360077,0.00003619614290073514,0.0020481639076024294,-0.015615087933838367,-0.0028925996739417315,0.02041778527200222,-0.03258649632334709,-0.011457240208983421,-0.022783013060688972,-0.00980217382311821,0.01319588627666235,0.00125538045540452,0.02270819991827011,-0.013098136521875858,-0.015298407524824142,-0.005951504688709974,0.019795464351773262,0.005604999605566263,0.011579584330320358,-0.023198651149868965,0.01348165888339281,0.03252074867486954,-0.03177338093519211,0.0008330780547112226,-0.020773110911250114,0.006419898476451635,-0.027170849964022636,0.027240151539444923,-0.031187526881694794,-0.02539333514869213,0.028874197974801064,-0.030263328924775124,0.01949620433151722,-0.02854853682219982,0.0316198505461216,-0.03016095981001854,0.020247532054781914,-0.010789993219077587,-0.024926021695137024,-0.025841908529400826,-0.0024302140809595585,0.022117827087640762,0.027691565454006195,0.011595976538956165,0.027271093800663948,0.02986234612762928,-0.008653479628264904,-0.02890084870159626,0.020669344812631607,0.01302051916718483,-0.024656252935528755,-0.03076239675283432,-0.028218736872076988,-0.02667255327105522,0.008989259600639343,0.00044678233098238707,0.017609022557735443,-0.02833058498799801,0.023979417979717255,0.031136244535446167,0.029991785064339638,0.010242657735943794,-0.014961504377424717,-0.023695478215813637,-0.023067861795425415,-0.021446289494633675,0.021689437329769135,-0.03176705166697502,0.015789369121193886,0.02903561107814312,0.021153835579752922,-0.010186024941504002,0.007064231671392918,0.017399771139025688,-0.02873092330992222,-0.012432658113539219,-0.019056567922234535,0.03019474633038044,0.02496318146586418,-0.002324093598872423,-0.00782332569360733,0.027353953570127487,0.0007756713312119246,0.005107577424496412,-0.030911365523934364,0.004832911770790815,-0.02702656202018261,0.01995486579835415,0.014304831624031067,0.026500802487134933,0.018803879618644714,0.012058110907673836,0.02305854670703411,-0.015830261632800102,0.031048309057950974,0.02658574841916561,0.00973327737301588,-0.01586608961224556,-0.028588470071554184,-0.031728923320770264,-0.012260991148650646,0.03129495680332184,0.01252647303044796,-0.020777324214577675,-0.005941177252680063,-0.029692932963371277,-0.022359607741236687,-0.031153185293078423,0.02016005478799343,0.00932049285620451,-0.0023514581844210625,0.02013871818780899,-0.010445325635373592,-0.029059438034892082,-0.026742415502667427,-0.027843212708830833,0.0052267517894506454,-0.007566572166979313,-0.025546154007315636,0.008786788210272789,-0.01392265222966671,-0.012823170982301235,-0.017505237832665443,0.021460451185703278,0.027355734258890152,0.019870948046445847,0.03211488574743271,-0.023187771439552307,0.008808799088001251,-0.005501986015588045,0.023571889847517014,0.02734416536986828,0.02100808545947075,-0.01991172507405281,-0.030742589384317398,-0.011396516114473343,-0.010511144064366817,-0.023777086287736893,-0.006919319741427898,-0.007414673920720816,0.02084844373166561,-0.014210694469511509,-0.023656442761421204,-0.008127347566187382,-0.011078731156885624,-0.028977489098906517,-0.023994283750653267,0.020996084436774254,0.03018859215080738,0.020227018743753433,-0.024304158985614777,-0.020834440365433693,0.01684713177382946,-0.009537667036056519,0.025548111647367477,-0.0029009277932345867,0.010936612263321877,0.023955632001161575,-0.012759818695485592,0.008287128061056137,-0.01386111881583929,0.007886586710810661,-0.027774924412369728,-0.01390619482845068,-0.022271104156970978,-0.014229081571102142,-0.027971550822257996,-0.01724804751574993,-0.012996789999306202,-0.011248468421399593,0.021421486511826515,-0.012088594026863575,-0.033162448555231094,-0.00846280250698328,-0.017111560329794884,0.0023388934787362814,0.003943262156099081,-0.013288892805576324,0.032045699656009674,0.028309578076004982,0.026961015537381172,-0.030201347544789314,0.014036936685442924,0.012353770434856415,0.01001364178955555,0.030085556209087372,0.008791136555373669,-0.006613356061279774,0.021100562065839767,-0.028222737833857536,0.004057139623910189,0.0040302518755197525,0.0071282037533819675,0.030108554288744926,0.003048903774470091,-0.008588774129748344,-0.02924276329576969,0.02978438325226307,-0.020739151164889336,0.015007308684289455,-0.02818726934492588,-0.014481727965176105,-0.008481534197926521,0.012103809975087643,-0.02116752602159977,0.016591671854257584,-0.008419245481491089,0.009146676398813725,-0.007476682309061289,-0.010617044754326344,0.0033782937098294497,0.012770743109285831,0.024646829813718796,0.0029111297335475683,0.017867974936962128,-0.02772928588092327,0.006015764083713293,0.002900616731494665,0.033298689872026443,-0.01981073059141636,0.023943711072206497,0.012574596330523491,0.021304858848452568,0.0329466313123703,-0.02855175919830799,0.026045329868793488,-0.03110652044415474,-0.0038157731760293245,-0.005016254726797342,0.004122714977711439,-0.012271732091903687,-0.0094176409766078,-0.011400768533349037,-0.020641373470425606,-0.02997719869017601,-0.0017646291526034474,0.029034381732344627,0.006419881712645292,0.028322923928499222,-0.032478217035532,0.005156735423952341,-0.01300005242228508,-0.025417687371373177,-0.010176015086472034,0.0008655768469907343,0.014217491261661053,0.02846728079020977,-0.011344186030328274,-0.0065694344229996204,0.007108582183718681,0.03139035776257515,0.03260089084506035,0.030730461701750755,-0.0230456180870533,0.02347378060221672,-0.02905370481312275,0.024324314668774605,-0.02969447895884514,-0.00544117484241724,0.005130584817379713,-0.0148649075999856,-0.0012436097022145987,-0.007107310928404331,-0.03178153932094574,-0.02949085645377636,-0.005679771304130554,0.03247959166765213,-0.012586983852088451,0.01797690987586975,-0.011926984414458275,-0.0006548808887600899,0.020766964182257652,0.02071908675134182,0.0021916113328188658,0.020205890759825706,0.014561358839273453,0.009538570418953896,-0.014974026940762997,0.004383957013487816,0.03093835525214672,0.015746980905532837,0.031989458948373795,0.002702035941183567,0.0077741933055222034,-0.02255919575691223,-0.0028093834407627583,0.014495722018182278,-0.0133405402302742,0.02739044837653637,0.00928342342376709,0.0034788274206221104,-0.029200108721852303,-0.007593728136271238,-0.017381936311721802,-0.021402014419436455,-0.004854126833379269,-0.010882662609219551,0.015415934845805168,0.0036943864542990923,0.017781153321266174,0.024331288412213326,-0.02894686907529831,0.029719220474362373,-0.02542906627058983,0.008589683100581169,-0.0222366601228714,-0.021278193220496178,0.005049901083111763,-0.02356206811964512,-0.024928955361247063,-0.00872330367565155,0.008096948266029358,-0.004327490460127592,0.0323186069726944,0.03206423297524452,-0.011798577383160591,0.0003415915125515312,0.008935248479247093,-0.018898533657193184,0.02766944095492363,0.01875317096710205,0.01635790430009365,-0.0195716992020607,0.003941432572901249,-0.009723124094307423,-0.013842887245118618,-0.023089295253157616,-0.027911826968193054,0.0246775783598423,-0.011427548713982105,-0.03319186717271805,0.025030506774783134,0.022980738431215286,0.031621597707271576,0.028268765658140182,-0.0024952380917966366,0.026502065360546112,0.025366682559251785,-0.028331691399216652,0.014411109499633312,-0.002748522674664855,-0.0036096994299441576,-0.030775856226682663,-0.0014859118964523077,-0.014385920949280262,-0.012223209254443645,-0.032082151621580124,0.01194086018949747,0.03301012143492699,0.032601337879896164,-0.024389591068029404,0.032086510211229324,0.013981258496642113,-0.02186747081577778,0.009480748325586319,0.00858896691352129,-0.009915770031511784,-0.005966690834611654,0.014346420764923096,-0.007966464385390282,0.015340554527938366,-0.022602511569857597,0.024674322456121445,-0.0018893515225499868,-0.012046901509165764,-0.00685789342969656,-0.0036336558405309916,0.024476462975144386,0.03284940868616104,-0.015393063426017761,0.002971316920593381,-0.02056533470749855,0.0036651785485446453,-0.011280338279902935,-0.024208173155784607,-0.003979810047894716,0.01771128736436367,-0.014378039166331291,0.02980794571340084,-0.013230212964117527,0.024717874825000763,-0.00735521363094449,-0.005410139914602041,-0.027274806052446365,0.014466363936662674,-0.018149618059396744,-0.011163188144564629,0.008652597665786743,0.022620972245931625,0.033028606325387955,0.014582257717847824,-0.026049451902508736,-0.024713734164834023,-0.0012986719375476241,0.004438748117536306,0.005466099362820387,0.01431587990373373,0.004838198889046907,-0.01968304254114628,-0.0030188097152858973,-0.0009701153612695634,0.027850404381752014,-0.013451863080263138,-0.019395489245653152,0.009299754165112972,0.01093008741736412,0.0203789621591568,-0.007199279498308897,-0.030316872522234917,-0.019325047731399536,-0.013572664931416512,0.010444480925798416,0.015891093760728836,0.024380212649703026,0.005980284884572029,0.018254665657877922,-0.01911952905356884,-0.0258799958974123,-0.018050407990813255,-0.023334955796599388,-0.029536167159676552,0.029671628028154373,-0.00002866981776605826,0.006106647662818432,0.0028243253473192453,0.03240051865577698,-0.016068249940872192,-0.006940850988030434,0.0218155849725008,0.00912545621395111,-0.010088767856359482,-0.027317635715007782,-0.019163772463798523,0.0006856968975625932,-0.014796972274780273,0.02786070667207241,-0.006209852173924446,0.00813376996666193,0.02218155935406685,-0.0012183889048174024,-0.03126661106944084,-0.028550248593091965,-0.014181269332766533,0.018352672457695007,0.027219180017709732,0.03094278834760189,-0.019742781296372414,0.024986300617456436,0.030830511823296547,-0.013419092632830143,0.014116311445832253,0.007636931724846363,-0.022457322105765343,-0.02821836806833744,0.013425584882497787,-0.015559968538582325,0.015182124450802803,-0.0009935577400028706,-0.001108155702240765,0.0006719233351759613,0.01941814087331295,0.02133321948349476,0.023861000314354897,0.00975785031914711,-0.027268199250102043,0.03212406113743782,-0.012634534388780594,0.017753923311829567,-0.028519919142127037,-0.005410641431808472,0.022017881274223328,0.018229147419333458,0.004718458745628595,0.03225795924663544,-0.01199522614479065,-0.0020371689461171627,0.002047003712505102,-0.02232842519879341,0.01156745757907629,-0.02741493657231331,0.029433777555823326,0.009523186832666397,0.002634047530591488,0.000935981108341366,-0.002838957356289029,0.009733353741466999,0.010827266611158848,0.00852354895323515,-0.009317896328866482,0.027325861155986786,-0.0254179909825325,0.003413029480725527,0.009200764819979668,-0.024044949561357498,-0.01536264643073082,0.027133001014590263,-0.021008122712373734,0.014446651563048363,0.006336148362606764,0.01754409447312355,0.01733386144042015,0.008174527436494827,0.024424079805612564,0.033227838575839996,-0.00025893558631651103,0.003380402224138379,0.018943501636385918,-0.008223874494433403,-0.020072288811206818,0.013707605190575123,0.005669888574630022,0.0015814118087291718,0.014771498739719391,0.007597642485052347,0.014123667031526566,0.004649303387850523,0.02237817458808422,0.007599535398185253,0.0005836788332089782,-0.017717979848384857,0.012351791374385357,-0.001554418122395873,-0.015557999722659588,-0.0028551635332405567,0.010612698271870613,0.020824478939175606,0.010170497931540012,0.02636592835187912,0.03319564461708069,0.010012672282755375,-0.02843746915459633,0.014166339300572872,-0.03120226413011551,-0.03030257485806942,0.017361082136631012,0.021537233144044876,-0.025521349161863327,0.008341132663190365,-0.009974806569516659,0.023035574704408646,0.0011157117551192641,-0.012243048287928104,-0.0038947132416069508,0.006595800165086985,0.02868742123246193,-0.024680795148015022,0.021349765360355377,-0.004154694266617298,-0.0013699225382879376,0.00030285154934972525,-0.025206057354807854,-0.015218489803373814,-0.023743944242596626,0.016949063166975975,0.009676521643996239,-0.005543493665754795,-0.021841883659362793,-0.021923204883933067,-0.017957009375095367,0.015271708369255066,-0.009307671338319778,-0.01323755830526352,-0.01967867836356163,0.009988187812268734,0.0003167794202454388,-0.03303838521242142,0.029860714450478554,-0.015818478539586067,0.014448984526097775,0.007527728099375963,-0.006338172592222691,-0.021855132654309273,0.012120794504880905,-0.014939659275114536,0.015516522340476513,0.01554739661514759,-0.006880328059196472,0.018868034705519676,-0.010291854850947857,0.028125686571002007,-0.0249501820653677,-0.023746998980641365,-0.010649734176695347,-0.022471679374575615,-0.029573429375886917,0.004887340124696493,-0.014516887255012989,-0.02420578896999359,0.015828246250748634,0.024577176198363304,-0.011962706223130226,0.0002876365324482322,-0.024657361209392548,-0.008491722866892815,0.011854774318635464,-0.02792290970683098,0.0027736362535506487,-0.011029094457626343,0.02559199556708336,0.020208552479743958,0.0037774452939629555,-0.02925782836973667,-0.019747426733374596,0.015679355710744858,-0.0019356017000973225,-0.03112591989338398,-0.0017795321764424443,0.009666123427450657,0.009354237467050552,-0.01807333528995514,-0.027841715142130852,-0.018014907836914062,-0.015069568529725075,-0.013257557526230812,-0.003418274922296405,-0.023960232734680176,-0.006946236360818148,0.014804116450250149,-0.0016700931591913104,0.01523845549672842,0.0007214884390123188,0.016199633479118347,-0.028312737122178078,0.02255643531680107,0.012577028945088387,0.033245235681533813,0.0018624209333211184,-0.026062747463583946,-0.015883009880781174,0.027501365169882774,-0.00031428472721017897,-0.031221535056829453,0.004462129902094603,0.0005904285935685039,0.030176615342497826,-0.024305786937475204,-0.004187490791082382,-0.03139545023441315,0.026630040258169174,0.015381434001028538,0.006272957660257816,0.004862655885517597,0.008332503959536552,0.019089991226792336,0.024763373658061028,-0.02127305418252945,0.022303082048892975,-0.017734084278345108,-0.009213322773575783,-0.025866298004984856,-0.009958941489458084,0.0030490781646221876,-0.027090637013316154,-0.0183913242071867,-0.029925193637609482,-0.0029491325840353966,0.003779013641178608,-0.015136569738388062,-0.009766065515577793,0.01895829662680626,0.009208649396896362,0.004428934771567583,0.017104919999837875,0.0006742542609572411,-0.027208341285586357,0.03176397085189819,-0.015540928579866886,0.023517563939094543,-0.019006723538041115,0.0021987073123455048,-0.002442107303068042,-0.013165357522666454,-0.02619866468012333,0.015969792380928993,0.02222566120326519,-0.00907005276530981,-0.007923698984086514,0.006562754511833191,0.004595863167196512,0.024165930226445198,0.005756281781941652,0.0007318161660805345,0.003252868540585041,-0.0010087453993037343,-0.013570072129368782,0.014371002092957497,0.005269983783364296,0.028236014768481255,0.020845958963036537,-0.006513561122119427,0.019795190542936325,0.017613429576158524,0.007364595774561167,0.02413901872932911,0.01992380991578102,0.03156724572181702,-0.016246458515524864,-0.018927061930298805,0.03176329657435417,0.006150455214083195,-0.032862842082977295,-0.008286476135253906,-0.005243754014372826,-0.022896869108080864,0.02534583956003189,0.006479011382907629,-0.018679505214095116,0.004976560361683369,0.017661361023783684,0.021222587674856186,-0.022936685010790825,-0.003378212219104171,-0.00631284574046731,0.032423827797174454,0.025219157338142395,-0.025410382077097893,0.01605248637497425,-0.015747344121336937,0.008387480862438679,-0.002657202072441578,-0.009166697040200233,-0.028969215229153633,-0.011811080388724804,0.018892578780651093,-0.009307648986577988,-0.008188971318304539,0.007363046053797007,-0.001168485265225172,-0.013026128523051739,-0.028396422043442726,0.02466089278459549,0.009597694501280785,-0.012469274923205376,-0.020193355157971382,-0.03029506653547287,0.029519500210881233,0.013035085052251816,0.013200027868151665,-0.019188791513442993,-0.007507364731281996,0.018146464601159096,0.028273871168494225,0.009474147111177444,0.005875745322555304,0.028222981840372086,0.0026670689694583416,0.033079396933317184,0.03142738714814186,-0.03156207501888275,-0.03146171569824219,-0.004472983535379171,0.015367235988378525,0.017334723845124245,0.018616411834955215,-0.014810949563980103,0.03134816139936447,0.018788835033774376,-0.028381530195474625,-0.029238328337669373,-0.008569803088903427,-0.01430206187069416,-0.029598187655210495,-0.029645424336194992,-0.032352056354284286,0.015787718817591667,0.012715594843029976,0.01327853836119175,-0.01986977830529213,0.00449185399338603,-0.0266248881816864,0.007303055841475725,-0.011740320362150669,0.026244983077049255,0.018885616213083267,-0.00020547448366414756,0.03099687211215496,0.033215273171663284,-0.03146250173449516,-0.030103279277682304,0.025718124583363533,0.006061374209821224,-0.010915388353168964,0.010357621125876904,0.028425265103578568,0.019471298903226852,-0.026660146191716194,0.004006738308817148,-0.006401157937943935,0.029911240562796593,0.025363298133015633,0.005163220688700676,-0.007665323559194803,0.010545789264142513,0.02908429503440857,0.008141444995999336,0.015011690557003021,-0.004180119372904301,-0.008740214630961418,-0.017130859196186066,-0.014280015602707863,-0.007423106115311384,-0.00003917746289516799,-0.01609181985259056,-0.027331501245498657,0.005246184300631285,0.002762079471722245,0.03060336783528328,-0.015357143245637417,0.0019110299181193113,-0.020403552800416946,-0.021690014749765396,-0.03022032417356968,0.011132467538118362,-0.021539954468607903,-0.01213312242180109,-0.028705347329378128,0.011063853278756142,0.023118436336517334,0.011863723397254944,0.015029738657176495,-0.022485222667455673,0.006529267877340317,0.013961967080831528,-0.0003353013889864087,0.005343257449567318,-0.025409501045942307,0.015227748081088066,-0.011368854902684689,0.0032184631563723087,-0.0017535476945340633,0.006107834167778492,0.02579350583255291,-0.021738819777965546,-0.0008820001385174692,-0.008757805451750755,0.028119102120399475,0.021337734535336494,-0.029126793146133423,0.0005884668207727373,0.029966270551085472,-0.005498503800481558,0.003598118433728814,-0.005430407822132111,0.0018780897371470928,-0.018679575994610786,0.027702944353222847,-0.0003147468960378319,0.011126886121928692,0.014633610844612122,0.011538956314325333,-0.011243858374655247,-0.008207316510379314,0.002410974120721221,-0.009088844060897827,0.01326359435915947,-0.004754078108817339,0.011855876073241234,0.023017199710011482,0.008526626043021679,-0.03084535337984562,0.03208955377340317,-0.030084291473031044,0.03321738913655281,0.0065178824588656425,-0.032745979726314545,-0.01807430014014244,0.021948233246803284,0.015803029760718346,0.010800359770655632,-0.020884789526462555,-0.01935763657093048,-0.03239649906754494,-0.009284858591854572,-0.009641305543482304,-0.015984978526830673,-0.01198599860072136,-0.015394097194075584,-0.031962305307388306,-0.030814804136753082,0.0066390084102749825,0.007198787294328213,0.022809265181422234,-0.01769750565290451,0.016836192458868027,-0.02369500882923603,0.021658454090356827,-0.008602574467658997,0.001202718704007566,-0.018435129895806313,0.005059513729065657,0.015832139179110527,0.0037134061567485332,0.0271031204611063,0.007090711500495672,0.022235557436943054,-0.017814544960856438,-0.002205224009230733,-0.01635829545557499,-0.020368797704577446,-0.0007594104390591383,-0.0070190816186368465,0.01475184503942728,0.01402952242642641,0.02854694426059723,0.02553226798772812,0.016835998743772507,-0.008274592459201813,0.00602810550481081,-0.029522711411118507,-0.023500731214880943,-0.031327683478593826,-0.014328381046652794,0.010668078437447548,0.004770759493112564,0.00345777440816164,-0.032654862850904465,-0.0035648266784846783,0.023841379210352898,-0.0039270175620913506,0.014208889566361904,0.006072547752410173,-0.022263161838054657,0.0067860218696296215,-0.009380078874528408,-0.02079037018120289,0.015197069384157658,0.01573636755347252,-0.0257657989859581,0.012339822947978973,-0.0005371505976654589,0.005364579148590565,-0.0019489878322929144,0.016616903245449066,0.004488009959459305,0.015784863382577896,-0.032389648258686066,0.012301532551646233,0.032543979585170746,0.031816575676202774,0.0015906533226370811,-0.01576622948050499,-0.016643360257148743,-0.02257089503109455,0.030533168464899063,0.0035582648124545813,0.0178503580391407,0.030132140964269638,0.0257944967597723,-0.024271860718727112,-0.0027708872221410275,0.010991310700774193,-0.023065542802214622,0.010839534923434258,0.0030101619195193052,-0.004948684945702553,0.006508855149149895,-0.022166650742292404,0.01919378899037838,-0.014215233735740185,0.013081679120659828,-0.01845291629433632,-0.011843157932162285,0.012260530143976212,-0.02604595012962818,-0.02561037801206112,0.006161304656416178,-0.013134004548192024,0.008564070798456669,0.0013190937461331487,-0.016191622242331505,0.0020411352161318064,0.027055319398641586,0.032112911343574524,-0.012987433932721615,-0.009315586648881435,-0.02118239924311638,0.0332149937748909,-0.027976157143712044,0.01333454716950655,0.025389578193426132,0.010369713418185711,-0.005337475333362818,0.030777862295508385,-0.012767324224114418,-0.02198212407529354,-0.017500048503279686,0.03323834761977196,0.014445769600570202,-0.004335378296673298,0.0186765119433403,0.008656120859086514,0.012234971858561039,-0.01138466689735651,-0.026809263974428177,-0.023693598806858063,-0.013719332404434681,0.021367842331528664,-0.009486661292612553,0.021326441317796707,-0.01748889498412609,0.014652874320745468,0.018836334347724915,0.021895818412303925,-0.02161978743970394,0.008529061451554298,0.023595670238137245,-0.02494535967707634,-0.02748616598546505,-0.0326213501393795,0.01528768241405487,0.00783802755177021,0.016689203679561615,0.024305950850248337,-0.032243527472019196,0.022184133529663086,0.01884322240948677,0.02195540815591812,-0.01139211468398571,0.0005956332315690815,0.007010414730757475,-0.007146012969315052,-0.00315734907053411,-0.023077351972460747,-0.020885828882455826,0.0073577845469117165,0.002982777077704668,0.009434117935597897,-0.004553013946861029,-0.017271971330046654,-0.03073655441403389,0.015295875258743763,-0.002952680690214038,-0.031830430030822754,0.0003235891635995358,0.03203306719660759,0.027932537719607353,0.023978710174560547,-0.01779402419924736,-0.01067242119461298,0.016162084415555,-0.0024429033510386944,-0.010395053774118423,0.007289510685950518,0.022333582863211632,0.023508410900831223,-0.005002360325306654,0.010560402646660805,-0.016636280342936516,0.003236471675336361,-0.03051852621138096,0.0016483863582834601,0.0123233487829566,0.02231939695775509,0.03172888234257698,-0.02539578080177307,0.0045470669865608215,-0.025087852030992508,-0.006506984122097492,0.011990315280854702,0.03194640576839447,-0.02403501234948635,-0.00195571081712842,0.026561209931969643,0.014756029471755028,-0.007246413268148899,0.02625824697315693,-0.02180222049355507,-0.022986292839050293,0.009328695945441723,-0.0023819690104573965,-0.0248511154204607,-0.004531477112323046,0.022580763325095177,0.010548131540417671,0.023848704993724823,-0.003080796916037798,0.0006257945788092911,0.021074598655104637,-0.016886724159121513,-0.010413776151835918,0.021819787099957466,0.014131642878055573,-0.022420436143875122,-0.025852063670754433,0.021510886028409004,-0.03209475055336952,0.017855731770396233,0.024067347869277,-0.028474561870098114,-0.00925377570092678,0.02521541714668274,-0.008396260440349579,0.024666590616106987,-0.01650194451212883,-0.029844382777810097,-0.02380085550248623,0.02868816629052162,0.025000033900141716,-0.015708858147263527,-0.024568410590291023,-0.022335249930620193,0.009936138987541199,0.012188379652798176,-0.017452413216233253,-0.012231113389134407,-0.006118289660662413,0.01230380218476057,-0.005027296952903271,-0.0018440426792949438,-0.003875832539051771,0.008690259419381618,0.017185751348733902,0.030959531664848328,-0.002448985818773508,-0.00784815289080143,-0.021135248243808746,0.012594366446137428,0.03330889716744423,0.01655448228120804,0.02574843354523182,-0.006634122226387262,0.010953547433018684,0.011272115632891655,0.009536263532936573,-0.0041191536001861095,0.007242356427013874,-0.009958389215171337,-0.02062801644206047,0.0220249705016613,0.004636863712221384,0.005190315656363964,0.007557333447039127,0.01551598496735096,-0.012905809096992016,0.007920864969491959,-0.030384693294763565,0.00613670377060771,0.014325167052447796,0.015042849816381931,0.01063456293195486,0.01365785300731659,-0.0285742599517107,0.0030273532029241323,-0.021572258323431015,-0.0011661937460303307,0.01327937375754118,-0.0032819451298564672,0.022189578041434288,0.0013954252935945988,-0.0148420799523592,0.0008293728460557759,0.022400403395295143,0.022620053961873055,0.004729466047137976,-0.014662321656942368,-0.00004143980913795531,-0.019205911085009575,-0.005215174984186888,-0.0321119986474514,0.015731047838926315,-0.007430411409586668,-0.005940058268606663,-0.01197472121566534,-0.008110583759844303,-0.01678459160029888,-0.00017723720520734787,0.03137959539890289,-0.0018957456341013312,-0.0032860839273780584,0.022190267220139503,0.009700242429971695,-0.0004939392674714327,0.0003514079435262829,-0.020123714581131935,-0.019596334546804428,0.015277010388672352,0.0075170365162193775,-0.01905691623687744,0.020878866314888,-0.0322146974503994,-0.0045168898068368435,-0.012644139118492603,-0.023897290229797363,-0.01403930876404047,0.02869153395295143,0.014250779524445534,-0.010988791473209858,-0.00367150641977787,0.013042081147432327,0.02272311970591545,0.02159261517226696,0.019079381600022316,-0.014024843461811543,-0.024238334968686104,0.025368431583046913,-0.02220935933291912,-0.0026006242260336876,-0.015184473246335983,0.028264902532100677,0.020971523597836494,0.016346530988812447,-0.0034986010286957026,0.007333972491323948,0.008165521547198296,0.0007490595453418791,-0.003552751149982214,-0.030811890959739685,0.014974862337112427,0.01819269172847271,-0.00398724852129817,-0.0005257306038402021,-0.0019268953474238515,0.021505076438188553,-0.026103530079126358,0.006527680438011885,-0.01896090805530548,-0.020755309611558914,-0.008191940374672413,-0.025805367156863213,0.01708635315299034,-0.01442104484885931,0.00889788568019867,0.021445974707603455,-0.0009504950139671564,0.023608887568116188,0.028187841176986694,-0.02466520480811596,-0.02236311510205269,-0.008868028409779072,0.033113885670900345,0.007428870536386967,0.02414369396865368,-0.024764304980635643,-0.02282988280057907,0.023699887096881866,0.02858162857592106,0.0236415546387434,0.020117012783885002,-0.027783267199993134,0.0047643049620091915,0.014789575710892677,0.012082541361451149,-0.013973352499306202,-0.0008553457446396351,-0.0183844156563282,0.013572835363447666,0.01838042214512825,0.0035911640152335167,0.003158797975629568,-0.009921833872795105,0.02610725723206997,0.03274410590529442,0.0025422857142984867,-0.00022345349134411663,0.01615193858742714,-0.010114808566868305,0.0235141608864069,-0.0186311025172472,0.010613777674734592,0.025892864912748337,-0.007606425788253546,-0.005749790463596582,0.013905610889196396,-0.013277295976877213,-0.01591425947844982,-0.02365840971469879,-0.00046946125803515315,-0.010808054357767105,0.026433570310473442,-0.008907254785299301,0.020605171099305153,-0.030660061165690422,-0.02960089221596718,-0.0132896164432168,0.022148383781313896,0.01319610420614481,-0.0077134049497544765,0.022013822570443153,0.005281107500195503,0.004371220245957375,-0.030092772096395493,-0.031385768204927444,-0.021901573985815048,0.020705612376332283,0.0203790832310915,-0.0012330255704000592,-0.005988758057355881,-0.028746016323566437,0.0055069997906684875,-0.01220698468387127,0.0009456100524403155,-0.023220166563987732,-0.031554292887449265,0.015240109525620937,-0.017820250242948532,0.022060882300138474,-0.02761092223227024,0.026842856779694557,0.015879061073064804,-0.006086037959903479,-0.013075052760541439,0.018443599343299866,-0.014116646721959114,0.02218460477888584,-0.007490094285458326,-0.018610337749123573,-0.009778634645044804,0.008599271066486835,0.012276016175746918,-0.01200960949063301,-0.025118280202150345,-0.019072704017162323,0.032515570521354675,-0.016619518399238586,-0.02278091385960579,-0.01251613162457943,-0.012672653421759605,0.021185707300901413,-0.021267741918563843,0.022368861362338066,-0.02820291556417942,0.010230250656604767,0.0038478232454508543,0.031233634799718857,-0.033283866941928864,0.015122448094189167,0.015047200955450535,0.01709328219294548,0.015193484723567963,0.012480249628424644,-0.008816136978566647,0.012079766020178795,-0.019516557455062866,-0.0028080549091100693,0.032128531485795975,-0.007797734346240759,0.01717979460954666,-0.031780824065208435,-0.022307293489575386,0.009454826824367046,-0.030739454552531242,-0.011683273129165173,-0.017863279208540916,-0.0035620681010186672,0.02521708607673645,-0.006296833511441946,-0.0008203428005799651,0.005239332094788551,0.02600749395787716,0.0046388935297727585,0.0026476222556084394,0.027983028441667557,0.018559738993644714,-0.006148225162178278,-0.0018400681437924504,0.02952226623892784,-0.0009208596893586218,0.016117852181196213,-0.01782103441655636,-0.0008412521565333009,-0.019901296123862267,0.011269966140389442,-0.015003690496087074,0.01836691051721573,0.01676865667104721,0.023157134652137756,0.02579456940293312,0.008523412980139256,-0.02402450703084469,0.015934770926833153,-0.012751581147313118,-0.01402889285236597,0.0333126001060009,0.008407371118664742,0.016935305669903755,0.002684942213818431,-0.006206495687365532,-0.01652655005455017,-0.006256649270653725,-0.01748467981815338,-0.018306545913219452,-0.028462529182434082,0.020832061767578125,0.025232555344700813,0.020071854814887047,0.02950459159910679,-0.015413844957947731,-0.004844237584620714,0.02467595785856247,-0.021354876458644867,-0.01892300695180893,0.003228557761758566,-0.021655237302184105,0.006177093368023634,-0.027804266661405563,-0.025158051401376724,-0.01920943148434162,-0.0008432123577222228,0.010462879203259945,-0.0007967101992107928,0.02952367626130581,-0.009063213132321835,0.01234447956085205,-0.01654147543013096,-0.029721897095441818,0.029273349791765213,-0.027144543826580048,0.01711934618651867,-0.018568802624940872,0.012869002297520638,-0.006122669670730829,-0.022124990820884705,0.0018540681339800358,0.0004982962855137885,0.022979330271482468,0.0002613214310258627,0.016399342566728592,0.025395622476935387,-0.019433017820119858,-0.018649514764547348,-0.03284001350402832,0.005444522015750408,-0.010583220049738884,0.018347270786762238,-0.002068472560495138,-0.026205509901046753,-0.0024593027774244547,0.029771951958537102,-0.001992511795833707,0.013032040558755398,0.021128138527274132,-0.03279208764433861,-0.00024599494645372033,0.015734566375613213,0.0023398820776492357,0.002840397646650672,-0.003552425419911742,-0.030206648632884026,0.025306062772870064,0.007939079776406288,0.0029623822774738073,-0.021477609872817993,0.011701671406626701,-0.012300325557589531,0.013595440424978733,-0.007800670340657234,-0.002857083920389414,0.01855381950736046,0.009062116034328938,0.02158329263329506,-0.016031533479690552,-0.019086435437202454,0.029683951288461685,0.026007644832134247,-0.0010518199997022748,-0.030906641855835915,-0.020961368456482887,0.030378833413124084,0.014511103741824627,0.010823972523212433,0.011022820137441158,0.01303860079497099,-0.02645258978009224,-0.020149368792772293,-0.02921980805695057,0.02920074388384819,-0.027093427255749702,-0.008831169456243515,0.024091064929962158,0.031264450401067734,-0.02594687044620514,0.02984187752008438,-0.008452711626887321,0.012010463513433933,-0.0308703500777483,-0.03249760717153549,0.004578817635774612,-0.01885712519288063,-0.015330974943935871,0.009055135771632195,-0.02331450954079628,-0.004026572220027447,0.0020100977271795273,0.029808131977915764,-0.022046219557523727,-0.020416921004652977,0.028795845806598663,0.016358274966478348,0.012176776304841042,0.029269471764564514,-0.01632736437022686,-0.002270469907671213,0.013739820569753647,-0.014154159463942051,-0.026968050748109818,0.014575949870049953,-0.021852409467101097,-0.017940135672688484,-0.03109079971909523,-0.018172215670347214,-0.030911650508642197,0.010353474877774715,-0.006699897348880768,0.0034119789488613605,-0.013129396364092827,0.02698720432817936,0.012514003552496433,-0.018098851665854454,0.007248505484312773,-0.014476729556918144,0.02721734158694744,-0.028502188622951508,0.027961762621998787,-0.011340350843966007,-0.011453836224973202,-0.006614395882934332,0.01029491052031517,0.01886451244354248,0.03252285718917847,0.016882769763469696,0.012455038726329803,-0.010965289548039436,0.01773235946893692,0.01053568720817566,0.010549122467637062,-0.0029037599451839924,0.02975085750222206,0.011932780034840107,-0.0010617324151098728,0.02159431017935276,-0.02809256874024868,-0.003918618429452181,0.023476440459489822,0.03058711253106594,-0.03137432783842087,0.015064917504787445,0.0024105168413370848,0.017467880621552467,0.0032594026997685432,-0.030886536464095116,0.028661763295531273,-0.030452705919742584,-0.012073837220668793,-0.013190189376473427,-0.008550848811864853,0.027776146307587624,0.016722476109862328,0.031351786106824875,0.01919315941631794,0.010362186469137669,0.028211669996380806,-0.02034299075603485,0.007739140652120113,0.005787183530628681,-0.02744671329855919,0.019911203533411026,-0.0192194152623415,0.027653058990836143,-0.011706228367984295,-0.008899458684027195,0.029310058802366257,-0.008301211521029472,0.030146904289722443,-0.024978457018733025,0.026011865586042404,0.007811835501343012,0.008255298249423504,-0.011702360585331917,-0.002454696223139763,-0.012413347139954567,-0.007589091546833515,-0.030651766806840897,0.024768708273768425,-0.004848180338740349,-0.006807233206927776,-0.023657947778701782,-0.025983799248933792,0.005780789535492659,0.029528344050049782,0.024631887674331665,0.010204947553575039,-0.022384291514754295,0.02573099546134472,0.028808578848838806,-0.01413651928305626,0.022486761212348938,0.018262198194861412,-0.0063897971995174885,0.02016701176762581,-0.03223201632499695,-0.008662671782076359,0.032630804926157,0.0006554613937623799,-0.003548200475051999,0.019038662314414978,-0.00835009478032589,-0.0037730224430561066,0.03256929665803909,-0.016907041892409325,-0.02531294897198677,0.024167338386178017,-0.00020439038053154945,0.0061722928658127785,0.015441269613802433,0.004545662552118301,0.01277026068419218,-0.019998691976070404,0.019392667338252068,-0.0019798874855041504,0.00016032217536121607,-0.013778521679341793,0.017840886488556862,0.006169544067233801,0.006179905496537685,0.026064753532409668,0.02769898995757103,-0.020227588713169098,0.00959143228828907,-0.01896968111395836,0.010286745615303516,-0.0203835591673851,0.012821746990084648,0.01959608681499958,0.01984606310725212,0.00844584871083498,0.025862762704491615,-0.009158030152320862,0.005023719277232885,-0.010476449504494667,0.0012139261234551668,0.021305330097675323,-0.016704509034752846,-0.025395845994353294,-0.018499547615647316,0.007385728415101767,0.03037533164024353,0.00884043239057064,0.005318393465131521,-0.03322300687432289,-0.01491309143602848,0.014537238515913486,-0.02179555967450142,0.004770819563418627,-0.010135945864021778,0.007432129699736834,0.017645621672272682,-0.018417028710246086,0.010074705816805363,-0.0020911700557917356,0.028030555695295334,-0.0006291955360211432,0.03280671685934067,0.0043975599110126495,0.004947463516145945,-0.0031758907716721296,-0.013750189915299416,0.02037910558283329,-0.03306044265627861,0.013946155086159706,-0.021585658192634583,0.0010811019456014037,-0.001561372890137136,0.0047668651677668095,0.0016150985611602664,0.020473169162869453,-0.006478848401457071,0.0034394674003124237,-0.01467937882989645,-0.032045017927885056,0.01530403271317482,-0.006308143492788076,0.03209438547492027,0.023460334166884422,0.002362630097195506,-0.022457515820860863,0.014816460199654102,0.03173467144370079,-0.025102857500314713,0.02857811562716961,-0.01867470145225525,0.020571265369653702,-0.007175250444561243,-0.008922736160457134,-0.03251408413052559,0.005643779411911964,0.025584358721971512,-0.00885120127350092,-0.004675326403230429,-0.011804847978055477,0.01775716058909893,-0.01188218779861927,-0.008278743363916874,0.0156053826212883,0.032648149877786636,0.020662391558289528,-0.01622246578335762,-0.028453003615140915,0.025798333808779716,0.003977048210799694,-0.03241214528679848,0.014261104166507721,0.0135117769241333,-0.023732151836156845,0.004286321345716715,0.005927834194153547,-0.025066852569580078,-0.02421269752085209,0.00846457201987505,-0.0071402001194655895,-0.0005632263491861522,0.012821401469409466,0.0074760145507752895,0.027761369943618774,0.013491000980138779,0.025271723046898842,-0.008474746719002724,-0.03297499939799309,0.021984636783599854,0.01243747491389513,0.005563441198319197,0.028551172465085983,0.0033682421781122684,0.014063754118978977,0.02179969847202301,-0.018897444009780884,-0.03056221827864647,0.007717447355389595,0.029352430254220963,0.006328073795884848,-0.00776799488812685,0.020371509715914726,0.002589743584394455,-0.010816995054483414,-0.008424977771937847,-0.00608651340007782,0.025913285091519356,-0.011331606656312943,0.012652628123760223,0.021051226183772087,-0.027713000774383545,-0.029962988570332527,0.001961785601451993,-0.025489460676908493,-0.02725216932594776,-0.007018721662461758,-0.003942354582250118,-0.01468565221875906,-0.010175050236284733,0.01875750906765461,-0.027294432744383812,-0.01958959922194481,-0.02470109425485134,-0.002150953747332096,0.002553597092628479,0.0007071613217703998,0.030511340126395226,0.028267333284020424,0.024831976741552353,-0.025840073823928833,-0.02786816842854023,-0.016988061368465424,0.011369256302714348,0.030057305470108986,-0.022430988028645515,0.01195524912327528,0.003917805850505829,0.014842014759778976,-0.001320073613896966,0.03322216868400574,-0.0027397319208830595,0.009078464470803738,0.030898388475179672,0.030230257660150528,0.0037753148935735226,0.012061181478202343,0.025793010368943214,-0.0035964706912636757,0.007114879786968231,0.005452962592244148,0.026526689529418945,-0.0026959178503602743,0.01082056574523449,0.009249730966985226,0.03141133114695549,-0.02427351102232933,0.027732938528060913,0.012673421762883663,0.02947196736931801,-0.013161293230950832,-0.027371235191822052,-0.021882396191358566,-0.03166445717215538,-0.016228267922997475,0.024744968861341476,-0.006789406295865774,-0.0008794564055278897,-0.0315764881670475,0.022177740931510925,-0.012074545957148075,-0.02533748373389244,0.001363967196084559,-0.013249692507088184,0.005109694320708513,0.002323661930859089,0.01742871291935444,0.003718195017427206,-0.000011577601071621757,-0.021460192278027534,0.03140636906027794,-0.0006225613178685308,-0.02063731662929058,-0.030876649543642998,0.022781958803534508,0.02681124396622181,0.020294753834605217,-0.01006216648966074,0.010224670171737671,-0.00972609780728817,-0.02678992785513401,0.030474962666630745,-0.0116621358320117,-0.011636384762823582,0.021939966827630997,-0.011461418122053146,-0.023467663675546646,-0.028728695586323738,0.009339512325823307,0.02584823966026306,-0.03298605978488922,0.013203170150518417,-0.004054579883813858,-0.0023061218671500683,-0.01218135841190815,-0.010510878637433052,0.011372031643986702,-0.006688748952001333,0.015574117191135883,0.006865265313535929,-0.0011431904276832938,0.019213980063796043,-0.010605820454657078,-0.004549034871160984,0.02144751511514187,0.02866458334028721,-0.018379703164100647,-0.02530657686293125,-0.01898306980729103,0.011688832193613052,-0.030483242124319077,0.003480729879811406,0.004155381582677364,0.0184500589966774,-0.0020353777799755335,0.013882105238735676,0.025221500545740128,-0.029310081154108047,-0.007220399100333452,0.011383880861103535,0.02460923232138157,-0.012815839610993862,-0.008973751217126846,-0.01788237690925598,-0.030618632212281227,-0.00291557889431715,0.003613225184381008,0.024784479290246964,-0.02188079059123993,-0.014130729250609875,0.017805587500333786,-0.01166532188653946,-0.028584841638803482,-0.01801290176808834,-0.0019229784375056624,0.0007600446697324514,-0.018862448632717133,-0.011958321556448936,0.032054826617240906,0.009936333633959293,-0.02023792639374733,0.025833172723650932,-0.01774837262928486,0.025546075776219368,-0.013231400400400162,-0.028264254331588745,-0.0018373795319348574,0.017910534515976906,-0.025679925456643105,0.021501509472727776,-0.004485339857637882,0.0119382468983531,0.02398497425019741,-0.010601121932268143,-0.01595998741686344,0.030792776495218277,-0.01946074515581131,0.030887024477124214,-0.016862042248249054,-0.013488629832863808,0.029392501339316368,-0.02142575941979885,-0.012356109917163849,0.00018813602218870074,0.0014268344966694713,-0.014631102792918682,-0.018741218373179436,0.0065807015635073185,-0.0013114861212670803,0.011179560795426369,-0.011549285613000393,-0.02648100070655346,-0.005832504015415907,0.004611825104802847,0.003798432881012559,-0.0032255377154797316,-0.024411853402853012,0.008232679218053818,0.02483620122075081,0.0014815550530329347,0.02527647651731968,-0.025369005277752876,-0.000737090827897191,-0.011406006291508675,-0.02056334726512432,0.0006416074465960264,-0.015890559181571007,0.0179746076464653,0.004516419488936663,-0.0167950838804245,0.029583241790533066,0.0038762271869927645,-0.017290527001023293,-0.000706205319147557,-0.00014998838014435023,0.02883261814713478,-0.023514019325375557,0.016154492273926735,-0.023138532415032387,0.016473913565278053,-0.010346517898142338,-0.01081035379320383,0.0004176343500148505,0.028522858396172523,-0.010973777621984482,-0.013323315419256687,-0.023389266803860664,0.011146328411996365,-0.0015223028603941202,0.016493506729602814,0.013638007454574108,0.029440514743328094,-0.01236576959490776,-0.02674459107220173,0.030638279393315315,0.017157532274723053,-0.0037475326098501682,-0.02394486591219902,-0.009027139283716679,0.018224237486720085,-0.003213954623788595,0.032495904713869095,0.027662916108965874,0.008810208179056644,0.0067325737327337265,0.016677649691700935,-0.014929658733308315,-0.021739820018410683,-0.027361849322915077,-0.01990113966166973,-0.008819480426609516,0.023879947140812874,-0.011140133254230022,0.03310355544090271,-0.0038189024198800325,0.015399783849716187,0.01941428892314434,0.03215750306844711,0.02542690373957157,0.021847691386938095,-0.0029428538400679827,0.018385278061032295,0.021425630897283554,0.024446167051792145,0.015485641546547413,0.007824484258890152,0.011691153049468994,-0.0030034203082323074,-0.019467689096927643,-0.00534856179729104,0.0018035240937024355,0.032738763839006424,-0.010805509984493256,-0.015591454692184925,-0.010979332029819489,-0.024638770148158073,0.027348928153514862,-0.010090116411447525,0.021897753700613976,0.023418856784701347,0.0178627148270607,-0.02893965132534504,0.01365833543241024,0.02861105091869831,0.002921492327004671,0.023773254826664925,-0.03179498389363289,-0.031506482511758804,0.01773970015347004,-0.02879801020026207,0.02521662786602974,-0.011878342367708683,-0.005751221440732479,0.004268929827958345,-0.025284521281719208,-0.0017715297872200608,-0.02561422623693943,0.01614285260438919,-0.015192032791674137,-0.011207392439246178,-0.01799638941884041,0.010465898551046848,-0.028508413583040237,-0.010703787207603455,0.004166911821812391,0.029848258942365646,0.017212387174367905,0.0328441858291626,0.003339773043990135,-0.021514540538191795,-0.014464148320257664,-0.015695197507739067,-0.011930677108466625,-0.030163684859871864,0.0024541206657886505,-0.006063883192837238,0.01805136352777481,-0.004588796757161617,-0.013140830211341381,-0.012448839843273163,-0.0013610648456960917,-0.014280109666287899,-0.0010740018915385008,-0.01706540584564209,-0.002076965756714344,-0.020999325439333916,0.021765418350696564,0.02795947529375553,0.019339481368660927,-0.012628575786948204,-0.03186142072081566,-0.013835366815328598,-0.0034680268727242947,-0.0014297384768724442,0.0013724450254812837,-0.013900123536586761,-0.0065824612975120544,-0.015622732229530811,-0.019066547974944115,0.0054442319087684155,-0.02956409752368927,-0.00593678979203105,-0.005707831587642431,-0.031700458377599716,-0.011440609581768513,-0.01857772283256054,-0.016742028295993805,0.02657894231379032,-0.010275805369019508,0.02131161279976368,0.01371479220688343,0.0033557964488863945,-0.004333668388426304,0.019761912524700165,-0.03197438269853592,-0.028465494513511658,-0.0004881110799033195,0.023976482450962067,0.02924269251525402,0.01385372132062912,-0.0034066103398799896,-0.016182657331228256,0.006231742445379496,0.028258515521883965,-0.009571662172675133,0.019162412732839584,-0.016046056523919106,0.02910519763827324,-0.02547740377485752,0.003917769528925419,0.012656030245125294,0.00924258679151535,0.004640575498342514,-0.0002302781504113227,-0.002800404094159603,-0.018311483785510063,0.023557770997285843,-0.0011375220492482185,-0.013746985234320164,-0.01728692837059498,-0.015793560072779655,-0.003523182589560747,-0.0037474771961569786,0.0017640790902078152,0.004257705993950367,-0.031247399747371674,0.00942071434110403,0.030311038717627525,-0.013805300928652287,-0.014514454640448093,0.0209068451076746,-0.020983858034014702,-0.004250895231962204,-0.013184062205255032,0.00024577483418397605,-0.018822718411684036,0.003157625440508127,0.00045744760427623987,0.00020629208302125335,0.021010350435972214,-0.02985931746661663,-0.013549363240599632,0.02400849387049675,-0.014769293367862701,0.026493942365050316,-0.019232315942645073,0.022028449922800064,-0.019466115161776543,0.004965587053447962,-0.005089785438030958,-0.012689219787716866,0.013338037766516209,0.008904634974896908,0.03303300589323044,0.030035318806767464,0.006799647118896246,0.029319625347852707,0.03067629039287567,-0.001838863012380898,0.00922468677163124,-0.023787999525666237,0.009133578278124332,0.0011118969414383173,0.022052843123674393,0.005801079794764519,0.009317007847130299,-0.02199847623705864,-0.023747287690639496,-0.02930840663611889,-0.03302164003252983,0.030656632035970688,-0.0027559001464396715,0.004752207547426224,-0.012932906858623028,-0.0171797052025795,-0.018902061507105827,0.0208705086261034,0.02070731483399868,0.012764586135745049,-0.026342762634158134,0.02864980883896351,0.02950180321931839,0.006063306704163551,-0.0212491974234581,0.030872665345668793,0.001474462915211916,0.007316255010664463,-0.010042577981948853,-0.02032480202615261,-0.009308725595474243,0.02382289431989193,-0.020030811429023743,-0.010681217536330223,-0.016274474561214447,-0.02766832523047924,0.008052538149058819,-0.02772565186023712,0.023928843438625336,-0.02861875854432583,0.007455033715814352,-0.02985507994890213,-0.006282750982791185,0.00009454820246901363,-0.0033928428310900927,-0.004168990533798933,-0.020544249564409256,-0.009656667709350586,0.013992841355502605,0.005502553656697273,-0.0038565690629184246,-0.028714774176478386,-0.03289441019296646,0.012857560999691486,0.004292020108550787,0.014523375779390335,0.005501673091202974,-0.02278703823685646,-0.0014364736853167415,-0.0021129834931343794,0.030409567058086395,-0.00032079225638881326,-0.02881227619946003,0.013089759275317192,0.011465327814221382,-0.03004152700304985,0.00971314962953329,-0.028927352279424667,-0.012759304605424404,-0.013641992583870888,-0.008235141634941101,-0.01803458482027054,-0.004348880145698786,-0.02851455844938755,0.00977147277444601,-0.0074151610024273396,0.0009481213055551052,0.025227196514606476,0.020396165549755096,0.01650833711028099,0.010246100835502148,-0.011553428135812283,0.03135009482502937,0.023376865312457085,-0.028037261217832565,-0.003507886314764619,-0.0028490377590060234,-0.004187644459307194,-0.03286591172218323,-0.011036108247935772,0.01355830766260624,-0.016283666715025902,0.0041291434317827225,0.022011496126651764,-0.011355447582900524,0.028561221435666084,-0.026153480634093285,0.030748462304472923,-0.0016084625385701656,-0.022190796211361885,-0.0072480980306863785,0.015980497002601624,0.0031466749496757984,-0.006950693670660257,-0.032870665192604065,-0.012441967613995075,-0.011825799942016602,-0.014000747352838516,-0.015246507711708546,0.02990274503827095,-0.007698441855609417,0.02766209840774536,0.032034892588853836,0.014793901704251766,-0.027203470468521118,-0.026223445311188698,0.007087875157594681,0.006811667233705521,-0.033095795661211014,0.012703713960945606,-0.027097387239336967,-0.005456012208014727,-0.02187943272292614,0.019020013511180878,0.004651343449950218,0.00014543409633915871,-0.0016426848014816642,-0.008477412164211273,-0.020647628232836723,-0.01819305121898651,0.030633561313152313,0.012345516122877598,-0.014577634632587433,0.028881296515464783,0.006025077309459448,0.013466102071106434,0.003687100950628519,-0.009205727837979794,-0.023644836619496346,-0.0260318573564291,-0.025739358738064766,-0.032185863703489304,0.02386288531124592,-0.006650450173765421,-0.013892666436731815,0.02870314009487629,-0.012604968622326851,-0.013916604220867157,0.006104751955717802,0.01993197575211525,-0.022508785128593445,0.009763822890818119,-0.029260439798235893,-0.009073424153029919,0.013082622550427914,-0.01600881665945053,-0.024960415437817574,0.016510581597685814,0.014279581606388092,0.004586725030094385,-0.022121230140328407,0.0049548400565981865,-0.011460852809250355,-0.026032211259007454,0.010055421851575375,-0.023843633010983467,-0.006772980093955994,0.024055486544966698,-0.002391006099060178,-0.00966882798820734,-0.010100520215928555,0.014895150437951088,0.01256189588457346,0.010372230783104897,0.001149929128587246,-0.01922186091542244,-0.024619828909635544,-0.00030425062868744135,-0.017119111493229866,-0.023725733160972595,0.02349969372153282,0.0012045024195685983,-0.01724395528435707,-0.010149845853447914,-0.014658140018582344,0.023498302325606346,0.00514190224930644,0.0014766756212338805,-0.014701356180012226,-0.011099135503172874,0.027281904593110085,0.010319670662283897,0.0007791980169713497,0.01953926868736744,0.0014516497030854225,0.015185284428298473,0.026573672890663147,0.000029268747312016785,-0.011570555157959461,-0.010488918982446194,-0.016428841277956963,0.032277852296829224,-0.030706003308296204,0.017902590334415436,0.03224007412791252,0.0007803181069903076,0.0033114191610366106,-0.00674205319955945,-0.029863405972719193,-0.032607439905405045,0.025951718911528587,-0.01799691654741764,0.024661898612976074,0.031804054975509644,0.012463097460567951,0.02433130331337452,-0.03147752583026886,0.024080459028482437,0.009677167981863022,-0.004896632395684719,0.015162240713834763,0.018224000930786133,0.008359232917428017,-0.02682075835764408,0.004061390645802021,-0.03095298819243908,-0.027752816677093506,-0.010684885084629059,-0.013626225292682648,0.024638492614030838,-0.026698529720306396,0.0038785242941230536,-0.00416992511600256,-0.01967049576342106,0.030120203271508217,0.02625705488026142,-0.02941487543284893,0.006601567845791578,-0.028708724305033684,-0.022873492911458015,-0.007463722489774227,0.002980397082865238,0.006654385477304459,-0.03149274364113808,0.024926550686359406,0.016842326149344444,-0.00671995896846056,0.013880047015845776,-0.0014961508568376303,-0.014214026741683483,0.011164582334458828,0.017962345853447914,-0.011806247755885124,-0.007789548486471176,0.005153430625796318,-0.02822287194430828,-0.009461428038775921,-0.013240670785307884,0.0024296094197779894,-0.018869368359446526,0.020639939233660698,0.026990167796611786,-0.03273381292819977,-0.02106032520532608,-0.002556813880801201,-0.026452356949448586,0.0002683951461222023,0.018523164093494415,0.001631877850741148,-0.02565215900540352,0.005325437057763338,-0.028884699568152428,-0.015155643224716187,-0.001897707232274115,-0.02311771549284458,0.021543046459555626,-0.01613800786435604,0.017848661169409752,0.020604509860277176,-0.023451995104551315,0.021048834547400475,0.012461728416383266,0.027620384469628334,-0.018219586461782455,-0.008250906132161617,0.006760054733604193,-0.020181626081466675,0.01518397405743599,0.0022468408569693565,0.002194028813391924,-0.012968633323907852,0.02559509314596653,-0.012276657857000828,-0.014710522256791592,-0.004678929224610329,0.025055238977074623,-0.021865712478756905,-0.008220055140554905,-0.012060371227562428,0.028984760865569115,-0.0045420583337545395,-0.01714671589434147,-0.00829925388097763,0.009887241758406162,0.011575543321669102,0.026323476806282997,-0.018394744023680687,0.027390822768211365,-0.03143841028213501,0.023972488939762115,-0.02384110353887081,0.030533624812960625,-0.0013410752872005105,0.009559004567563534,-0.009084776975214481,-0.005608887877315283,-0.01809713803231716,0.025401033461093903,-0.016642574220895767,0.016632096841931343,-0.013903207145631313,-0.016641737893223763,-0.006968955509364605,-0.0174128208309412,0.004917636048048735,-0.01787138357758522,-0.005315123125910759,-0.014241757802665234,-0.004759626928716898,-0.02290215529501438,0.016507601365447044,0.00936978030949831,0.017161797732114792,-0.02082849107682705,-0.01082434132695198,0.020668232813477516,0.005490978714078665,-0.021476702764630318,0.03329266980290413,-0.005164347123354673,-0.012771845795214176,-0.01608358696103096,-0.027021542191505432,0.01647934876382351,0.0020231972448527813,0.004517806693911552,0.005333848763257265,0.028787953779101372,0.02558838203549385,0.008824671618640423,-0.015987038612365723,0.027001556009054184,0.03245330974459648,-0.02465931326150894,-0.030942179262638092,0.02340512163937092,0.02478020265698433,0.010527719743549824,0.025218142196536064,0.01010141335427761,-0.013430960476398468,0.025633201003074646,-0.0042039016261696815,-0.033183299005031586,0.025656092911958694,-0.005092521198093891,-0.002106277272105217,-0.021415462717413902,-0.02948739193379879,0.03243771195411682,-0.029627274721860886,-0.016630588099360466,0.0043294974602758884,0.019217070192098618,0.017883306369185448,0.030184371396899223,0.010185723192989826,-0.01615563966333866,0.002536689629778266,-0.002313893986865878,-0.02042168192565441,-0.009005982428789139,0.025580355897545815,-0.021926183253526688,-0.015885794535279274,0.021378561854362488,-0.023783566430211067,0.03139670565724373,-0.025423545390367508,-0.00008933067874750122,-0.0038166597951203585,-0.0206079613417387,0.0037144487723708153,0.008805681020021439,0.011809361167252064,0.029970694333314896,-0.008848658762872219,-0.0229059886187315,0.009947163052856922,-0.032839078456163406,0.026839058846235275,0.0050473883748054504,-0.025703847408294678,-0.023022137582302094,-0.005658361595124006,0.01590839959681034,-0.012464654631912708,0.004334207158535719,0.022008173167705536,0.011146489530801773,-0.016388732939958572,-0.019801219925284386,-0.02508532628417015,0.012185045517981052,0.022756246849894524,0.023239681497216225,0.012716569006443024,-0.026879625394940376,-0.0015971992397680879,-0.03138090297579765,-0.03258644416928291,0.004872271325439215,-0.01944461092352867,-0.012081996537744999,-0.012928190641105175,-0.02000241167843342,0.005407261196523905,-0.021917743608355522,0.02500610612332821,-0.011773318983614445,0.029719140380620956,0.021900013089179993,0.0002451789623592049,-0.0069982195273041725,0.015126723796129227,-0.027834033593535423,0.02865120768547058,0.0076619102619588375,-0.021781083196401596,-0.025058621540665627,0.033047374337911606,0.02976493164896965,-0.015827525407075882,0.02496105432510376,0.004640372935682535,0.032962121069431305,0.012918097898364067,0.008032900281250477,0.012910561636090279,0.02940361388027668,0.03007573075592518,0.0006770332693122327,0.01900632120668888,0.030742261558771133,-0.027575848624110222,-0.0015239270869642496,-0.005117217544466257,0.0140127157792449,0.02093593217432499,0.008621245622634888,0.028658593073487282,0.000726277066860348,0.03138882666826248,-0.02175142429769039,-0.030597934499382973,-0.004275573883205652,-0.02923964336514473,0.027754493057727814,0.023439854383468628,-0.017798224464058876,-0.028861673548817635,0.026096152141690254,-0.02675006538629532,-0.028107253834605217,0.02490365318953991,0.0053712716326117516,-0.03211596608161926,-0.012815301306545734,-0.006243927404284477,0.006569446995854378,0.020124493166804314,-0.004348332062363625,0.018554674461483955,0.03163127973675728,-0.016794783994555473,0.032052766531705856,-0.0050854552537202835,0.025574512779712677,0.013107659295201302,-0.02055530995130539,-0.01810549385845661,-0.008060619235038757,0.028315111994743347,0.010499812662601471,-0.00018405729497317225,0.020476961508393288,-0.02321908064186573,0.030323578044772148,-0.032051507383584976,-0.014240112155675888,-0.026774458587169647,-0.02093476802110672,0.028699858114123344,0.020069845020771027,0.01828409731388092,0.025284742936491966,0.013108011335134506,-0.024908913299441338,0.0020105924922972918,0.031624194234609604,0.020045103505253792,-0.02034629136323929,-0.021602489054203033,-0.009355208836495876,-0.01837129332125187,-0.02638615295290947,-0.008643106557428837,-0.02988354116678238,0.0038448560517281294,-0.014150422066450119,0.0040072305127978325,0.022302374243736267,-0.02752920612692833,-0.002189654391258955,0.005825710017234087,-0.030482260510325432,0.021291179582476616,-0.014952702447772026,-0.020136764273047447,-0.02756163850426674,0.01992924138903618,-0.006023321766406298,-0.0028850093949586153,0.006254478357732296,0.0030747049022465944,-0.019273050129413605,0.014160259626805782,0.027621010318398476,0.0021169250831007957,-0.0189657099545002,-0.012295771390199661,0.020076105371117592,0.03330766037106514,-0.03170303255319595,-0.0062964074313640594,0.02036210522055626,-0.022049669176340103,0.01963679865002632,0.014654639177024364,0.012118966318666935,0.004070970229804516,0.026704659685492516,0.023438427597284317,0.017197243869304657,0.0055747791193425655,-0.000719903560820967,0.008324269205331802,-0.026253826916217804,0.01791061833500862,-0.02712601236999035,0.029572226107120514,-0.019133800640702248,0.02243143692612648,0.002858889289200306,-0.02946263737976551,-0.011944780126214027,0.026141449809074402,0.004698619246482849,-0.026971932500600815,0.027555206790566444,0.011220633052289486,0.0018734437180683017,0.033218320459127426,-0.01952800527215004,-0.02077706716954708,0.011203350499272346,0.012314758263528347,-0.019077712669968605,-0.023462489247322083,0.027938127517700195,-0.014418430626392365,-0.021845845505595207,-0.010858708992600441,0.025477103888988495,0.012258092872798443,-0.0033101460430771112,-0.01918771304190159,0.005995351821184158,-0.029424216598272324,-0.000783221737947315,0.03285432234406471,0.029251428321003914,-0.021893667057156563,0.007066204212605953,0.03219591826200485,0.01441948302090168,0.011017671786248684,-0.017992908135056496,0.0016486493404954672,0.01374754961580038,0.018845541402697563,0.019498728215694427,-0.03142547607421875,-0.0022980791982263327,0.001024372992105782,-0.024659547954797745,0.007958715781569481,0.02925802394747734,0.010401342995464802,0.000683346064761281,-0.018922623246908188,0.02723514474928379,0.012950328178703785,0.01004920806735754,0.022967059165239334,0.027849392965435982,0.01984538324177265,0.012614032253623009,-0.03318708389997482,-0.029640009626746178,-0.030428282916545868,-0.007799852639436722,-0.010110591538250446,-0.032675694674253464,-0.028857864439487457,-0.009855570271611214,-0.024309393018484116,0.011678537353873253,-0.02514703758060932,0.016806676983833313,0.021569984033703804,0.012755939736962318,0.01859474740922451,-0.012224419042468071,0.011023316532373428,-0.01633264496922493,-0.02522830292582512,-0.015499837696552277,-0.009393294341862202,-0.003965096082538366,0.015332488343119621,-0.022054871544241905,-0.00523539399728179,-0.0022898814640939236,0.005999076645821333,-0.028246061876416206,0.014566542580723763,-0.01608593575656414,-0.032553061842918396,0.007903694175183773,0.0010725585743784904,0.007584440987557173,0.027009105309844017,0.029559394344687462,-0.02136477455496788,0.025365322828292847,-0.020959800109267235,0.0027243078220635653,0.021054120734333992,0.030792249366641045,-0.012368055060505867,-0.0028862094040960073,0.02962864190340042,0.006253370549529791,-0.008744253776967525,0.01916721649467945,-0.025249890983104706,0.015989862382411957,0.03237815946340561,0.008134721778333187,0.021662535145878792,-0.0008254751446656883,-0.00205555884167552,-0.027532514184713364,-0.0053556677885353565,-0.020219482481479645,-0.008766253478825092,0.02132190577685833,0.026265926659107208,-0.007496267091482878,0.015850545838475227,0.025629259645938873,-0.029781315475702286,-0.026251181960105896,-0.017870154231786728,0.024335019290447235,0.03286175802350044,-0.0186239555478096,-0.02964150346815586,0.01182460505515337,0.012182585895061493,-0.0007642378332093358,0.02457430772483349,0.017368240281939507,0.03029431402683258,-0.015086782164871693,0.019497858360409737,0.028363080695271492,-0.024459965527057648,-0.014976131729781628,-0.026102960109710693,-0.004204979166388512,0.0032290853559970856,0.032573945820331573,0.0206882543861866,-0.023632541298866272,0.021704087033867836,0.023190857842564583,-0.016047244891524315,0.017335742712020874,-0.01140294224023819,-0.026621567085385323,0.017850855365395546,-0.027598366141319275,0.0008082653512246907,0.024624023586511612,-0.009004568681120872,0.010507617145776749,-0.019330685958266258,-0.02825738862156868,-0.011647148989140987,0.026763904839754105,0.019500521942973137,0.012802470475435257,-0.02862834557890892,0.002915359800681472,-0.0001582630502525717,-0.015146647579967976,-0.000219923080294393,0.009548152796924114,0.02612670511007309,-0.011127566918730736,0.004148946143686771,0.02166474610567093,-0.018005430698394775,0.0037233703769743443,-0.00645118672400713,-0.009934205561876297,-0.02408234216272831,0.031069902703166008,-0.006223640870302916,-0.027335219085216522,-0.00893135741353035,0.0020441992674022913,0.01810176484286785,0.015938807278871536,-0.007279911544173956,0.021588310599327087,-0.01743306592106819,0.03309832513332367,-0.004760975018143654,-0.011643737554550171,0.01003997027873993,-0.010475654155015945,0.02606973797082901,-0.030079705640673637,-0.013251408003270626,-0.018352974206209183,0.032224301248788834,0.014182571321725845,-0.014956529252231121,0.007797490805387497,-0.010518999770283699,0.01152122300118208,-0.012121576815843582,0.02692566066980362,0.01631193980574608,-0.02740602195262909,-0.024631885811686516,-0.018475325778126717,-0.004982650745660067,0.028603408485651016,-0.029417024925351143,0.029618486762046814,-0.011793115176260471,-0.0031236184295266867,-0.0004191212065052241,0.022712228819727898,0.020532093942165375,0.002172943437471986,0.00982282031327486,0.02064909040927887,0.015308291651308537,-0.0020964620634913445,-0.0008409365545958281,-0.014282025396823883,0.02783052809536457,0.007053670939058065,0.02833191305398941,0.02451159618794918,0.019253071397542953,-0.008443925529718399,-0.011352485045790672,-0.01742648147046566,-0.013994812034070492,0.0005131003563292325,0.020295921713113785,0.02405579574406147,-0.020545719191432,0.005003193859010935,0.014271347783505917,-0.02159956283867359,0.015511641278862953,0.024346766993403435,0.028650620952248573,0.022669140249490738,-0.03073897212743759,-0.010602923110127449,0.02230468951165676,0.020343337208032608,-0.011709298007190228,-0.027794165536761284,-0.0055188401602208614,-0.003880285657942295,0.025961073115468025,0.023264044895768166,0.016388166695833206,0.025730900466442108,-0.016844023019075394,-0.002558562671765685,-0.03077586553990841,-0.019955061376094818,-0.028808942064642906,-0.017912546172738075,0.014129739254713058,0.01539258286356926,0.0072605181485414505,-0.000035108154406771064,-0.02744131162762642,-0.03313004598021507,-0.006022894289344549,0.004769929219037294,-0.006352555006742477,-0.02503504790365696,0.011593467555940151,-0.01890440285205841,0.01763967238366604,0.019749682396650314,0.023339850828051567,-0.029318690299987793,-0.005646222736686468,-0.023183295503258705,0.021490110084414482,0.02429439313709736,0.031414374709129333,-0.002180764451622963,0.018228238448500633,-0.00371220288798213,0.007522918283939362,-0.031830400228500366,0.013496686704456806,0.028594210743904114,0.02300361357629299,-0.01503664255142212,-0.0026621664874255657,-0.008957890793681145,0.026921389624476433,0.030646899715065956,-0.007002238649874926,0.027032379060983658,0.005880102049559355,-0.006547140423208475,-0.017973488196730614,0.0007727453485131264,0.007250508759170771,0.011619923636317253,0.012073664925992489,-0.0019229056779295206,0.032115962356328964,-0.02563176490366459,0.000697218521963805,0.021810168400406837,-0.027580982074141502,-0.005968899000436068,-0.00032932753674685955,0.009306762367486954,-0.022325389087200165,0.015120587311685085,0.009120401926338673,-0.008386164903640747,-0.009429576806724072,-0.013580852188169956,-0.014529384672641754,0.02621430717408657,-0.014809791930019855,-0.018383855000138283,0.03322143107652664,-0.03289518505334854,-0.017256611958146095,-0.015069480985403061,-0.005599959287792444,-0.011874631978571415,0.017942897975444794,0.03031649813055992,0.030031608417630196,-0.016579728573560715,0.006301730405539274,0.025099676102399826,-0.0077843815088272095,-0.03013283759355545,-0.014793958514928818,-0.013854733668267727,-0.01559380441904068,-0.02275567688047886,-0.007009879220277071,0.022063108161091805,-0.021070046350359917,-0.03286873549222946,-0.02254764921963215,-0.03157595545053482,0.031079387292265892,0.001451742253266275,0.02275819517672062,0.009305167011916637,-0.007967590354382992,-0.022937346249818802,0.01090989075601101,0.001612226478755474,0.001667020027525723,-0.009440244175493717,-0.02754732221364975,-0.021265719085931778,-0.026957901194691658,0.031183892861008644,0.023556234315037727,-0.006522549781948328,0.012979515828192234,0.017347026616334915,0.01871556229889393,-0.030617142096161842,-0.024706818163394928,0.0064772265031933784,-0.019676411524415016,0.006199393421411514,0.0023583027068525553,-0.017099227756261826,-0.029170531779527664,0.023801635950803757,-0.014725124463438988,0.016553902998566628,-0.028310276567935944,0.013821864500641823,0.03160291910171509,0.01860942505300045,0.00905178114771843,0.015286548063158989,0.007922367192804813,-0.029888717457652092,0.016562627628445625,0.03302450478076935,0.02423647791147232,-0.01525292918086052,-0.023956650868058205,0.02054310403764248,0.0031169126741588116,0.015107575803995132,-0.03115289844572544,-0.023066658526659012,0.013022411614656448,-0.001055892906151712,0.011536156758666039,-0.0247704666107893,0.001411366742104292,0.024728350341320038,-0.0012412458891049027,0.026725580915808678,-0.017468677833676338,0.02492254599928856,0.024124672636389732,0.026310045272111893,0.028030982241034508,0.02191457711160183,-0.015112594701349735,0.03006209060549736,-0.01863480731844902,-0.006519447546452284,-0.025682581588625908,0.017196716740727425,-0.0010935334721580148,-0.027376750484108925,0.030998418107628822,0.02343839220702648,-0.015060056000947952,-0.01496935822069645,-0.0020500700920820236,-0.0009459157008677721,-0.026002874597907066,0.015161830931901932,-0.026315508410334587,0.0033447835594415665,-0.025832228362560272,0.03188285231590271,0.02374492585659027,0.024446312338113785,-0.006499287206679583,-0.015212567523121834,-0.01389924343675375,0.01891550049185753,0.026567677035927773,-0.017350362613797188,0.030292250216007233,0.00003760088293347508,-0.01940339244902134,0.02232290431857109,0.007284875493496656,0.003117956919595599,-0.012132992036640644,-0.004182356875389814,0.02474427968263626,0.016001129522919655,-0.000049176884203916416,-0.016842056065797806,0.006121514365077019,0.033085897564888,-0.010785514488816261,-0.011270586401224136,-0.007439387962222099,-0.007399842608720064,-0.002850544871762395,-0.012134510092437267,0.013189336284995079,-0.030035505071282387,0.014992348849773407,-0.021972905844449997,0.0016795244300737977,0.0016789132496342063,-0.01879110187292099,-0.008012177422642708,0.03254521265625954,-0.01318884827196598,-0.017314095050096512,0.019466692581772804,-0.020683767274022102,-0.013695567846298218,0.005128128454089165,0.012897534295916557,-0.008760114200413227,-0.02243061177432537,-0.01112076360732317,0.0070375194773077965,-0.028730861842632294,-0.03174108266830444,-0.020924756303429604,0.0039264969527721405,-0.031579162925481796,0.019481534138321877,-0.019058044999837875,0.0022050337865948677,0.028288962319493294,0.015946147963404655,0.007217969745397568,-0.011356381699442863,-0.01408502645790577,0.0018455712124705315,-0.03181428462266922,0.029385173693299294,0.016999706625938416,0.0021218436304479837,-0.0003703338443301618,0.0033075688406825066,-0.02625914476811886,-0.009108640253543854,0.028359465301036835,0.006639935076236725,-0.013296919874846935,-0.022364409640431404,-0.008013255894184113,0.013527710922062397,0.007152194157242775,0.033074576407670975,0.009749315679073334,0.02343202754855156,0.003783543361350894,-0.014082899317145348,-0.010474653914570808,0.009854787029325962,0.029659941792488098,0.018687037751078606,-0.028714369982481003,-0.0293763168156147,0.000831751967780292,0.008178966119885445,0.017593955621123314,-0.027951277792453766,-0.03277095407247543,-0.02571151964366436,0.03198308125138283,-0.002306480659171939,-0.008218256756663322,-0.019566470757126808,-0.0168863907456398,-0.027121488004922867,0.022538820281624794,0.017603207379579544,-0.008596338331699371,-0.004850443918257952,0.018495893105864525,0.023950675502419472,-0.027042794972658157,0.02482392080128193,-0.02692454680800438,0.027047134935855865,0.015277252532541752,0.013174327090382576,0.02776680700480938,-0.011998264119029045,-0.02626694366335869,-0.021723361685872078,-0.005746218841522932,-0.03194107860326767,0.0006693119066767395,-0.0072835455648601055,0.012792089022696018,-0.011153336614370346,0.0075232782401144505,-0.02170925959944725,-0.021957289427518845,-0.016541041433811188,-0.021289171651005745,0.014445899985730648,0.01882883906364441,0.030916091054677963,-0.018150027841329575,-0.022780602797865868,0.0008015280473046005,-0.010073566809296608,0.019239068031311035,0.013940192759037018,-0.007836570963263512,0.005016082897782326,0.030302349478006363,0.004745642188936472,0.023787034675478935,-0.0061676413752138615,-0.010130501352250576,-0.010531025007367134,0.018753502517938614,-0.011759497225284576,-0.0051703136414289474,-0.00557709438726306,-0.01706610433757305,-0.014563042670488358,-0.031966254115104675,0.02554355189204216,-0.005914230830967426,0.0049245525151491165,-0.023012878373265266,-0.02570713683962822,0.014600113965570927,0.015388219617307186,-0.020462702959775925,0.0013846084475517273,0.03231206163764,-0.026677723973989487,-0.008341275155544281,0.015844566747546196,-0.0045032138004899025,0.005410776939243078,-0.004486087244004011,0.03131222724914551,-0.03133861720561981,0.03264312818646431,-0.03225530683994293,0.01578720659017563,0.015237092971801758,0.0022416794672608376,0.00727328984066844,0.0009165729279629886,-0.01619527116417885,-0.028558287769556046,-0.015236686915159225,-0.023499175906181335,-0.030042890459299088,0.020847486332058907,-0.011336274445056915,0.01907273381948471,0.01651008240878582,0.012487703934311867,-0.02636129781603813,-0.020716646686196327,0.01458318717777729,-0.027519872412085533,0.004520409740507603,-0.005386130418628454,0.017293311655521393,-0.028747806325554848,-0.004837809130549431,0.0331440344452858,0.03105144016444683,0.03143126890063286,0.032838232815265656,0.004832375794649124,0.015886766836047173,-0.00375133054330945,-0.010490396991372108,0.028236713260412216,-0.02016998454928398,-0.015445680357515812,0.026980428025126457,-0.03232380747795105,-0.020914658904075623,0.011590230278670788,-0.02419966273009777,-0.023979034274816513,-0.02742413617670536,0.028607582673430443,-0.025614572688937187,0.0028945563826709986,0.00911592785269022,-0.003908599726855755,-0.012550587765872478,-0.025940783321857452,-0.029889144003391266,0.02005494385957718,-0.017706481739878654,0.02303871512413025,-0.016437359154224396,0.010276343673467636,-0.02760898321866989,0.03192601352930069,0.005939590744674206,-0.005242307670414448,0.003089074045419693,-0.019488224759697914,0.02173042669892311,-0.028403298929333687,-0.028384456411004066,-0.012012471444904804,0.010956223122775555,0.015184110030531883,-0.010435467585921288,-0.01948614977300167,-0.018010765314102173,0.020391248166561127,0.009208697825670242,-0.019929993897676468,-0.031080685555934906,-0.031328484416007996,-0.0189676433801651,0.010171815752983093,0.006354880519211292,-0.003346178447827697,-0.0005778822232969105,0.003364281030371785,-0.016138985753059387,-0.004470677115023136,-0.03142251819372177,0.01837858185172081,-0.024094916880130768,0.025933122262358665,-0.02601098269224167,0.0019990005530416965,-0.021016377955675125,-0.010170189663767815,0.008295813575387001,0.025655223056674004,-0.03174366429448128,0.01153037790209055,0.014690344221889973,-0.007103320211172104,0.031210575252771378,0.02940133772790432,-0.016172589734196663,0.014718898572027683,-0.02704389952123165,-0.02735038846731186,-0.0069442554377019405,0.0283564031124115,0.02793722227215767,0.01390146929770708,-0.011450464837253094,-0.02907908894121647,0.008502315729856491,-0.02004704810678959,0.028955621644854546,-0.027552295476198196,-0.020717447623610497,-0.0009353927453048527,-0.03284361958503723,0.029246874153614044,0.0030869918409734964,0.0059273396618664265,0.03195849061012268,0.029464567080140114,-0.01113460585474968,-0.027458861470222473,-0.02436837926506996,0.010957897640764713,0.011891493573784828,0.0071552167646586895,-0.00612938916310668,-0.016188155859708786,-0.02853115275502205,-0.016348926350474358,-0.028376473113894463,0.01709073781967163,-0.02499038353562355,0.024692164734005928,-0.025975022464990616,0.009476092644035816,0.008566610515117645,-0.026775922626256943,-0.026760676875710487,-0.0074310749769210815,-0.02300473488867283,-0.017463989555835724,0.013787513598799706,0.027457652613520622,0.0008044073474593461,0.02380150742828846,0.0004840521141886711,-0.03153911978006363,0.013248484581708908,0.010965634137392044,-0.007628651801496744,0.018751922994852066,0.013934160582721233,0.012440290302038193,0.0021489744540303946,0.002857213607057929,-0.009311077184975147,-0.012537339702248573,-0.01016260590404272,0.019934413954615593,0.006263852585107088,-0.02287501096725464,0.01806541718542576,-0.0018916957778856158,-0.028475763276219368,-0.016184018924832344,-0.020686035975813866,0.0031757112592458725,0.030464911833405495,-0.01429169811308384,-0.006689899135380983,-0.02214970625936985,0.006617854814976454,-0.029242398217320442,0.025166546925902367,0.014511500485241413,0.01833992451429367,0.03269299492239952,-0.027307406067848206,0.013534310273826122,-0.0030102268792688847,-0.027518536895513535,0.008356386795639992,0.005109144374728203,0.021099908277392387,-0.0011558037949725986,-0.029409999027848244,-0.015873493626713753,-0.02342609316110611,-0.02081126905977726,0.013003584928810596,-0.007388950325548649,-0.020494358614087105,-0.01794552430510521,-0.006090415641665459,-0.017420565709471703,-0.0005005266866646707,-0.0146762290969491,0.02332223951816559,0.007682108785957098,-0.012317998334765434,-0.018141308799386024,0.01771933026611805,-0.03229057788848877,0.02535402961075306,-0.011404254473745823,0.0031812209635972977,0.004823401104658842,-0.0167501512914896,0.019199540838599205,-0.015494945459067822,-0.006401865277439356,0.007521587423980236,-0.008742112666368484,0.006330922245979309,0.006123791914433241,-0.003976420499384403,-0.00855582021176815,0.005892020184546709,0.010039380751550198,0.02166748046875,-0.019102666527032852,-0.006420695688575506,0.013430992141366005,0.01645606756210327,0.02722029574215412,0.016067663207650185,0.0010493979789316654,-0.011888301931321621,0.015524668619036674,-0.028296733275055885,-0.022206434980034828,0.011459259316325188,0.008522702381014824,0.021947087720036507,-0.016277510672807693,-0.010093149729073048,0.011048552580177784,-0.024599585682153702,0.012244829908013344,0.010254567489027977,0.007566138636320829,0.03322400897741318,0.023378202691674232,-0.010819685645401478,-0.004125539679080248,-0.006211508996784687,0.010047807358205318,0.002367872279137373,-0.005601983983069658,-0.002769807353615761,0.028270617127418518,-0.014573869295418262,0.029469165951013565,0.005056914873421192,-0.026162851601839066,-0.0028877975419163704,-0.01873900555074215,0.0017408274579793215,-0.018573613837361336,-0.02232888899743557,0.015550284646451473,0.009103037416934967,-0.007343169301748276,-0.03293239325284958,0.02735404670238495,0.014570461586117744,-0.03173218294978142,0.00436400668695569,-0.006295983679592609,-0.02418939396739006,0.014298716560006142,0.024469591677188873,-0.029464710503816605,0.01829303242266178,0.013545222580432892,0.01452559418976307,-0.02475035935640335,0.025398751720786095,-0.0005856455536559224,-0.017020896077156067,-0.0033707048278301954,0.014836152084171772,0.0025241633411496878,-0.027300475165247917,-0.013527235947549343,-0.01642414554953575,-0.025162886828184128,0.0006674835458397865,-0.020830299705266953,-0.0008442576508969069,0.031640902161598206,-0.018059248104691505,0.03237555921077728,0.0012856504181399941,-0.02966282330453396,0.030130207538604736,0.027725012972950935,0.02020799182355404,0.0036794953048229218,0.0037314638029783964,-0.008485822938382626,-0.01090641412883997,0.02666189707815647,-0.00012503613834269345,0.023730168119072914,0.02386011742055416,-0.008864391595125198,-0.011169363744556904,-0.02449355088174343,0.018854044377803802,0.016708215698599815,-0.029354063794016838,0.017335319891572,-0.029903333634138107,-0.029955269768834114,0.020979538559913635,-0.006364053580909967,0.007027881685644388,-0.008129035122692585,-0.03299577906727791,-0.008607489056885242,-0.031633637845516205,-0.0066927652806043625,0.01403810828924179,-0.004014590289443731,0.03238078951835632,-0.026773177087306976,0.029242612421512604,-0.0004133257025387138,0.0014244162011891603,0.027901364490389824,-0.004992254544049501,0.018353218212723732,-0.005084166768938303,-0.01588987559080124,-0.023608898743987083,-0.031595196574926376,0.02712545171380043,-0.025609303265810013,0.014967555180191994,0.013336468487977982,-0.005390577483922243,-0.014321275055408478,-0.011732916347682476,-0.028418555855751038,0.021496975794434547,0.02358141914010048,0.004076969809830189,0.013497423380613327,0.0008081018459051847,-0.0010532117448747158,0.005309521686285734,-0.02609054371714592,-0.0044511486776173115,0.009606669656932354,-0.027031883597373962,-0.00422309385612607,0.031302060931921005,0.0036641377955675125,-0.00587230222299695,0.007859408855438232,0.014475816860795021,0.014153636060655117,-0.0310518741607666,0.028891757130622864,0.02893776074051857,0.026355218142271042,-0.020860090851783752,-0.01676957681775093,-0.0024250077549368143,0.009319877251982689,0.03010018728673458,-0.027560008689761162,-0.0003949911624658853,-0.0016798808937892318,0.017729884013533592,0.013633147813379765,0.009687700308859348,0.018975550308823586,-0.0116548677906394,-0.02449166215956211,-0.024260183796286583,-0.0017926496220752597,-0.010547836311161518,0.006293103564530611,0.025486383587121964,0.024842243641614914,0.027802959084510803,0.011135495267808437,0.021457510069012642,0.017438648268580437,-0.010683955624699593,-0.025099042803049088,-0.018221724778413773,-0.009777724742889404,-0.02878580614924431,-0.00381130981259048,-0.02695147693157196,0.018628975376486778,-0.03187946602702141,0.03322877362370491,-0.03254952281713486,0.028121639043092728,-0.012292029336094856,-0.025444120168685913,-0.029656415805220604,-0.0051422081887722015,-0.03254743292927742,0.021966883912682533,0.008063445799052715,0.014178824611008167,-0.0009923828765749931,-0.005990555975586176,-0.02680640108883381,0.022910473868250847,-0.01993241347372532,0.006276214029639959,-0.026858506724238396,0.030403729528188705,0.004743127152323723,-0.002267638221383095,-0.0035694155376404524,-0.01902254857122898,0.0014937426894903183,-0.02683674730360508,0.01979643665254116,-0.03275177627801895,-0.02238651178777218,0.01192928571254015,-0.015351400710642338,0.030442573130130768,0.024646658450365067,-0.03078828565776348,-0.03173496201634407,-0.013737795874476433,-0.012602599337697029,-0.025407010689377785,-0.0000568216601095628,0.03305957093834877,0.029779262840747833,0.022620748728513718,-0.01750749722123146,-0.022617001086473465,-0.014351436868309975,-0.03056507557630539,0.007184067275375128,-0.02755132131278515,0.016725176945328712,0.02355753630399704,0.00968167558312416,0.02738620899617672,-0.001667513744905591,0.005594841670244932,0.015035846270620823,-0.007858527824282646,-0.012108353897929192,0.019036468118429184,-0.024578621610999107,0.0035075456835329533,-0.0036736181937158108,0.017416972666978836,0.022457674145698547,0.00311465747654438,-0.005919971503317356,0.03059322200715542,-0.016262151300907135,-0.02228098176419735,-0.006739647593349218,0.005028175190091133,0.0323193222284317,0.004172523971647024,-0.032053712755441666,0.030684934929013252,0.012321101501584053,0.02261490374803543,-0.02135658822953701,-0.020262863487005234,0.029673384502530098,0.01727970503270626,-0.012209142558276653,-0.007503764238208532,-0.004321937914937735,