[{"type":"conv","filters":[{"data":[0.175160214304924,0.06994926929473877,-0.17284844815731049,0.0739295482635498,-0.0865417867898941,-0.11714377999305725,-0.0014943063724786043,0.2079109251499176,0.44275861978530884],"shape":[3,3,1]},{"data":[0.4366312026977539,-0.28180021047592163,0.22859534621238708,-0.3575206398963928,0.36765530705451965,-0.3149122893810272,0.32704392075538635,0.34172025322914124,0.07329501211643219],"shape":[3,3,1]},{"data":[0.18139463663101196,0.16839481890201569,0.45640653371810913,0.18351849913597107,-0.22515632212162018,-0.4055091142654419,-0.4428040683269501,0.27448904514312744,0.3626018464565277],"shape":[3,3,1]},{"data":[-0.19838584959506989,-0.033594872802495956,-0.09337028861045837,0.12919849157333374,0.1947915405035019,-0.40484070777893066,-0.15978579223155975,-0.2017652690410614,-0.1505812108516693],"shape":[3,3,1]},{"data":[-0.28568795323371887,0.07752221077680588,0.4338368773460388,0.07484447956085205,0.47036293148994446,-0.23278690874576569,0.24939025938510895,-0.38081324100494385,-0.35962244868278503],"shape":[3,3,1]},{"data":[-0.04090902954339981,-0.2916785180568695,0.10379036515951157,-0.3017504811286926,0.2746868133544922,0.3394981622695923,0.4500371813774109,-0.3849080502986908,0.2707288861274719],"shape":[3,3,1]},{"data":[-0.036152929067611694,-0.23516874015331268,-0.17240439355373383,-0.3087758719921112,-0.09443894028663635,-0.3305897116661072,0.2158467024564743,0.010398820973932743,-0.23885293304920197],"shape":[3,3,1]},{"data":[0.18254238367080688,0.24705086648464203,-0.2720976769924164,0.07483486086130142,-0.18330857157707214,0.1902536153793335,-0.09920945763587952,-0.11482243239879608,0.24691756069660187],"shape":[3,3,1]}],"biases":[0.009999999776482582,0.009999999776482582,0.009999999776482582,0.009999999776482582,0.009999999776482582,0.009999999776482582,0.009999999776482582,0.009999999776482582]},{"type":"maxpool"},{"type":"dense","weights":[0.004222672898322344,0.010355472564697266,0.008417539298534393,-0.015075554139912128,0.007212833501398563,-0.00996540766209364,0.021413104608654976,0.03259427100419998,-0.024375716224312782,0.022023003548383713,0.026123294606804848,0.006956574507057667,0.0161275677382946,-0.016289230436086655,-0.00380069762468338,-0.026484543457627296,-0.0075551667250692844,0.009711860679090023,-0.011915193870663643,0.02784493938088417,-0.011708220466971397,-0.030580999329686165,0.012088258750736713,-0.027648523449897766,0.014964413829147816,0.012381800450384617,0.01098410040140152,-0.0065191397443413734,-0.022593554109334946,0.019002458080649376,-0.008091104216873646,0.020167822018265724,-0.01816815882921219,0.025157667696475983,-0.017117422074079514,0.006638576742261648,-0.013724470511078835,-0.006804365199059248,0.016048293560743332,0.029862921684980392,-0.016230303794145584,-0.012873069383203983,-0.017412183806300163,-0.006149156019091606,-0.031149178743362427,-0.031839240342378616,0.013195926323533058,0.013616975396871567,0.01032316405326128,0.02744470350444317,0.011222568340599537,0.02945120818912983,-0.030146190896630287,-0.026878302916884422,0.02715481072664261,-0.016853151842951775,0.011920874938368797,-0.012536529451608658,0.010150141082704067,0.03088064305484295,0.01979682967066765,0.0289838295429945,-0.01934737339615822,-0.0281512588262558,0.03232002258300781,-0.022001489996910095,0.009917040355503559,-0.015665516257286072,-0.018542226403951645,-0.02765129879117012,-0.010636452585458755,-0.017448533326387405,0.025271205231547356,-0.01760566420853138,0.028967635706067085,-0.018494511023163795,0.015040448866784573,-0.023264767602086067,0.015498424880206585,0.0031402194872498512,0.011175446212291718,-0.018782997503876686,0.031557388603687286,0.023502549156546593,-0.018909374251961708,0.024649430066347122,-0.02278505451977253,0.029860401526093483,0.0054705324582755566,-0.0019769181963056326,0.029944706708192825,0.018290085718035698,-0.03133423998951912,0.01788245141506195,-0.02994244173169136,-0.030474528670310974,-0.00872991606593132,-0.0237587820738554,0.0021223302464932203,-0.017642827704548836,0.023894447833299637,0.027916288003325462,0.0030478695407509804,-0.02977404184639454,-0.027193700894713402,-0.012182813137769699,-0.015862002968788147,-0.008201333694159985,0.033025145530700684,0.023209797218441963,0.009683970361948013,-0.018109040334820747,0.028451891615986824,-0.01290411502122879,0.023748615756630898,0.01717779040336609,-0.023538125678896904,0.030274853110313416,0.013831689953804016,0.01895047537982464,-0.01486905850470066,0.004549999255686998,-0.029337821528315544,0.006330839823931456,0.031720370054244995,0.008169428445398808,0.017432257533073425,0.030268913134932518,-0.021497249603271484,0.028678204864263535,0.025764061138033867,-0.022479325532913208,-0.01114391814917326,-0.030396226793527603,-0.017519978806376457,0.02687072567641735,0.0015448202611878514,-0.02924579381942749,-0.006841040216386318,0.0223806444555521,-0.027765896171331406,0.007857595570385456,0.00881049782037735,-0.006900967564433813,-0.028691738843917847,-0.020445924252271652,0.022335315123200417,0.02279389090836048,-0.016018221154808998,-0.0022272197529673576,-0.03187991678714752,0.010665670037269592,0.03310804441571236,-0.0041352021507918835,-0.012738094665110111,-0.030602063983678818,-0.019017748534679413,-0.001148897223174572,0.009838119149208069,0.015023600310087204,0.029909348115324974,-0.02850598283112049,0.026029912754893303,-0.022980650886893272,0.01867268979549408,-0.032278817147016525,-0.0041963523253798485,0.017293140292167664,0.017865588888525963,0.023720016703009605,-0.004055480472743511,-0.027495697140693665,0.012053996324539185,-0.0006023106980137527,0.0065592629835009575,0.02826625481247902,0.03264659643173218,0.022257309406995773,0.021691003814339638,-0.001003873534500599,0.015427876263856888,0.006149906665086746,0.02609587274491787,-0.0025409141089767218,-0.013164672069251537,0.03145928680896759,-0.026517631486058235,-0.02526632882654667,-0.02069970592856407,0.000701607670634985,-0.01056315191090107,-0.01759556122124195,0.02719304896891117,-0.02380385436117649,0.027088936418294907,0.005851668771356344,-0.0022826429922133684,0.004721939098089933,-0.024460850283503532,0.012774348258972168,-0.03058619052171707,-0.013665223494172096,-0.007829824462532997,0.021463965997099876,-0.021517224609851837,0.008211218751966953,-0.020503103733062744,0.003231892129406333,-0.008972312323749065,0.030673863366246223,-0.006256319582462311,-0.02259083092212677,-0.012056421488523483,0.02026592567563057,-0.023657983168959618,0.008238271810114384,-0.001882396056316793,0.030381394550204277,0.011511994525790215,0.01286741066724062,-0.00566710252314806,-0.027940616011619568,-0.03025158680975437,0.017857549712061882,-0.0034240346867591143,-0.017900971695780754,0.02175912633538246,0.003774360055103898,0.004052876029163599,-0.012129431590437889,-0.008929796516895294,-0.022436290979385376,-0.02864985167980194,-0.016428666189312935,0.0035506715066730976,-0.007371888961642981,-0.010190202854573727,-0.020391661673784256,0.010114318691194057,-0.020892130210995674,0.009701785631477833,0.001665115705691278,0.012258184142410755,-0.029563402757048607,-0.02170395478606224,-0.020610546693205833,0.0025515283923596144,0.0134418411180377,0.01688477024435997,0.03220865875482559,-0.02330692484974861,-0.004878547508269548,0.01876450702548027,0.0014805883402004838,-0.012733666226267815,0.014519822783768177,-0.0005994914099574089,0.004137891810387373,-0.0008704300271347165,0.022739164531230927,0.00907514151185751,-0.022153310477733612,0.010912220925092697,-0.014671176671981812,-0.011294152587652206,0.02534283697605133,-0.006262129172682762,0.031963035464286804,0.011079209856688976,-0.028306258842349052,0.011027391999959946,-0.0058555458672344685,-0.01971859112381935,-0.004273150581866503,0.027543501928448677,0.0245820302516222,-0.0029901403468102217,-0.010123166255652905,-0.02771918661892414,-0.012504251673817635,-0.02090448886156082,-0.019819019362330437,0.03319426253437996,0.01795448549091816,-0.01665544882416725,-0.027964666485786438,0.017656132578849792,0.00955742597579956,-0.02845468930900097,-0.021137535572052002,-0.026937514543533325,-0.02435251884162426,-0.015521291643381119,-0.0005558800185099244,0.019537273794412613,0.017393648624420166,-0.03146416321396828,-0.006116766482591629,0.011591337621212006,0.007085938006639481,-0.0026725749485194683,-0.023319285362958908,-0.021734606474637985,-0.018157536163926125,0.0082151610404253,-0.01690080389380455,0.01960829459130764,0.026369785889983177,0.005430568940937519,0.012656846083700657,0.005518139805644751,-0.0189523845911026,-0.012484632432460785,-0.001724553992971778,-0.006796222645789385,0.00661940174177289,-0.021246155723929405,-0.0021759450901299715,0.022332029417157173,-0.0023320529144257307,-0.032567743211984634,-0.005635681562125683,0.017414551228284836,-0.02585536800324917,0.0058479332365095615,0.01055963896214962,0.02442547306418419,-0.027736995369195938,-0.005307971499860287,0.005607079714536667,-0.02220732532441616,-0.004423412960022688,-0.01528879813849926,0.011369820684194565,0.0019012722186744213,-0.00167966412845999,-0.00798363983631134,-0.010627450421452522,0.01066750381141901,0.00023724633501842618,-0.010991943068802357,0.023216359317302704,0.011596347205340862,0.013039587065577507,-0.004312122240662575,-0.0006569176912307739,0.007158339489251375,0.020833343267440796,0.02484721876680851,-0.025368617847561836,0.018999138846993446,-0.032269805669784546,0.012062671594321728,-0.031074654310941696,0.0025033648125827312,-0.02027733623981476,0.0013370215892791748,-0.031552959233522415,-0.022943325340747833,0.0009672851301729679,-0.027867581695318222,-0.009998807683587074,0.011428291909396648,-0.02146282233297825,-0.021531853824853897,-0.025852099061012268,0.0022194681223481894,0.020743055269122124,-0.03245595097541809,-0.030315568670630455,-0.006126559805124998,0.017469044774770737,-0.030318573117256165,0.0009309950983151793,-0.026603098958730698,-0.005827856250107288,0.011341876350343227,-0.009028871543705463,0.02207929454743862,-0.017451781779527664,-0.03149864077568054,0.027820831164717674,-0.014646731317043304,-0.006469100248068571,-0.02955453284084797,0.018584709614515305,0.008921928703784943,-0.02470739558339119,-0.009934522211551666,-0.009890476241707802,0.027554567903280258,0.031611062586307526,-0.01888244040310383,-0.031218919903039932,-0.014692883007228374,0.012958534061908722,-0.014524740166962147,0.013061287812888622,-0.029252465814352036,0.022535962983965874,-0.03175004571676254,0.0324380025267601,-0.022671572864055634,0.01693704165518284,0.023408295586705208,0.026651930063962936,-0.023768233135342598,0.023537827655673027,0.001354380277916789,-0.02955014444887638,0.01608135923743248,0.0021080910228192806,0.02231273613870144,-0.026770899072289467,-0.024040063843131065,0.029619667679071426,-0.0017399496864527464,0.02617146447300911,0.008108202368021011,0.030371591448783875,0.002162487478926778,0.02634560689330101,-0.010684440843760967,-0.002226179698482156,0.02244599722325802,0.0014214447000995278,0.006188208237290382,-0.021399233490228653,0.02012580633163452,0.010995438322424889,0.02046993374824524,-0.006799292750656605,0.02186490222811699,-0.0065940869972109795,-0.02962641976773739,-0.004023320507258177,0.005427129566669464,-0.0035115990322083235,-0.022286806255578995,0.01932286098599434,-0.018111418932676315,0.02938508242368698,0.011666340753436089,-0.028118306770920753,0.002584013855084777,-0.016758151352405548,0.015497852116823196,0.018598852679133415,-0.008790276944637299,-0.018955940380692482,0.0022917420137673616,-0.007175398990511894,-0.016142744570970535,0.02255343459546566,-0.01932542584836483,-0.02215319685637951,-0.013987562619149685,0.023506727069616318,0.010677029378712177,0.023551858961582184,0.005884591024369001,0.025589415803551674,0.009284479543566704,-0.017131967470049858,-0.024246813729405403,-0.002712850458920002,-0.03190572187304497,0.01948070339858532,0.016734806820750237,0.020992174744606018,-0.007064529694616795,-0.016169175505638123,0.03045676462352276,0.0028963822405785322,-0.027476109564304352,0.028084179386496544,-0.00847693532705307,-0.0285028163343668,0.005357216577976942,0.015361565165221691,0.030854709446430206,0.0004940573708154261,-0.010879277251660824,0.006296525709331036,-0.0019082012586295605,-0.01843590848147869,0.013419842347502708,0.0028911749832332134,-0.015441088005900383,-0.0014146828325465322,0.024275580421090126,-0.010806107893586159,-0.013667291030287743,-0.008507209829986095,0.03041624091565609,-0.021627509966492653,0.019787900149822235,-0.01392925065010786,-0.030799511820077896,-0.023864703252911568,-0.010328758507966995,-0.003714505350217223,-0.026699040085077286,0.02944878488779068,0.025487933307886124,0.017305364832282066,0.022389816120266914,-0.025646256282925606,-0.012644303031265736,0.01857982948422432,-0.029487168416380882,-0.032340820878744125,-0.006554544437676668,-0.009289883077144623,0.0020383894443511963,-0.02732720598578453,0.02589581348001957,0.029253633692860603,0.025520626455545425,0.02425486035645008,-0.0005087036988697946,0.02290712483227253,0.005269140005111694,0.028606833890080452,0.02006777748465538,-0.016888633370399475,0.02909121662378311,-0.009435768239200115,0.03330839052796364,-0.010138018988072872,0.03027830459177494,0.012073341757059097,0.030936088413000107,0.02862783893942833,-0.018607066944241524,0.011740513145923615,0.010579166933894157,0.017187148332595825,-0.026325825601816177,-0.015000449493527412,0.014094535261392593,-0.0024503348395228386,0.029031770303845406,-0.00191795127466321,-0.021752454340457916,0.007387024350464344,-0.008429042994976044,-0.011335590854287148,0.027189595624804497,0.027192015200853348,-0.03194576874375343,-0.004428763873875141,0.024216990917921066,0.018240654841065407,-0.0061172847636044025,0.028110545128583908,0.0015791974728927016,0.02225949615240097,0.005231998395174742,0.022292833775281906,-0.028507476672530174,-0.00344401434995234,0.018608614802360535,0.015854645520448685,-0.02311146818101406,-0.029712919145822525,0.02684907801449299,0.016965629532933235,0.0007775173871777952,0.029278479516506195,-0.019469154998660088,-0.016906261444091797,-0.027480483055114746,0.0016683076974004507,0.018077939748764038,-0.0056427544914186,-0.005322013050317764,-0.002143061487004161,0.026103520765900612,0.012913331389427185,-0.004557265900075436,0.03251342102885246,0.02000853605568409,0.006884540431201458,-0.021450737491250038,0.015552648343145847,0.030704708769917488,0.030274316668510437,-0.030776452273130417,-0.010658775456249714,-0.006103951018303633,0.011544693261384964,-0.005976250395178795,0.003563517704606056,-0.002730086911469698,-0.009681744500994682,0.025111697614192963,-0.004798882640898228,-0.012554854154586792,0.0004979184595867991,-0.0008781536598689854,-0.018905887380242348,0.026528220623731613,0.023849137127399445,0.021311577409505844,-0.004365631844848394,0.010414608754217625,-0.023943401873111725,0.009501847438514233,-0.02088410221040249,0.0013748094206675887,0.012523191049695015,-0.015086154453456402,-0.015743091702461243,-0.0162709541618824,-0.012570442631840706,0.014785446226596832,0.02712513692677021,0.006960676517337561,-0.021284673362970352,-0.011666457168757915,0.01458008959889412,-0.005455576814711094,-0.018751168623566628,-0.022059811279177666,-0.02937186509370804,0.02636607363820076,0.02259853109717369,0.002340123988687992,-0.006577776279300451,-0.017457326874136925,0.028144674375653267,-0.0213851910084486,0.026234984397888184,-0.012701816856861115,0.01653113402426243,0.013762412592768669,-0.0029174049850553274,0.021801361814141273,-0.021724417805671692,0.004930094350129366,0.024922039359807968,0.02465125359594822,-0.02682259865105152,-0.008326533250510693,0.0033383683767169714,-0.02280031144618988,-0.020268801599740982,-0.02457825094461441,0.01519005000591278,0.024372635409235954,0.026460794731974602,0.0074349138885736465,0.014656931161880493,0.02029705047607422,-0.019795486703515053,-0.032124727964401245,0.01420828141272068,-0.015357255935668945,0.015738561749458313,0.014926125295460224,-0.01142362505197525,-0.020244209095835686,0.0318482369184494,-0.02908061444759369,-0.013857677578926086,-0.011054698377847672,-0.0025856224820017815,-0.03064734861254692,-0.024509022012352943,-0.012582886964082718,0.010049190372228622,-0.028288651257753372,0.0172096136957407,-0.019988466054201126,0.02581053599715233,-0.011863688938319683,0.022498253732919693,0.025415129959583282,0.026099490001797676,0.012370250187814236,-0.022021695971488953,-0.0126116294413805,-0.012301069684326649,-0.0322352796792984,0.0033998794388026,0.016814187169075012,-0.027726592496037483,-0.02305781841278076,-0.008173455484211445,0.023836927488446236,-0.012448406778275967,0.008707420900464058,-0.003021196462213993,0.03266016021370888,-0.022055476903915405,-0.026916828006505966,-0.001638926099985838,0.03149823844432831,0.0004275481041986495,-0.02629622258245945,-0.02492930367588997,-0.022693634033203125,-0.027095500379800797,0.00940567348152399,0.029637426137924194,-0.016747495159506798,-0.02184746414422989,-0.017955809831619263,0.005485157016664743,0.002254979917779565,-0.0037362701259553432,-0.03131967410445213,-0.004178069997578859,0.006277640350162983,-0.02617211453616619,-0.017461905255913734,-0.03031592257320881,0.009790798649191856,-0.012743744067847729,-0.027628730982542038,0.017109660431742668,-0.010209850035607815,-0.015914807096123695,-0.009544163942337036,-0.005838629323989153,-0.021070193499326706,-0.02409028634428978,-0.009019618853926659,-0.02818702533841133,-0.026088204234838486,0.01945853792130947,-0.005706614349037409,-0.028994157910346985,0.010929424315690994,-0.0020055710338056087,-0.018073925748467445,-0.030288003385066986,-0.023416884243488312,0.0027963053435087204,0.0027291548904031515,-0.017032351344823837,-0.028683386743068695,-0.01648719049990177,0.0005800233338959515,0.01691051386296749,-0.031177161261439323,0.017602277919650078,0.011102505028247833,-0.021202458068728447,0.0036898853722959757,0.00797670055180788,0.003171345451846719,-0.023796461522579193,-0.01944458857178688,-0.02839473821222782,0.028677692636847496,-0.02324390597641468,-0.008668267168104649,-0.018731901422142982,0.019515950232744217,0.024990342557430267,0.015461068600416183,-0.018374789506196976,-0.008999436162412167,-0.023820770904421806,0.02909744344651699,-0.016303805634379387,-0.00887700729072094,-0.01403995044529438,-0.0019235974177718163,0.03175955265760422,0.018871000036597252,0.029142387211322784,0.004861757624894381,-0.031211085617542267,0.030088961124420166,-0.0069449772126972675,-0.007697105873376131,-0.0153579693287611,0.02842198871076107,-0.004289263393729925,-0.021645985543727875,0.018311504274606705,0.010002989321947098,0.027231521904468536,0.009681780822575092,0.002283301204442978,-0.0006051277159713209,0.027464739978313446,0.024319691583514214,0.032133277505636215,-0.020053744316101074,0.019279226660728455,0.0051561943255364895,0.010002573020756245,0.03274257853627205,-0.011971600353717804,-0.00964825227856636,-0.006168958730995655,-0.02481992170214653,0.011614893563091755,0.02650739625096321,0.009037096984684467,0.011272993870079517,-0.017288746312260628,-0.024972472339868546,-0.011126738972961903,0.027432072907686234,0.007632534950971603,-0.013708287850022316,0.004659710451960564,0.0066931904293596745,-0.028384851291775703,0.014736042357981205,0.016610058024525642,0.019871622323989868,0.029510224238038063,-0.02568068355321884,-0.00816626101732254,-0.01705756038427353,0.023309489712119102,-0.027521928772330284,-0.016907287761569023,0.02665332518517971,-0.0002923938154708594,0.0037938205059617758,-0.014362575486302376,0.01413154136389494,0.0275662112981081,0.025902872905135155,0.00347808632068336,0.0005297336610965431,-0.011014442890882492,-0.024409953504800797,-0.017148874700069427,-0.005365725606679916,-0.0030943462625145912,0.011398710310459137,-0.0011576045071706176,-0.02516869083046913,0.03200885280966759,0.021723994985222816,-0.01284821517765522,-0.019189011305570602,-0.013186540454626083,0.03129313513636589,-0.01959327422082424,0.013080306351184845,-0.012499715201556683,-0.009417870081961155,-0.0011339630000293255,-0.0034901434555649757,-0.01674727350473404,0.026340140029788017,-0.005927056539803743,0.02357310801744461,0.0012068685609847307,0.0056817675940692425,-0.005242049694061279,-0.007899518124759197,-0.016602346673607826,0.00046820344869047403,0.02890586294233799,0.031662676483392715,0.024232178926467896,-0.011776896193623543,-0.023258673027157784,0.005104374140501022,0.02895500883460045,-0.027675379067659378,-0.024241600185632706,-0.022874029353260994,-0.004290514159947634,0.013916714116930962,-0.01550416462123394,0.024719716981053352,0.01508544385433197,0.02719707228243351,-0.005994580220431089,-0.012944024056196213,-0.014929021708667278,0.018397090956568718,-0.009470026940107346,-0.001018628478050232,-0.00038084707921370864,0.027606526389718056,0.03292247653007507,0.02541978843510151,-0.018600312992930412,-0.020607884973287582,0.02683732472360134,-0.01926012896001339,-0.002532961778342724,0.029110636562108994,0.02352544665336609,-0.033032868057489395,0.017382360994815826,-0.023347236216068268,-0.01033126749098301,0.031926341354846954,0.0012219123309478164,0.010411642491817474,0.017903398722410202,-0.01144912838935852,-0.01009367499500513,-0.015933161601424217,0.027855530381202698,-0.0075615341775119305,0.03169254958629608,-0.02165818400681019,-0.0022625236306339502,0.012972870841622353,0.028553327545523643,-0.02006419189274311,-0.010535291396081448,0.002463054144755006,0.013043772429227829,0.021926792338490486,0.026805857196450233,-0.0014955020742490888,0.002097440417855978,-0.020237160846590996,-0.023794623091816902,0.03067328780889511,-0.005183722823858261,0.02002222090959549,-0.031196238473057747,0.02148585394024849,-0.014815659262239933,0.0010547166457399726,0.026174625381827354,0.026651926338672638,-0.008446753956377506,0.008674940094351768,-0.0008922615670599043,0.004456705413758755,0.008598854765295982,0.011552839539945126,-0.008550617843866348,0.02219657227396965,0.01634514518082142,-0.01777680404484272,0.020812934264540672,0.012139219790697098,-0.00765577144920826,0.00011152663500979543,0.030438749119639397,-0.027968619018793106,-0.015138588845729828,0.010534103959798813,0.02070259302854538,0.021869752556085587,0.014177019707858562,-0.02326389029622078,-0.0052617075853049755,0.00642232783138752,-0.002936438424512744,-0.02606949768960476,-0.02078893594443798,-0.018359079957008362,-0.03238828107714653,0.014460806734859943,0.029267996549606323,0.022977985441684723,-0.017954936251044273,-0.003361904062330723,0.028496485203504562,0.015927117317914963,0.01269318163394928,-0.030475210398435593,0.0025708056055009365,0.01791643537580967,0.008358445949852467,0.0011499475222080946,0.030588610097765923,0.009446420706808567,-0.019808106124401093,0.01866178773343563,0.005353199318051338,0.0006776080117560923,0.001878321752883494,-0.026263529434800148,0.02739754132926464,-0.007451458368450403,0.01295041386038065,-0.019613370299339294,-0.00347576173953712,0.016844483092427254,-0.0248588677495718,-0.03209701552987099,0.015516404993832111,-0.01608366146683693,0.008492344990372658,0.028141848742961884,-0.023705916479229927,0.013018127530813217,-0.026996664702892303,0.016572142019867897,0.006397272925823927,0.021013855934143066,-0.023194555193185806,0.032681725919246674,-0.009103365242481232,0.005934065207839012,-0.002815971849486232,0.006859194952994585,-0.0115842679515481,-0.028564414009451866,-0.028923794627189636,0.01966029591858387,0.01948937587440014,0.009775230661034584,0.031880032271146774,-0.016364851966500282,-0.021604962646961212,0.025516141206026077,-0.025442147627472878,-0.006351593416184187,-0.015057617798447609,-0.025903794914484024,-0.010456855408847332,-0.013097349554300308,-0.029439114034175873,0.01755872182548046,0.0014177345437929034,-0.017524365335702896,0.021693916991353035,0.023486806079745293,0.00901477038860321,0.031633514910936356,-0.017262209206819534,0.000916483229957521,-0.013110351748764515,0.013310039415955544,0.003978621680289507,0.002979133278131485,-0.0317692831158638,-0.032612066715955734,0.010922349989414215,-0.018675625324249268,0.014595326967537403,0.02231692709028721,-0.01731730066239834,0.0013999734073877335,-0.013934072107076645,0.008983313106000423,-0.028454026207327843,0.01851199008524418,-0.022072808817029,0.012726102955639362,-0.00807268638163805,0.00514319958165288,-0.028993401676416397,-0.006657322868704796,-0.01599271222949028,-0.006430155131965876,-0.02114567719399929,0.03184064105153084,-0.009927117265760899,-0.024004431441426277,-0.018745316192507744,-0.02193364128470421,-0.029625875875353813,-0.03080281987786293,-0.02369379810988903,0.02524372562766075,-0.024365641176700592,0.014327426441013813,0.013422640971839428,-0.02287065051496029,0.00918473582714796,-0.02069939114153385,0.02305147796869278,0.012217754498124123,-0.020340830087661743,-0.007548745721578598,-0.01178454514592886,0.03293033316731453,0.005608719307929277,-0.020314130932092667,0.025335049256682396,-0.0023104138672351837,0.01230166107416153,-0.03218608722090721,-0.004448916297405958,-0.020459704101085663,0.022623272612690926,0.0073039173148572445,-0.0005266251973807812,0.01175251230597496,0.014274266548454762,-0.013801532797515392,-0.010058032348752022,-0.03185589239001274,-0.00857828464359045,0.004779686685651541,-0.015565454959869385,0.01230610627681017,0.025592247024178505,0.02330940216779709,-0.028076384216547012,0.0319218747317791,-0.03316379338502884,0.030809251591563225,0.009372102096676826,-0.022280020639300346,-0.022213971242308617,-0.002320985309779644,-0.009471265599131584,-0.005430600605905056,0.00025329343043267727,0.028355201706290245,0.02217727340757847,-0.02306075021624565,0.01266133226454258,-0.016020752489566803,-0.026140103116631508,0.012516990303993225,-0.008985329419374466,-0.02337157167494297,-0.014221412129700184,0.014044084586203098,-0.020205046981573105,-0.01529294066131115,0.0080243656411767,-0.028816495090723038,-0.03285311535000801,-0.019724510610103607,-0.028911946341395378,0.011041407473385334,0.017554890364408493,0.011395936831831932,-0.012119529768824577,-0.020829392597079277,-0.025005361065268517,0.029031243175268173,-0.021408606320619583,-0.03057316318154335,-0.0157877579331398,0.020216111093759537,0.011760490015149117,-0.015153382904827595,-0.0293023269623518,-0.029193686321377754,-0.022664593532681465,0.02088695392012596,-0.0250580795109272,0.014686230570077896,0.006904285866767168,-0.02754834294319153,0.016229869797825813,0.007066926918923855,0.019372470676898956,0.0023284105118364096,-0.013841557316482067,0.01810416392982006,-0.0076770787127316,0.002087594475597143,-0.00976491253823042,-0.01651466265320778,0.024561084806919098,0.02788909710943699,-0.028754105791449547,-0.012845773249864578,-0.020767757669091225,0.006494775414466858,0.020657772198319435,0.025750085711479187,0.020885277539491653,-0.02378036081790924,0.021760473027825356,-0.0025653322227299213,0.00814546924084425,0.013675780035555363,0.015417421236634254,-0.031040731817483902,-0.01703931763768196,0.0314570888876915,0.006314773112535477,0.027108291164040565,-0.028581377118825912,0.006043707951903343,0.025624079629778862,-0.007157937157899141,0.009149513207376003,0.02248098887503147,0.031485989689826965,-0.005100097041577101,0.025653524324297905,-0.013325447216629982,0.00673377700150013,-0.01341228000819683,0.015458889305591583,-0.03087460994720459,-0.017116788774728775,0.01977120153605938,0.010937447659671307,-0.013203611597418785,-0.015658913180232048,-0.005169738084077835,-0.03306135907769203,-0.03301755338907242,0.004975124727934599,-0.021378550678491592,-0.024478916078805923,0.012450993992388248,-0.023211123421788216,0.026583578437566757,0.014842143282294273,-0.0015786794247105718,0.023481393232941628,0.018490293994545937,-0.0005755632882937789,0.006927690003067255,-0.0043198224157094955,0.0316956453025341,-0.02464158833026886,0.02426270581781864,0.03212486207485199,0.02685127779841423,0.027777520939707756,-0.03213461861014366,-0.025835776701569557,-0.002349325455725193,0.005401476286351681,0.00487326318398118,0.02810428850352764,0.01886269822716713,0.00942190084606409,-0.024290384724736214,0.018177391961216927,0.023196779191493988,-0.01972988247871399,-0.03199617937207222,-0.025419320911169052,0.0015182067872956395,0.003565749153494835,-0.024993767961859703,0.027053819969296455,0.01821056939661503,-0.023844655603170395,0.01875617541372776,-0.009842430241405964,0.011016489937901497,0.02712331712245941,-0.008797588758170605,-0.033063992857933044,0.017737608402967453,-0.005043040495365858,-0.0072542522102594376,-0.017473386600613594,0.01083859521895647,0.0010044978698715568,-0.020001808181405067,-0.00427835900336504,0.02475305087864399,0.013631168752908707,-0.017584169283509254,0.002921327017247677,-0.007363463751971722,0.01665578968822956,0.0011976190144196153,-0.0057044560089707375,0.001379119697958231,-0.009534130804240704,0.013145982287824154,-0.00373476673848927,-0.010848668403923512,-0.007032447960227728,-0.011197293177247047,-0.006469819229096174,-0.02387366071343422,-0.02765907719731331,0.01723233051598072,0.01341655571013689,0.020787252113223076,0.010550529696047306,-0.02500540018081665,-0.0042282831855118275,0.0059010181576013565,-0.02507805824279785,-0.0030895632226020098,0.012197627685964108,0.02926759049296379,0.017631011083722115,-0.019583726301789284,-0.010535314679145813,-0.015895739197731018,-0.0020887344144284725,-0.009517665952444077,0.009121454320847988,0.03133038803935051,0.0027602817863225937,-0.013317893259227276,-0.004113748203963041,-0.017341971397399902,-0.007830689661204815,0.028408851474523544,-0.005334807094186544,0.0011884610867127776,0.02327762544155121,-0.004670785274356604,0.023134712129831314,0.010248812846839428,-0.019514549523591995,-0.027738098055124283,-0.0301020760089159,0.028649162501096725,-0.03307473659515381,-0.030918583273887634,0.004859221633523703,-0.022260144352912903,-0.005579560529440641,-0.02305164746940136,-0.010401375591754913,0.012128097005188465,0.03021601028740406,0.020903289318084717,0.017883656546473503,-0.007333402056246996,-0.0029898181091994047,-0.012606507167220116,0.0040603214874863625,0.022598592564463615,0.010586404241621494,0.020368970930576324,-0.0070515950210392475,0.005825346801429987,-0.00924140028655529,-0.018285131081938744,-0.025377269834280014,-0.01661429926753044,0.020196570083498955,-0.023193886503577232,0.0011860246304422617,0.011916263028979301,-0.008697139099240303,-0.009677842259407043,0.005615675821900368,0.006188006140291691,-0.011439702473580837,0.0004383743507787585,0.021844347938895226,0.018693547695875168,0.028942711651325226,-0.011944989673793316,-0.004077531397342682,0.020547881722450256,0.022381586953997612,0.011404083110392094,0.004391709342598915,-0.026752455160021782,-0.03188363090157509,-0.023011690005660057,-0.023848526179790497,0.004146159160882235,-0.018337324261665344,0.029037700966000557,0.029590051621198654,-0.02740490436553955,0.03297504037618637,-0.03118295781314373,-0.02921665459871292,0.017440984025597572,0.009153862483799458,-0.006846197415143251,0.02851301245391369,-0.012973024509847164,-0.013597600162029266,0.018433433026075363,0.00850890576839447,0.008505405858159065,0.0321662500500679,-0.026794344186782837,-0.028796648606657982,0.01592029444873333,-0.010656468570232391,0.025541512295603752,0.027554428204894066,0.028225500136613846,0.015641512349247932,0.021590285003185272,-0.0088984789326787,0.018232960253953934,0.0315697155892849,-0.032366663217544556,-0.02864670753479004,-0.008647852577269077,-0.004760677460581064,-0.032503269612789154,-0.03237546607851982,0.010188354179263115,-0.027128715068101883,-0.0034446418285369873,-0.023950066417455673,0.020788665860891342,0.017505861818790436,0.025073368102312088,0.010236569680273533,-0.030934853479266167,0.03112836927175522,0.007901155389845371,-0.012319769710302353,-0.01753632351756096,-0.030773796141147614,-0.017799781635403633,-0.020352419465780258,0.014061838388442993,0.012564112432301044,-0.012304875999689102,-0.010228048078715801,0.028334688395261765,-0.021034585312008858,0.020079072564840317,-0.023799024522304535,0.02530546300113201,-0.02651696279644966,-0.03245444968342781,0.010872941464185715,-0.006733729038387537,-0.010285953059792519,-0.004203929100185633,-0.017199769616127014,0.010420354083180428,0.011036461219191551,-0.010589922778308392,0.02375735528767109,0.025748176500201225,0.009997540153563023,-0.02331828698515892,-0.007657163310796022,0.009976203553378582,0.030920125544071198,0.011545912362635136,-0.01234525814652443,-0.00796632282435894,0.003732838202267885,-0.012736761011183262,-0.02334735542535782,-0.01027736533433199,0.02683345228433609,0.0066080898977816105,-0.02144850604236126,0.024774450808763504,0.014142150059342384,0.00572578888386488,-0.0030302496161311865,0.0030565771739929914,-0.004360408987849951,-0.00098320166580379,-0.01815805397927761,-0.02144423872232437,0.010987804271280766,-0.00798532273620367,0.0015479509020224214,-0.026140062138438225,-0.02649012766778469,-0.030183665454387665,-0.013863799162209034,-0.02882874570786953,0.03276090323925018,-0.022729208692908287,-0.00915861502289772,-0.023220550268888474,-0.01498690526932478,0.029160551726818085,0.021799536421895027,0.0046399724669754505,-0.003014658112078905,-0.020605700090527534,0.031131766736507416,-0.03181063383817673,0.004044520668685436,0.022648511454463005,0.00679502310231328,0.006808820180594921,-0.023269087076187134,0.028039617463946342,0.027614736929535866,0.031074723228812218,-0.017740407958626747,-0.031103532761335373,-0.021082503721117973,0.017568308860063553,0.008089951239526272,-0.031064920127391815,0.028459401801228523,-0.01352914422750473,-0.007580942008644342,-0.01788857765495777,0.0289847981184721,-0.013811019249260426,-0.0160219669342041,-0.008563189767301083,-0.006042873952537775,-0.024950463324785233,-0.013619661331176758,-0.03037272021174431,0.02443959377706051,0.016183895990252495,-0.006115134339779615,0.017635902389883995,-0.02487488090991974,-0.00999398436397314,-0.016373561695218086,-0.007245282642543316,0.028490232303738594,-0.030742276459932327,0.024432731792330742,-0.003035707166418433,0.018388481810688972,0.022617708891630173,-0.010340370237827301,0.007567517459392548,0.003859808435663581,-0.01534293219447136,-0.027161352336406708,-0.031082818284630775,-0.017581699416041374,0.006280547007918358,0.023186704143881798,-0.013898348435759544,0.032945070415735245,0.029745835810899734,0.01613193191587925,-0.025164546445012093,0.010290352627635002,-0.008807964622974396,-0.008734934031963348,0.000896203622687608,0.021980000659823418,-0.025274520739912987,0.011344253085553646,-0.009907031431794167,-0.02491025999188423,-0.003803324420005083,-0.00984201394021511,0.0009204917005263269,0.023585494607686996,-0.0024502500891685486,0.005933866836130619,0.004457644186913967,-0.006786645390093327,-0.023444296792149544,0.01027542632073164,0.01512262225151062,-0.0019562372472137213,-0.032485827803611755,-0.017300333827733994,-0.005915837828069925,-0.014287860132753849,-0.017121028155088425,-0.004317831248044968,0.009017094038426876,0.029086455702781677,0.012404353357851505,0.002245551673695445,0.03206946700811386,0.028533026576042175,0.011599808931350708,0.029524896293878555,-0.007966150529682636,-0.0008497641538269818,-0.0011761394562199712,-0.02751336060464382,0.028661057353019714,-0.0057553802616894245,-0.0318453274667263,0.00345502607524395,-0.029822377488017082,0.02893497422337532,-0.021093076094985008,-0.0017229499062523246,0.015080022625625134,-0.008363933302462101,-0.03169725835323334,0.03039506822824478,0.009159289300441742,0.0063125514425337315,0.025592952966690063,0.029344117268919945,0.005928083322942257,0.02749987132847309,-0.0160831268876791,0.014574989676475525,0.004701887723058462,0.03165006637573242,0.027095377445220947,0.023040324449539185,0.021867886185646057,0.0024661582428961992,0.007385576609522104,0.005934817250818014,-0.014801960438489914,0.0022149113938212395,-0.012367426417768002,0.019084667786955833,-0.012736329808831215,0.0020346164237707853,-0.03256029635667801,-0.018362699076533318,0.031305842101573944,-0.008635086938738823,0.001952847931534052,0.027393262833356857,0.03124140575528145,0.01578480191528797,0.02404322288930416,0.022355403751134872,-0.026397664099931717,-0.0291819516569376,-0.01631719060242176,0.001213175361044705,0.02107888087630272,-0.007219400722533464,-0.02794278785586357,0.0035544713027775288,0.03098660707473755,0.004682810511440039,-0.007529671769589186,0.011615335009992123,-0.007508423645049334,0.0207144096493721,0.025530848652124405,0.020543716847896576,0.012933393940329552,-0.023246318101882935,-0.005675705149769783,0.004688508342951536,0.0022286369930952787,-0.009402154013514519,0.024698996916413307,0.007660524919629097,-0.008339054882526398,-0.004733978305011988,-0.02131989784538746,0.014593632891774178,-0.031144343316555023,0.016228890046477318,0.017945436760783195,-0.008134204894304276,0.026789294555783272,-0.011550690047442913,0.02544725127518177,0.032317910343408585,0.020269885659217834,0.006303721107542515,0.024764113128185272,-0.01066624280065298,0.018170757219195366,0.0006277725333347917,-0.005545996129512787,-0.005823679734021425,-0.017012014985084534,0.027170075103640556,-0.013683629222214222,0.013401297852396965,-0.012212628498673439,-0.002489975420758128,-0.007217484526336193,-0.004884724039584398,-0.03181943669915199,0.01987408474087715,0.01277494803071022,-0.009984643198549747,-0.0267657283693552,-0.007471075747162104,0.013439955189824104,-0.010522456839680672,-0.023008786141872406,-0.01744203269481659,-0.00325204199180007,0.014540600590407848,-0.0020008585415780544,0.021332932636141777,-0.01102643832564354,0.02944769337773323,0.001050131511874497,0.0241620521992445,-0.016150545328855515,0.007103761192411184,-0.0003512252005748451,-0.031394291669130325,0.02224666066467762,0.020005585625767708,-0.023350197821855545,-0.0013730162754654884,0.008844359777867794,-0.01741495169699192,0.012517151422798634,0.013578369282186031,-0.0019752145744860172,0.013499152846634388,0.0010616884101182222,0.027548113837838173,0.027017779648303986,-0.03209114074707031,0.011831833980977535,-0.028224311769008636,-0.027917029336094856,-0.019938301295042038,0.01757720299065113,-0.029518214985728264,0.026985233649611473,0.0019571019802242517,0.022427819669246674,0.015223256312310696,0.001791150658391416,0.004786409437656403,-0.007212532218545675,0.03174877166748047,0.014031467027962208,-0.028453513979911804,-0.014552307315170765,0.008049526251852512,0.006235466338694096,0.018573330715298653,0.02308792620897293,0.021044841036200523,0.010021599009633064,0.0060362378135323524,0.010679098777472973,0.02992277778685093,-0.0136044817045331,-0.030735788866877556,0.03028775565326214,-0.0034486805088818073,0.012290939688682556,-0.006762149278074503,-0.012576170265674591,-0.010230926796793938,-0.023535074666142464,0.012802877463400364,0.03118886426091194,0.0005948604666627944,0.01866920478641987,0.022831063717603683,-0.014565528370440006,-0.022736234590411186,-0.024496275931596756,-0.023915313184261322,0.0197119303047657,-0.011858775280416012,-0.0005571771180257201,0.012861797586083412,-0.02773824706673622,0.020938066765666008,0.004577401094138622,-0.019048742949962616,-0.024841733276844025,-0.013275787234306335,0.023230796679854393,0.01157416682690382,0.0060262116603553295,0.015972530469298363,0.01183190755546093,0.011558371596038342,0.012969832867383957,0.004643190186470747,-0.03264451026916504,0.026992976665496826,0.011974027380347252,-0.024323515594005585,0.027736254036426544,0.003124334616586566,-0.001920929760672152,-0.0029121197294443846,-0.0019303921144455671,0.03258448466658592,-0.025942757725715637,-0.01728023774921894,-0.01713739149272442,0.01014946773648262,0.028318282216787338,-0.02473650500178337,-0.02703390270471573,-0.0046156300231814384,0.009655808098614216,-0.011635330505669117,-0.029885537922382355,-0.029422249644994736,0.019533561542630196,-0.0012786646839231253,-0.014917748980224133,0.0246468223631382,0.004666423890739679,-0.026433147490024567,-0.008827592246234417,-0.016361037269234657,0.003127269446849823,0.01657530851662159,0.019020963460206985,-0.013453863561153412,-0.01390837226063013,-0.02317042276263237,0.013375598937273026,-0.011963353492319584,0.030336134135723114,0.026484372094273567,-0.017137350514531136,-0.012834791094064713,-0.006610210053622723,-0.026265278458595276,0.02554890885949135,-0.0199299193918705,0.007649813313037157,-0.02671743370592594,0.025671882554888725,-0.005874533671885729,-0.018508944660425186,-0.02932431362569332,-0.006351110991090536,0.009095849469304085,-0.00631130812689662,-0.022133350372314453,0.008285250514745712,0.025027047842741013,0.02073531784117222,0.032253365963697433,-0.01048958022147417,0.00545938964933157,0.006440793164074421,-0.0288827084004879,0.01456074882298708,-0.027120441198349,-0.026340272277593613,-0.022715702652931213,0.028836097568273544,-0.014306214638054371,0.006874594837427139,0.019491584971547127,-0.019345398992300034,-0.02683912217617035,0.023271791636943817,0.00934350024908781,0.014172965660691261,0.006871990859508514,-0.018537743017077446,-0.020566586405038834,0.012686163187026978,-0.029223548248410225,0.022961189970374107,-0.003960270434617996,0.010360217653214931,0.016865326091647148,-0.02738417498767376,-0.015079859644174576,0.011346620507538319,0.03212905675172806,0.01250489428639412,-0.025633452460169792,-0.007732662837952375,-0.007150911260396242,0.012457662262022495,-0.01719464547932148,-0.0025626986753195524,-0.019120777025818825,-0.02104794606566429,-0.007359127514064312,-0.02030879259109497,-0.0070921084843575954,0.023917362093925476,0.004797467961907387,-0.02052929811179638,-0.010237367823719978,0.029371289536356926,-0.03033803589642048,-0.01958579383790493,-0.008066460490226746,-0.014036614447832108,-0.011046159081161022,-0.015037271194159985,-0.004356189630925655,-0.011628083884716034,-0.0051674023270606995,0.011873933486640453,-0.01331570465117693,-0.032593004405498505,-0.00993459951132536,-0.015505662187933922,-0.004404581151902676,-0.0014203522587195039,0.016179630532860756,-0.011115689761936665,0.01704288460314274,-0.02207554318010807,-0.0235061664134264,0.0020177962724119425,-0.007870660163462162,-0.004871769342571497,-0.030723189935088158,0.018210718408226967,-0.008207983337342739,-0.007122463081032038,-0.02548898756504059,0.007211270742118359,-0.003424239344894886,0.0028439313173294067,-0.015765748918056488,0.006241380237042904,-0.0073083266615867615,0.012676249258220196,-0.012143743224442005,-0.02458854764699936,-0.004564935807138681,0.015317089855670929,0.027878811582922935,-0.019442252814769745,-0.017947230488061905,-0.0326508991420269,0.0025718107353895903,0.03216322511434555,0.005561153404414654,-0.02991471067070961,0.022277962416410446,0.0045267920941114426,-0.023819340392947197,-0.019719906151294708,0.02433500997722149,-0.032883524894714355,-0.017583243548870087,0.02382585220038891,-0.015233694575726986,0.02048174850642681,0.022092409431934357,0.014430838637053967,0.0157459806650877,-0.026534007862210274,-0.0006684871041215956,0.007961940951645374,0.01439195778220892,0.0025918930768966675,-0.025917163118720055,0.030101478099822998,0.0029371532145887613,0.007614277768880129,-0.017169378697872162,-0.026458948850631714,-0.009619963355362415,-0.006237386260181665,-0.00403056712821126,-0.01913680136203766,0.003206386463716626,0.02675803005695343,0.013909474015235901,-0.028619922697544098,0.010848045349121094,0.031269773840904236,0.030351094901561737,-0.018500398844480515,0.022612128406763077,-0.01880803145468235,0.025670655071735382,0.029502741992473602,-0.028453508391976357,0.03225942701101303,-0.03175739571452141,-0.007875103503465652,-0.020616067573428154,-0.004402254242449999,0.017314987257122993,-0.005624550394713879,0.02827971987426281,-0.0031507574021816254,0.03093181736767292,-0.0009010634967125952,0.031109774485230446,0.006676666438579559,-0.0331457182765007,-0.0239657424390316,-0.015796450898051262,-0.0047895824536681175,0.025053856894373894,0.019490769132971764,-0.008395564742386341,-0.02145371027290821,0.01520210038870573,0.007262397091835737,-0.02384772337973118,-0.024120096117258072,0.006647258065640926,0.017710642889142036,0.027094829827547073,0.024909567087888718,0.009734929539263248,0.005198120139539242,0.0035552799236029387,0.031739242374897,0.02961648628115654,-0.023104069754481316,-0.005251377820968628,-0.025407828390598297,-0.0025626737624406815,-0.0014597331173717976,0.02434849552810192,-0.032863300293684006,0.03302544727921486,-0.02106952853500843,0.02216859720647335,0.014380743727087975,0.031818751245737076,0.024788765236735344,-0.019463220611214638,0.013431615196168423,0.0013107936829328537,-0.008168535307049751,-0.009110246784985065,0.008213461376726627,0.026307227090001106,0.014349712990224361,0.02576223760843277,0.01615947112441063,-0.009481580927968025,-0.02561810053884983,-0.005412044934928417,0.009028520435094833,-0.0006916626007296145,-0.02275695838034153,-0.023784339427947998,0.022148385643959045,-0.03315815329551697,0.012637785635888577,-0.02354774810373783,0.01248384453356266,-0.013275720179080963,-0.007023004349321127,-0.02379612810909748,0.028255317360162735,-0.018940139561891556,-0.009073539637029171,-0.02305513061583042,0.013149736449122429,-0.015278579667210579,0.0060298871248960495,-0.02452278882265091,0.03278537839651108,-0.0034670934546738863,0.023823613300919533,-0.006194378715008497,-0.006533694453537464,-0.02935316413640976,-0.01569030061364174,-0.008918213658034801,-0.006846137810498476,0.022605735808610916,0.0030277189798653126,0.032706908881664276,-0.0009046869236044586,-0.01489732414484024,0.008463101461529732,0.01902240328490734,-0.002224086783826351,-0.021099722012877464,-0.012342309579253197,-0.028079474344849586,0.003293520538136363,-0.027819262817502022,0.010282693430781364,0.010362260043621063,0.026179924607276917,0.011330238543450832,0.013545282185077667,0.00725083751603961,-0.0056852479465305805,0.01789201982319355,0.027944359928369522,0.010937957093119621,0.021512528881430626,-0.024253040552139282,0.01909816451370716,0.0232534259557724,-0.0070602381601929665,-0.00025886885123327374,0.0204511396586895,-0.021620189771056175,0.0167839452624321,0.0012416077079251409,-0.02194157801568508,-0.00758636137470603,0.02416701801121235,0.0039031123742461205,-0.00804089568555355,0.0010914597660303116,0.016039961948990822,-0.017177224159240723,-0.0074906437657773495,-0.029764791950583458,-0.0004251156933605671,0.03031962364912033,0.0027652422431856394,-0.013266506604850292,-0.009411902166903019,0.008515363559126854,0.029520511627197266,-0.01282905600965023,-0.013426423072814941,0.005370597820729017,-0.012560315430164337,0.02339857444167137,-0.0228200051933527,-0.03029436245560646,0.02091892436146736,-0.0031660425011068583,-0.012126050889492035,0.024088311940431595,-0.009597843512892723,0.028650883585214615,0.024358879774808884,-0.003575688460841775,-0.02777424082159996,0.018171411007642746,-0.01109546422958374,0.0012756751384586096,-0.015468338504433632,0.00536343501880765,0.018003782257437706,0.006775441113859415,-0.03263239562511444,0.003649171907454729,-0.02809189446270466,-0.0002969273482449353,-0.019972877576947212,0.03219843655824661,0.019507400691509247,-0.027022846043109894,-0.02872527576982975,0.021378468722105026,0.021939516067504883,-0.025534629821777344,-0.023645790293812752,-0.0322912260890007,-0.02125551737844944,0.022505760192871094,0.00006845370808150619,0.01720532216131687,-0.01376264076679945,0.010507647879421711,-0.021631337702274323,-0.008900635875761509,0.0020013567991554737,-0.013993537053465843,0.01944522000849247,0.02986592799425125,-0.0005529858754016459,-0.01914692111313343,0.01721879281103611,-0.0019277528626844287,0.02207126095890999,-0.009604494087398052,-0.025991443544626236,0.019922999665141106,0.02807442471385002,-0.0036803537514060736,0.015949314460158348,0.02978009544312954,0.03307226300239563,-0.0024059019051492214,-0.027320515364408493,0.016049964353442192,-0.025745989754796028,-0.009350443258881569,-0.03231140598654747,0.010739198885858059,0.02768300659954548,-0.02873460203409195,0.025236710906028748,-0.0027559795416891575,0.0003008211206179112,-0.018435286357998848,0.017152884975075722,-0.012798486277461052,0.024130720645189285,0.0038405030500143766,0.0035450607538223267,-0.025462355464696884,-0.0031272738706320524,0.007130328565835953,0.0003869169158861041,0.0024440493434667587,0.010105392895638943,0.01379726454615593,-0.03166428208351135,-0.011542638763785362,0.019428638741374016,0.021012697368860245,0.0008474874193780124,-0.018964795395731926,-0.011762325651943684,0.0172458216547966,-0.0006082540494389832,-0.016245802864432335,0.017091449350118637,-0.0202348493039608,0.027790483087301254,0.029222458600997925,0.025041962042450905,0.0054859439842402935,0.016770828515291214,0.021097123622894287,0.0013718332629650831,-0.03289271891117096,0.014434617012739182,0.031054547056555748,0.01593666896224022,-0.004679877310991287,0.023583604022860527,0.0034587003756314516,-0.02882722020149231,-0.01119993720203638,0.013646331615746021,-0.026161901652812958,0.030067788437008858,0.02664961852133274,0.020118124783039093,-0.016391392797231674,-0.015718191862106323,0.030398957431316376,0.02106555551290512,-0.01331358402967453,-0.004158870782703161,0.023540988564491272,-0.002389177680015564,0.008243522606790066,-0.029766147956252098,0.008084210567176342,-0.004867784213274717,0.01570584997534752,0.005515474360436201,-0.030447926372289658,-0.008121856488287449,0.0070811109617352486,0.015826605260372162,-0.03152499347925186,0.008622750639915466,0.00005768263872596435,0.031517885625362396,0.018001927062869072,-0.005369001068174839,0.009052682667970657,-0.023955266922712326,-0.020771784707903862,0.022840220481157303,0.02577972412109375,0.01058037020266056,0.006340907420963049,0.03094969503581524,0.005483865737915039,-0.011885530315339565,0.006088164169341326,0.01717093028128147,-0.0070059760473668575,-0.01387051772326231,0.02461557276546955,-0.015428639948368073,-0.005404775030910969,0.00612702127546072,-0.001908838632516563,-0.03002796322107315,-0.0220769215375185,0.010528656654059887,-0.031668681651353836,0.03019900619983673,0.024086810648441315,-0.010786219500005245,-0.010028673335909843,0.03265886381268501,0.0025990421418100595,0.030057037249207497,-0.014747959561645985,-0.030992168933153152,-0.004186478443443775,-0.008526084944605827,-0.002446061233058572,-0.015010194852948189,-0.027837393805384636,-0.007425330579280853,0.02078939788043499,0.02853543870151043,-0.03099582903087139,0.01640595868229866,0.021351300179958344,-0.020649446174502373,0.029194386675953865,0.015105696395039558,-0.015908725559711456,-0.02394256740808487,0.02359762042760849,0.01935684122145176,0.010631519369781017,0.030391499400138855,-0.004972265567630529,0.006458584684878588,-0.021709149703383446,-0.024419477209448814,0.011842716485261917,-0.008129329420626163,-0.03170556202530861,-0.0015382360434159636,0.028203587979078293,0.02129235491156578,0.026205141097307205,-0.01191678550094366,0.005720830988138914,-0.03141285851597786,0.013550394214689732,0.00167086289729923,-0.01555017288774252,0.017520714551210403,-0.022789742797613144,-0.004535249900072813,0.024941401556134224,0.013239097781479359,0.0171359833329916,0.02616678550839424,0.010676166042685509,-0.01573350466787815,-0.0276339128613472,-0.026343541219830513,-0.02766714058816433,-0.020664434880018234,0.0010423948988318443,0.0275906752794981,-0.001519234268926084,-0.022998709231615067,-0.03081013821065426,-0.027027979493141174,-0.01156176533550024,0.013797036372125149,0.017710568383336067,-0.0224856436252594,0.0330326072871685,-0.0009129073587246239,-0.02643323317170143,-0.0008826963021419942,-0.008383049629628658,-0.009426502510905266,0.015711074694991112,-0.0176712516695261,0.019489282742142677,0.01877940632402897,0.005638039670884609,-0.025248810648918152,0.03209932893514633,-0.02565678022801876,0.018544301390647888,-0.03132852166891098,-0.01778952218592167,-0.03055158257484436,-0.00311779766343534,0.02873273380100727,0.013947878032922745,0.02104557864367962,-0.019450169056653976,0.025585230439901352,-0.012418687343597412,-0.011668277904391289,-0.00548959244042635,-0.03115425817668438,-0.003062724368646741,0.006510225590318441,-0.0007326657068915665,-0.02643466740846634,-0.006168619263917208,0.031486913561820984,0.01672111637890339,0.03225954249501228,-0.015541843138635159,-0.021752122789621353,-0.028915250673890114,-0.0028683163691312075,-0.02064531296491623,-0.029149314388632774,0.029408039525151253,0.022974278777837753,-0.028391454368829727,-0.02580137364566326,-0.033056315034627914,-0.025744756683707237,0.032233405858278275,-0.017556430771946907,0.02176046371459961,0.0034031581599265337,-0.02335648238658905,0.0024299551732838154,0.02434050664305687,0.020277345553040504,0.02301955036818981,0.01898098737001419,0.003802669933065772,-0.022920597344636917,0.0015522176399827003,0.027107011526823044,0.022553330287337303,-0.010044214315712452,0.014610578306019306,0.018197473138570786,0.03243403136730194,-0.02989054284989834,-0.004123683553189039,0.020075811073184013,-0.0245555117726326,-0.002034516539424658,0.03120521456003189,-0.01204388216137886,-0.023312883451581,0.00921908114105463,0.031177040189504623,-0.004516838118433952,0.008886569179594517,-0.027737317606806755,0.02412066049873829,0.016765451058745384,-0.006509935948997736,0.024027898907661438,-0.021603889763355255,-0.024424975737929344,-0.01270552258938551,0.022045379504561424,-0.032130539417266846,-0.014313303865492344,0.002570388838648796,-0.0033515715040266514,0.001976644853129983,-0.016820436343550682,-0.012994852848351002,-0.009410086087882519,0.011778733693063259,0.016991283744573593,-0.010268328711390495,0.002192768035456538,0.0326080322265625,-0.00414067879319191,-0.018742365762591362,-0.00045862028491683304,-0.03134853020310402,-0.027813764289021492,0.02558523789048195,0.012584283016622066,-0.026559993624687195,-0.017176393419504166,-0.015529224649071693,0.009539524093270302,0.013287300243973732,0.008601957000792027,0.031068792566657066,-0.026559103280305862,-0.03224596381187439,0.03304455801844597,-0.0059553575702011585,-0.004875930491834879,-0.01599390245974064,0.01506758201867342,0.029768483713269234,-0.012917057611048222,-0.009217294864356518,0.022256944328546524,-0.0060607679188251495,0.010610247030854225,-0.03161773085594177,0.01715030148625374,0.022532956674695015,0.017577989026904106,0.002320119645446539,0.0012678210623562336,0.020628664642572403,-0.00764832366257906,0.023283453658223152,-0.030195794999599457,-0.006135068368166685,0.02105395495891571,-0.003136763582006097,-0.02863249182701111,0.021863847970962524,-0.009243332780897617,0.012534460984170437,-0.012897676788270473,0.0021382845006883144,-0.029380545020103455,0.02729765884578228,-0.017442282289266586,0.0212226714938879,-0.033284109085798264,-0.003970935940742493,-0.015784205868840218,-0.008992724120616913,0.01713372766971588,0.014547587372362614,-0.012783261947333813,0.028083013370633125,0.022259365767240524,0.004529338795691729,-0.015764331445097923,-0.01925978809595108,0.019952548667788506,0.03273520618677139,0.00044837547466158867,-0.02577279880642891,0.004638656508177519,0.023897698149085045,0.02137499302625656,-0.021124448627233505,-0.007335522677749395,-0.011760670691728592,-0.024066265672445297,-0.032166484743356705,0.0016185492277145386,0.00737904803827405,-0.03212277963757515,0.0031806554179638624,-0.018377099186182022,0.021639421582221985,-0.027774954214692116,0.016467630863189697,-0.01751096546649933,0.023926546797156334,-0.0013474177103489637,0.0023914112243801355,0.020062027499079704,-0.012627498246729374,-0.012670733034610748,-0.003747133770957589,0.00957818515598774,0.029763374477624893,-0.02421509101986885,0.0024667291436344385,0.03247120603919029,0.0014089420437812805,-0.015295456163585186,0.011267920024693012,0.011284997686743736,-0.0026472690515220165,-0.030032293871045113,-0.013628648594021797,-0.027043674141168594,0.02476266585290432,0.012615000829100609,0.02761666476726532,-0.0028696998488157988,0.024772383272647858,-0.016088081523776054,0.0008268047822639346,0.023400425910949707,-0.008993704803287983,-0.029263047501444817,-0.013113219290971756,-0.02707780711352825,-0.005249649286270142,0.03313165903091431,-0.015292701311409473,-0.020297689363360405,-0.005928356666117907,0.0063753435388207436,-0.028661593794822693,0.011427943594753742,-0.016134247183799744,0.0029220690485090017,0.009581871330738068,0.01394092757254839,0.023557104170322418,0.014941658824682236,0.014338817447423935,-0.03244940564036369,-0.03312288224697113,-0.00019363174214959145,-0.0034599220380187035,0.016536932438611984,0.001444500987417996,-0.02542867511510849,0.017123837023973465,-0.00872905645519495,-0.032465334981679916,-0.0011846848065033555,0.0011685846839100122,0.00990666076540947,-0.010946826077997684,0.009267348796129227,0.010709717869758606,-0.005974996834993362,-0.02431255206465721,-0.019070224836468697,-0.020588476210832596,0.0019149184226989746,0.025683144107460976,-0.02033970132470131,0.010338079184293747,0.026542047038674355,0.0070989360101521015,0.005741802044212818,-0.008673244155943394,0.023796232417225838,0.010357349179685116,0.027993667870759964,0.004588507581502199,0.005567184649407864,0.005772213917225599,-0.007433522958308458,0.0029627601616084576,-0.009616512805223465,0.0010228898609057069,-0.015745801851153374,-0.0091635100543499,0.024008415639400482,0.026982469484210014,-0.03316279873251915,0.027378257364034653,0.03206467628479004,-0.003664776450023055,0.030080711469054222,-0.022608568891882896,0.023868409916758537,0.022075209766626358,0.026526307687163353,0.014782393351197243,-0.004659094847738743,-0.013790515251457691,-0.011536435224115849,-0.0014082560082897544,-0.004246494732797146,-0.015228372067213058,0.027565008029341698,-0.028967589139938354,-0.0003831741923931986,-0.026241617277264595,-0.018481403589248657,0.013837715610861778,-0.02221556007862091,-0.0042664771899580956,-0.030038313940167427,0.02870955877006054,0.009129701182246208,0.02857101522386074,0.0009322229889221489,0.0327640175819397,-0.017601806670427322,-0.026719126850366592,0.02809366211295128,0.004761921241879463,-0.006909623742103577,0.0022743106819689274,-0.00010156971984542906,-0.03057611733675003,-0.02243133820593357,0.022979512810707092,0.005451674573123455,0.008352413773536682,0.021714162081480026,0.028773345053195953,0.0016014872817322612,0.015444762073457241,-0.020186567679047585,0.01704440265893936,0.0007060721982270479,-0.02605263888835907,-0.004562267102301121,-0.01058938354253769,0.014078414998948574,0.030709918588399887,0.0327058769762516,0.004520444665104151,-0.0013909571571275592,0.008905023336410522,-0.028627857565879822,-0.01236034370958805,-0.027597082778811455,0.01825558766722679,-0.03108171746134758,0.026187684386968613,-0.0131633710116148,0.01124339085072279,-0.002961114514619112,-0.021237516775727272,0.0008308080723509192,-0.03247002884745598,-0.011452270671725273,0.016643349081277847,0.029172604903578758,-0.02310389280319214,-0.02340574376285076,-0.008871019817888737,0.033235322684049606,0.020514847710728645,-0.0061088851653039455,0.00424908148124814,0.014783145859837532,-0.0028579921927303076,0.03207208588719368,0.007665189914405346,0.002526282798498869,-0.02010400965809822,-0.01446611899882555,-0.00326468120329082,0.02631165087223053,-0.031195921823382378,0.017196768894791603,-0.014344338327646255,-0.03173905611038208,0.032340120524168015,0.014207571744918823,-0.02517053112387657,-0.018214602023363113,-0.003139628330245614,-0.02717079035937786,-0.03307873010635376,-0.010074661113321781,-0.015576298348605633,0.021344397217035294,0.01658078096807003,0.028525428846478462,-0.03122858703136444,0.026987791061401367,0.005218907259404659,0.00587517349049449,0.010764572769403458,-0.030237950384616852,-0.014844323508441448,0.004492376931011677,-0.033198971301317215,-0.0013677285751327872,-0.014248830266296864,-0.002811207203194499,-0.018037136644124985,0.02455560863018036,-0.026538189500570297,-0.01410708762705326,-0.0012434867676347494,0.0036276797764003277,-0.011518949642777443,-0.012358851730823517,0.025113200768828392,0.016605233773589134,0.02729048579931259,-0.02042081020772457,0.001367174438200891,0.005982177332043648,0.015581994317471981,0.026611994951963425,0.011222473345696926,-0.01080377772450447,0.02653072029352188,-0.011916948482394218,0.005115231964737177,0.005568347871303558,-0.014369374141097069,0.02803748846054077,0.02432537078857422,0.006001469679176807,-0.01456906832754612,-0.0010498551419004798,-0.012053613550961018,0.012925001792609692,0.023854726925492287,-0.0113403694704175,0.0033479691483080387,0.004526800010353327,-0.008964377455413342,0.019645556807518005,-0.011011491529643536,-0.02290605939924717,0.012398607097566128,-0.0296935997903347,0.01586899906396866,0.029822789132595062,-0.01491844654083252,-0.013797060586512089,0.001158273546025157,-0.02010687254369259,-0.030084341764450073,-0.016132961958646774,-0.009584441781044006,-0.005522008985280991,-0.028606723994016647,-0.027028335258364677,0.03209806978702545,0.014227678999304771,-0.027882739901542664,0.004513281397521496,0.01948382332921028,-0.01957188919186592,-0.025125863030552864,-0.02943820133805275,0.03276180475950241,-0.007417857181280851,-0.00255572865717113,-0.027213159948587418,-0.023521119728684425,0.005867693107575178,-0.020680774003267288,0.02405186928808689,-0.029585648328065872,-0.006343478336930275,0.005975961685180664,-0.014973603188991547,-0.011628194712102413,-0.010359841398894787,0.007043000776320696,0.025586042553186417,-0.0076279472559690475,-0.005536191165447235,-0.0011067036539316177,0.024725865572690964,-0.019115164875984192,0.010011158883571625,-0.02446526102721691,-0.00028467990341596305,0.004409486427903175,0.005196273326873779,-0.030409788712859154,0.03212270513176918,-0.0032751767430454493,0.0020603265147656202,0.018475407734513283,-0.030904989689588547,-0.01643003150820732,-0.012411840260028839,-0.0049789072945714,0.03172316402196884,0.0017256186110898852,-0.02432846650481224,0.024355391040444374,0.0029005801770836115,-0.028091713786125183,0.012141101993620396,-0.031185081228613853,0.010874923318624496,-0.03329536318778992,0.01708613522350788,0.027226710692048073,-0.024567842483520508,-0.014392737299203873,0.014550287276506424,0.0008463262347504497,-0.0006548699457198381,-0.028177205473184586,0.011956014670431614,0.024049872532486916,0.0224426481872797,-0.030405862256884575,0.0322241485118866,-0.012786843813955784,0.01580941677093506,-0.017792003229260445,-0.02545039914548397,0.02743365615606308,0.033075038343667984,-0.021663568913936615,-0.0003711249155458063,-0.017371300607919693,0.0024550738744437695,-0.021730385720729828,-0.027302298694849014,0.0327838733792305,-0.005032105837017298,0.00006075754208723083,-0.027360597625374794,-0.008489133790135384,-0.018909720703959465,0.0026526839938014746,0.014988215640187263,0.003789367154240608,0.002384898951277137,-0.006381882354617119,0.01112664770334959,-0.01844247244298458,-0.016836058348417282,0.015615810640156269,-0.020885931327939034,0.011525426059961319,-0.0016075533349066973,0.032383982092142105,0.009643142111599445,-0.018863778561353683,0.0073642670176923275,-0.00247297715395689,0.02422640472650528,0.013299394398927689,0.03309139981865883,-0.014246709644794464,-0.003258770564571023,-0.019655663520097733,-0.030962759628891945,-0.007921978831291199,-0.029360981658101082,0.011645346879959106,0.031438615173101425,-0.014885377138853073,-0.027511615306138992,-0.01286463625729084,-0.02218502014875412,0.005926227197051048,-0.00898592546582222,0.014168830588459969,0.017605576664209366,-0.03270150348544121,0.009244635701179504,-0.026570091024041176,0.02073480561375618,-0.01000066939741373,-0.019616033881902695,0.023247310891747475,0.028615133836865425,-0.03015686571598053,0.004509849939495325,-0.0073591866530478,0.013593954034149647,-0.01837710663676262,0.011322022415697575,0.005309573840349913,-0.03192877769470215,0.0264408141374588,-0.02652573585510254,0.016575457528233528,0.023543480783700943,0.0017374983290210366,0.020046604797244072,-0.023668650537729263,-0.03018205240368843,0.022330578416585922,0.026968933641910553,-0.01847265474498272,-0.001622409443370998,0.00016023119678720832,0.01942978799343109,0.028075294569134712,0.03246648237109184,-0.009202605113387108,-0.03217499703168869,-0.021064158529043198,0.012804306112229824,-0.03002011403441429,0.008777388371527195,0.031395383179187775,-0.025220399722456932,-0.023571064695715904,0.021875062957406044,0.02772824838757515,0.02381974458694458,0.006321732420474291,-0.03058856911957264,-0.026602383702993393,-0.005463381763547659,-0.025799835100769997,0.003412866499274969,0.019931891933083534,-0.027267230674624443,0.03178912773728371,0.03197132796049118,-0.007273281458765268,0.011274204589426517,0.014763708226382732,-0.013016538694500923,-0.015473591163754463,-0.02265900745987892,0.022126903757452965,0.003493543015792966,-0.015612267889082432,0.0043472000397741795,0.011796653270721436,0.025000594556331635,0.011291653849184513,-0.02584504894912243,0.0075624240562319756,0.029631968587636948,0.0065879421308636665,0.005176544189453125,-0.007740701083093882,-0.013063846156001091,0.003931813407689333,-0.020185859873890877,-0.0023919837549328804,-0.020247098058462143,-0.02852536551654339,0.005917093716561794,0.0014170249924063683,0.007427315227687359,-0.004109133034944534,-0.004493057727813721,-0.0184176042675972,-0.02180877886712551,0.017711184918880463,0.019766109064221382,0.026225676760077477,-0.011542507447302341,0.004097113851457834,0.00582694448530674,-0.024470828473567963,-0.019308125600218773,0.02827530726790428,0.03168826922774315,0.010688533075153828,0.02560701221227646,0.0009739699889905751,-0.01214652694761753,0.027858750894665718,-0.018725335597991943,-0.02398306503891945,0.012006940320134163,-0.01707843318581581,-0.01920003443956375,0.004738796502351761,0.00048144502216018736,-0.003269899170845747,-0.023838728666305542,-0.004687950946390629,-0.0002855204220395535,-0.03310948237776756,0.020656106993556023,-0.02322792261838913,0.02566949650645256,0.012092633172869682,0.03265587240457535,0.01693052053451538,0.023286500945687294,-0.015331670641899109,0.0313759446144104,0.028513997793197632,0.01820438541471958,0.014545787125825882,0.02106400765478611,0.004485336598008871,-0.02496339939534664,0.022733349353075027,0.011122769676148891,-0.006940745748579502,0.013249711133539677,-0.010283593088388443,-0.022113492712378502,-0.030469603836536407,0.02531552128493786,-0.024123845621943474,0.01904347725212574,0.01912454143166542,0.002932401839643717,-0.002066419692710042,0.005401431582868099,0.0083956029266119,0.014177978038787842,-0.01016322523355484,-0.03302571177482605,-0.015510668978095055,0.010831458494067192,0.004009305499494076,0.006110737100243568,-0.0017694999696686864,-0.007161939051002264,0.028554614633321762,-0.0067038144916296005,-0.010596372187137604,-0.007233267184346914,0.02411067485809326,-0.022417033091187477,0.0250881128013134,-0.020215939730405807,0.0072626774199306965,0.02080998755991459,-0.025539705529808998,0.01711352728307247,0.030400961637496948,0.0015439406270161271,-0.01942143216729164,0.00787876546382904,0.02441088669002056,0.0287491288036108,-0.015242191031575203,-0.012923513539135456,0.020912030711770058,0.02527664043009281,-0.011364162899553776,0.0198309775441885,-0.021374918520450592,0.02400931715965271,0.016443373635411263,-0.009465422481298447,-0.01985619217157364,0.0022767374757677317,-0.005704452283680439,0.010484157130122185,0.008682063780725002,0.025343790650367737,0.018937600776553154,0.03077653981745243,-0.03071700595319271,0.0026968596503138542,0.0010609866585582495,0.031535666435956955,-0.023948419839143753,0.003244625171646476,0.021261299028992653,-0.023207183927297592,-0.030490437522530556,-0.025977181270718575,-0.0043053352274000645,-0.021665610373020172,-0.007215069606900215,0.012123417109251022,-0.012843795120716095,0.006133886054158211,-0.009054998867213726,0.025021705776453018,-0.0238643828779459,0.003462269203737378,-0.006766177713871002,-0.004560188390314579,0.022650551050901413,0.029849983751773834,-0.008888741955161095,0.01261793915182352,-0.02881987951695919,-0.005521696526557207,-0.0015391747001558542,-0.023461395874619484,-0.01406973134726286,0.00625627813860774,-0.013497442938387394,-0.022978942841291428,-0.023287221789360046,0.0015390516491606832,0.02006020024418831,-0.03194315358996391,-0.003714142367243767,-0.027186930179595947,0.025325914844870567,-0.012231527827680111,0.023928366601467133,-0.007551813963800669,-0.015264146029949188,0.020308397710323334,0.0005125048919580877,0.0027683875523507595,-0.019052941352128983,0.004666496533900499,-0.013870780356228352,-0.0028825546614825726,-0.019594820216298103,0.015490444377064705,0.005376935936510563,0.024767978116869926,0.01817218028008938,-0.008712544105947018,0.013153132982552052,0.014739333651959896,-0.000917216413654387,-0.008059742860496044,-0.03331967070698738,-0.005527352914214134,0.009402130730450153,-0.022212140262126923,0.020639803260564804,-0.024397287517786026,0.011467760428786278,-0.026514407247304916,-0.007757148705422878,-0.022038321942090988,-0.019425276666879654,0.018572194501757622,0.014251615852117538,-0.01657760702073574,0.028440270572900772,0.020682934671640396,0.03225202485918999,0.0027301290538161993,0.028884558007121086,-0.026095084846019745,0.014348477125167847,0.030527347698807716,0.008111022412776947,-0.018707772716879845,-0.028352580964565277,-0.015408639796078205,-0.011011386290192604,-0.008507344871759415,-0.0008892102050594985,-0.027741478756070137,-0.018494555726647377,-0.0035966048017144203,-0.030738510191440582,-0.019294727593660355,-0.015179328620433807,-0.006745234597474337,-0.0011649024672806263,0.018269633874297142,0.02323305979371071,-0.0021559286396950483,0.02938295528292656,0.005524015985429287,0.006531937979161739,0.027383549138903618,-0.00946317333728075,-0.009960468858480453,0.01912073977291584,-0.02045314572751522,0.018774503841996193,-0.014954815618693829,-0.025802066549658775,0.023358818143606186,-0.01222558319568634,0.004226796794682741,0.026683323085308075,-0.00815745908766985,0.022566750645637512,-0.03162744268774986,0.007021175231784582,0.01863436959683895,0.016027282923460007,-0.004971551243215799,-0.007932411506772041,0.0005096161039546132,0.022584987804293633,0.002862452296540141,0.01203137170523405,0.02870219387114048,0.021976221352815628,0.01711905747652054,0.028622381389141083,-0.019003763794898987,-0.012505344115197659,0.018501223996281624,0.018027443438768387,0.0009015679825097322,-0.027017956599593163,-0.015764515846967697,0.014653332531452179,0.01007834542542696,-0.013362429104745388,-0.026938175782561302,0.01976107433438301,-0.029130779206752777,0.023745274171233177,-0.02672317996621132,0.03131476417183876,-0.013399897143244743,-0.008152653463184834,-0.017865100875496864,-0.005272983107715845,0.020774226635694504,-0.02435544691979885,-0.010778524912893772,-0.014517226256430149,-0.003157922299578786,0.019673045724630356,-0.009397570975124836,-0.013069980777800083,-0.004084933549165726,0.028183696791529655,0.017231125384569168,-0.023135574534535408,-0.024593601003289223,0.01003657653927803,0.020864879712462425,-0.02256249263882637,0.013901696540415287,0.020902764052152634,0.009856476448476315,-0.0011162038426846266,0.022579694166779518,0.00828018318861723,-0.019070187583565712,0.02419503964483738,0.00819848757237196,0.03302382305264473,-0.01306813396513462,0.03082006238400936,-0.002062584739178419,-0.02463414892554283,0.017573026940226555,-0.03302593156695366,-0.018337154760956764,-0.006691850256174803,0.019202817231416702,-0.0034374326933175325,0.0069244634360075,-0.0068238768726587296,-0.030028581619262695,0.019168850034475327,-0.02994316630065441,0.02258695848286152,0.002080657985061407,-0.011161462403833866,-0.007898896932601929,0.008923344314098358,0.019264698028564453,0.02763221599161625,0.02030045911669731,-0.023517711088061333,-0.027491506189107895,-0.026214757934212685,0.029617102816700935,-0.02614063397049904,-0.01957356184720993,0.015717359259724617,-0.023250900208950043,0.030133360996842384,0.0283726304769516,-0.02076055109500885,-0.016246140003204346,0.022525355219841003,0.0018339162925258279,0.015414825640618801,0.029860518872737885,-0.007283471524715424,0.011850064620375633,0.005602473858743906,-0.03170304000377655,0.0025531379505991936,-0.010472417809069157,-0.004466242156922817,0.009140273556113243,-0.0026900710072368383,0.02182191237807274,-0.02070748247206211,0.007924727164208889,-0.031203225255012512,-0.020393159240484238,-0.02888980507850647,0.023694325238466263,-0.02053457871079445,-0.015209900215268135,0.013437746092677116,-0.01537751592695713,0.017536895349621773,-0.01217327918857336,0.025263700634241104,-0.02161429263651371,0.02691793628036976,-0.01834684982895851,0.03005550056695938,-0.016228560358285904,-0.030695457011461258,0.014762083068490028,-0.004585465881973505,0.009515685960650444,0.01169630978256464,0.02234676480293274,-0.021542180329561234,-0.0030042286962270737,-0.011593969538807869,0.003521773498505354,0.0000290582229354186,0.0007444823277182877,0.005237393081188202,0.027080360800027847,0.0165492445230484,0.016800813376903534,-0.01908229850232601,0.026315951719880104,-0.02713465876877308,-0.00768653117120266,0.020296063274145126,-0.006728666834533215,0.010849046520888805,-0.026480112224817276,0.0004834270221181214,0.004571851342916489,0.03185170516371727,0.006188416387885809,0.0021955640986561775,-0.01034385897219181,0.010257081128656864,0.02108425460755825,0.006886958610266447,0.02387099713087082,0.017722617834806442,-0.007495153229683638,-0.021805623546242714,0.024677757173776627,0.03258388116955757,0.016845528036355972,0.005435376428067684,0.0033284970559179783,-0.030257701873779297,-0.028737293556332588,0.023908263072371483,0.012830372899770737,0.021288543939590454,-0.0020531408954411745,0.0238777045160532,-0.030788401141762733,-0.015512374229729176,-0.03097122348845005,0.027145788073539734,0.03323471546173096,-0.025509610772132874,0.0033114785328507423,0.007005914114415646,-0.02135605178773403,0.025212174281477928,0.03094170242547989,-0.015624751336872578,0.033288903534412384,0.02423510141670704,0.023350445553660393,0.03192645683884621,0.019141705706715584,0.0065512629225850105,-0.0020337568130344152,-0.018185235559940338,-0.03064896911382675,-0.02160836011171341,-0.01614556834101677,0.03331666439771652,-0.01053559873253107,0.005320646334439516,-0.01708405837416649,0.011710874736309052,-0.026854533702135086,-0.0065740360878407955,-0.0068322173319756985,-0.01120896078646183,-0.021281415596604347,0.026159370318055153,0.02718258835375309,0.0011041604448109865,-0.009330780245363712,0.018764439970254898,0.014162588864564896,0.021826518699526787,0.01069735549390316,-0.0021979883313179016,0.02515355870127678,0.028142733499407768,-0.03140293061733246,0.003508753841742873,-0.01843724399805069,0.025445766746997833,-0.00016962166409939528,0.009476440958678722,0.018110308796167374,-0.02271566167473793,-0.0004044169036205858,0.01110051479190588,0.020326290279626846,0.006719016935676336,0.03200041130185127,0.007367388345301151,-0.005151684861630201,-0.014155454002320766,-0.02582399733364582,-0.016259638592600822,-0.017354954034090042,0.011702003888785839,-0.0068404278717935085,-0.022953320294618607,0.0032783811911940575,-0.014818287454545498,-0.011460085399448872,0.007654702756553888,0.024796320125460625,0.003727569477632642,0.005418050568550825,-0.017611032351851463,-0.026813486590981483,0.0034890943206846714,0.012015360407531261,0.028633490204811096,-0.0080539770424366,-0.02845662645995617,0.011309566907584667,0.030310990288853645,-0.01916409842669964,0.009585614316165447,0.02489885687828064,0.01421619113534689,-0.032586198300123215,0.031833238899707794,0.015324006788432598,0.0010020952904596925,0.008262512274086475,-0.00948279444128275,0.015813179314136505,0.012045163661241531,-0.016795268282294273,-0.02069612592458725,0.010926911607384682,-0.004869747441262007,0.02275622822344303,-0.01862262561917305,-0.030915476381778717,0.02148042432963848,-0.01878868043422699,0.0257821474224329,-0.0038020717911422253,-0.02902224473655224,0.005942614749073982,-0.011960459873080254,-0.026059802621603012,0.01013985462486744,0.015415629372000694,0.01745169796049595,0.01755063235759735,0.02457864210009575,0.00014013938198331743,0.03129076585173607,0.008844390511512756,0.02796570211648941,-0.006438889540731907,0.03057478554546833,0.029070531949400902,0.023116951808333397,0.023298978805541992,-0.0077411700040102005,0.017580727115273476,0.012551212683320045,0.027733784168958664,-0.03063311241567135,0.0012478382559493184,-0.008001725189387798,-0.016466716304421425,-0.0046473718248307705,0.0002177848800783977,-0.01848692260682583,0.031193235889077187,-0.007224785163998604,-0.0282369926571846,0.025384098291397095,0.020469317212700844,-0.00640305457636714,-0.021358199417591095,-0.030066877603530884,-0.005170255433768034,-0.030704518780112267,0.0025643978733569384,0.0022009217645972967,0.022773772478103638,0.02671152539551258,0.01726086065173149,0.02596430666744709,0.0018184237414970994,0.027384309098124504,-0.01103640254586935,0.012285002507269382,-0.00850361492484808,-0.003905355930328369,0.01644393987953663,-0.01737806759774685,0.01734674908220768,0.02411898970603943,0.024400779977440834,0.02016010880470276,-0.0030581920873373747,0.0021286343690007925,-0.01260626595467329,-0.004051480907946825,0.008810906670987606,0.007147608324885368,0.007445912808179855,-0.016075799241662025,-0.015227646566927433,0.01690046675503254,0.020731253549456596,-0.0024929246865212917,-0.028859037905931473,0.025008562952280045,0.022123370319604874,-0.022766979411244392,-0.024235107004642487,0.027781160548329353,0.00033389159943908453,-0.007748253643512726,0.004983126651495695,0.007773259654641151,0.009921126998960972,0.01376386173069477,0.0018772092880681157,0.03206672519445419,-0.03230506181716919,0.027083024382591248,0.016847174614667892,-0.018719838932156563,0.019145982339978218,-0.003000883152708411,0.023491982370615005,0.03148886561393738,-0.014683259651064873,-0.007171878591179848,0.0009148011449724436,0.006743426900357008,0.02520151436328888,-0.005394663196057081,-0.004142952151596546,0.02290225587785244,0.005159109365195036,-0.0030375306960195303,0.02803150936961174,0.009567111730575562,-0.0008502069977112114,-0.008630216121673584,0.002892443910241127,-0.007683684583753347,-0.017908304929733276,-0.01260706502944231,0.010982519946992397,0.01525938045233488,0.018093004822731018,-0.002831649500876665,0.013501882553100586,0.01763075217604637,0.02023540996015072,-0.002886617323383689,-0.024066204205155373,0.0033805598504841328,0.0015698763309046626,-0.009271427989006042,0.009676643647253513,0.029075980186462402,-0.023428842425346375,-0.0014934006612747908,0.027485622093081474,0.0061789751052856445,0.02833353355526924,-0.02388129010796547,-0.0001267217448912561,0.013368486426770687,-0.025204230099916458,-0.006076464895159006,0.029001813381910324,0.00912561547011137,0.029132403433322906,0.006493702065199614,0.005403382703661919,0.0072395214810967445,-0.007967771030962467,0.01976148411631584,-0.004748059902340174,-0.005783948581665754,-0.015093578957021236,-0.007131192833185196,0.03142593428492546,0.02764175273478031,-0.0012849377235397696,0.004918448161333799,-0.0022888213861733675,0.008850067853927612,-0.014426385052502155,-0.002598248887807131,-0.0025211628526449203,0.011727235279977322,0.008266936056315899,-0.020255986601114273,-0.01505774725228548,-0.014070214703679085,-0.0323403924703598,0.004033080767840147,0.014523722231388092,0.0040698423981666565,0.030559418722987175,-0.03319978341460228,-0.02325456216931343,0.005775353871285915,0.004455829504877329,-0.002118647564202547,-0.01738140732049942,0.008510923013091087,0.01491065975278616,0.02413007989525795,0.011878767050802708,0.010593937709927559,0.015709111467003822,0.017934512346982956,0.000829020980745554,-0.025213127955794334,0.028083376586437225,0.030081018805503845,0.021934762597084045,0.016287775710225105,0.013905110768973827,0.013078623451292515,0.016036739572882652,-0.03243624418973923,0.006121215410530567,0.02946353331208229,-0.028122175484895706,-0.00984849315136671,0.000549513497389853,-0.01683620736002922,0.02777477353811264,-0.01245971117168665,-0.031390246003866196,-0.02727317623794079,-0.0029775111470371485,0.006323345471173525,0.033047787845134735,-0.025916501879692078,-0.02793196029961109,-0.008146211504936218,-0.02784096822142601,0.008429891429841518,-0.026844488456845284,-0.023518025875091553,-0.025967350229620934,0.02892673760652542,0.029709767550230026,0.006987663451582193,0.029504263773560524,0.015666212886571884,-0.024140115827322006,-0.013165141455829144,-0.0230450127273798,-0.02097419649362564,-0.0037277659866958857,0.01091699581593275,0.002886552130803466,0.011719724163413048,-0.003135193604975939,0.02070695534348488,0.03233574330806732,0.014340846799314022,0.025731688365340233,-0.022637855261564255,0.03011973947286606,-0.0169665589928627,0.012973169796168804,-0.009352192282676697,0.006809731014072895,0.025817688554525375,-0.02748611383140087,-0.030559206381440163,-0.01655651442706585,0.009537847712635994,-0.00392651092261076,0.01770964451134205,-0.021815598011016846,0.0006218864000402391,-0.014599760994315147,0.02034766785800457,-0.0017330333357676864,-0.027736762538552284,0.025599872693419456,-0.0057068695314228535,0.0020450279116630554,0.00429302453994751,-0.028126969933509827,0.023575523868203163,-0.005431496072560549,-0.02637891285121441,0.00412389449775219,-0.023488817736506462,0.006967021618038416,-0.00773388659581542,0.00680065480992198,-0.015626130625605583,0.002525490941479802,0.00931390468031168,-0.02851942926645279,-0.021145449951291084,0.030617378652095795,0.022031888365745544,-0.010448762215673923,-0.02179773896932602,-0.017197035253047943,0.0029448557179421186,0.024284429848194122,-0.004964937921613455,-0.015721719712018967,0.019236110150814056,-0.013990006409585476,0.00005978754415991716,-0.01469882670789957,-0.019856102764606476,-0.022622257471084595,-0.02701917476952076,0.02669231779873371,0.030210621654987335,0.02634328231215477,-0.003252193331718445,0.02675570920109749,0.024219650775194168,0.009869858622550964,-0.002130078850314021,-0.014255410060286522,0.0009500609594397247,-0.007303622085601091,-0.010149846784770489,0.007282452657818794,0.03266163170337677,-0.011719114147126675,0.015247314237058163,-0.025023873895406723,-0.010839375667273998,0.030231576412916183,-0.030451364815235138,0.030875254422426224,-0.01750749908387661,0.029464859515428543,-0.02955787442624569,0.024313323199748993,0.001266442472115159,-0.032253533601760864,-0.005984577350318432,0.025186138227581978,0.014408598653972149,0.013493314385414124,-0.00576017377898097,0.0097353495657444,-0.014081942848861217,0.029702767729759216,0.022991644218564034,0.009345043450593948,0.029744183644652367,0.0017029352020472288,0.013079657219350338,0.027023982256650925,0.000307145353872329,-0.030184924602508545,-0.0027415119111537933,-0.018889551982283592,-0.019395649433135986,-0.00314163020811975,0.006840299349278212,-0.01740390621125698,-0.02080203965306282,-0.01243505161255598,-0.018695129081606865,0.0004904739907942712,-0.0080583980306983,0.024284539744257927,0.032793063670396805,0.007815350778400898,-0.022121887654066086,-0.011516142636537552,0.027620255947113037,-0.01780175045132637,0.020729249343276024,0.021805057302117348,0.01794644072651863,0.002001385437324643,0.02835000865161419,0.007732939440757036,0.010350027121603489,-0.009553794749081135,-0.0008358518243767321,0.02124129980802536,-0.006291287951171398,0.01105085015296936,-0.013194920495152473,0.0073334891349077225,0.009091992862522602,-0.018510079011321068,-0.027654588222503662,-0.015540636144578457,0.009839438833296299,0.02539455145597458,-0.015402873046696186,0.014545528218150139,0.022450393065810204,-0.02744312770664692,-0.030945954844355583,-0.010099083185195923,-0.00130487943533808,0.005180785432457924,0.010600361973047256,0.020435253158211708,-0.025385964661836624,0.02623448520898819,0.012618480250239372,-0.03023785538971424,-0.026190435513854027,-0.01153755746781826,-0.024922797456383705,0.012895351275801659,-0.007016229908913374,0.03265579789876938,-0.026895035058259964,0.008921084925532341,0.021907253190875053,-0.02586766518652439,-0.013015138916671276,-0.0072490437887609005,-0.015211411751806736,0.001881962176412344,-0.000552274810615927,-0.011496403254568577,0.031558822840452194,-0.001786567154340446,-0.014655099250376225,0.030459409579634666,0.032281599938869476,-0.006835401523858309,-0.020286332815885544,-0.00235535204410553,-0.014614955522119999,0.00920119695365429,-0.013810557313263416,0.000722220866009593,0.02088235318660736,-0.0030570654198527336,-0.026410121470689774,-0.023729123175144196,0.02290152572095394,0.02588738687336445,0.0035560664255172014,0.009296853095293045,0.028271427378058434,-0.01823941431939602,-0.031746793538331985,0.004629045259207487,0.007863815873861313,0.0042527769692242146,-0.009919242933392525,-0.00839188415557146,0.017103590071201324,0.013698475435376167,-0.007583530154079199,0.01050540991127491,0.03248029574751854,0.025650935247540474,-0.032122477889060974,0.014332106336951256,-0.010506042279303074,0.003922497853636742,0.009849878028035164,0.01921257935464382,-0.008677003905177116,0.025844760239124298,-0.03066808544099331,0.012144170701503754,0.029774462804198265,-0.01359874289482832,-0.005574044771492481,-0.025623375549912453,-0.03090817481279373,0.009980835020542145,0.028434881940484047,0.007313838228583336,-0.010191908106207848,0.021452611312270164,0.022249924018979073,-0.006223865784704685,-0.02593282423913479,-0.018277587369084358,0.024286746978759766,-0.008329951204359531,0.023196589201688766,-0.001404573442414403,0.004107834305614233,0.015263917855918407,0.015117418952286243,-0.01759740337729454,-0.032677192240953445,0.03150531277060509,-0.004593804944306612,0.021880747750401497,0.03038550540804863,-0.026912424713373184,0.014161366969347,0.029473179951310158,-0.025382906198501587,0.014438456855714321,-0.019614532589912415,0.024681825190782547,0.020335199311375618,-0.0032138158567249775,-0.0035979286767542362,0.013776006177067757,0.023069629445672035,0.007685239892452955,-0.0038218244444578886,0.01773170754313469,-0.00987283419817686,-0.01940634474158287,-0.00991178210824728,0.03105996362864971,0.021436361595988274,0.02914530225098133,-0.025854984298348427,0.00035709893563762307,-0.025557594373822212,-0.015837734565138817,-0.01134862843900919,0.019124872982501984,0.020166248083114624,0.018144574016332626,0.021314937621355057,-0.01718091033399105,0.016861606389284134,0.01118419412523508,-0.01798642985522747,-0.026038698852062225,0.02482120878994465,-0.03049134649336338,-0.02028663270175457,-0.02340945228934288,-0.019368615001440048,-0.02094489522278309,-0.017917107790708542,0.010009040124714375,0.0298628993332386,0.016549967229366302,0.003994939848780632,-0.011224902234971523,-0.0034697242081165314,-0.009603806771337986,0.00721118226647377,0.03265601024031639,-0.010040098801255226,0.002717059338465333,-0.0067545752972364426,-0.001886092941276729,0.030052661895751953,0.01644946075975895,0.0018460655119270086,-0.005505336914211512,0.01412051822990179,0.0244138240814209,-0.018416035920381546,0.01738087460398674,-0.03184538707137108,-0.03298576921224594,-0.0200512558221817,-0.02593040280044079,0.024959459900856018,0.018567102029919624,0.02616569958627224,0.014252476394176483,0.02372920885682106,-0.014741689898073673,-0.016685552895069122,-0.014363947324454784,-0.028082549571990967,0.009581851772964,-0.025654945522546768,-0.006235950626432896,-0.03168003261089325,-0.025331391021609306,0.009571017697453499,-0.03317850083112717,0.02108019031584263,-0.011418656446039677,0.016659721732139587,0.021958034485578537,0.014887537807226181,-0.027545273303985596,0.007530690636485815,0.007491589058190584,-0.008212857879698277,-0.009439907968044281,0.021407969295978546,0.016734657809138298,0.0068978192284703255,0.018225809559226036,-0.019405504688620567,-0.01867368444800377,-0.007188873365521431,-0.03060726821422577,-0.012247052043676376,-0.019062483683228493,0.017540467903017998,-0.029081322252750397,-0.02565835416316986,-0.017278511077165604,0.017587270587682724,-0.0271909236907959,-0.02934242971241474,0.002972718793898821,0.013779752887785435,-0.02313430979847908,0.0014396674232557416,0.02195735275745392,0.028141170740127563,0.0017339129699394107,0.00036434270441532135,0.012047836557030678,-0.012281724251806736,-0.02668098732829094,0.000524781527929008,-0.014701073057949543,0.012881528586149216,-0.027857264503836632,0.01384508702903986,0.0012844970915466547,-0.008952653966844082,-0.02970399148762226,0.020558545365929604,-0.015714602544903755,0.009775933809578419,-0.006802204996347427,-0.004279759246855974,-0.013943924568593502,0.013655961491167545,-0.002839433727785945,-0.008346346206963062,0.02707783132791519,-0.0022985313553363085,-0.02358679287135601,0.03304155543446541,-0.019913284108042717,0.008713757619261742,0.00650446442887187,0.009057296440005302,0.0026714568957686424,0.022141270339488983,0.01366574689745903,0.012043626047670841,-0.016805559396743774,0.02029886469244957,0.0027270037680864334,-0.024991970509290695,-0.016527272760868073,0.02155892550945282,-0.027496930211782455,-0.031711746007204056,-0.01869644969701767,-0.023538930341601372,0.013293652795255184,0.02211405709385872,-0.019188417121767998,0.02879307232797146,0.012015744112432003,-0.030894611030817032,0.02640884928405285,0.008146623149514198,0.033151257783174515,0.022021260112524033,-0.03181001916527748,0.030511435121297836,0.007700947113335133,0.02021397463977337,0.02766624093055725,0.005249060690402985,0.0237585436552763,-0.01795126311480999,0.0026634091045707464,-0.011933820322155952,0.019376564770936966,0.02880614995956421,-0.029204120859503746,0.0016146613052114844,-0.007300298195332289,0.00018825846200343221,0.01915428787469864,0.009111857041716576,0.015863941982388496,-0.021840332075953484,0.018596477806568146,0.0329994298517704,0.0002542950678616762,-0.025485321879386902,0.013693143613636494,0.008018153719604015,-0.03279512748122215,-0.021006539463996887,0.01626523770391941,0.028195012360811234,0.01322901900857687,0.025953322649002075,-0.031924180686473846,-0.030052924528717995,0.00048726823297329247,0.011706424877047539,-0.0016165944980457425,-0.006966792047023773,-0.0036795265041291714,-0.028943665325641632,-0.0009480601293034852,-0.02132265642285347,0.016397617757320404,0.015894271433353424,0.023538611829280853,0.005188758950680494,-0.02610470913350582,-0.031383320689201355,-0.015863630920648575,-0.02590400166809559,0.022747250273823738,-0.03256048634648323,-0.016849398612976074,-0.02241125889122486,0.004976300522685051,-0.02251916192471981,-0.00457437988370657,-0.029549119994044304,0.01387816108763218,-0.00774675328284502,-0.00717566255480051,-0.025003401562571526,0.0029868041165173054,-0.03245408833026886,-0.0281808003783226,0.022733869031071663,0.0014206747291609645,0.02671358361840248,0.020681586116552353,0.02650897391140461,0.03020649589598179,0.009618804790079594,0.016312915831804276,0.018779562786221504,-0.0025998910423368216,0.014819486998021603,-0.014606376178562641,0.0012971519026905298,-0.0217288825660944,0.023964662104845047,-0.006238932721316814,-0.01979825831949711,0.018674783408641815,-0.02359519898891449,-0.006948943715542555,0.033186472952365875,0.002802889095619321,-0.024525392800569534,0.019529227167367935,0.014705938287079334,0.019677303731441498,-0.0014505701838061213,-0.023346029222011566,0.02732413448393345,0.005414035636931658,-0.005008490290492773,0.029196247458457947,-0.0054710786789655685,0.02128428779542446,-0.009860174730420113,-0.009975887835025787,-0.01737986132502556,-0.013020823709666729,0.021126331761479378,0.02499348483979702,-0.029790004715323448,0.021797562018036842,0.002821503672748804,-0.021418346092104912,-0.01402750052511692,-0.031176770105957985,-0.024418946355581284,0.02006988413631916,-0.014193394221365452,0.00043017088319174945,0.007955609820783138,-0.013028308749198914,-0.005549099296331406,0.008001238107681274,0.025333739817142487,0.017893081530928612,0.013909241184592247,-0.002338607795536518,0.02396688610315323,0.009894761256873608,0.004835597239434719,-0.02603081800043583,0.003206610679626465,0.023660138249397278,-0.03199395909905434,0.030885428190231323,-0.03258911147713661,-0.023276029154658318,-0.016281967982649803,-0.025575149804353714,0.003955275285989046,0.0285758376121521,-0.03049810416996479,-0.0033097381237894297,0.0041167414747178555,0.0017471987521275878,-0.027830909937620163,-0.01859014295041561,0.000511301914229989,0.023560352623462677,0.007508466951549053,-0.010525901801884174,0.02569580264389515,-0.00881199911236763,0.02127547562122345,-0.03301515802741051,-0.009061252698302269,0.023006172850728035,-0.009785875678062439,0.0002692938724067062,-0.0048082610592246056,0.008314231410622597,0.00949731096625328,0.03166375681757927,-0.009538459591567516,-0.01184086874127388,-0.006450728978961706,-0.022268762812018394,0.01276020985096693,-0.0072476863861083984,0.004015210084617138,0.013607353903353214,0.00991762150079012,-0.0279835257679224,-0.015989527106285095,0.009656810201704502,0.015017012134194374,0.0035085168201476336,0.023557057604193687,-0.01337957289069891,-0.005263105966150761,0.01811823807656765,-0.018376950174570084,0.003527454100549221,0.026694484055042267,0.0036509663332253695,-0.019299320876598358,-0.030698223039507866,-0.026911472901701927,0.019274558871984482,0.019718043506145477,-0.0026506546419113874,0.013955243863165379,0.003113256301730871,-0.025894951075315475,0.01158022228628397,0.00866727065294981,0.028891006484627724,0.015956265851855278,-0.0058066351339221,0.007127128541469574,-0.020878316834568977,0.01940847560763359,0.031761232763528824,0.021116120740771294,0.005808995105326176,-0.011656577698886395,-0.021138884127140045,-0.027752013877034187,0.0053542908281087875,0.02509096823632717,0.004262176342308521,0.004345392342656851,0.027884140610694885,0.02744828537106514,-0.018336985260248184,-0.015436111949384212,0.004641151055693626,-0.03129168599843979,-0.004778997041285038,0.004800049122422934,0.02262423187494278,-0.010061986744403839,0.029550857841968536,-0.011687501333653927,-0.0016174725024029613,-0.019002540037035942,-0.01110081560909748,0.025512095540761948,-0.00017906985885929316,-0.02715761959552765,-0.027446988970041275,-0.010174415074288845,-0.01963045261800289,0.016346612945199013,-0.021113509312272072,0.02198021672666073,0.006295428611338139,0.0031229043379426003,0.02716175653040409,0.016366686671972275,0.031666841357946396,-0.011905208230018616,-0.016836566850543022,0.03128643333911896,0.0024425690062344074,0.02257220447063446,0.030890939757227898,0.025376230478286743,0.005853442475199699,0.01638421043753624,0.012938686646521091,-0.017629463225603104,0.022963566705584526,-0.016167834401130676,0.032006148248910904,-0.029261702671647072,0.017985988408327103,0.030025770887732506,0.014934242703020573,-0.031234437599778175,0.029290026053786278,-0.02317003533244133,-0.025699101388454437,-0.021178491413593292,-0.022075723856687546,-0.02756706066429615,-0.028521209955215454,-0.008488389663398266,-0.0034040112514048815,0.021265069022774696,0.026700157672166824,-0.0025983392260968685,0.020974010229110718,0.018219783902168274,0.0061021288856863976,-0.004298454616218805,-0.005419782362878323,0.018333688378334045,-0.03231639415025711,-0.0198780857026577,0.031944502145051956,0.013838501647114754,0.022885939106345177,0.02203945815563202,-0.011751927435398102,-0.028521215543150902,-0.014921395108103752,-0.02830784022808075,-0.015533733181655407,-0.0012361432891339064,-0.015113660134375095,0.015798786655068398,0.022732704877853394,0.025868292897939682,0.004292794968932867,0.024749331176280975,-0.009964480996131897,-0.0013168018776923418,0.031062982976436615,0.006739736068993807,-0.012298987247049809,0.019492821767926216,-0.022194204851984978,-0.031745124608278275,-0.009858334437012672,0.021873367950320244,-0.01672355644404888,-0.017794134095311165,-0.015957942232489586,-0.014977572485804558,0.011366992257535458,0.015391678549349308,0.0187930166721344,0.02263229340314865,0.024264175444841385,-0.01753622479736805,-0.016183998435735703,-0.00253687659278512,-0.03272407501935959,0.022386459633708,-0.005874413065612316,-0.014635594561696053,0.00839752797037363,-0.024009952321648598,0.003236866556107998,-0.0007068727281875908,-0.028193777427077293,0.004521751310676336,-0.027139348909258842,0.012428904883563519,-0.01016968209296465,0.01992787793278694,0.005103151313960552,0.009388748556375504,0.00018091770471073687,0.009738925844430923,0.032974544912576675,0.024924322962760925,0.01586536318063736,0.00823003426194191,0.023854494094848633,-0.001062931609340012,0.012546317651867867,-0.006573576480150223,-0.014347310177981853,-0.02390372008085251,-0.026283379644155502,-0.02591279149055481,0.016735702753067017,0.02689126506447792,0.008880071341991425,0.0030940358992666006,-0.009892094880342484,-0.029010822996497154,0.013308143243193626,0.026136567816138268,-0.021042581647634506,-0.03268496319651604,0.012249378487467766,-0.02880857139825821,-0.028913239017128944,-0.008048197254538536,0.00017517362721264362,-0.010251929983496666,0.030480967834591866,-0.0013853325508534908,-0.0022842728067189455,-0.029377611353993416,-0.031518932431936264,0.006280546076595783,-0.023201992735266685,0.010186291299760342,-0.009557693265378475,0.022668251767754555,0.02719634771347046,0.0005417087813839316,-0.016985159367322922,-0.000028937954994034953,-0.026303471997380257,-0.017318731173872948,-0.022939657792448997,0.01037044357508421,0.016562750563025475,-0.019774848595261574,-0.03189126029610634,0.023980235680937767,-0.020855411887168884,-0.027546200901269913,-0.0013911464484408498,0.0068734800443053246,-0.022744029760360718,-0.003103695111349225,0.008767739869654179,0.004680166952311993,-0.027254842221736908,-0.02489851601421833,0.0015215055318549275,-0.030278263613581657,0.0034018836449831724,-0.010974273085594177,0.033281344920396805,-0.0251065194606781,-0.03194303438067436,-0.022465139627456665,0.0054048835299909115,-0.01070318277925253,-0.018694257363677025,0.024277279153466225,-0.01721966452896595,0.020369507372379303,0.00048381841043010354,-0.023135865107178688,-0.01615072228014469,-0.02726825512945652,-0.03042934462428093,-0.011378318071365356,-0.015574200078845024,0.03261914104223251,0.012972831726074219,-0.0023841839283704758,0.028406327590346336,-0.030155891552567482,-0.027826642617583275,0.021139809861779213,-0.0027342422399669886,0.0010982364183291793,-0.02245798148214817,-0.018352527171373367,0.02149912156164646,0.018535945564508438,-0.018649417906999588,-0.005475238431245089,0.02621813304722309,-0.012287491001188755,-0.02777831070125103,-0.0321008674800396,0.022491175681352615,-0.0261245034635067,-0.015906162559986115,-0.019785186275839806,0.008740455843508244,-0.016870174556970596,-0.01459500938653946,0.030212033540010452,-0.014025656506419182,0.022345053032040596,0.03119201958179474,0.02794555574655533,0.024603381752967834,0.007754664868116379,0.005893205292522907,0.015055280178785324,-0.02589593641459942,-0.0027515823021531105,-0.00772008066996932,0.0070687574334442616,-0.025124462321400642,-0.0023005965631455183,-0.00752881309017539,0.015376954339444637,0.018608126789331436,-0.028484785929322243,0.03306134045124054,0.004571187309920788,0.018614472821354866,-0.013992873020470142,0.0049636452458798885,0.030981017276644707,0.010791721753776073,-0.010509959422051907,-0.0017908053705468774,-0.0007558320066891611,-0.028783956542611122,-0.020044466480612755,-0.025603443384170532,0.030476434156298637,-0.018460489809513092,0.014338060282170773,0.023917416110634804,0.026026666164398193,0.01937077008187771,-0.0020239725708961487,0.03124464489519596,-0.023800931870937347,0.026741251349449158,0.02383027970790863,0.011157413944602013,0.022364811971783638,0.027893882244825363,0.020347435027360916,0.024867773056030273,-0.00963318906724453,-0.006127397064119577,-0.024414334446191788,0.030819905921816826,