[{"type":"conv","filters":[{"data":[-0.2528533637523651,0.13665971159934998,0.056523289531469345,0.18323364853858948,0.12729214131832123,-0.02033993974328041,0.2466745525598526,-0.17784307897090912,-0.13767457008361816,-0.21473795175552368,-0.26307374238967896,0.17783384025096893,0.08971022814512253,-0.1834263801574707,-0.057030320167541504,0.13433964550495148,0.016841202974319458,0.19986902177333832,-0.10783747583627701,-0.21800659596920013,0.11077384650707245,0.0013484765077009797,0.16828356683254242,0.19402572512626648,-0.08162789046764374,0.10715920478105545,0.10337318480014801],"shape":[3,3,3]},{"data":[-0.26111942529678345,0.02644299529492855,0.06256849318742752,0.24585458636283875,0.03761640191078186,0.12501756846904755,0.148469939827919,0.20924882590770721,-0.004275988321751356,0.025797143578529358,-0.034496158361434937,-0.05416892096400261,0.11512116342782974,-0.12020175904035568,-0.09606120735406876,-0.23065777122974396,-0.2535935342311859,-0.08007404953241348,0.1665758490562439,-0.19335129857063293,-0.15924540162086487,0.025518737733364105,-0.24574747681617737,0.014128157868981361,0.11473783105611801,-0.1821243166923523,-0.1822618544101715],"shape":[3,3,3]},{"data":[0.14570310711860657,0.004006165079772472,0.04411090165376663,0.21021458506584167,-0.23921431601047516,0.234083354473114,0.06363653391599655,-0.06432853639125824,0.05344786494970322,-0.08440791815519333,0.16050425171852112,0.209405779838562,-0.03779048100113869,-0.16108185052871704,-0.15973833203315735,0.040585774928331375,-0.17877723276615143,-0.16057105362415314,0.06733827292919159,0.1444871872663498,-0.19289392232894897,0.246566042304039,-0.18345780670642853,0.035791538655757904,-0.17441006004810333,0.09452531486749649,0.17826589941978455],"shape":[3,3,3]},{"data":[-0.07775913178920746,-0.14727431535720825,0.09264487028121948,0.1434481143951416,0.03777894750237465,0.11407041549682617,0.20606113970279694,-0.04480995237827301,0.08475194871425629,0.14391997456550598,0.04405147209763527,0.005731403362005949,-0.19483989477157593,-0.05437641963362694,-0.13923460245132446,-0.1342369168996811,-0.07209663093090057,0.02087363414466381,0.09600351750850677,0.12080299109220505,-0.12376999855041504,0.12965251505374908,-0.25469279289245605,-0.23087336122989655,0.1520894169807434,-0.2563088536262512,-0.029874412342905998],"shape":[3,3,3]},{"data":[0.18219567835330963,0.11811225861310959,0.25191399455070496,-0.11722345650196075,-0.0014609986683353782,0.13202792406082153,0.2704152762889862,0.243378147482872,0.24730804562568665,0.025637609884142876,0.2129940390586853,0.08276215940713882,-0.2526507079601288,-0.14717788994312286,0.08909547328948975,0.1620015949010849,-0.09406393021345139,0.08653037250041962,-0.012616202235221863,0.2640380859375,0.10862239450216293,0.1489229053258896,0.03729116916656494,-0.007638759445399046,0.13918837904930115,-0.11462743580341339,0.12659868597984314],"shape":[3,3,3]},{"data":[-0.05443625897169113,-0.02071917988359928,0.1817316710948944,-0.2681810259819031,-0.02168317884206772,0.06270825117826462,-0.25467532873153687,0.054438963532447815,0.1375681608915329,-0.09722930938005447,-0.05728987231850624,0.007790527772158384,-0.06322585046291351,0.017672114074230194,0.19268520176410675,0.16947296261787415,-0.2346739023923874,0.13184694945812225,-0.23644357919692993,-0.20888489484786987,0.12057413160800934,-0.2228046953678131,0.12712863087654114,0.08339322358369827,0.132155179977417,0.08157961070537567,-0.09852662682533264],"shape":[3,3,3]},{"data":[-0.2458346039056778,0.16808271408081055,-0.10163915157318115,0.010020020417869091,0.2547592222690582,-0.05878458917140961,-0.2621486485004425,0.06190788373351097,0.03986968845129013,-0.10739407688379288,-0.17336530983448029,-0.20031557977199554,0.016757765784859657,-0.10690022259950638,0.1164223700761795,-0.010406721383333206,0.11972841620445251,0.04156286269426346,-0.032540347427129745,0.24307766556739807,-0.052584752440452576,-0.07946132868528366,-0.2547041177749634,-0.07947500795125961,-0.25808414816856384,-0.03688963130116463,0.006453691516071558],"shape":[3,3,3]},{"data":[-0.16744014620780945,-0.015612772665917873,0.1677633821964264,-0.19346727430820465,-0.17943105101585388,-0.09160494059324265,0.1429845094680786,-0.14319133758544922,-0.10971805453300476,0.138184055685997,0.23112480342388153,-0.10039030015468597,-0.16027294099330902,-0.06312847882509232,0.10163185745477676,0.17904657125473022,0.0019500525668263435,0.15592075884342194,0.22160173952579498,-0.19010286033153534,0.06921318173408508,-0.23937217891216278,0.09513027220964432,0.12104940414428711,0.22209575772285461,0.25535112619400024,-0.24256236851215363],"shape":[3,3,3]}],"biases":[0.009999999776482582,0.009999999776482582,0.009999999776482582,0.009999999776482582,0.009999999776482582,0.009999999776482582,0.009999999776482582,0.009999999776482582]},{"type":"maxpool"},{"type":"dense","weights":[0.02230648323893547,-0.0034992245491594076,0.024248119443655014,0.023249169811606407,0.03023596480488777,-0.02925744652748108,0.030622197315096855,0.0012688199058175087,0.0299661997705698,0.023886647075414658,0.008253516629338264,-0.00577219994738698,0.027497658506035805,0.010064292699098587,-0.008885597810149193,0.029349923133850098,0.014346061274409294,-0.01444422546774149,0.025664275512099266,0.005083109717816114,-0.01988249458372593,0.0022250188048928976,0.032009825110435486,0.011472526006400585,-0.006400369107723236,0.03264549747109413,-0.017768679186701775,0.01701088808476925,-0.02206871658563614,0.015006020665168762,0.003076538210734725,-0.03214195370674133,0.004277802538126707,0.004352657124400139,-0.009852517396211624,0.011258692480623722,-0.02705022506415844,-0.033024489879608154,0.029804538935422897,0.016076281666755676,-0.02266285941004753,-0.03102124109864235,-0.0009675871697254479,0.02636035718023777,-0.027415359392762184,0.025226252153515816,0.032211072742938995,0.020376689732074738,0.015163942240178585,-0.025557832792401314,0.02299097739160061,-0.01051340438425541,-0.018715495243668556,0.026781754568219185,0.01689659059047699,-0.03241613507270813,-0.013880709186196327,0.0007976276683621109,0.02773137204349041,0.018500516191124916,-0.023579612374305725,0.0014726114459335804,0.016096903011202812,0.031803540885448456,-0.025554543361067772,0.0010512064909562469,0.0004324761684983969,0.028440475463867188,-0.010493062436580658,0.018258122727274895,-0.004285724833607674,-0.005044032819569111,-0.019709013402462006,-0.01324742566794157,0.023669399321079254,0.0249702800065279,0.032592788338661194,-0.02607765793800354,0.020143605768680573,-0.025598948821425438,-0.021723628044128418,0.00022340317082125694,0.0018054816173389554,0.00411413935944438,-0.013555183075368404,-0.03203039988875389,-0.005522480700165033,-0.021456580609083176,-0.006089678034186363,-0.01350065041333437,-0.019882027059793472,0.007772413082420826,0.026756424456834793,0.0264088436961174,-0.020241402089595795,0.012123612686991692,0.03038245439529419,0.022731920704245567,0.030670370906591415,0.007398754358291626,0.00014475910575129092,0.007145925424993038,0.012709933333098888,0.007195319049060345,0.017785517498850822,-0.032909929752349854,0.013736958615481853,0.010201160795986652,0.027557730674743652,-0.022504659369587898,-0.01973898522555828,-0.023603899404406548,-0.029319308698177338,-0.0025107671972364187,-0.033218253403902054,0.01602794975042343,-0.02475164271891117,0.019372450187802315,-0.006622922141104937,-0.014180191792547703,-0.007908198982477188,0.003148743649944663,-0.0157622043043375,0.005989904049783945,-0.02544199861586094,0.012983450666069984,-0.02418396808207035,-0.0019497718894854188,-0.0051428936421871185,0.022252779453992844,-0.0008790113497525454,0.027118755504488945,0.020868120715022087,-0.027429427951574326,-0.03033244051039219,-0.02159596048295498,-0.008925799280405045,-0.0005661880713887513,-0.002543589798733592,0.019080542027950287,0.019786225631833076,-0.027539530768990517,0.015319962985813618,-0.019895968958735466,0.0030564453918486834,-0.02736227586865425,-0.02238631434738636,-0.0051736170426011086,0.030743183568120003,-0.028204238042235374,-0.0235273614525795,-0.026843205094337463,0.021229075267910957,-0.027884842827916145,0.006716667674481869,0.023216433823108673,-0.025690704584121704,-0.0010980387451127172,0.02591758221387863,0.01721622422337532,0.0029390945564955473,-0.015487750060856342,0.03318491950631142,-0.017263662070035934,-0.033145803958177567,0.026341404765844345,0.01425136998295784,0.02770288474857807,0.014167562127113342,0.0022893892601132393,0.032314177602529526,-0.020810872316360474,-0.02457946166396141,-0.009670238941907883,0.01963762938976288,0.013686594553291798,-0.00537053681910038,0.017484625801444054,-0.01842539571225643,-0.017402594909071922,0.004655222874134779,-0.0037027846556156874,0.01916261576116085,0.021559884771704674,-0.005254384130239487,-0.0005825855769217014,-0.025360075756907463,-0.00447784224525094,0.02410455234348774,-0.016528431326150894,0.007680559065192938,0.005556768272072077,0.026007262989878654,0.007061766926199198,0.005280621349811554,-0.014809184707701206,-0.023747039958834648,-0.01468729879707098,0.02505739964544773,-0.027782689779996872,0.008943830616772175,0.032486606389284134,-0.019310828298330307,-0.031133169308304787,-0.007116044871509075,-0.006347202695906162,0.025331003591418266,-0.019892798736691475,0.004724221769720316,-0.0017589937197044492,-0.013773158192634583,-0.002829835517331958,0.03071284107863903,0.020271137356758118,0.022591646760702133,-0.027764517813920975,0.002507466357201338,0.015809910371899605,-0.014973080717027187,-0.0025184587575495243,0.03014269471168518,0.0009636960458010435,0.015848826617002487,0.018637584522366524,-0.00936080515384674,-0.030989142134785652,0.0201925877481699,0.0009183746878989041,0.025714091956615448,0.012825225479900837,0.002134616021066904,0.013438785448670387,0.007012650370597839,0.013379896059632301,0.007767213974148035,-0.014063434675335884,-0.02954184263944626,-0.020875394344329834,0.01889003813266754,0.023743821308016777,0.012947699055075645,-0.01577772945165634,-0.0016486203530803323,0.01131417416036129,0.014388103038072586,-0.0012363640125840902,-0.010807707905769348,0.031692519783973694,-0.0037563731893897057,0.030848124995827675,-0.029662391170859337,-0.03324872627854347,-0.015804454684257507,-0.002395826857537031,0.005007009953260422,0.015472732484340668,-0.025645151734352112,-0.0007774523110128939,0.024970998987555504,-0.02867092564702034,0.02067704126238823,-0.026266759261488914,-0.0011166915064677596,-0.008099881932139397,-0.006732555106282234,0.033308085054159164,-0.010301155038177967,-0.020212216302752495,-0.018988296389579773,-0.015727097168564796,-0.019126055762171745,-0.004465881269425154,-0.029980432242155075,0.028463471680879593,0.026218930259346962,-0.016817448660731316,0.01514387410134077,0.015918470919132233,-0.02559618093073368,0.03328027203679085,0.02602982521057129,-0.009141371585428715,0.03164304420351982,-0.029317142441868782,-0.030725717544555664,-0.006114733871072531,-0.006651774980127811,-0.01513333898037672,0.012503262609243393,-0.028441382572054863,0.015111764892935753,0.010839923284947872,0.025944717228412628,0.014915943145751953,-0.00035400278284214437,0.027530767023563385,0.014518635347485542,-0.02383127622306347,-0.027003927156329155,-0.0069285365752875805,0.021273888647556305,-0.03296135365962982,0.004597427323460579,-0.026961592957377434,-0.004610761534422636,-0.027358075603842735,-0.007731182500720024,-0.005025068297982216,0.011397057212889194,0.014901602640748024,-0.01933925785124302,0.018093818798661232,-0.026537109166383743,-0.008723326027393341,-0.02668706327676773,0.020896900445222855,0.0017634575488045812,-0.030295798555016518,-0.0003533128765411675,-0.007434550207108259,-0.006137923803180456,-0.02670447714626789,-0.0012032267404720187,-0.030706005170941353,-0.0075088972225785255,0.0006014737882651389,0.033125393092632294,0.010751420632004738,0.006994142662733793,0.013268141075968742,-0.023558814078569412,0.012746637687087059,-0.017717674374580383,0.01569296605885029,0.0007019362528808415,0.014545897953212261,0.006041506305336952,-0.027444880455732346,0.004756896290928125,-0.014596925117075443,0.018415657803416252,0.0008076668600551784,-0.01941840350627899,-0.014390261843800545,0.019349660724401474,0.025878963991999626,0.017454249784350395,-0.015241739340126514,-0.017807677388191223,0.011516418308019638,-0.012006682343780994,-0.017600523307919502,0.001692874589934945,0.0014042635448276997,-0.008285646326839924,0.013566822744905949,-0.016882499679923058,-0.029576273635029793,0.01750762388110161,-0.0019359691068530083,-0.03195185959339142,-0.02246939018368721,0.014326545409858227,0.0005162646411918104,0.01581394299864769,-0.003722482593730092,0.02678539976477623,0.02842676267027855,0.014801055192947388,-0.021514927968382835,-0.0005400824011303484,-0.012009787373244762,-0.010866876691579819,-0.015382589772343636,0.02222839742898941,-0.012656666338443756,-0.0037023231852799654,0.005242591258138418,-0.02018679864704609,0.026874965056777,0.03273584321141243,-0.023699646815657616,-0.005853687413036823,0.008746329694986343,0.00741782458499074,0.02158561535179615,0.0018979294691234827,-0.029912620782852173,0.027723068371415138,-0.016323791816830635,0.013527290895581245,-0.0017582214204594493,-0.02662193961441517,-0.024790214374661446,0.029126150533556938,0.015897667035460472,-0.008358852006494999,-0.023187043145298958,0.023826247081160545,-0.002437563380226493,0.027073627337813377,0.028773758560419083,-0.0013496442697942257,0.024985911324620247,0.025003967806696892,0.016890382394194603,-0.020398003980517387,0.028731148689985275,0.007572040893137455,0.0073655759915709496,-0.007524511311203241,0.003016372211277485,-0.02888414077460766,-0.02344796061515808,0.025520363822579384,-0.023547617718577385,0.025301147252321243,0.003761103143915534,-0.001480316510424018,-0.019822733476758003,0.01648138277232647,0.02226155810058117,-0.0008317542960867286,-0.012202898971736431,-0.03307320177555084,0.02046993188560009,0.0292999055236578,0.03326047211885452,0.011245097033679485,-0.020243292674422264,0.01353526208549738,-0.023221217095851898,-0.017931995913386345,-0.029615100473165512,-0.020122671499848366,-0.03148829936981201,0.014419043436646461,-0.0011979436967521906,0.03081350587308407,-0.033232033252716064,-0.025569774210453033,-0.01193490531295538,-0.005388378165662289,0.018763089552521706,0.02201245166361332,-0.009756594896316528,0.029851805418729782,-0.010060088708996773,0.03310108557343483,0.016599362716078758,0.004529132973402739,0.02200143411755562,-0.008208440616726875,-0.009959658607840538,0.015270793810486794,0.020530790090560913,0.0048508793115615845,0.019582124426960945,-0.004551535937935114,0.005442620720714331,0.013766719959676266,-0.010660835541784763,0.0024091913364827633,-0.004687105305492878,-0.02067592367529869,0.032776325941085815,0.0020668688230216503,0.028265027329325676,0.000036604556953534484,0.018887795507907867,0.010373043827712536,0.0017100725090131164,-0.012446701526641846,-0.03044639527797699,-0.03163209557533264,0.030322615057229996,0.006638196296989918,0.0076598720625042915,0.024941809475421906,0.026281369850039482,-0.00951636303216219,-0.009044894948601723,-0.012696264311671257,0.005883832927793264,0.0050416490994393826,0.0322367362678051,-0.030254019424319267,-0.025682490319013596,0.013673683628439903,-0.0023662338498979807,-0.004045457113534212,-0.017890164628624916,-0.02360287867486477,-0.028100553900003433,0.006833534687757492,-0.027402808889746666,-0.0003660206275526434,-0.020613668486475945,-0.004583008121699095,-0.001141078071668744,0.030224258080124855,-0.022851819172501564,0.015464197844266891,0.02796442061662674,0.030141454190015793,0.007325264159590006,0.024329597130417824,0.028105517849326134,0.032286275178194046,0.010337342508137226,0.02287346124649048,0.018854957073926926,0.029223043471574783,-0.028154244646430016,-0.009003959596157074,-0.021915758028626442,-0.020937105640769005,-0.027230730280280113,0.011391191743314266,-0.00913914106786251,0.024973640218377113,0.03124128468334675,0.023584531620144844,0.0047495742328464985,0.0067704664543271065,-0.03186500072479248,0.015298002399504185,0.01669319160282612,0.02360381931066513,0.009541627950966358,-0.021345224231481552,-0.014236658811569214,0.03280869871377945,0.007175780832767487,-0.027374979108572006,0.02690160647034645,-0.014837266877293587,0.0021339748054742813,0.014470437541604042,0.003192191943526268,-0.006627238821238279,-0.020791372284293175,-0.012016947381198406,-0.0012768339365720749,0.01082910317927599,0.0006719931843690574,-0.023883476853370667,-0.0011282534105703235,-0.01793212629854679,0.03147345781326294,-0.020293856039643288,0.0017569009214639664,-0.0069402786903083324,0.007682192139327526,-0.017535846680402756,0.030721237882971764,-0.021345004439353943,0.0053675915114581585,0.00014904519775882363,0.011417275294661522,0.023839140310883522,0.010475610382854939,0.0190107561647892,0.006197817623615265,-0.015035501681268215,-0.018578816205263138,0.018249016255140305,-0.013974382542073727,0.019585786387324333,-0.0038698359858244658,-0.03015936352312565,-0.015282494015991688,0.015072639100253582,0.026948818936944008,0.02011975832283497,0.005927203223109245,-0.012829167768359184,-0.016665715724229813,0.008458849973976612,-0.010157348588109016,-0.0010889648692682385,-0.022164320573210716,-0.0061691743321716785,-0.01728108339011669,0.014338730834424496,-0.01018170639872551,0.02578388899564743,0.02015492506325245,-0.01191946305334568,-0.011410166509449482,-0.03086113929748535,0.0313589870929718,-0.029492365196347237,0.018941517919301987,-0.027331115677952766,0.028411436825990677,0.030997999012470245,-0.003010476240888238,-0.019327452406287193,-0.009101365692913532,0.00490043917670846,0.022716976702213287,-0.017534879967570305,-0.016965556889772415,0.015904592350125313,0.01190080028027296,0.023276884108781815,0.027480630204081535,0.009041854180395603,-0.029323559254407883,-0.02596374601125717,-0.017441827803850174,0.016135968267917633,0.031825657933950424,0.017687857151031494,-0.004134795628488064,-0.023266088217496872,-0.021076500415802002,0.010248014703392982,-0.005543622188270092,-0.02483747899532318,-0.004763609729707241,-0.02092062309384346,-0.030763449147343636,-0.007935124449431896,0.023161321878433228,-0.024738091975450516,-0.0036052740179002285,0.00561254657804966,-0.00004319671279517934,-0.016589032486081123,0.013067798689007759,0.004043614957481623,-0.014698032289743423,-0.014915994368493557,-0.02520354464650154,-0.024852503091096878,0.02071991004049778,0.0029578160028904676,-0.020931042730808258,0.009648624807596207,0.020114941522479057,0.021984519436955452,-0.004162427503615618,0.01792028173804283,-0.008829507045447826,0.030299793928861618,-0.028380658477544785,-0.007769214920699596,-0.028529727831482887,0.008691070601344109,-0.02530687116086483,0.0019326386973261833,-0.0208221934735775,0.02748263254761696,0.020834127441048622,0.021189650520682335,-0.02330736815929413,-0.017873965203762054,-0.03234078735113144,0.009418039582669735,-0.005099083762615919,0.012286379933357239,-0.016923069953918457,-0.014480114914476871,-0.031163204461336136,0.0077803125604987144,-0.0297082606703043,-0.024327216669917107,0.021161668002605438,-0.014382507652044296,-0.00635497597977519,-0.03307138755917549,0.03159629926085472,-0.01700832135975361,-0.020447684451937675,-0.0001757507270667702,0.032692793756723404,-0.005620289593935013,0.029267704114317894,-0.02482747472822666,-0.0220040250569582,-0.02958693541586399,-0.019717803224921227,-0.016063367947936058,-0.027860701084136963,0.011668006889522076,0.013546483591198921,-0.012026434764266014,0.021339552477002144,0.007185269147157669,-0.01619699038565159,-0.013100587762892246,-0.025797858834266663,-0.026123879477381706,-0.022639121860265732,-0.018427561968564987,0.009748472832143307,0.02893569879233837,0.014264599420130253,0.0042863828130066395,-0.017287563532590866,-0.008783373050391674,0.00576326809823513,-0.015605874359607697,0.02876763604581356,-0.019709844142198563,-0.022160641849040985,-0.029437191784381866,0.00318762194365263,-0.02066993899643421,-0.011062114499509335,0.022407537326216698,0.006512690335512161,0.02499561756849289,0.020928602665662766,0.01237817294895649,-0.02762662246823311,0.03260064497590065,-0.008464640937745571,0.01502585131675005,0.01024655718356371,-0.019047854468226433,0.029130900278687477,-0.02018125168979168,0.026559291407465935,-0.008246050216257572,0.005359411705285311,-0.008359999395906925,0.003994808532297611,-0.0008074627257883549,0.030538415536284447,0.01793113723397255,0.01763196662068367,0.018076838925480843,-0.019888248294591904,0.014560431241989136,0.01648082211613655,0.004854374099522829,0.017593851312994957,-0.007527222856879234,-0.026956044137477875,-0.014975791797041893,-0.022737029939889908,0.011800176464021206,0.003339386312291026,0.005243275314569473,-0.012709002941846848,-0.00019084101950284094,0.015592253766953945,-0.010666286572813988,-0.026379862800240517,0.01582895778119564,-0.006328529212623835,0.02758338674902916,-0.01479013916105032,0.0010168884182348847,0.00938527099788189,-0.01591363362967968,0.007018005941063166,0.0028431678656488657,0.03217693790793419,0.009692850522696972,0.02243257872760296,-0.007906682789325714,-0.030370889231562614,0.025503290817141533,-0.018261035904288292,0.020550012588500977,0.013824822381138802,-0.02519555576145649,-0.00041651068022474647,0.014513665810227394,-0.02789246290922165,-0.02445630542933941,0.0001116809289669618,0.018942279741168022,-0.022907350212335587,0.003819325938820839,0.03198590502142906,0.032180171459913254,0.012997370213270187,-0.004631359130144119,0.01501601841300726,-0.02304823510348797,-0.01892603002488613,0.007324882782995701,0.0041177524253726006,-0.0049171168357133865,0.029000386595726013,0.0006721099489368498,0.012757649645209312,-0.01948993094265461,-0.015221248380839825,-0.00018830249609891325,-0.017586126923561096,-0.006725715473294258,-0.014451336115598679,0.014751018024981022,-0.027171621099114418,-0.018200639635324478,0.031911227852106094,-0.012164810672402382,-0.021778889000415802,0.0186026468873024,0.021430423483252525,0.004506250377744436,-0.022971222177147865,-0.021944494917988777,0.03005327470600605,0.008210097439587116,0.015839900821447372,-0.01483587920665741,-0.007068533916026354,-0.005913350731134415,-0.028631646186113358,0.005748605355620384,0.033001210540533066,0.012627926655113697,0.02873571403324604,0.02557205967605114,0.01865343004465103,-0.014096550643444061,-0.01906426250934601,-0.01572863943874836,0.027518387883901596,-0.0057641128078103065,0.020390575751662254,-0.018247360363602638,-0.03322412818670273,0.013227220624685287,0.009158937260508537,0.011086001060903072,0.015931198373436928,-0.03282087668776512,0.03329744562506676,0.00776635343208909,0.015022936277091503,0.030472205951809883,-0.03060006909072399,-0.016369415447115898,-0.020697638392448425,0.01983341947197914,0.01717880740761757,0.00993668008595705,0.0015878271078690886,-0.013631951995193958,-0.010450723581016064,0.0077682421542704105,0.013067912310361862,0.0112703125923872,0.011310352012515068,-0.020388752222061157,-0.008971430361270905,-0.021567581221461296,-0.03128974139690399,0.0271634329110384,0.016563655808568,0.010948626324534416,0.0018645888194441795,-0.005240501835942268,0.03320220485329628,0.010225869715213776,-0.010583574883639812,-0.03294100984930992,-0.016467690467834473,-0.03228757902979851,-0.01501243095844984,0.017940668389201164,-0.028727836906909943,-0.029917249456048012,0.012829460203647614,-0.011729447171092033,0.00200818688608706,0.02839810959994793,0.020275279879570007,-0.006028514821082354,0.01059401873499155,-0.029828835278749466,-0.019534384831786156,-0.023727821186184883,0.02814370021224022,-0.0036669038236141205,-0.005731344688683748,-0.018128028139472008,0.00869334489107132,-0.014827268198132515,0.025618935003876686,-0.014303390868008137,-0.02386997826397419,0.0005958075053058565,0.028333118185400963,-0.018066348508000374,0.02752305008471012,-0.03125879913568497,-0.011946394108235836,-0.012405467219650745,-0.021185675635933876,-0.0048125023022294044,-0.010838491842150688,0.007129809353500605,-0.028488144278526306,-0.019651144742965698,-0.001135433791205287,-0.02013438194990158,-0.028977900743484497,-0.029494943097233772,0.0007043648511171341,0.03304325416684151,-0.01498322281986475,0.021769804880023003,-0.02182726375758648,0.0010151391616091132,0.01658252812922001,0.018939940258860588,0.016187960281968117,0.024396449327468872,-0.024270595982670784,-0.030373288318514824,0.006173870991915464,-0.00276968558318913,0.014173708856105804,-0.013959148898720741,-0.012823942117393017,0.004992362577468157,-0.03130532056093216,-0.011970235966145992,0.023547319695353508,-0.0007471326389349997,-0.01844155229628086,-0.01898379810154438,-0.010800414718687534,0.016268212348222733,0.029755307361483574,-0.008613355457782745,-0.008963339030742645,-0.007412685081362724,0.00480944849550724,0.03162126615643501,0.020815782248973846,0.026123791933059692,-0.016485655680298805,-0.005554558243602514,-0.011265313252806664,-0.031474120914936066,-0.0008575107203796506,0.0002452849003020674,-0.03000759333372116,-0.022756079211831093,0.03090839274227619,-0.029780015349388123,-0.02455701120197773,0.012638852000236511,-0.014119506813585758,-0.01481716800481081,0.02745421603322029,0.019229430705308914,-0.021355628967285156,0.018971221521496773,0.012673698365688324,0.003700423054397106,-0.008171086199581623,-0.0013064815429970622,-0.013578285463154316,-0.002467709593474865,-0.006903494708240032,-0.02074355259537697,0.00874504167586565,0.013101205229759216,0.014080807566642761,0.01536585297435522,-0.0062392838299274445,-0.02018733136355877,0.01342911645770073,-0.016060981899499893,0.01955541968345642,-0.019052723422646523,-0.017062833532691002,-0.016498945653438568,-0.0006394464871846139,0.010335060767829418,-0.0037713474594056606,0.032173626124858856,-0.005119022447615862,-0.023642517626285553,-0.0029920320957899094,-0.015531268902122974,-0.008039702661335468,-0.024351835250854492,-0.023420091718435287,-0.02366267703473568,-0.00702535780146718,0.006940157152712345,-0.01937088370323181,-0.03330914303660393,-0.008664803579449654,-0.007756676524877548,-0.01621370017528534,0.001635469147004187,0.027824586257338524,0.012815935537219048,-0.01581852324306965,0.01732671447098255,0.005625415593385696,-0.026660019531846046,0.019723013043403625,-0.02571878582239151,-0.02805914357304573,-0.019009921699762344,0.02162054367363453,-0.004116641823202372,0.006861759815365076,-0.020487746223807335,0.016746191307902336,0.009017175994813442,-0.02292468398809433,-0.01141873374581337,0.020858069881796837,-0.005790886003524065,0.0012703915126621723,-0.01421454269438982,-0.017898885533213615,0.016774533316493034,-0.008847946301102638,-0.0005342651274986565,-0.0031351065263152122,0.003556851763278246,0.02725180797278881,-0.0034761421848088503,-0.0015802233247086406,0.030305147171020508,-0.006866384297609329,0.0008949285838752985,-0.02175072208046913,0.02359192818403244,-0.018478823825716972,0.0161605067551136,0.03176993876695633,-0.011189333163201809,0.018284959718585014,0.02604854479432106,0.009395768865942955,0.013053957372903824,0.005035365000367165,-0.03310335427522659,-0.004044938832521439,0.031476572155952454,-0.025643590837717056,-0.026811789721250534,0.00048570253420621157,0.0331997275352478,-0.03040449321269989,0.01090130303055048,0.0035914357285946608,-0.0000993382345768623,0.007929145358502865,-0.0009510547388345003,0.02486780658364296,-0.022379418835043907,-0.020345760509371758,0.014456826262176037,-0.022549735382199287,-0.031948816031217575,-0.002191039966419339,-0.0053701153956353664,0.015892717987298965,-0.03141340613365173,-0.01869397610425949,0.00503937155008316,0.006305847316980362,-0.02301965467631817,0.02236822061240673,0.00718891154974699,0.02802850864827633,0.0057844314724206924,-0.010616754181683064,0.016917554661631584,0.026401054114103317,-0.01906113512814045,0.003569756867364049,-0.029012270271778107,-0.00031114506418816745,0.016026224941015244,-0.004093959461897612,-0.008183044381439686,0.018847862258553505,0.0022786548361182213,-0.013533949851989746,-0.019030436873435974,0.009958083741366863,-0.007890678010880947,0.015892239287495613,-0.02287953719496727,0.015191318467259407,0.007445439230650663,-0.025308558717370033,-0.02009960263967514,-0.020089808851480484,-0.02015611156821251,-0.014810202643275261,0.03163131698966026,0.01966940052807331,-0.024870753288269043,0.013016926124691963,-0.023587411269545555,-0.003069216152653098,0.025333935394883156,-0.002614666009321809,-0.023066960275173187,-0.020992647856473923,0.009033121168613434,-0.00595117500051856,-0.016869965940713882,0.01099411677569151,-0.03171278163790703,-0.005439227446913719,-0.012395006604492664,-0.016250932589173317,0.011013831943273544,0.014912647195160389,-0.0030526367481797934,-0.022727617993950844,-0.014461468905210495,0.014298795722424984,-0.01519088912755251,-0.023595279082655907,-0.01589919626712799,-0.009852264076471329,0.006835997104644775,0.013116665184497833,0.014764615334570408,-0.033140119165182114,-0.010855588130652905,-0.030749207362532616,-0.008254438638687134,0.01717223785817623,-0.013121860101819038,-0.019105849787592888,-0.02756805159151554,0.006502475123852491,-0.0022529764100909233,0.025022419169545174,-0.011241541244089603,-0.012128680013120174,-0.002766462741419673,0.029980754479765892,0.019553273916244507,-0.004738884512335062,0.016079077497124672,0.0020909097511321306,0.004997346084564924,0.004614969249814749,0.004412051755934954,-0.013395155780017376,0.03153040632605553,0.026558933779597282,0.00662232656031847,0.012100869789719582,-0.008363879285752773,-0.0046477424912154675,0.0007330870721489191,0.011323756538331509,-0.009915324859321117,0.030307689681649208,0.024744903668761253,-0.0015583093045279384,0.00015389241161756217,-0.026277663186192513,-0.02429383248090744,0.0007058702758513391,0.004049064125865698,0.010722761042416096,-0.013036001473665237,0.008039080537855625,-0.009074874222278595,0.02748972736299038,0.004339044447988272,0.00016047140525188297,-0.028407525271177292,0.02860358916223049,0.030072618275880814,0.011842661537230015,0.02818591333925724,0.01980023831129074,-0.031298890709877014,0.01372593641281128,-0.005254039540886879,-0.027486413717269897,-0.016784746199846268,-0.024907032027840614,0.020830955356359482,0.015435698442161083,-0.01792791485786438,0.00748318899422884,0.03301925212144852,-0.014444445259869099,-0.009892496280372143,-0.022704623639583588,0.004571214318275452,-0.025634584948420525,-0.0031621933449059725,-0.01840491034090519,0.023927263915538788,0.01197727769613266,0.017161652445793152,0.004989647772163153,-0.01077466830611229,-0.0021498703863471746,0.009936218149960041,-0.026708612218499184,-0.013404330238699913,-0.017591536045074463,0.014861001633107662,0.0028363072779029608,-0.011617260053753853,-0.025714199990034103,0.011966235935688019,0.015622361563146114,-0.022902002558112144,0.002248319797217846,0.03147325664758682,0.012949846684932709,0.021993204951286316,0.024893909692764282,-0.014056600630283356,-0.009107663296163082,0.02172522433102131,0.02584775537252426,-0.0030935583636164665,0.028706474229693413,0.03128567710518837,-0.005438411142677069,0.025872377678751945,0.007871981710195541,0.015426030382514,0.01943240873515606,-0.029985742643475533,0.003678634064272046,-0.032747749239206314,0.010406606830656528,-0.018415041267871857,0.009937153197824955,-0.013771479949355125,0.002458329079672694,-0.03009871020913124,-0.02272755652666092,-0.018740391358733177,-0.020622769370675087,0.017950907349586487,-0.028760910034179688,-0.0067866588942706585,-0.0022347529884427786,-0.033176470547914505,0.018497981131076813,-0.0009898366406559944,-0.006331786513328552,0.023228714242577553,0.01953595131635666,0.014188556931912899,-0.020035430788993835,-0.02384713850915432,-0.017116783186793327,-0.02469475008547306,0.018950365483760834,0.024155372753739357,-0.0019851333927363157,0.033092889934778214,0.02152574248611927,0.01863555796444416,0.003415319137275219,0.02918108180165291,0.01029043085873127,0.001369808684103191,-0.0009943614713847637,0.014240529388189316,0.018207916989922523,-0.015771904960274696,0.02525988779962063,-0.0040994975715875626,0.019007327035069466,0.005827412474900484,-0.010562117211520672,0.023047208786010742,-0.013753209263086319,-0.00936411414295435,0.012882976792752743,-0.017867479473352432,-0.014409122988581657,0.008442098274827003,-0.020150544121861458,-0.026339605450630188,-0.006836070213466883,0.010119023732841015,-0.0126204127445817,0.029087956994771957,0.01087227649986744,0.0027255129534751177,0.0009117558947764337,0.002133405301719904,0.02602742426097393,0.029749270528554916,-0.013048216700553894,-0.027087794616818428,-0.0010580926900729537,-0.006858976557850838,0.0015952236717566848,-0.015878060832619667,0.013475509360432625,-0.016863109543919563,0.01631883904337883,-0.003958495799452066,-0.016207396984100342,-0.008907275274395943,-0.007251147646456957,-0.03192758187651634,-0.025739308446645737,0.019956260919570923,0.031545933336019516,0.0018618559697642922,-0.018008103594183922,0.0317666232585907,0.003720262087881565,-0.00012003555457340553,-0.02054441161453724,0.010529382154345512,0.01664893701672554,-0.024103909730911255,0.01739894039928913,-0.0038509005680680275,-0.009319059550762177,0.008575404062867165,0.007679783273488283,-0.01326845120638609,-0.008033571764826775,0.015254423022270203,0.018905822187662125,0.006977374665439129,0.001713187200948596,0.009605898521840572,-0.029635030776262283,0.023047490045428276,-0.000924438878428191,-0.0034346275497227907,-0.019760090857744217,0.02738264948129654,-0.012003481388092041,-0.02244441770017147,0.016999123618006706,0.014021066017448902,0.01391649805009365,0.005386515986174345,0.002143602818250656,-0.019394364207983017,0.010032527148723602,-0.02873573638498783,-0.0034850696101784706,-0.015103220008313656,0.022333668544888496,0.00784158706665039,0.031820978969335556,-0.006107635796070099,0.00624694162979722,-0.014598308131098747,0.022899381816387177,0.017857465893030167,-0.007065022364258766,-0.0055305021815001965,-0.012433486059308052,-0.02349201776087284,-0.016359899193048477,0.017939794808626175,0.01185629516839981,0.004854972939938307,0.003759381826967001,-0.0063832164742052555,0.018215609714388847,-0.020307019352912903,0.008633306249976158,-0.004759359173476696,0.0017068885499611497,0.03248205408453941,-0.004823310300707817,0.025775158777832985,0.026737915351986885,-0.02017834782600403,0.01715591736137867,0.02064652554690838,-0.015889905393123627,0.01881788857281208,0.018707459792494774,0.025423796847462654,0.02504747547209263,0.027136793360114098,0.008510944433510303,-0.005884693935513496,0.013047723099589348,0.013021822087466717,-0.005702587775886059,-0.005451053846627474,0.01562654785811901,0.009842701256275177,-0.032218240201473236,0.006680887658149004,-0.012758455239236355,-0.0152610894292593,-0.005339825991541147,0.012341034598648548,-0.0013807317009195685,0.026315491646528244,-0.002962430939078331,-0.012943419627845287,0.008734882809221745,0.008780998177826405,-0.0022267780732363462,0.005394786596298218,-0.010937399230897427,0.003522271290421486,0.007011971902102232,0.013986743986606598,0.008230612613260746,0.004798521287739277,-0.021555477753281593,-0.026459950953722,-0.001924718962982297,-0.024376673623919487,-0.03228980302810669,-0.004253679420799017,0.010101412422955036,-0.009318212047219276,-0.009818381629884243,0.006175403483211994,-0.02827393263578415,0.020005865022540092,-0.020415378734469414,0.027990253642201424,-0.032747991383075714,-0.004187651444226503,0.0011682026088237762,-0.03010443039238453,-0.009882554411888123,0.00599322933703661,0.02535497397184372,0.029039690271019936,0.012859636917710304,-0.023469166830182076,0.023345138877630234,0.019508935511112213,-0.015541987493634224,0.03263746574521065,0.0029294188134372234,-0.00514165498316288,0.017825055867433548,-0.01977132447063923,0.013091732747852802,0.021498126909136772,-0.010962261818349361,0.018305359408259392,-0.00662053469568491,0.029486117884516716,0.0171065516769886,-0.014051060192286968,-0.022479472681879997,-0.030956551432609558,0.018612122163176537,-0.024180540814995766,0.000013521447726816405,-0.029712218791246414,0.027756456285715103,0.00603934470564127,-0.020556773990392685,0.026739908382296562,0.013576876372098923,0.02042950503528118,-0.0008774914313107729,0.02712155506014824,0.023703085258603096,-0.007032407447695732,0.01043962687253952,-0.02398982085287571,-0.0288387481123209,0.005463954992592335,0.015139891766011715,0.021504156291484833,-0.00918814167380333,-0.0015761696267873049,-0.011560245417058468,-0.02251226082444191,0.021536068990826607,-0.025356527417898178,-0.01812276802957058,-0.002955068601295352,-0.009132575243711472,0.0027148535009473562,-0.011744145303964615,0.001890781568363309,-0.015435079112648964,0.016046226024627686,-0.029939938336610794,-0.033158574253320694,-0.03010009042918682,-0.017814848572015762,-0.004885694477707148,0.0157757755368948,0.006588977761566639,-0.032515302300453186,0.0011734971776604652,0.012567712925374508,0.021350493654608727,-0.01992258056998253,-0.010562382638454437,-0.016278067603707314,0.0004431692068465054,-0.03159697353839874,0.0001979512453544885,-0.008247893303632736,0.009160441346466541,-0.011751988902688026,-0.02486407943069935,-0.004532797262072563,-0.020060669630765915,-0.008865388110280037,0.006545169744640589,0.03222348913550377,-0.0011554551310837269,0.028036264702677727,0.027294019237160683,0.011567940004169941,0.028668027371168137,-0.028482815250754356,0.0263225007802248,-0.01606544852256775,0.029794616624712944,-0.006443629041314125,-0.03079804964363575,-0.02602492645382881,0.016661832109093666,0.010426847264170647,-0.01197000127285719,-0.03216137737035751,-0.021208258345723152,0.016035204753279686,-0.007309834472835064,-0.008538687601685524,0.019876448437571526,0.02208336442708969,-0.03165467455983162,0.02058221586048603,0.010486987419426441,0.015625983476638794,0.014132234267890453,0.03161393105983734,-0.012099717743694782,-0.02148735336959362,-0.032004956156015396,0.0169521477073431,0.02757665514945984,-0.009395858272910118,0.027734655886888504,0.010703238658607006,0.0008140464778989553,-0.03289387747645378,-0.028906594961881638,0.0248277485370636,-0.012102790176868439,-0.004622412845492363,-0.0010875760344788432,0.02277546562254429,0.014267317950725555,0.012526311911642551,-0.029046455398201942,-0.03048843890428543,0.010799103416502476,-0.03244298696517944,-0.017308063805103302,-0.00900429580360651,-0.008876432664692402,0.00306601170450449,0.018190424889326096,0.02212713286280632,0.023945512250065804,0.019441070035099983,-0.00884169526398182,0.012114821001887321,-0.018960731104016304,0.02597597800195217,-0.0008792586741037667,-0.011547463946044445,0.008541485294699669,0.028106404468417168,0.009251808747649193,-0.0021369834430515766,0.029566051438450813,0.022115256637334824,0.026405196636915207,-0.024715455248951912,0.0003687323769554496,0.004199593793600798,-0.01052520889788866,0.020010359585285187,-0.03282846882939339,-0.01120574027299881,-0.013503598049283028,0.03170522674918175,-0.01233832910656929,0.0018144701607525349,0.012157642282545567,-0.01696689799427986,-0.015348777174949646,0.0074108196422457695,-0.017910536378622055,0.01954059861600399,0.00633047753944993,0.015245897695422173,-0.02675490267574787,0.01293029822409153,-0.02117338590323925,-0.021707672625780106,-0.007070501334965229,0.0014753564028069377,-0.02060064673423767,-0.027936723083257675,0.023897552862763405,-0.01413686666637659,0.006482013501226902,-0.010207807645201683,-0.008068080060184002,0.010015945881605148,-0.011328685097396374,0.030822912231087685,0.004775223787873983,-0.029368635267019272,0.031168416142463684,0.0017809271812438965,-0.03079833649098873,-0.0020633621606975794,-0.009728708304464817,0.008601391687989235,0.015369432978332043,0.01725839637219906,-0.028038164600729942,0.02687210403382778,-0.0289777684956789,-0.032752808183431625,-0.0008360192878171802,0.022811807692050934,-0.028267020359635353,0.028427213430404663,0.029629437252879143,-0.021558688953518867,-0.023468470200896263,0.0022072354331612587,-0.009985208511352539,0.00562771363183856,-0.004691913723945618,0.01102774403989315,0.006055079400539398,-0.017248202115297318,0.01344586256891489,-0.017305631190538406,-0.0044199079275131226,0.005782053805887699,-0.0186321921646595,0.03249569237232208,0.01285124197602272,0.020458463579416275,-0.025093210861086845,0.010726431384682655,0.0007521248189732432,-0.026208342984318733,0.0010474611772224307,-0.013982193544507027,-0.03134511411190033,0.016637062653899193,0.02485816739499569,0.031334277242422104,0.012219607830047607,-0.007835728116333485,0.02490798756480217,0.02589673548936844,0.008196724578738213,-0.026137711480259895,-0.023409558460116386,0.02443193458020687,0.029649361968040466,-0.004497168585658073,0.0006289014127105474,0.0021577151492238045,0.0033989630173891783,-0.02921314910054207,-0.0032229109201580286,0.013099326752126217,0.002773771993815899,0.012950027361512184,0.00022621738025918603,-0.020557260140776634,0.0075068725273013115,0.02751338668167591,0.02341368794441223,-0.016729800030589104,-0.031021492555737495,-0.02097751945257187,-0.028822269290685654,-0.012927854433655739,-0.03082539699971676,0.008571846410632133,-0.026501698419451714,0.008999832905828953,-0.024039359763264656,-0.028814271092414856,0.004944917745888233,-0.021323882043361664,0.016256658360362053,-0.005940794944763184,-0.013938715681433678,0.008541024290025234,0.003234373638406396,-0.029523268342018127,0.0018993220292031765,-0.004013252444565296,-0.022222401574254036,0.024458786472678185,0.01663917861878872,0.012569609098136425,0.021187804639339447,-0.0008120447746478021,0.009741497226059437,-0.023813478648662567,-0.01107044331729412,0.028062745928764343,-0.03302507475018501,-0.016848668456077576,0.020792793482542038,0.022224944084882736,0.02415822260081768,-0.018684234470129013,-0.017747633159160614,0.005960334092378616,-0.016555611044168472,-0.01910638064146042,0.015188446268439293,0.006316726095974445,-0.0029019250068813562,0.013685404323041439,-0.010396340861916542,0.008368456736207008,-0.019841743633151054,-0.02475881017744541,-0.028751278296113014,-0.011538716964423656,-0.02612786740064621,0.02429584413766861,0.0315307080745697,0.015041641891002655,-0.0007670701015740633,0.022332128137350082,0.01894325762987137,0.015953529626131058,-0.0038750965613871813,-0.019084621220827103,0.020422160625457764,0.023570848628878593,0.008529025129973888,-0.0031981703359633684,0.021099567413330078,-0.008700140751898289,-0.007276162039488554,0.01136122178286314,-0.03167020529508591,-0.004012530203908682,0.01803792081773281,-0.0037269373424351215,-0.017427297309041023,0.016489790752530098,0.017488839104771614,-0.01170184463262558,0.012218151241540909,-0.02740767039358616,-0.014532002620398998,0.011473989114165306,0.015838855877518654,0.006926333997398615,-0.019478272646665573,0.031069735065102577,-0.018623383715748787,0.00514575932174921,0.03155473992228508,-0.026530366390943527,0.01565164141356945,-0.01938333921134472,0.03167290985584259,0.018839295953512192,-0.009756466373801231,-0.018404828384518623,-0.02809302508831024,-0.03308119624853134,-0.015530870296061039,0.022683005779981613,0.009430482052266598,0.0008986786124296486,0.026170410215854645,-0.026523474603891373,0.0046829418279230595,-0.02897726185619831,0.014401135966181755,0.021778889000415802,-0.01941782422363758,-0.015124387107789516,0.02554723061621189,-0.014844858087599277,0.01125536672770977,-0.019024865701794624,-0.027060305699706078,0.026175353676080704,-0.014671916142106056,0.004750174004584551,0.027960969135165215,0.028875021263957024,0.020760836079716682,0.017820365726947784,0.013950894586741924,0.027819383889436722,-0.007576090283691883,-0.01815873198211193,-0.02549782395362854,-0.02325952798128128,0.012947031296789646,-0.027351828292012215,0.020268013700842857,0.013784642331302166,-0.01875355839729309,0.03007115051150322,-0.006403353530913591,-0.010943994857370853,0.0155694130808115,-0.022136308252811432,-0.005036020185798407,-0.007348750717937946,0.011970199644565582,0.011049225926399231,0.02616049349308014,-0.008404660038650036,0.02926826663315296,0.03241729363799095,-0.021351829171180725,0.014011481776833534,-0.02459091506898403,-0.027164287865161896,0.005914947483688593,0.014671637676656246,-0.028877725824713707,0.0046982308849692345,-0.02493482641875744,-0.02550705522298813,-0.0221685953438282,0.031796470284461975,0.030288705602288246,0.00359635753557086,0.025476785376667976,0.013119975104928017,-0.0076513830572366714,-0.01300634816288948,-0.02056172676384449,0.02706862799823284,0.01975123956799507,0.019036324694752693,-0.018236063420772552,0.017073331400752068,0.031783804297447205,-0.029650289565324783,-0.0003337260859552771,-0.010977203026413918,-0.0006756120128557086,-0.018421661108732224,0.00002897725789807737,-0.024091580882668495,-0.03236936405301094,-0.030715256929397583,0.030387504026293755,-0.019548337906599045,0.028587406501173973,0.019630583003163338,0.016512922942638397,-0.03247856721282005,-0.008757011964917183,0.013625549152493477,0.011230566538870335,-0.00042944448068737984,-0.00034048024099320173,-0.011243626475334167,-0.015894092619419098,0.029877638444304466,0.015170701779425144,-0.02916259504854679,-0.026251373812556267,0.013313505798578262,-0.02285534143447876,0.00028671504696831107,-0.0049796756356954575,0.02455170266330242,0.006335697136819363,-0.0020672143436968327,0.030841121450066566,0.01919691078364849,0.007020748686045408,-0.02912231907248497,0.024870596826076508,-0.02386888675391674,0.007467535324394703,-0.00828959234058857,-0.014101785607635975,-0.0050254641100764275,-0.0016598354559391737,-0.0009357896633446217,0.019649814814329147,0.019981570541858673,0.029791759327054024,0.01352730207145214,0.008013366721570492,-0.023518569767475128,-0.030603865161538124,0.0038975526113063097,-0.0008464179700240493,0.020908158272504807,0.02628364786505699,0.02284684032201767,0.030353305861353874,-0.018028592690825462,0.027915241196751595,0.03177565708756447,0.0052359942346811295,-0.03143260255455971,0.006532637402415276,-0.03050539828836918,-0.021644148975610733,0.019970066845417023,-0.030128376558423042,-0.020548269152641296,0.009147202596068382,0.003533070208504796,-0.00025368278147652745,0.03137955069541931,-0.015638455748558044,-0.021506940945982933,-0.02425670437514782,0.013295401819050312,-0.00404970720410347,-0.02559019811451435,-0.008863034658133984,0.0020772439893335104,0.018279489129781723,-0.009231987409293652,0.027340637519955635,-0.02220301888883114,-0.014478353783488274,-0.022151293233036995,0.03205070272088051,-0.0295079555362463,-0.016086993739008904,-0.020085187628865242,0.02544298581779003,-0.018313312903046608,0.014207994565367699,0.029092902317643166,0.007852910086512566,0.0013483362272381783,-0.010464761406183243,0.008898190222680569,0.014372112229466438,-0.00989957433193922,0.018933558836579323,-0.01294301450252533,0.030421428382396698,0.03186861053109169,-0.000047481513320235536,0.021932199597358704,-0.01805356703698635,0.0020079566165804863,0.004933525808155537,-0.01015546079725027,0.019484352320432663,0.005922357551753521,0.009734113700687885,0.02463505230844021,-0.01893187128007412,0.007409449201077223,0.006169782020151615,-0.016603976488113403,-0.006068851798772812,0.0024024853482842445,-0.010930404998362064,0.031217576935887337,-0.0002936134987976402,0.018012581393122673,0.02379756234586239,-0.012669830583035946,-0.026456153020262718,-0.024565963074564934,-0.017720477655529976,-0.03036177158355713,0.006138790864497423,-0.030016914010047913,-0.02581893466413021,-0.011197024025022984,0.026188649237155914,-0.029027560725808144,0.029278166592121124,-0.028422292321920395,-0.010315444320440292,-0.009580095298588276,-0.026455694809556007,-0.0014542561257258058,0.015316477045416832,0.02272796630859375,-0.0030040573328733444,-0.004424963146448135,0.012391644529998302,0.014326870441436768,-0.015407328493893147,0.010640425607562065,0.018176985904574394,-0.010249914601445198,-0.02589939907193184,0.029053645208477974,0.02183646522462368,-0.0034489368554204702,0.019306249916553497,-0.017462534829974174,-0.005709698889404535,0.01835639216005802,0.0036901484709233046,-0.014623260125517845,-0.0013317688135430217,0.022336244583129883,-0.012861864641308784,0.024710895493626595,-0.030780095607042313,-0.02067362517118454,-0.01940321922302246,0.024501513689756393,-0.005299198441207409,-0.02374478615820408,-0.011610030196607113,-0.02783817984163761,-0.0330452099442482,-0.03248978406190872,0.016798144206404686,0.005261829122900963,-0.014353631995618343,-0.006224507465958595,0.021830789744853973,0.007177719380706549,-0.02960664965212345,0.024972934275865555,-0.0008334821322932839,0.022423485293984413,-0.005037500057369471,0.019077200442552567,0.0013873269781470299,0.0011749091790989041,-0.0040501318871974945,-0.021640945225954056,-0.007836085744202137,0.015871254727244377,0.03245234489440918,-0.027665451169013977,-0.030974052846431732,0.0017380682984367013,0.002322952263057232,0.03013550490140915,0.03125369921326637,-0.02079138532280922,0.009070638567209244,-0.009965675882995129,-0.01629798673093319,-0.020771311596035957,0.019430380314588547,-0.02269802987575531,0.017075015231966972,0.008363709785044193,0.029553966596722603,0.030551930889487267,0.0026823882944881916,-0.012010771781206131,-0.0051331063732504845,-0.0070112599059939384,0.02430502511560917,0.014552641659975052,0.00955592654645443,0.017090771347284317,0.025545911863446236,-0.030245143920183182,0.020367680117487907,-0.0025776568800210953,0.0038468458224087954,-0.013561505824327469,0.030003651976585388,-0.02105078287422657,0.011511321179568768,-0.016459744423627853,0.02398952841758728,0.021041959524154663,0.004648626782000065,0.004150317516177893,-0.004662510473281145,-0.00752989063039422,-0.021629825234413147,-0.005380112677812576,-0.030052684247493744,-0.007185451220721006,0.005390755366533995,0.02664508856832981,0.021534623578190804,0.02934916689991951,0.015286339446902275,-0.031199397519230843,-0.0320759154856205,0.005956805776804686,0.021768897771835327,0.009509960189461708,-0.019046686589717865,-0.011205357499420643,-0.005763506516814232,0.024036796763539314,-0.022513845935463905,-0.019745590165257454,0.025174323469400406,-0.010800810530781746,-0.010803302749991417,0.029628867283463478,-0.021763218566775322,0.005061247386038303,0.008533812128007412,0.012296458706259727,0.007511135656386614,0.02603990025818348,-0.012495897710323334,-0.008741434663534164,0.028384804725646973,0.014095695689320564,0.03144649416208267,0.03203584998846054,0.0004452189605217427,-0.0022236660588532686,0.004367688670754433,-0.023027271032333374,-0.014710522256791592,0.027549302205443382,0.03274859860539436,0.025166066363453865,-0.0013408787781372666,-0.009581639431416988,0.024323852732777596,-0.007184283807873726,-0.03090987540781498,0.023453766480088234,0.0049716331996023655,-0.030162356793880463,0.0032707618083804846,0.005558499600738287,-0.01895097829401493,0.0029276940040290356,-0.01794288493692875,0.02699417620897293,0.03268668055534363,-0.014417709782719612,-0.017797060310840607,-0.005825868342071772,-0.020477745682001114,0.012262018397450447,-0.002098036464303732,-0.011307688429951668,-0.01927853375673294,0.0045933797955513,0.02556944079697132,-0.010732618160545826,0.016138020902872086,0.02645946480333805,-0.0022562092635780573,-0.021725203841924667,-0.012676183134317398,-0.011908394284546375,0.02544589899480343,-0.014476100914180279,-0.0030674864538013935,0.01885925978422165,0.0013971584849059582,-0.005462335422635078,-0.03165946155786514,0.007345755584537983,0.0028741604182869196,0.03248332440853119,-0.01032039150595665,0.02906772308051586,-0.032585758715867996,-0.004947117995470762,0.016817385330796242,0.032117266207933426,-0.028247157111763954,-0.019929369911551476,0.019151099026203156,0.013190669007599354,0.010165984742343426,-0.014351556077599525,0.016234686598181725,0.02467331290245056,-0.024055980145931244,-0.008558514527976513,0.007964689284563065,-0.005547629669308662,-0.018296727910637856,-0.022065961733460426,0.0070204222574830055,-0.0330536849796772,0.019251691177487373,-0.011003274470567703,0.010619419626891613,-0.02887115627527237,0.025335997343063354,0.020711908116936684,-0.020538726821541786,0.029184183105826378,0.0027721349615603685,0.016524408012628555,0.027146115899086,-0.02332732267677784,0.004871530458331108,0.0068500773049890995,0.011252042837440968,0.0322585254907608,-0.0025106973480433226,0.014461797662079334,0.010609399527311325,0.00560626620426774,0.006946433801203966,-0.020427869632840157,0.011574157513678074,-0.001497428398579359,-0.02411910705268383,-0.009969623759388924,-0.012867107056081295,-0.007668801583349705,-0.0005996678955852985,-0.001252473215572536,0.02464047074317932,0.008485587313771248,0.0008351007127203047,0.01200234517455101,0.023884367197752,0.015422016382217407,-0.03276804834604263,0.02989340014755726,-0.0060578458942472935,-0.0023978794924914837,0.012734506279230118,-0.015430708415806293,0.0019154346082359552,0.01561221107840538,-0.012110095471143723,0.004144806880503893,-0.01153858844190836,0.000019338611309649423,-0.028401384130120277,0.01985049620270729,-0.021862054243683815,-0.011708301492035389,0.0315074659883976,-0.0037864537443965673,0.024722475558519363,-0.0013289226917549968,0.020246390253305435,-0.010148517787456512,-0.004345139022916555,0.018496043980121613,0.027648935094475746,0.026985086500644684,-0.025483854115009308,-0.02299366146326065,0.013880797661840916,0.015174724161624908,-0.03286999836564064,0.01787623204290867,0.0007882219506427646,0.006085934583097696,-0.033212579786777496,0.03328937292098999,0.030046384781599045,0.012395219877362251,-0.010147150605916977,0.021476738154888153,0.03256487473845482,-0.020992588251829147,-0.03268253803253174,0.020908959209918976,0.019244711846113205,-0.013722393661737442,0.031075067818164825,0.002374825533479452,-0.020012877881526947,-0.00800418946892023,0.021389996632933617,-0.01591489277780056,-0.02977568656206131,-0.012982137501239777,-0.0016047062817960978,-0.024848531931638718,0.01622897759079933,0.0029884662944823503,0.013866857625544071,-0.02011098898947239,-0.005807074252516031,0.023469626903533936,0.0018969790544360876,-0.0006040324224159122,0.01808571256697178,-0.009430011734366417,-0.008731224574148655,0.0017455618362873793,0.026615453884005547,0.011861171573400497,-0.009557437151670456,0.0183966513723135,-0.028251739218831062,0.032729022204875946,-0.011242685839533806,-0.007004032377153635,-0.010229798965156078,0.02763795666396618,-0.017241965979337692,0.0210591871291399,0.011850390583276749,0.013772064819931984,0.000035560915421228856,0.013142606243491173,-0.004775322508066893,0.015240990556776524,-0.02040976844727993,0.004055396653711796,0.012969549745321274,-0.01649380847811699,0.00765114976093173,0.02567233517765999,0.013428852893412113,-0.012018545530736446,0.028862882405519485,0.021496204659342766,0.0018068531062453985,0.030551064759492874,0.017032677307724953,-0.016565224155783653,-0.014272135682404041,-0.028939055278897285,-0.015204993076622486,-0.032035283744335175,-0.01707647182047367,0.021578462794423103,0.019730959087610245,-0.009120875038206577,0.030222507193684578,-0.0324198342859745,-0.010805967263877392,0.03176688030362129,0.01323166023939848,0.028454944491386414,0.015224432572722435,-0.022214576601982117,0.006508279126137495,-0.018913734704256058,-0.0033449423499405384,-0.0219158623367548,0.004663123749196529,0.010368157178163528,0.006519092712551355,-0.006159437820315361,0.0109975291416049,0.02463804930448532,-0.032132361084222794,-0.026825565844774246,0.012448348104953766,0.006048449780791998,0.02841574139893055,-0.011721514165401459,0.01766907051205635,0.00867240596562624,0.008721779100596905,-0.02806871011853218,0.014492431655526161,-0.0021773113403469324,0.005392021499574184,0.017032822594046593,0.01768236607313156,-0.00330277718603611,-0.010037621483206749,-0.02255110815167427,0.01544271968305111,-0.006405417341738939,-0.02579527162015438,-0.00992877408862114,0.014822562225162983,-0.02574118785560131,0.012616507709026337,-0.022013286128640175,-0.007280214689671993,-0.024076657369732857,-0.008947188965976238,-0.0062019978649914265,-0.02197558805346489,0.009723193943500519,0.004510030150413513,0.0051961313001811504,0.017750587314367294,-0.004755344241857529,0.01362291257828474,-0.022447196766734123,-0.0224651750177145,0.009046400897204876,0.017068730667233467,0.009098519571125507,-0.0015835753874853253,-0.015017695724964142,0.014682662673294544,-0.0051759835332632065,-0.03073973022401333,-0.015875743702054024,0.02793434076011181,0.013253888115286827,-0.031012143939733505,-0.022843539714813232,-0.01237750519067049,-0.0228391382843256,-0.01725059188902378,-0.01514653954654932,0.006879289168864489,-0.03165459632873535,0.008616305887699127,0.009783904068171978,-0.030702384188771248,0.023903660476207733,-0.017763487994670868,-0.027190638706088066,0.008670843206346035,-0.004595519509166479,-0.006634619552642107,0.002973210997879505,0.026997892186045647,-0.015285284258425236,-0.0038418942131102085,-0.02567000314593315,0.01567930169403553,-0.008732487447559834,0.01277874130755663,-0.012576956301927567,-0.004929307382553816,0.03189277648925781,0.016177687793970108,-0.015033555217087269,-0.002923102816566825,0.033055294305086136,0.004606843926012516,0.01206507533788681,0.01455328892916441,0.011270321905612946,-0.01659954898059368,-0.012292967177927494,0.009716453030705452,-0.0282013900578022,-0.028330162167549133,0.029070766642689705,-0.0060190074145793915,0.018698956817388535,-0.005846335086971521,-0.01019134558737278,-0.00884678028523922,0.0174716766923666,0.002395972143858671,-0.028532398864626884,0.0069875638000667095,0.0039163194596767426,0.022420085966587067,-0.01888001337647438,0.02674299106001854,-0.0002824649272952229,-0.017479199916124344,-0.020672325044870377,0.015862613916397095,0.003969200421124697,-0.018494272604584694,-0.021863097324967384,0.025719309225678444,-0.005022536497563124,-0.030902722850441933,-0.030797550454735756,0.018301382660865784,-0.010875895619392395,-0.024045033380389214,0.015200176276266575,-0.003929130733013153,-0.007360270246863365,0.026055630296468735,-0.010845305398106575,-0.005526845809072256,0.03112834133207798,0.0006476729759015143,-0.020256398245692253,-0.01805141381919384,-0.03104754351079464,-0.02613639645278454,0.02267615683376789,0.01832830160856247,0.0022164471447467804,0.012858946807682514,-0.004520008340477943,-0.00038729803054593503,0.030933920294046402,-0.024252329021692276,-0.02691834047436714,0.0032584406435489655,-0.02863197773694992,-0.026004843413829803,-0.025226417928934097,-0.009455034509301186,-0.02083861455321312,0.0031018098816275597,0.007255611941218376,0.021515654399991035,-0.014504043385386467,0.030641352757811546,0.012108588591217995,-0.012949609197676182,-0.011359105817973614,-0.026067256927490234,0.01671687327325344,-0.028910566121339798,0.01765817031264305,-0.010882421396672726,-0.002842880319803953,0.013467332348227501,-0.011103919707238674,0.005751406773924828,-0.009040160104632378,0.0021814764477312565,0.010514247231185436,-0.0058882771991193295,0.01897820644080639,0.014049124903976917,-0.021605903282761574,0.003238678677007556,0.02768021635711193,-0.014711474068462849,0.000838940788526088,-0.023548373952507973,-0.012053664773702621,-0.014956600032746792,0.0020184481982141733,-0.010244539938867092,0.011225362308323383,0.007116726133972406,0.00006414007657440379,0.007273065857589245,-0.013601738028228283,0.02205396443605423,0.003990563098341227,-0.010548456571996212,0.01983247697353363,-0.004139479715377092,0.006073420401662588,0.004175722133368254,-0.004026242531836033,-0.00389833003282547,0.002395562594756484,0.02574130706489086,0.026078037917613983,-0.02619236148893833,-0.006941996980458498,-0.010917575098574162,0.013840369880199432,-0.017717665061354637,0.006704370491206646,0.015481354668736458,-0.027396637946367264,0.01141593512147665,-0.01137105654925108,0.004021282307803631,-0.0023917858488857746,-0.01579800620675087,0.03140515461564064,-0.02336057275533676,-0.009601175785064697,0.009264308959245682,-0.007430437486618757,0.005617112386971712,0.01020210050046444,-0.004840307403355837,0.008577159605920315,0.008766797371208668,0.01191102433949709,-0.03239162638783455,0.01511840894818306,-0.019694672897458076,-0.031887687742710114,0.015093212015926838,0.018869537860155106,-0.025038722902536392,0.03094702586531639,0.02574843540787697,-0.021248815581202507,-0.008700087666511536,0.029852863401174545,-0.026518689468503,-0.025176310911774635,0.00006343937275232747,0.02524775266647339,-0.01403156016021967,-0.030872387811541557,-0.02070033922791481,0.014770074747502804,-0.007786393631249666,0.0036064174491912127,-0.028841344639658928,-0.004418469034135342,-0.030474936589598656,-0.021788833662867546,-0.009652300737798214,0.01799289882183075,0.03089170716702938,-0.0011090018087998033,0.0005088333273306489,0.0224186759442091,0.02612534910440445,-0.02751418575644493,-0.026217421516776085,0.027963288128376007,0.01397992204874754,0.028748048469424248,0.0032273121178150177,-0.0014412951422855258,0.027976609766483307,0.0308084674179554,-0.027024690061807632,-0.0034259429667145014,-0.000016434334611403756,0.009762422181665897,-0.016233650967478752,-0.007628770545125008,0.024952149018645287,-0.018695088103413582,0.01667899452149868,0.0007493931334465742,0.010379965417087078,0.029444145038723946,0.028330976143479347,0.024602070450782776,0.013929815962910652,0.00006414190283976495,0.02528449520468712,-0.006139365490525961,-0.030395718291401863,0.018993200734257698,-0.001762916799634695,-0.0245834868401289,-0.0024604464415460825,-0.026575801894068718,-0.02983601577579975,-0.004389393609017134,-0.023827463388442993,-0.007799520622938871,0.005794944707304239,-0.011108036153018475,0.02264290675520897,-0.02002742514014244,0.021560106426477432,-0.006829710677266121,0.006395675241947174,0.023133231326937675,-0.007983540184795856,0.02628399059176445,-0.010719459503889084,0.008314364589750767,0.021548518911004066,-0.004373509436845779,-0.028262855485081673,0.0017585434252396226,0.03300487622618675,-0.013538621366024017,-0.02995689958333969,-0.02737482823431492,-0.01741703972220421,0.029869062826037407,0.010163898579776287,0.03320670500397682,0.027587324380874634,0.026461871340870857,0.03309284895658493,-0.01998547650873661,0.007539115846157074,0.013756808824837208,0.020789049565792084,-0.023891549557447433,-0.01546686701476574,0.0037629837170243263,0.02980138547718525,0.021023040637373924,0.010689668357372284,0.029751980677247047,-0.006112486589699984,-0.004927230067551136,-0.028191763907670975,0.01204114593565464,0.0039999340660870075,0.030845513567328453,0.03051544539630413,-0.019231246784329414,0.02349294163286686,0.02449968084692955,0.027923759073019028,-0.02234097197651863,-0.000834697566460818,-0.01908930577337742,-0.025236906483769417,-0.01825735531747341,0.005502309184521437,0.032238222658634186,0.003589239902794361,0.01198450569063425,-0.019747717306017876,-0.029161162674427032,-0.01973622664809227,0.02711208537220955,-0.028657056391239166,0.0241819079965353,0.0009695951594039798,0.026994623243808746,-0.0062675317749381065,-0.031724464148283005,-0.005252933129668236,-0.027787895873188972,-0.03060600347816944,0.01402201410382986,-0.010316960513591766,-0.0019425584468990564,0.020982392132282257,0.03132813051342964,0.031467221677303314,-0.027304839342832565,-0.013205491006374359,-0.019113123416900635,-0.02253834158182144,-0.024539906531572342,-0.02163996547460556,0.019998954609036446,-0.0012997102458029985,-0.013348913751542568,0.01627250202000141,-0.00732677336782217,-0.031035305932164192,-0.00738548394292593,-0.01531260646879673,-0.02645181678235531,-0.006091410294175148,-0.028287073597311974,0.003649735124781728,0.01757633127272129,0.0021531085949391127,0.03293195366859436,-0.005914409179240465,0.006834714207798243,-0.013047728687524796,-0.011936509050428867,-0.03084065020084381,0.03134046122431755,0.002556377090513706,-0.028683874756097794,0.021187737584114075,0.017167305573821068,0.006405890453606844,-0.012541722506284714,-0.011957895942032337,-0.017949698492884636,-0.0014158799313008785,0.012227081693708897,-0.013810240663588047,0.006715857889503241,-0.019256552681326866,-0.002161424607038498,0.03089512698352337,0.0219467431306839,0.027559079229831696,-0.004832503851503134,0.03194016218185425,-0.0031290301121771336,0.000001987112000279012,0.024840500205755234,0.016100341454148293,-0.02480745129287243,-0.027243848890066147,-0.011397294700145721,-0.005390309263020754,0.005406710784882307,-0.01729258894920349,-0.01985957846045494,0.025376947596669197,0.022280342876911163,0.03208199143409729,0.00481478963047266,-0.027745909988880157,0.00302675599232316,-0.03091106005012989,-0.010097051970660686,-0.033145058900117874,0.03219737857580185,0.009133786894381046,-0.024514012038707733,0.005475458223372698,0.02929299883544445,-0.03308449313044548,0.010311939753592014,0.030706027522683144,0.02730136550962925,0.024271637201309204,0.011173594743013382,-0.004416599869728088,-0.009442959912121296,-0.014631116762757301,0.000043548032408580184,0.031155293807387352,-0.022491341456770897,-0.02671520970761776,0.002013363176956773,-0.02559972181916237,-0.02128331921994686,-0.018443956971168518,0.02773173712193966,-0.003030771855264902,-0.028392652049660683,-0.0010897140018641949,-0.018008507788181305,0.028891975060105324,-0.0016543176025152206,-0.019380787387490273,0.03176695108413696,-0.027950948104262352,0.009460300207138062,0.017126841470599174,-0.03017628751695156,0.01648310385644436,0.028330273926258087,0.012647079303860664,-0.018273573368787766,-0.025276973843574524,0.022254958748817444,0.004530726931989193,-0.0008428714936599135,-0.005871561821550131,0.009036379866302013,0.006137556862086058,-0.01632671058177948,0.030959488824009895,0.009331862442195415,0.01939215324819088,-0.011198455467820168,0.0003548393724486232,0.02771863341331482,-0.025472089648246765,-0.01071392185986042,-0.011319628916680813,0.008954410441219807,0.0016252790810540318,0.0015555988065898418,-0.006087005604058504,0.007910246960818768,-0.0012747482396662235,0.00953198503702879,-0.019839899614453316,0.021820563822984695,-0.002529862802475691,0.0002364805986871943,-0.026173345744609833,0.0026366158854216337,0.01880556158721447,-0.015905236825346947,0.020015321671962738,-0.014503147453069687,0.011833501979708672,-0.012778586708009243,-0.02009035088121891,0.01681261695921421,0.02306063286960125,0.0010977714555338025,-0.012917978689074516,-0.0010259492555633187,-0.0048268684186041355,-0.02266857400536537,-0.01765754632651806,0.006988998502492905,-0.013961498625576496,0.02532951906323433,0.023758646100759506,-0.01648082584142685,0.012810185551643372,-0.00615680543705821,-0.025217805057764053,-0.017666123807430267,0.0005221178289502859,0.0235972348600626,-0.013115063309669495,0.02211780846118927,-0.012444878928363323,-0.01255475077778101,0.015938883647322655,0.007876177318394184,0.00655350461602211,0.001452974509447813,0.002334599383175373,0.004607936833053827,-0.0106979263946414,0.028333546593785286,-0.013960862532258034,-0.022542670369148254,-0.020733147859573364,-0.024161750450730324,0.0037478019949048758,-0.004784347489476204,0.010671895928680897,0.015793604776263237,-0.020224586129188538,-0.009359845891594887,-0.02266428992152214,-0.0030441125854849815,0.009705694392323494,0.018466854467988014,0.009240728802978992,-0.02067888341844082,0.022827468812465668,0.027075307443737984,-0.012943176552653313,0.012472979724407196,-0.020408282056450844,-0.017896408215165138,0.02140578255057335,-0.014867300167679787,0.0025346686597913504,-0.010148544795811176,-0.01862492598593235,-0.00457792216911912,-0.014863403514027596,-0.027469974011182785,-0.013924486935138702,0.01657423935830593,-0.029861919581890106,0.00698499009013176,0.010378314182162285,0.0013252553762868047,-0.005222779233008623,0.005860531236976385,-0.026814255863428116,-0.018282296136021614,-0.019091112539172173,-0.03275897353887558,-0.0026907105930149555,-0.015268253162503242,-0.02260533906519413,0.012883918359875679,0.0012260109651833773,0.019094515591859818,-0.002611834090203047,-0.03296521678566933,-0.008808484300971031,-0.016929607838392258,0.020927904173731804,0.01677740551531315,-0.013715304434299469,0.025913313031196594,-0.019884398207068443,-0.017265241593122482,-0.0021790387108922005,0.03124336153268814,0.020959561690688133,0.017673833295702934,-0.015517144463956356,0.02299613505601883,0.032495733350515366,0.012507911771535873,-0.005104357842355967,-0.029747940599918365,-0.023180602118372917,-0.0017345164669677615,-0.019043147563934326,0.01967618800699711,-0.020212611183524132,-0.000018417647879687138,0.011339989490807056,-0.006173779722303152,-0.0013209206517785788,-0.0234136413782835,0.02121264487504959,0.019443148747086525,0.025712592527270317,-0.005317129660397768,0.03278084844350815,-0.0006543881027027965,-0.006323870737105608,-0.020202595740556717,-0.016336845234036446,0.00682637607678771,-0.011052262037992477,0.024853786453604698,-0.00991865899413824,0.01891273818910122,-0.013627379201352596,-0.033109113574028015,0.007135333959013224,-0.022395430132746696,0.02017497643828392,0.02172999456524849,0.029904166236519814,0.011230679228901863,0.007938900031149387,0.016363441944122314,0.018482588231563568,-0.007705735508352518,0.020182374864816666,0.006577986292541027,0.030392548069357872,0.02926640212535858,0.008141927421092987,-0.026481593027710915,-0.0332394540309906,-0.019592681899666786,-0.03135007992386818,-0.014154763892292976,0.028745513409376144,-0.02947377599775791,0.01565827801823616,0.020678039640188217,0.02738039195537567,0.020810484886169434,0.018374474719166756,0.0157619696110487,-0.02476140297949314,0.016958311200141907,-0.018928783014416695,0.011231591925024986,0.03323245421051979,-0.0192574393004179,-0.002860007807612419,0.009309489279985428,-0.02162167988717556,-0.01481020636856556,-0.031089676544070244,-0.010481626726686954,0.025331074371933937,-0.0010412312112748623,-0.019421080127358437,-0.020645463839173317,-0.018696513026952744,0.03166123852133751,0.01344875805079937,0.029967457056045532,0.011520647443830967,0.005018558353185654,0.014883561991155148,0.004799808841198683,-0.022927800193428993,0.01184084452688694,0.02484864741563797,-0.0017725304933264852,-0.02701769955456257,0.025884950533509254,-0.00951649621129036,0.007864007726311684,-0.005997119937092066,0.02129070833325386,-0.012607662007212639,-0.025955235585570335,0.009649761021137238,-0.025240790098905563,-0.020303236320614815,0.007666267454624176,-0.013269918039441109,-0.01840478740632534,0.029306137934327126,-0.027464596554636955,-0.028827793896198273,-0.026777703315019608,0.0010432207491248846,0.018538780510425568,0.024534834548830986,-0.015928059816360474,0.02216251939535141,0.0328664630651474,-0.014219781383872032,0.0037100333720445633,-0.011866811662912369,-0.03073113039135933,0.026907989755272865,0.02619515359401703,-0.0013845087960362434,0.0045798467472195625,0.027125747874379158,0.026895655319094658,0.011558124795556068,-0.0076271044090390205,-0.018614960834383965,0.026136348024010658,-0.02725212648510933,0.0108107915148139,-0.00914681050926447,0.017490388825535774,-0.020107725635170937,0.017747649922966957,-0.03281773626804352,0.0021566017530858517,0.0229966901242733,-0.02436983957886696,0.0055965217761695385,0.027225902304053307,-0.00024310739536304027,0.021979056298732758,0.013631646521389484,-0.00039807066787034273,0.020771941170096397,-0.014843321405351162,-0.0201774463057518,-0.008214385248720646,-0.029497653245925903,-0.025062525644898415,-0.030357249081134796,-0.026345061138272285,-0.03228714317083359,-0.0014789708657190204,-0.031643036752939224,0.024241818115115166,-0.022833602502942085,-0.006918656174093485,0.03325902298092842,0.0311170294880867,0.01912197843194008,-0.02312738075852394,0.013770082034170628,0.025447038933634758,0.03299298137426376,-0.01646202988922596,-0.006101673003286123,-0.02124667912721634,-0.004980674013495445,0.023388326168060303,-0.03221806883811951,0.007160665933042765,-0.021541478112339973,-0.013934135437011719,-0.013543819077312946,0.03125597536563873,0.0029161630664020777,-0.00805073231458664,-0.003723039524629712,-0.016414577141404152,0.0271263737231493,0.02555975317955017,-0.027701495215296745,-0.03163918852806091,-0.0034412830136716366,0.007685628719627857,0.016471920534968376,-0.025638658553361893,-0.0040684714913368225,0.004608924966305494,0.02020658738911152,0.0008708705427125096,0.022694362327456474,-0.0015060887672007084,0.01153627224266529,-0.025742357596755028,0.020616671070456505,0.015459580346941948,0.005256612319499254,-0.013532444834709167,-0.01484671700745821,-0.018945524469017982,-0.018544377759099007,0.02757582627236843,0.003997392486780882,0.00811286736279726,-0.011608296073973179,0.013486707583069801,0.013105442747473717,-0.002001313492655754,-0.022933531552553177,-0.01854603737592697,-0.02703228034079075,-0.010976438410580158,-0.01999630592763424,-0.010164656676352024,-0.03322124853730202,-0.005413490813225508,0.0007872176938690245,-0.03279636800289154,-0.027345366775989532,0.02528875693678856,-0.0010124321561306715,0.020997304469347,0.02710256725549698,-0.0010000286856666207,0.03306659311056137,0.02767227031290531,0.032231297343969345,0.026683520525693893,0.02873462811112404,-0.0004273457161616534,0.02087639458477497,0.029405055567622185,0.005618546158075333,-0.0031955076847225428,-0.027423342689871788,-0.02164185605943203,-0.010819312185049057,-0.00725548155605793,0.02230689488351345,0.013933004811406136,-0.011133274994790554,0.008751355111598969,-0.015120039694011211,0.009479365311563015,-0.010534645989537239,0.00859126541763544,-0.03104531764984131,0.030085718259215355,0.011757122352719307,0.004482084885239601,-0.023170962929725647,-0.008632008917629719,-0.022965945303440094,0.024225503206253052,0.025763997808098793,-0.00858960673213005,0.006128940265625715,0.006416792050004005,-0.022781474515795708,0.020926915109157562,-0.00791148655116558,0.02396431379020214,-0.011526910588145256,0.020016472786664963,-0.005013164132833481,-0.0009194067097268999,-0.0038423349615186453,-0.01977219432592392,0.027791393920779228,-0.026470623910427094,0.020320950075984,0.008057381957769394,-0.026103200390934944,0.017388902604579926,-0.026097236201167107,-0.02319152280688286,0.019673164933919907,0.011094040237367153,-0.03214412182569504,-0.02669290080666542,-0.014170270413160324,0.004782317206263542,0.003561221295967698,-0.018269767984747887,-0.012157616205513477,0.011850379407405853,-0.001295228605158627,-0.010753174312412739,0.025879651308059692,-0.027383212000131607,0.02217899262905121,-0.028727533295750618,-0.02757691591978073,-0.02905379794538021,-0.0028922443743795156,-0.014926830306649208,-0.012752274982631207,-0.024707728996872902,-0.025186264887452126,0.030261054635047913,0.021560663357377052,-0.024579310789704323,-0.02295861393213272,-0.008089200593531132,0.0034089433029294014,-0.014757524244487286,0.02132287062704563,-0.023626448586583138,0.02684606797993183,0.02018648013472557,0.0005698017776012421,0.0009609444532543421,0.029024306684732437,-0.009024125523865223,-0.027831828221678734,0.013372556306421757,0.02897314541041851,-0.012900955975055695,0.03127610310912132,0.024286583065986633,0.003662718692794442,0.03216072544455528,0.017372621223330498,0.026415139436721802,0.0074286917224526405,-0.01156206801533699,0.02981051802635193,-0.029319463297724724,0.0139994565397501,-0.014225943945348263,-0.02044491097331047,0.01799585670232773,-0.005939709022641182,-0.0030615897849202156,-0.010016129352152348,-0.02628839574754238,-0.01313703041523695,0.016106469556689262,0.023489953950047493,0.018096905201673508,-0.01054250169545412,-0.018509017303586006,-0.03247789293527603,0.0020873681642115116,-0.018118804320693016,-0.015206575393676758,0.02479173056781292,0.0006984241190366447,0.018384136259555817,0.004455851390957832,0.01851668767631054,0.004018957260996103,0.024015987291932106,-0.026518000289797783,0.017854293808341026,0.025014251470565796,0.0012746781576424837,-0.006268278695642948,-0.01407614815980196,0.022011946886777878,0.006132420152425766,-0.030278576537966728,-0.02171742357313633,0.004621725995093584,0.013663014397025108,-0.010250858962535858,-0.02186642773449421,-0.020983045920729637,-0.028436312451958656,0.013189502991735935,0.007058900315314531,0.020726807415485382,-0.006716233678162098,-0.026365600526332855,-0.032573774456977844,-0.02270599827170372,0.03200596943497658,-0.015687333419919014,0.022390997037291527,0.02609156258404255,0.020562799647450447,-0.029210789129137993,-0.03315504640340805,0.01754167675971985,-0.002304357709363103,0.01897871121764183,0.012153451330959797,-0.010256614536046982,0.00441057188436389,-0.007759613450616598,0.004402616526931524,0.0015782949049025774,0.018102088943123817,-0.009817360900342464,-0.009535497054457664,0.01848044991493225,0.011155400425195694,0.013795128092169762,-0.017931213602423668,0.02953571081161499,-0.018763169646263123,0.0013204595306888223,-0.010786955244839191,0.0006361112464219332,0.021596837788820267,0.019490104168653488,0.03230162337422371,-0.0018669660203158855,-0.011516517028212547,0.0020273898262530565,-0.024191102012991905,0.014879664406180382,-0.02869464084506035,0.026751011610031128,-0.021710580214858055,-0.0026149293407797813,-0.014400338754057884,0.008438536897301674,0.020419025793671608,-0.016194811090826988,-0.007081763818860054,0.018855150789022446,-0.002191552659496665,-0.022892454639077187,0.018903864547610283,0.021193839609622955,0.019878020510077477,0.004431021399796009,-0.03155367076396942,0.02144819311797619,0.0165932048112154,0.004872044548392296,0.018933819606900215,0.021032147109508514,0.028400421142578125,0.029076622799038887,-0.011291278526186943,0.03110799938440323,-0.017954766750335693,0.029436908662319183,-0.013631705194711685,0.01615269109606743,0.02693193033337593,-0.024888290092349052,-0.017044512555003166,-0.0077704074792563915,0.03195175901055336,-0.006330267526209354,0.006029319949448109,0.011890978552401066,0.03328142687678337,0.022913634777069092,-0.031718943268060684,0.032829612493515015,0.03156805783510208,-0.015864402055740356,0.018879687413573265,0.02356562949717045,0.023616939783096313,-0.010040264576673508,0.004344575107097626,0.01988791674375534,-0.03317946940660477,-0.029204387217760086,-0.015534143894910812,0.005791392643004656,0.00567163061350584,-0.02740621566772461,0.02581845410168171,-0.007462488953024149,-0.012188046239316463,-0.028574790805578232,-0.0026416205801069736,-0.003282085293903947,0.02132227271795273,-0.02934667468070984,-0.026786042377352715,-0.01939358562231064,0.02697032131254673,-0.0007786458008922637,0.015743622556328773,-0.03097745031118393,-0.024391774088144302,-0.016783181577920914,0.014944089576601982,-0.014543558470904827,-0.008376545272767544,-0.00984151940792799,0.004251301754266024,0.0022825817577540874,0.003046509111300111,-0.024733200669288635,0.002149932784959674,-0.0007455521263182163,0.028360646218061447,0.01900024339556694,-0.015317914076149464,-0.029267283156514168,0.00888507254421711,0.02707226574420929,0.008983937092125416,-0.01963856630027294,0.010629012249410152,-0.00658844318240881,0.015469411388039589,-0.02929345890879631,-0.007545194122940302,-0.014948152005672455,0.011236402206122875,0.017479969188570976,0.012407602742314339,-0.02581823244690895,0.013018687255680561,-0.008988993242383003,0.028165388852357864,0.023400889709591866,-0.007292800582945347,-0.019066965207457542,-0.008388780988752842,0.00028089608531445265,-0.010003872215747833,0.01891646347939968,-0.0010514106834307313,-0.004781445953994989,-0.0305754654109478,-0.019346853718161583,-0.03314083069562912,0.031955111771821976,0.027748672291636467,0.002974872710183263,0.004370418842881918,-0.021910380572080612,0.02256648801267147,-0.005413527600467205,0.026561183854937553,0.01997598260641098,0.01671621762216091,0.016929831355810165,0.01467894483357668,-0.03245075047016144,0.021843325346708298,-0.03056522272527218,0.017837191000580788,-0.0033846874721348286,0.02461223118007183,0.03243151679635048,0.010631319135427475,-0.0012614711886271834,-0.007910882122814655,-0.007632768247276545,-0.0207110233604908,0.020256929099559784,0.025784699246287346,-0.02002686634659767,-0.0017555183731019497,0.010538044385612011,-0.003389091230928898,-0.023061618208885193,0.0146127138286829,0.009914393536746502,-0.005660767666995525,-0.017697414383292198,-0.033317744731903076,0.02268187142908573,-0.022383984178304672,0.02327219769358635,0.031052270904183388,-0.009456790052354336,-0.021249767392873764,0.018557196483016014,-0.00010462134378030896,-0.011586158536374569,-0.003602048847824335,0.024476321414113045,0.020392341539263725,0.0006864593015052378,0.01220776978880167,0.004664323758333921,0.01946822740137577,-0.020677126944065094,-0.01906072534620762,0.014156983233988285,-0.02250771038234234,0.008929270319640636,-0.03193382918834686,-0.023861762136220932,0.022883351892232895,-0.030932482331991196,0.006365341134369373,0.007192492950707674,0.01283286977559328,-0.013956623151898384,0.027421537786722183,-0.01643732562661171,0.032172005623579025,0.013367263600230217,0.00767507404088974,0.0026007862761616707,-0.010177657939493656,0.006933699361979961,0.0016706488095223904,-0.006323063746094704,-0.019651422277092934,-0.026499778032302856,0.010418379679322243,0.026485174894332886,0.022035937756299973,-0.02752840332686901,0.0036204601638019085,0.014579623006284237,-0.014713569544255733,-0.0005251125548966229,-0.031802017241716385,0.024154381826519966,0.0265376977622509,0.011465880088508129,0.0019301001448184252,-0.03231418877840042,0.009808255359530449,0.012709332630038261,0.016153380274772644,0.019459452480077744,0.027240710332989693,-0.026093609631061554,0.03189278393983841,0.011403348296880722,-0.012459357269108295,-0.00814655888825655,-0.0008667524671182036,0.020329616963863373,-0.027070334181189537,0.031455811113119125,0.003728393232449889,0.020012153312563896,0.007041063625365496,-0.014563328586518764,-0.024239476770162582,0.014618411660194397,-0.01428206916898489,0.014327687211334705,0.011075722053647041,0.027221480384469032,-0.01621583290398121,0.024328839033842087,0.02210083231329918,-0.029721776023507118,-0.025396117940545082,-0.008940058760344982,-0.01992916688323021,0.018825901672244072,0.028624169528484344,0.025487396866083145,-0.01731359027326107,-0.023247312754392624,0.01009421143680811,-0.01991506665945053,0.023606056347489357,-0.007689813617616892,-0.0212758406996727,0.009078415110707283,-0.01260365080088377,-0.01928098313510418,-0.032689496874809265,-0.00901784561574459,0.02996516041457653,-0.00847445335239172,0.007796702440828085,-0.007491512224078178,-0.007699182722717524,-0.013469129800796509,0.0007616255898028612,0.019972538575530052,-0.021225297823548317,0.02062714286148548,-0.029921118170022964,-0.02850259281694889,0.0039004767313599586,-0.009432421065866947,-0.004846098367124796,-0.028503090143203735,-0.007001804653555155,0.005564076825976372,0.011426618322730064,-0.012273530475795269,0.024087613448500633,0.007529124151915312,-0.008669081144034863,-0.014469620771706104,0.025235531851649284,0.01409916952252388,0.006071279291063547,-0.01563449390232563,-0.02749912068247795,0.010082490742206573,-0.016587624326348305,0.033066026866436005,0.0058243367820978165,0.006609773263335228,-0.000418444920796901,0.01929106004536152,0.028292173519730568,0.0013619553064927459,-0.024382460862398148,-0.007661225274205208,0.01644166372716427,0.017593933269381523,0.009192115627229214,0.03169979900121689,-0.003067348850890994,-0.014830511063337326,0.00027679360937327147,0.019513830542564392,-0.004784543067216873,-0.012828700244426727,0.027023568749427795,-0.03097943775355816,-0.02942376211285591,0.015635741874575615,-0.029414083808660507,0.02086467295885086,0.017795253545045853,-0.002974276663735509,-0.03249035030603409,-0.03166985139250755,-0.024888744577765465,-0.01954953558743,-0.004137282259762287,0.011293569579720497,0.0022268877364695072,-0.013940108940005302,0.030352959409356117,-0.017016081139445305,-0.02749822288751602,-0.018395431339740753,0.009407795034348965,-0.02435894124209881,-0.014655472710728645,-0.015074164606630802,0.02422304078936577,-0.025074033066630363,0.005374219734221697,0.02903778851032257,-0.013660023920238018,0.021830014884471893,0.0006894835387356579,0.005560396239161491,-0.030696772038936615,0.009469360113143921,0.008196037262678146,0.025689290836453438,-0.029469970613718033,-0.029372794553637505,0.015202566049993038,-0.019468573853373528,0.009516351856291294,-0.024952564388513565,-0.005165553651750088,0.005214928183704615,0.0322880819439888,0.02367365173995495,-0.026576628908514977,-0.032280225306749344,-0.0030543056782335043,0.010415378026664257,0.01035820972174406,-0.021457066759467125,0.01510787196457386,-0.004433759488165379,0.01174173690378666,-0.03153042867779732,-0.009156759828329086,0.012386767193675041,0.0012752808397635818,-0.029885679483413696,-0.03009878471493721,0.02294068969786167,0.025685273110866547,0.021580630913376808,-0.03125811368227005,0.022110136225819588,0.02551642432808876,0.015107350423932076,-0.03206000104546547,0.023724034428596497,-0.029906393960118294,-0.015384097583591938,0.008631435222923756,-0.024647587910294533,0.009058739058673382,-0.012297162786126137,-0.02550102211534977,-0.005679582245647907,-0.019569434225559235,0.017180677503347397,0.017287757247686386,0.031040556728839874,-0.01157265156507492,-0.004661871585994959,-0.0021171467378735542,0.018424533307552338,0.0007557646604254842,-0.03036658465862274,-0.006637518294155598,-0.0008001004462130368,-0.014988093636929989,-0.033142078667879105,-0.01992003619670868,0.014921470545232296,0.022696219384670258,-0.0024367801379412413,0.018086634576320648,-0.01000734232366085,-0.00268937018699944,-0.0105624720454216,-0.0009055267437361181,-0.0030003234278410673,0.016866929829120636,0.015431785956025124,0.010115479119122028,-0.019688565284013748,0.0005780860665254295,0.02215423807501793,0.007385109085589647,0.022620396688580513,-0.011346347630023956,0.005319023970514536,0.007429372053593397,-0.0173910204321146,0.02616272121667862,0.021295389160513878,-0.020602282136678696,-0.02140011079609394,-0.0050444407388567924,-0.025358427315950394,-0.0015021798899397254,0.011433702893555164,0.01503203995525837,-0.024284059181809425,-0.014819273725152016,-0.017227472737431526,-0.0062262448482215405,-0.02456926926970482,-0.01369344349950552,-0.0320710614323616,0.006771070417016745,-0.0004672775394283235,0.01982766203582287,-0.032282400876283646,-0.02811177633702755,-0.010319389402866364,-0.013273214921355247,-0.00627857493236661,-0.030935930088162422,0.0029968491289764643,0.021775081753730774,0.020281072705984116,-0.004520571790635586,-0.003127592382952571,-0.027834462001919746,-0.01496350672096014,-0.033224254846572876,-0.033175092190504074,0.013755072839558125,-0.01116897352039814,-0.011903629638254642,-0.012180730700492859,-0.02793213538825512,0.004522624425590038,-0.031181521713733673,0.014260834082961082,-0.029803413897752762,-0.023266620934009552,-0.025386793538928032,-0.0009783485438674688,-0.01839231327176094,0.012057089246809483,-0.016698069870471954,-0.025386344641447067,-0.019239218905568123,0.02131894789636135,-0.018275778740644455,0.005447280127555132,-0.015008434653282166,-0.031072910875082016,-0.02550794743001461,0.019659874960780144,-0.02549579367041588,0.002627669833600521,-0.032320287078619,0.007390014827251434,0.030173417180776596,0.010653914883732796,-0.02179872617125511,0.01151465717703104,0.017901072278618813,0.0009184115333482623,0.004253354389220476,-0.030115388333797455,-0.00441065663471818,-0.026070019230246544,0.019886817783117294,0.02039230801165104,-0.015608547255396843,0.027684397995471954,-0.031052162870764732,0.012541407719254494,-0.020804759114980698,-0.02596544660627842,-0.012843597680330276,-0.031595077365636826,0.023670915514230728,-0.025368239730596542,0.02960306964814663,-0.015692586079239845,0.02648290991783142,-0.03225558251142502,-0.029597854241728783,-0.024958061054348946,-0.023830708116292953,0.002901606261730194,0.018718747422099113,0.026754900813102722,0.0045127286575734615,-0.013850702904164791,-0.011683888733386993,-0.004042415414005518,-0.008556759916245937,0.009425056166946888,-0.01689749024808407,-0.02298092283308506,-0.032742276787757874,0.024172155186533928,0.005182165186852217,0.012688715942203999,-0.02182605303823948,0.0018172033596783876,-0.008980028331279755,-0.0025733814109116793,0.025645604357123375,-0.02646818570792675,-0.028454899787902832,0.020386122167110443,-0.010979656130075455,-0.03163471445441246,-0.008425499312579632,-0.019573302939534187,0.022423503920435905,-0.02497524581849575,0.023051828145980835,0.015882080420851707,-0.027813216671347618,0.004123029299080372,-0.005974738392978907,-0.028347088024020195,-0.028683118522167206,-0.02069726586341858,0.030676649883389473,0.021683257073163986,0.024766968563199043,0.026565153151750565,-0.03261180594563484,0.02203461527824402,0.011585215106606483,-0.006275486201047897,-0.01885034330189228,0.023919666185975075,-0.018299248069524765,-0.020187491551041603,0.0036960882134735584,-0.01359893474727869,0.0001914363820105791,-0.010554309003055096,0.025526922196149826,0.024924837052822113,-0.012652377597987652,0.007116143126040697,0.007043872959911823,0.01892944797873497,0.0025308437179774046,-0.027839379385113716,-0.018895914778113365,-0.008182531222701073,0.002921651815995574,0.025453973561525345,-0.027385452762246132,0.007019507233053446,0.00214599771425128,-0.030516242608428,-0.007147797849029303,-0.016906974837183952,0.02740732580423355,0.028024356812238693,-0.017596520483493805,0.029529906809329987,-0.03232488036155701,0.021927103400230408,0.018448274582624435,-0.02471993677318096,-0.002908908762037754,-0.010568133555352688,-0.013372703455388546,-0.02517145499587059,-0.033045049756765366,0.004518680274486542,0.0054809413850307465,0.03146491199731827,-0.011330395936965942,-0.006030769553035498,0.013110578060150146,0.014316800981760025,-0.023529019206762314,-0.01812734827399254,-0.024227872490882874,-0.001217290642671287,-0.001855118083767593,0.016274482011795044,0.011915615759789944,-0.017650220543146133,0.01376904733479023,0.013123514130711555,-0.005029031541198492,0.01759924925863743,0.029605820775032043,-0.004662280436605215,-0.03099098615348339,0.02658233977854252,0.01698433794081211,0.020724153146147728,0.009597123600542545,-0.005847922991961241,-0.019971370697021484,-0.030918022617697716,-0.019415512681007385,0.024726517498493195,0.009410384111106396,-0.0021650071721524,0.008145708590745926,0.006704667583107948,-0.02500935271382332,-0.007721886038780212,0.026202969253063202,-0.013673514127731323,-0.008744128979742527,-0.01355074718594551,0.012928197160363197,-0.01765093207359314,-0.019338760524988174,0.0275717880576849,0.03140038624405861,0.011638504453003407,-0.01578851416707039,-0.0056911190040409565,0.002342801308259368,-0.0173756442964077,0.020162736997008324,-0.026477567851543427,0.02549297921359539,-0.010273880325257778,-0.0013242263812571764,-0.0012876641703769565,0.011898912489414215,-0.027938781306147575,0.031245043501257896,-0.032811347395181656,0.008593371137976646,-0.005386036355048418,0.0006290220189839602,0.017852315679192543,0.008718728087842464,-0.00937483087182045,0.015573050826787949,0.022010715678334236,-0.009429252706468105,-0.0285353921353817,-0.0010262869764119387,0.02006741799414158,0.01546196173876524,-0.01776381954550743,-0.014103843830525875,0.005011541768908501,0.01556868851184845,-0.0016334587708115578,-0.006136125884950161,0.01632966659963131,-0.018085910007357597,-0.030198069289326668,-0.025680603459477425,-0.011505816131830215,-0.02920445427298546,0.029749931767582893,0.006558175198733807,-0.010573607869446278,-0.007805048022419214,0.014590101316571236,0.011259456165134907,0.014272043481469154,0.012039849534630775,-0.015400208532810211,0.02405763603746891,0.012748902663588524,0.024500487372279167,0.01170054916292429,0.007544445339590311,0.006888013333082199,-0.017334021627902985,0.003473871387541294,0.023664453998208046,-0.01744399592280388,-0.019300907850265503,-0.026005569845438004,0.008449185639619827,0.020199691876769066,0.03075421415269375,0.006194859277456999,-0.0011538576800376177,-0.029689107090234756,0.018301302567124367,0.015108263120055199,-0.013773232698440552,-0.0010749773355200887,-0.010131062008440495,-0.014496601186692715,0.0307086780667305,0.016371408477425575,-0.01164215337485075,0.012905235402286053,-0.032181233167648315,-0.03295522928237915,-0.032401442527770996,0.028303733095526695,0.03108523041009903,0.00009099330782191828,-0.016725068911910057,0.012494286522269249,-0.011309999041259289,0.032092779874801636,0.01425517164170742,-0.027138881385326385,-0.02510632947087288,0.001956674037501216,-0.023824581876397133,0.031221598386764526,-0.008776715956628323,-0.023223506286740303,-0.009477225132286549,0.017735375091433525,-0.015392495319247246,0.0052833640947937965,-0.0018799729878082871,0.025677982717752457,0.02502433769404888,-0.03293420374393463,-0.03232193738222122,-0.002500999253243208,0.0021589118987321854,0.007953336462378502,0.024485690519213676,0.02700122632086277,-0.02445049211382866,-0.02409791201353073,0.02662321738898754,0.0013423383934423327,-0.0109308622777462,0.013141547329723835,-0.033209506422281265,0.02611623890697956,0.033106859773397446,0.013705878518521786,0.021079957485198975,-0.02274966798722744,0.033190034329891205,0.00660689128562808,0.0033800993114709854,-0.003754072356969118,0.028667442500591278,-0.022115487605333328,-0.006099782884120941,-0.002497051376849413,-0.0005603600293397903,-0.024262944236397743,0.01647668518126011,0.009620524942874908,-0.018340498208999634,0.006291373632848263,0.01814584992825985,0.009754752740263939,-0.009578011929988861,0.02910398691892624,-0.02905917540192604,0.0038883720990270376,0.020340286195278168,-0.033026162534952164,-0.01710190810263157,-0.016162924468517303,-0.015659179538488388,-0.010721037164330482,-0.007082141004502773,-0.021689850836992264,0.03269686549901962,-0.009207692928612232,0.018911423161625862,0.014862935990095139,-0.022949350997805595,0.011177334934473038,-0.009530236013233662,0.016201021149754524,0.00039476866368204355,-0.013326037675142288,0.025422057136893272,-0.02240523137152195,-0.005259564612060785,-0.00011336612078594044,-0.01099487766623497,0.02011992782354355,-0.014860590919852257,0.016180802136659622,-0.0164304431527853,0.0274828989058733,-0.022426363080739975,0.031447961926460266,0.016524452716112137,0.023766499012708664,0.0016381969908252358,0.02338290587067604,-0.009178749285638332,-0.027976198121905327,-0.0153597267344594,-0.006641147658228874,-0.007243169937282801,-0.014516692608594894,0.027056962251663208,0.012781294994056225,-0.026709260419011116,-0.02468237467110157,-0.030144602060317993,0.021835898980498314,0.012143822386860847,-0.018426591530442238,-0.025792475789785385,0.0021883859299123287,-0.011955668218433857,-0.024959556758403778,-0.020578691735863686,-0.018418796360492706,0.023922020569443703,0.013802594505250454,0.006730778608471155,0.03243086859583855,0.017659684643149376,0.027149159461259842,-0.003965915180742741,0.01767641119658947,0.027108315378427505,0.0018473758827894926,0.03242314234375954,-0.02695077657699585,-0.018604302778840065,-0.0005242636543698609,0.024521872401237488,0.007488149218261242,-0.029949495568871498,-0.015376219525933266,0.031113041564822197,0.006743599660694599,-0.014794970862567425,0.023897718638181686,0.023633267730474472,0.003110198536887765,0.011724352836608887,0.003967782948166132,0.016430867835879326,0.0038363435305655003,-0.003221231745555997,0.013199816457927227,-0.015623469837009907,0.01851738430559635,0.005615624599158764,-0.028661653399467468,0.015982184559106827,0.017909100279211998,-0.028108887374401093,0.0056252023205161095,0.024032801389694214,0.019636794924736023,0.005136565305292606,0.019562216475605965,0.011445689015090466,0.02995130605995655,0.03168344870209694,0.021686291322112083,0.02651325799524784,0.011953756213188171,0.0005308849504217505,0.004706515930593014,-0.02083113044500351,0.010453987866640091,-0.008774234913289547,-0.019202059134840965,-0.012583889998495579,0.011558420024812222,0.014756920747458935,-0.031006120145320892,-0.016729915514588356,0.01872432231903076,-0.007029059808701277,-0.013162096962332726,-0.024912413209676743,0.02501833066344261,-0.011920948512852192,-0.010636886581778526,0.028606383129954338,-0.02017395943403244,-0.02313675917685032,0.0063577694818377495,0.0032404994126409292,-0.011145804077386856,-0.019193125888705254,0.019649168476462364,-0.023457592353224754,-0.020054087042808533,0.030213918536901474,-0.007496312260627747,0.011201955378055573,-0.01733407936990261,-0.031400080770254135,-0.030944082885980606,-0.014922521077096462,0.020758481696248055,-0.002638391684740782,0.025928635150194168,-0.020772531628608704,-0.006505809724330902,0.024758843705058098,-0.021218398585915565,0.014051519334316254,-0.01091567799448967,0.015746867284178734,0.0162968747317791,-0.002407197607681155,0.01567910797894001,-0.012592955492436886,-0.011622177436947823,-0.020671620965003967,0.013016238808631897,-0.009459496475756168,0.023904697969555855,0.014092503115534782,0.01627109758555889,-0.011831971816718578,-0.032237324863672256,0.026216084137558937,-0.010344968177378178,0.025836247950792313,0.029611915349960327,-0.006171874236315489,-0.0013736336259171367,-0.01955242082476616,-0.005357661750167608,-0.0014234690461307764,0.006985676474869251,0.011258922517299652,0.01954529993236065,0.022475590929389,0.0011722135823220015,-0.022282898426055908,-0.021142685785889626,0.029749082401394844,0.026242511346936226,-0.024543816223740578,-0.032029494643211365,-0.012250181287527084,-0.022370653226971626,0.01660093292593956,0.01070853229612112,-0.010617103427648544,-0.024342641234397888,-0.005513110663741827,0.006697971373796463,-0.015523284673690796,0.0039926315657794476,0.020517388358712196,0.02050669677555561,0.02490314468741417,-0.011499299667775631,-0.026135893538594246,0.030359623953700066,0.031921036541461945,0.022351812571287155,0.030199963599443436,0.010506642051041126,-0.030788052827119827,-0.03162144497036934,0.028048478066921234,-0.002158764284104109,-0.022226756438612938,0.005288845393806696,-0.017356861382722855,-0.008559489622712135,0.029055314138531685,-0.015474692918360233,0.004172859247773886,-0.004826396703720093,-0.0036754882894456387,-0.03219250589609146,-0.0019403453916311264,0.017924783751368523,0.032261237502098083,-0.013531657867133617,-0.01543169841170311,0.02375108189880848,-0.003565057646483183,-0.01337476633489132,0.030155155807733536,-0.00624539190903306,-0.005174565594643354,-0.029984338209033012,0.02080695331096649,0.0186669509857893,-0.0225637499243021,-0.0322912223637104,0.019309846684336662,0.005336955189704895,0.015536736696958542,0.006246222648769617,-0.014725586399435997,-0.030762316659092903,0.014822053723037243,0.02881276048719883,0.022787248715758324,-0.02087961696088314,0.02158859744668007,-0.0219215489923954,0.00405915966257453,-0.009628327563405037,-0.017578959465026855,0.03012874536216259,-0.0321543887257576,0.0281642135232687,-0.0055803097784519196,-0.011385004967451096,-0.020806144922971725,0.009569579735398293,-0.031573642045259476,0.027747243642807007,0.005220226012170315,-0.023866213858127594,0.0038652438670396805,-0.026903759688138962,-0.03256519138813019,-0.025961676612496376,0.011944768019020557,0.0015948949148878455,0.009083275683224201,-0.004879726562649012,-0.0180948656052351,-0.029096541926264763,0.00037266119034029543,-0.024284547194838524,0.032425668090581894,-0.018566887825727463,0.0006298404769040644,0.0030727640260010958,-0.010827149264514446,-0.028546040877699852,0.011087107472121716,-0.031267765909433365,-0.00008612614328740165,0.028063412755727768,-0.020700672641396523,0.026249291375279427,0.018125884234905243,-0.014935275539755821,0.008549191057682037,0.01583213359117508,0.0214372705668211,-0.008114687167108059,-0.022903144359588623,-0.01517627201974392,0.013162405230104923,0.026231536641716957,-0.013491836376488209,