[{"type":"conv","filters":[{"data":[-0.1775602400302887,-0.185333713889122,0.0006042830063961446,0.22456449270248413,-0.2346910685300827,0.02759499102830887,0.05534578859806061,0.20735368132591248,-0.23466849327087402,-0.14300686120986938,0.15698742866516113,0.23813192546367645,-0.07447155565023422,0.19833260774612427,-0.05144724249839783,-0.06669221073389053,0.0130305215716362,-0.17158307135105133,0.13962003588676453,0.11177031695842743,-0.1869165152311325,-0.14680425822734833,-0.07087280601263046,-0.1763298213481903,-0.07283266633749008,0.217783123254776,0.18157468736171722],"shape":[3,3,3]},{"data":[-0.0009421086288057268,0.025320015847682953,-0.015798956155776978,-0.05698011443018913,-0.16422660648822784,0.04896306246519089,0.1104283258318901,-0.2547169029712677,-0.13852950930595398,-0.08657004684209824,-0.05491206422448158,0.17881666123867035,-0.05373673886060715,-0.15562698245048523,-0.11563028395175934,-0.016490904614329338,0.04377106577157974,0.039162229746580124,0.2612698972225189,-0.021011022850871086,0.15107092261314392,-0.1329873502254486,-0.007939079776406288,-0.0836201161146164,-0.22361597418785095,-0.15021225810050964,-0.09692949056625366],"shape":[3,3,3]},{"data":[0.2619917094707489,-0.09172514081001282,0.17500729858875275,-0.13884933292865753,0.1268482506275177,0.111348457634449,-0.2628013491630554,-0.11516822129487991,0.02498341165482998,-0.1720658391714096,-0.030082568526268005,-0.00007539296348113567,0.23479615151882172,0.08901310712099075,-0.1436799019575119,-0.09949545562267303,0.18947938084602356,0.1457892507314682,-0.23678721487522125,0.07394296675920486,0.1519213616847992,0.20636090636253357,-0.04033985361456871,0.1144721657037735,-0.20493365824222565,0.21317076683044434,0.08865784108638763],"shape":[3,3,3]},{"data":[0.213564932346344,0.038262952119112015,0.2553894817829132,-0.11195334047079086,-0.011388348415493965,-0.18756243586540222,-0.15406712889671326,-0.24566790461540222,0.17619259655475616,-0.15613532066345215,0.06479467451572418,0.0006473461398854852,0.13838528096675873,-0.053011707961559296,0.24936480820178986,0.21927525103092194,0.08573421835899353,0.19658294320106506,0.2702507972717285,-0.04325351491570473,0.09693784266710281,-0.06430559605360031,-0.011356038972735405,0.027239711955189705,-0.001945138443261385,0.1227501705288887,0.19166332483291626],"shape":[3,3,3]},{"data":[-0.19051624834537506,0.03915417939424515,-0.25473907589912415,0.09528472274541855,-0.0013012347044423223,-0.26427850127220154,-0.1163053959608078,-0.17172792553901672,-0.12255099415779114,0.2565274238586426,0.02541281096637249,0.03835048899054527,0.039893340319395065,0.00452502490952611,-0.12902583181858063,0.018354611471295357,0.18620750308036804,-0.1493232101202011,-0.15143020451068878,-0.023215876892209053,-0.26507699489593506,-0.05237365514039993,0.18586407601833344,0.04862021282315254,0.09308923780918121,0.25042277574539185,-0.23072615265846252],"shape":[3,3,3]},{"data":[-0.1935158669948578,0.2520744204521179,-0.18703962862491608,0.02521166391670704,-0.08442645519971848,0.20794379711151123,0.12251440435647964,-0.18300634622573853,-0.10420744866132736,-0.1286514401435852,0.052816569805145264,-0.11273444443941116,-0.15728412568569183,-0.14087040722370148,-0.08356009423732758,0.17760834097862244,0.21288183331489563,-0.2075776755809784,0.050457701086997986,0.008322706446051598,0.013294430449604988,-0.0061477781273424625,-0.0012608307879418135,0.04623095318675041,-0.025129321962594986,-0.10592229664325714,0.009069433435797691],"shape":[3,3,3]},{"data":[0.2624233067035675,-0.25344130396842957,0.255992591381073,-0.023127881810069084,0.1391083151102066,-0.14500825107097626,0.02230881340801716,0.09377870708703995,0.20192965865135193,-0.06184438243508339,0.1494937241077423,0.10748273879289627,-0.06455779075622559,0.004462004639208317,-0.07114077359437943,-0.1547534316778183,0.18612578511238098,-0.10136160999536514,0.05045092850923538,-0.13501763343811035,-0.21562331914901733,0.06872544437646866,0.06293090432882309,-0.061492208391427994,0.15387147665023804,0.12570281326770782,-0.25875020027160645],"shape":[3,3,3]},{"data":[-0.028833450749516487,-0.14220167696475983,-0.12304649502038956,-0.21793502569198608,-0.21052701771259308,0.16084212064743042,-0.22034187614917755,0.14115197956562042,0.10265129804611206,-0.053417205810546875,-0.12306462973356247,-0.04535956308245659,0.05657217651605606,-0.1305362433195114,-0.0633608028292656,-0.17825153470039368,-0.08773884922266006,0.12496694922447205,0.21028123795986176,-0.10382751375436783,-0.2632127106189728,-0.22366560995578766,0.01924147456884384,-0.1269623190164566,0.041739560663700104,-0.13941703736782074,0.0072395834140479565],"shape":[3,3,3]}],"biases":[0.009999999776482582,0.009999999776482582,0.009999999776482582,0.009999999776482582,0.009999999776482582,0.009999999776482582,0.009999999776482582,0.009999999776482582]},{"type":"maxpool"},{"type":"dense","weights":[-0.03248976916074753,-0.015625160187482834,-0.015644168481230736,-0.008968779817223549,-0.022858642041683197,-0.005200107116252184,-0.00757636921480298,-0.008705279789865017,0.01621212624013424,0.019649753347039223,-0.01757209002971649,0.0058984230272471905,0.019034849479794502,0.03153880313038826,0.0036243179347366095,-0.013511624187231064,0.026522362604737282,-0.028034770861268044,-0.006669278256595135,-0.025587063282728195,-0.03213707357645035,-0.02179001085460186,-0.02370247058570385,0.0055753677152097225,0.014756886288523674,0.009496192447841167,0.017046291381120682,0.014896542765200138,-0.014022777788341045,-0.00033950366196222603,-0.0011126254685223103,0.028808362782001495,0.0019791927188634872,-0.01070750318467617,-0.031529270112514496,-0.02307897061109543,-0.021100956946611404,-0.025237249210476875,0.0049331397749483585,0.001048970501869917,-0.025155004113912582,-0.003357498673722148,0.0042587281204760075,-0.002100176876410842,0.03195393830537796,0.006061952095478773,-0.014634782448410988,-0.032737042754888535,0.02261006459593773,0.010193907655775547,0.019770437851548195,-0.003162542125210166,0.0025737539399415255,0.028751691803336143,-0.017558008432388306,0.026763329282402992,-0.022182505577802658,0.012784365564584732,-0.00003794915755861439,0.011711051687598228,-0.005457149352878332,0.022432390600442886,0.024099480360746384,-0.029618462547659874,-0.029625678434967995,0.022163620218634605,-0.01675073429942131,-0.029365945607423782,0.02621745876967907,-0.02806343324482441,-0.024222470819950104,-0.01052953116595745,0.02334601618349552,0.010482280515134335,-0.02295798994600773,0.00323212961666286,0.021954746916890144,0.02873925119638443,-0.0010989407310262322,-0.025810977444052696,-0.011318355798721313,0.032579559832811356,-0.009233609773218632,0.01711898110806942,-0.001870879321359098,-0.03255834802985191,0.0036912120413035154,0.022580919787287712,-0.014440019614994526,0.0037121856585144997,-0.02201252058148384,0.020448004826903343,0.030457019805908203,-0.0033711728174239397,-0.01651681400835514,-0.02482232265174389,0.02044261060655117,0.013766736723482609,0.007492954842746258,0.02909531444311142,-0.023627080023288727,0.007454628590494394,0.004265142604708672,0.02957548201084137,0.0008386046392843127,-0.009377787820994854,0.014719751663506031,0.02545803412795067,0.021600933745503426,0.01764780655503273,-0.005526308435946703,0.006632679142057896,-0.018211588263511658,-0.016377728432416916,0.005860940087586641,0.028965706005692482,0.01463340688496828,-0.001465390669181943,0.01624840497970581,0.024738892912864685,0.012897084467113018,0.018512770533561707,-0.014152484945952892,0.017010223120450974,0.011209067888557911,-0.03279298543930054,0.024381490424275398,-0.00013342198508325964,-0.009986313059926033,-0.008394849486649036,-0.00853647105395794,-0.0009572228882461786,0.030779559165239334,0.004861156921833754,0.011746262200176716,0.0023881650995463133,0.03196612000465393,0.020481226965785027,-0.01931709423661232,-0.013481611385941505,0.024025119841098785,0.014187249355018139,0.028776776045560837,0.008016640320420265,0.02466384321451187,-0.03182623162865639,-0.01735766790807247,0.0019104460952803493,0.02515406906604767,0.009548288770020008,0.0034284177236258984,-0.0007930649444460869,-0.016649367287755013,0.032730117440223694,0.028590761125087738,-0.014739383943378925,-0.033037442713975906,-0.00016501567733939737,-0.029715271666646004,0.018676573410630226,-0.025118185207247734,-0.004521284718066454,-0.005539527628570795,-0.03256862983107567,-0.02104695327579975,0.03293776512145996,-0.030529094859957695,-0.014440038241446018,0.024954713881015778,-0.010283439420163631,-0.0016460100887343287,-0.029259536415338516,0.016356704756617546,0.01566166989505291,0.008752930909395218,-0.027857931330800056,-0.000593361968640238,-0.016573332250118256,-0.007359025068581104,0.03327564150094986,0.023404767736792564,0.013711536303162575,0.0005647097714245319,0.01385577954351902,-0.0136721171438694,-0.023989606648683548,-0.02920343540608883,-0.03225458413362503,0.002944092033430934,-0.033054523169994354,0.02571053057909012,-0.0036749953869730234,-0.02437913604080677,-0.029636157676577568,-0.031343165785074234,-0.01818230003118515,0.029261842370033264,0.0315125547349453,-0.0003956996079068631,0.017133332788944244,-0.028422357514500618,0.016782427206635475,-0.0052560907788574696,-0.005819576792418957,0.02353799156844616,-0.005894979927688837,0.007902249693870544,0.030893763527274132,0.01334374863654375,-0.0032592150382697582,-0.02666240744292736,-0.024462848901748657,0.012441806495189667,0.009782840497791767,0.019108451902866364,0.012257637456059456,0.01373357605189085,0.026222459971904755,-0.01898650825023651,-0.020065046846866608,-0.005315459333360195,-0.015029381960630417,0.009602606296539307,0.016319191083312035,0.030693339183926582,0.011986890807747841,0.006925692316144705,-0.03269055485725403,-0.009163039736449718,0.02151481807231903,-0.03314628824591637,-0.02267460897564888,0.010019640438258648,0.01970742829144001,-0.0012064847396686673,-0.0008179760188795626,-0.010362224653363228,0.019629914313554764,-0.028526024892926216,-0.00927682314068079,-0.031841449439525604,0.03262719884514809,0.0030804669950157404,-0.011302915401756763,-0.030492298305034637,-0.030136574059724808,0.001851546810939908,-0.02155390940606594,0.011113286018371582,0.013603267259895802,0.023631427437067032,-0.021067673340439796,-0.025410780683159828,-0.030863163992762566,-0.027807720005512238,-0.027473894879221916,-0.02469967119395733,0.016441628336906433,-0.0007969785947352648,-0.03204499930143356,-0.028353393077850342,0.012527653947472572,-0.030628468841314316,0.021188627928495407,-0.02110288105905056,0.01020633615553379,-0.01375968661159277,0.018885590136051178,0.006985696963965893,-0.02566317468881607,0.025277594104409218,0.031158726662397385,0.03229077532887459,-0.015205541625618935,0.0006755688809789717,-0.005263553466647863,-0.025841673836112022,-0.000027862908609677106,0.0057634590193629265,0.027378510683774948,0.020032530650496483,0.01802735961973667,0.029965940862894058,0.011884106323122978,0.00308862398378551,-0.02243010140955448,0.02513504959642887,0.022444026544690132,0.011362756602466106,-0.015338855795562267,-0.030595192685723305,0.012899207882583141,-0.027482734993100166,0.01793842576444149,0.02830907702445984,0.03279726207256317,-0.0036392975598573685,-0.026164241135120392,0.03053395450115204,0.03228486329317093,0.015127846971154213,0.005057333502918482,0.014468420296907425,0.005842246115207672,-0.017764925956726074,0.0004949980648234487,-0.002015139674767852,-0.0011458038352429867,0.011919273063540459,-0.017896676436066628,0.006259275134652853,-0.027781950309872627,0.008700101636350155,0.015299217775464058,-0.00015072509995661676,0.001701619359664619,0.005110378377139568,0.030205415561795235,0.023721089586615562,0.002801431342959404,-0.031618766486644745,-0.003854433773085475,0.0022151549346745014,0.004821049515157938,0.0029940649401396513,0.005340294446796179,0.015191003680229187,0.005476170685142279,-0.01988869346678257,0.005591545253992081,-0.011489582248032093,-0.022743210196495056,-0.014515548944473267,-0.008853179402649403,0.0014058079104870558,-0.02743440680205822,0.010186041705310345,-0.016847634688019753,0.0005834746407344937,0.02190663293004036,0.02957887388765812,0.028317870572209358,0.020599348470568657,-0.026031723245978355,-0.02408081665635109,-0.012033975683152676,0.026486599817872047,-0.026476839557290077,-0.026912372559309006,-0.02384648285806179,-0.0038385684601962566,-0.024236349388957024,-0.029387256130576134,0.032696641981601715,-0.01782560534775257,0.02943749539554119,-0.001684024347923696,-0.030064260587096214,-0.018127527087926865,-0.028126278892159462,-0.0005159748252481222,0.03129704296588898,-0.028094351291656494,0.03192673623561859,0.012168949469923973,0.0075621348805725574,-0.016798965632915497,0.025560826063156128,-0.021801576018333435,-0.027885453775525093,0.030863339081406593,-0.03273230418562889,-0.013227798976004124,-0.02606981247663498,0.012869007885456085,0.007965900003910065,0.0008581612491980195,-0.028487553820014,0.019443435594439507,-0.011536999605596066,0.027051309123635292,-0.00602884404361248,-0.027557987719774246,0.007100930903106928,0.018085267394781113,0.0003143459325656295,0.01832154206931591,-0.011994408443570137,-0.02233751118183136,-0.023605255410075188,-0.008736838586628437,-0.023069411516189575,0.0015475987456738949,0.0007390270475298166,-0.021306943148374557,0.026521772146224976,0.02065223827958107,-0.01873381808400154,0.01563161425292492,0.011782091110944748,0.029796548187732697,0.003591124201193452,-0.009733373299241066,0.015337851829826832,-0.00466211186721921,0.01003090851008892,-0.028541304171085358,-0.025723055005073547,-0.029887421056628227,-0.031725749373435974,0.012517108581960201,-0.015397700481116772,0.005965021438896656,0.011963236145675182,0.005375327076762915,0.022765865549445152,0.019164271652698517,0.02829756774008274,0.011841881088912487,0.00806625559926033,0.025071604177355766,0.0007899203919805586,0.003640341106802225,0.025535790249705315,-0.024183794856071472,0.017074178904294968,0.01854558102786541,-0.005715875420719385,-0.020648371428251266,-0.02555273100733757,-0.005128604359924793,0.02289738319814205,-0.013759184628725052,0.029805464670062065,-0.0074607147835195065,0.026562392711639404,0.009541433304548264,-0.001128131290897727,-0.002746537094935775,0.015520705841481686,0.01954796351492405,0.022204753011465073,0.024856215342879295,0.02749818004667759,-0.030803797766566277,0.023501548916101456,-0.02504943311214447,0.00758251640945673,-0.02760501205921173,0.02022261917591095,-0.02495117299258709,0.0051025510765612125,-0.02644432708621025,-0.03128573298454285,-0.025699131190776825,-0.006592198275029659,0.014166878536343575,0.010260283946990967,0.010983035899698734,0.024919278919696808,-0.0012034650426357985,0.03197721764445305,-0.006452084518969059,-0.0022266791202127934,-0.012175830081105232,-0.005103818606585264,-0.016111688688397408,-0.010544312186539173,-0.009902848862111568,0.008416824974119663,-0.00850731786340475,0.023936638608574867,0.0043707615695893764,-0.01534167118370533,0.01955309882760048,-0.0062987892888486385,-0.013879363425076008,0.01632222719490528,-0.031125791370868683,-0.0006991402478888631,-0.013283370062708855,-0.001472105155698955,0.013293437659740448,-0.015276888385415077,0.03225259855389595,0.023050455376505852,0.004097959958016872,-0.000654028553981334,0.010826176963746548,-0.02226097509264946,-0.015466469340026379,-0.030741894617676735,0.02265169285237789,-0.018704533576965332,-0.031371697783470154,-0.030186770483851433,0.029001927003264427,-0.018276318907737732,0.01086345873773098,-0.018404677510261536,0.025271650403738022,0.0006983070052228868,-0.013322900049388409,-0.022160673514008522,0.02055729739367962,-0.028601042926311493,-0.006550147198140621,-0.02595248632133007,0.024112643674016,0.01595235988497734,-0.02832053229212761,-0.014675570651888847,-0.019175956025719643,0.0056567261926829815,0.017663704231381416,0.002470015548169613,-0.007788871414959431,0.02229395881295204,-0.018628323450684547,0.019975313916802406,0.0002089298068312928,0.027466047555208206,-0.02930450066924095,-0.027822740375995636,0.015389304608106613,0.030069593340158463,-0.02213415876030922,0.000732003478333354,-0.030659807845950127,0.0021123054903000593,-0.003805899992585182,0.02237325720489025,0.018504010513424873,-0.028308233246207237,0.0012875820975750685,0.024035289883613586,-0.013906868174672127,-0.010051442310214043,-0.03194340690970421,-0.015113146044313908,0.01640479639172554,-0.014951501041650772,0.0030873653013259172,0.025135288015007973,0.032857175916433334,-0.021349802613258362,-0.026492159813642502,0.011540831066668034,-0.013040264137089252,0.01633833535015583,0.02844291552901268,0.017818748950958252,-0.02962612919509411,-0.018515555188059807,-0.030368532985448837,-0.03244159743189812,-0.02279178984463215,0.028679989278316498,-0.018311619758605957,-0.02509141154587269,0.010590581223368645,-0.010513282380998135,0.01969325728714466,-0.022709889337420464,-0.027003010734915733,0.01565888337790966,0.005322362296283245,-0.0229957178235054,0.01822318695485592,-0.021715277805924416,0.007593825925141573,-0.009142463095486164,0.007156597450375557,-0.01586579903960228,0.029110020026564598,-0.029261266812682152,-0.016039764508605003,0.003999318927526474,0.022840961813926697,-0.02265816181898117,-0.008472723886370659,-0.019932013005018234,0.017051884904503822,0.025202998891472816,-0.02659950964152813,-0.014803220517933369,-0.011275418102741241,-0.009876169264316559,0.009422768838703632,0.013808507472276688,0.004962416365742683,-0.017471296712756157,0.00686881598085165,0.024139761924743652,-0.024012379348278046,-0.002421804005280137,-0.01095271110534668,-0.03171354904770851,0.0043733022175729275,0.00406941631808877,-0.002763601718470454,-0.027060184627771378,-0.00833478569984436,0.026195069774985313,0.0019215125357732177,0.014673263765871525,-0.026505159214138985,0.028624139726161957,-0.005988235119730234,0.01745806820690632,-0.023362990468740463,-0.019776806235313416,-0.001437930972315371,-0.031372424215078354,-0.02617950178682804,0.01172658335417509,-0.03166602551937103,-0.029592540115118027,0.0025878071319311857,-0.011715278029441833,-0.017222492024302483,0.007751067169010639,-0.0047339932061731815,-0.03236490860581398,0.025291066616773605,-0.004159819334745407,-0.0003559355973266065,-0.012264424003660679,0.02085854299366474,-0.008864698000252247,0.025517093017697334,0.002637689933180809,-0.024562610313296318,-0.027010736986994743,0.01410267036408186,-0.008891543373465538,-0.03226868435740471,0.0017402321100234985,-0.020333467051386833,-0.0051682088524103165,0.009252062998712063,0.005397910717874765,0.019236644729971886,0.029940292239189148,0.017640678212046623,-0.014993195421993732,0.02143428660929203,0.01851097121834755,-0.008824187330901623,-0.01282083336263895,-0.01547524705529213,0.012685861438512802,-0.003877166658639908,0.025081437081098557,-0.004247760865837336,-0.03084535151720047,-0.03137070685625076,-0.023730292916297913,-0.010850290767848492,0.0327291376888752,0.024470634758472443,-0.018472718074917793,-0.026849444955587387,0.001692562480457127,-0.02486562915146351,0.018221095204353333,-0.012516413815319538,0.00246756081469357,0.006588899064809084,0.005137431900948286,0.022007901221513748,0.01235837023705244,0.009417914785444736,-0.012708868831396103,0.024043751880526543,-0.013514233753085136,0.028228525072336197,0.028750494122505188,-0.022877827286720276,0.03254125267267227,0.030352355912327766,-0.02809825725853443,0.004363127052783966,0.005888772662729025,-0.008611127734184265,0.014504984952509403,-0.026432331651449203,0.00162720016669482,0.009412560611963272,-0.024615271016955376,0.028245000168681145,-0.025931041687726974,-0.02051309123635292,0.029410535469651222,-0.025009427219629288,-0.022115638479590416,-0.021227756515145302,0.02403811551630497,-0.02032880112528801,0.025462167337536812,0.023728927597403526,-0.0030607834924012423,0.022549958899617195,0.03221116214990616,-0.01909606344997883,-0.018518170341849327,-0.005823028739541769,-0.02713330276310444,-0.005690875928848982,-0.006222239229828119,-0.0000732780245016329,-0.028614401817321777,-0.00652620755136013,-0.026750974357128143,-0.021730881184339523,-0.014237908646464348,0.006191110238432884,0.004111165180802345,-0.020554032176733017,0.00843700673431158,0.020791206508874893,0.0028886583168059587,-0.029052136465907097,0.013640619814395905,-0.030978260561823845,-0.02469823695719242,0.00880446843802929,-0.032864056527614594,0.01062386017292738,-0.0019231969490647316,-0.008501517586410046,-0.012349880300462246,0.016522007063031197,-0.02074054256081581,0.031740702688694,-0.017344849184155464,0.007537661585956812,-0.03325154259800911,0.02062700130045414,-0.028797198086977005,0.006670461501926184,-0.026576831936836243,-0.027997273951768875,0.01859218068420887,-0.031209373846650124,-0.033151596784591675,-0.0023672461975365877,-0.03237312287092209,-0.00039178496808744967,0.026249874383211136,-0.02232643961906433,0.008212616667151451,-0.007862402126193047,-0.015217425301671028,-0.031115354970097542,-0.004472779110074043,0.024910494685173035,-0.016465123742818832,-0.030896548181772232,-0.015147566795349121,0.0202324278652668,0.02440986968576908,-0.016466980800032616,0.03253970295190811,0.014106457121670246,-0.02405318059027195,-0.005794708151370287,0.02304420992732048,0.012131747789680958,0.004972123075276613,0.01794808730483055,-0.02401130646467209,0.024045094847679138,0.017047056928277016,0.02496231161057949,-0.001450241426937282,-0.008100368082523346,0.02156129479408264,-0.029235539957880974,0.022797521203756332,-0.003957496955990791,-0.0038277877029031515,0.005568723659962416,-0.03265225887298584,0.015746908262372017,-0.03213699162006378,0.017975715920329094,-0.028492555022239685,-0.0031192409805953503,-0.02547912299633026,0.0033521882724016905,-0.0004124249971937388,-0.025182852521538734,0.001697491854429245,-0.030475817620754242,0.020597126334905624,0.02752937562763691,-0.0027283562812954187,-0.028505917638540268,0.0015962908510118723,0.027144158259034157,0.004525415133684874,-0.01940031535923481,-0.00352392322383821,0.02920430339872837,0.032312411814928055,-0.00878799520432949,-0.005452610552310944,0.009419914335012436,-0.03318066895008087,0.026403039693832397,-0.0005507422029040754,-0.018355952575802803,-0.032888609915971756,-0.011524706147611141,0.012044699862599373,-0.031193392351269722,-0.006360119674354792,-0.0042481739073991776,0.003472554963082075,-0.00884103961288929,0.0056855701841413975,-0.03230075165629387,-0.004804309457540512,-0.002584989182651043,-0.014086529612541199,-0.03055039793252945,-0.03327196091413498,-0.010262303985655308,0.02121487818658352,-0.013656546361744404,0.0022903368808329105,0.013946663588285446,-0.008634142577648163,-0.006032724864780903,0.015987399965524673,0.020848345011472702,0.0038375367876142263,0.009518710896372795,-0.019578972831368446,-0.005997030064463615,0.016550397500395775,-0.008655313402414322,0.008735300973057747,-0.008270704187452793,-0.02960195764899254,0.02945774979889393,-0.025959953665733337,-0.029005922377109528,0.01105909887701273,-0.011020279489457607,-0.02128913626074791,-0.012340711429715157,0.025020500645041466,0.00700283981859684,0.017201103270053864,-0.016666926443576813,0.028562871739268303,0.018780160695314407,0.004577777348458767,-0.02841527946293354,0.007402206305414438,-0.0020168942864984274,0.013667180202901363,-0.010698401369154453,0.015385177917778492,-0.0131752360612154,-0.01982821896672249,0.007166210096329451,0.01840054616332054,-0.007787599228322506,0.015163128264248371,0.011969633400440216,0.03276383876800537,-0.025424111634492874,-0.012184852734208107,0.004823961760848761,-0.0021676404867321253,0.00815423671156168,-0.017292557284235954,-0.02706974558532238,-0.0011411081068217754,0.011085866019129753,-0.002585254842415452,-0.013056662864983082,-0.022688498720526695,-0.003655806416645646,-0.02299146167933941,-0.006132060196250677,-0.017925560474395752,-0.0015196310123428702,0.024240044876933098,-0.012173319235444069,0.005754535086452961,-0.019905615597963333,-0.0056759449653327465,0.013233327306807041,0.030851151794195175,-0.018209079280495644,-0.00860034953802824,0.0015777181833982468,-0.0069675385020673275,-0.011235557496547699,-0.026026898995041847,0.03133418411016464,-0.0027267728000879288,0.031633175909519196,0.017222566530108452,0.0174428541213274,-0.025043779984116554,-0.018934298306703568,-0.03332594037055969,-0.014821304939687252,0.014233455061912537,0.014657706022262573,-0.011816912330687046,-0.00656520901247859,-0.018591029569506645,-0.009384671226143837,0.011712525971233845,0.02685678005218506,0.00661543058231473,-0.0072684516198933125,0.0316486693918705,0.01993723213672638,0.002505101729184389,0.006465862970799208,0.026543252170085907,-0.004318618215620518,0.01838689111173153,0.0034319572150707245,0.030460966750979424,-0.020107148215174675,-0.008990052156150341,-0.003243381856009364,0.00297304498963058,-0.03314109519124031,-0.011778443120419979,0.01462654210627079,-0.02422476001083851,0.0326007641851902,0.024379508569836617,0.02441810816526413,-0.0012993853306397796,0.005348874721676111,-0.017375104129314423,-0.003597157308831811,-0.003819892881438136,0.0051307883113622665,0.010048780590295792,0.013259097002446651,0.016662586480379105,-0.01825442910194397,0.02070339024066925,-0.00612273532897234,-0.0024099762085825205,-0.0003194699820596725,0.03118344210088253,-0.0018296722555533051,0.016342101618647575,-0.017405208200216293,0.00425097206607461,0.004621483851224184,0.021225005388259888,0.0021375480573624372,-0.017237406224012375,-0.02882542833685875,-0.021950753405690193,-0.023554403334856033,0.0022594414185732603,0.014134122058749199,-0.017716169357299805,-0.004082735627889633,0.02609323337674141,-0.011255401186645031,-0.023673465475440025,0.030474942177534103,0.010310068726539612,0.02974311262369156,0.020209133625030518,-0.02924470789730549,0.028917163610458374,-0.020721763372421265,-0.008710213005542755,-0.00941767543554306,-0.02916734106838703,-0.01842670887708664,0.01572084054350853,-0.007270162459462881,0.028987163677811623,-0.003232344286516309,0.009960358962416649,0.002641839673742652,-0.010453482158482075,0.020558366551995277,-0.021723685786128044,-0.0006257246132008731,0.0054550631903111935,0.01766321063041687,-0.0058091143146157265,0.03207257762551308,-0.02272677607834339,-0.005322641227394342,0.019087057560682297,-0.0219574011862278,-0.020242318511009216,0.02353312075138092,-0.027257172390818596,-0.02778751216828823,-0.014003894291818142,0.029762161895632744,0.022684140130877495,-0.005952785257250071,0.025473223999142647,-0.028508761897683144,0.018941134214401245,0.023594554513692856,0.03187645226716995,0.005056450609117746,0.03036985918879509,0.013679240830242634,0.019977018237113953,-0.02131906896829605,0.02055637165904045,-0.031764350831508636,-0.024893315508961678,0.007493128068745136,0.022621912881731987,0.017068088054656982,-0.028264537453651428,0.03188127651810646,0.02268862910568714,-0.015754863619804382,-0.021313868463039398,0.0263366736471653,-0.01844390295445919,-0.0011606481857597828,-0.0222404133528471,0.005287875887006521,0.028328174725174904,-0.01746629737317562,-0.009720837697386742,0.018361922353506088,0.010324448347091675,-0.025754377245903015,0.010993464849889278,0.010721223428845406,0.026919912546873093,0.02267623506486416,0.029771095141768456,0.02736728824675083,-0.031873613595962524,-0.021019961684942245,-0.022135598585009575,-0.0311689842492342,-0.018669357523322105,-0.011487807147204876,-0.014265424571931362,0.018221210688352585,-0.011066358536481857,-0.01985316537320614,0.003445108188316226,0.03235488012433052,0.010901473462581635,0.005159042309969664,-0.03125685825943947,-0.006450899876654148,0.0008055121870711446,0.007046751212328672,-0.012290991842746735,0.0008864663541316986,-0.023806000128388405,-0.0008096309029497206,0.006274173501878977,0.01182082761079073,0.021116461604833603,-0.0070037515833973885,0.02730938047170639,0.011554592289030552,0.005601929035037756,0.018827596679329872,-0.026465730741620064,0.02503001131117344,-0.016148386523127556,0.010252698324620724,-0.025643309578299522,-0.0033737437333911657,0.03208298981189728,0.016890186816453934,-0.0072771599516272545,-0.00022090387938078493,0.017135014757514,0.028510985895991325,0.013148829340934753,-0.030140724033117294,-0.031317148357629776,-0.029648058116436005,0.0031570633873343468,-0.007182757835835218,-0.010195599868893623,-0.01719341240823269,0.002840891946107149,-0.005537399556487799,0.0038243327289819717,-0.013997063972055912,0.014885228127241135,-0.01562965102493763,0.02485484443604946,-0.010885319672524929,0.011888425797224045,-0.0033309655264019966,-0.028090255334973335,0.0075883702374994755,-0.020096367225050926,-0.011618169024586678,-0.03273420035839081,-0.023673443123698235,-0.0015875230310484767,0.003922421485185623,-0.0009722746326588094,-0.0052060317248106,0.02591969072818756,-0.02543909102678299,-0.011192761361598969,0.015392898581922054,0.018481144681572914,0.012042020447552204,0.016022298485040665,0.0023251264356076717,-0.01721455156803131,-0.026423171162605286,0.0057653640396893024,0.03208456560969353,0.029633447527885437,-0.0021491171792149544,-0.030563438311219215,-0.009687287732958794,-0.014045595191419125,-0.0240780096501112,0.028226785361766815,0.01548962201923132,-0.00842397939413786,0.023434394970536232,-0.0162140391767025,0.03147460147738457,-0.027453942224383354,-0.019148485735058784,-0.03211081773042679,0.014229007996618748,-0.012672320939600468,-0.03030368499457836,0.012360159307718277,0.000046969609684310853,-0.0033406864386051893,-0.006706272717565298,0.015442615374922752,0.01979564130306244,0.004975468851625919,0.0038137738592922688,0.008935791440308094,-0.004829738289117813,-0.0020163876470178366,0.03166034817695618,-0.013781310990452766,0.004691657610237598,-0.011036121286451817,0.021051160991191864,0.030073067173361778,-0.029693692922592163,-0.027338435873389244,0.00643629627302289,-0.030042104423046112,-0.0028771490324288607,0.0018136738799512386,-0.003042018273845315,-0.0005929266917519271,-0.030733076855540276,0.006544009316712618,-0.014096793718636036,0.003691827179864049,-0.017097273841500282,0.011694241315126419,0.009425196796655655,0.0000937345321290195,-0.00016717627295292914,-0.004428739659488201,0.013566371984779835,0.001301212003454566,0.024683959782123566,-0.031750891357660294,0.01087080966681242,-0.017792705446481705,-0.03247171640396118,0.019693922251462936,0.03249496966600418,0.0053677610121667385,-0.009234053082764149,0.031723301857709885,0.01319386251270771,-0.0011427864665165544,0.023087454959750175,0.005710889585316181,0.03150671720504761,-0.013813311234116554,0.012173089198768139,-0.0325605645775795,-0.03144606202840805,-0.011476077139377594,0.0005444195703603327,-0.02985360659658909,-0.0068152593448758125,-0.007935182191431522,-0.006430448032915592,0.014206565916538239,-0.018097877502441406,0.019845686852931976,0.031704116612672806,-0.025352517142891884,-0.024844957515597343,-0.03284236416220665,-0.030413594096899033,0.003647418925538659,0.0020126900635659695,0.024800386279821396,0.02497566118836403,0.012672294862568378,0.0063439286313951015,0.007557962089776993,-0.007287992164492607,-0.00026392514701001346,-0.013910164125263691,0.018671909347176552,-0.0043322243727743626,0.020088188350200653,0.011796602047979832,-0.018227867782115936,0.030405977740883827,0.014823559671640396,-0.007459734566509724,-0.03201773390173912,0.03174528107047081,-0.02337709441781044,0.000047035016905283555,-0.019798384979367256,0.0240394938737154,0.012312850914895535,-0.023342011496424675,0.022707592695951462,-0.029221875593066216,0.0006913133547641337,0.01383762527257204,0.020114436745643616,0.004015794955193996,-0.027678510174155235,0.002281793626025319,0.011954642832279205,0.00875106267631054,0.030123265460133553,0.022073615342378616,-0.010149904526770115,0.02187385782599449,-0.025726139545440674,0.01380336657166481,0.0151542192324996,0.015718752518296242,-0.020668942481279373,0.016164669767022133,-0.020984001457691193,0.02325666882097721,-0.020554639399051666,0.0004949523136019707,-0.013759533874690533,-0.007922532968223095,0.032280538231134415,-0.02961428463459015,-0.031828731298446655,-0.011372635141015053,-0.032753076404333115,0.019710823893547058,0.033168356865644455,0.03150895982980728,0.004468350205570459,0.02137574926018715,0.01972636766731739,-0.0008306869422085583,-0.0249477569013834,0.02576792798936367,0.01442044135183096,-0.03202639892697334,0.0032560606487095356,-0.023348992690443993,0.011225827969610691,0.027475519105792046,-0.026023058220744133,-0.015223998576402664,0.004124497063457966,0.0005680025788024068,0.01663842424750328,0.027456926181912422,0.028389140963554382,0.013821067288517952,0.00821842160075903,0.027184627950191498,0.009102764539420605,-0.011514098383486271,-0.012860427610576153,-0.026328634470701218,-0.02921423688530922,0.031333453953266144,-0.0067899818532168865,-0.004506699740886688,0.024512019008398056,0.026414889842271805,0.03229738026857376,-0.02267272397875786,0.01722024381160736,-0.006484758574515581,-0.009930245578289032,0.007481826469302177,-0.008100750856101513,-0.02710336074233055,0.03240852802991867,0.011564129963517189,0.01281030848622322,-0.031043950468301773,0.018872089684009552,0.016574688255786896,0.0002380924706812948,-0.005479197949171066,-0.006447112187743187,-0.03154059126973152,0.0023544621653854847,-0.0040694791823625565,0.019116848707199097,-0.0037344552110880613,0.028291720896959305,-0.017814910039305687,0.0011866516433656216,-0.030373504385352135,0.026290055364370346,0.0014082782436162233,0.030664941295981407,-0.014521517790853977,0.0018364685820415616,0.006783694494515657,-0.017629550769925117,-0.02869921736419201,0.005855693481862545,0.01160209346562624,0.03093864768743515,0.015032378025352955,-0.00024742929963395,0.02777324616909027,0.03105502389371395,-0.012816990725696087,-0.017735127359628677,0.0026370047125965357,-0.01791481487452984,0.022182609885931015,0.01628309302031994,0.031064996495842934,-0.015481225214898586,-0.006897784769535065,-0.023642301559448242,-0.028437739238142967,-0.02708502486348152,-0.0034563106019049883,-0.0025966796092689037,0.00012857530964538455,-0.028401177376508713,-0.0259000975638628,-0.031453996896743774,0.0035963342525064945,0.028923077508807182,-0.009136484004557133,-0.02846803143620491,0.015132904052734375,-0.0023853550665080547,0.0010477486066520214,-0.02383957803249359,0.02868461050093174,-0.000037751920899609104,0.0007662461139261723,-0.01971043087542057,-0.031898558139801025,0.01512558851391077,-0.009113908745348454,0.004398754797875881,-0.01929457299411297,0.015540688298642635,0.030903248116374016,0.029298605397343636,0.003075619926676154,-0.022491317242383957,0.027615731582045555,-0.029853051528334618,-0.021116727963089943,-0.03034009039402008,-0.020921286195516586,-0.00793932843953371,-0.029621336609125137,0.03089975193142891,-0.005225733388215303,0.020758377388119698,0.0012744993437081575,0.012126285582780838,-0.013598311692476273,0.0020514598581939936,0.007282935548573732,0.006300175096839666,0.014494964852929115,0.029705960303544998,0.017953963950276375,-0.02594677545130253,-0.013989086262881756,-0.031270161271095276,0.017537105828523636,0.02376737631857395,-0.008149715140461922,0.03153463453054428,-0.002226575743407011,0.017337705940008163,0.015303715132176876,-0.0011702139163389802,-0.014598820358514786,-0.0025246802251785994,0.02808372862637043,-0.006084243766963482,-0.031146887689828873,0.023634470999240875,-0.025884384289383888,-0.026995303109288216,0.01723865419626236,-0.006976948119699955,0.029637014493346214,-0.021714068949222565,-0.030799636617302895,0.009966918267309666,0.02892449125647545,0.01052149012684822,-0.009327116422355175,0.021159125491976738,0.02858513407409191,0.005848293658345938,-0.03209345042705536,0.02598172426223755,0.0159680787473917,-0.031147032976150513,-0.02886749431490898,-0.03199157491326332,0.021427899599075317,-0.008691314607858658,0.03152437508106232,0.009829561226069927,-0.010893741622567177,0.021731670945882797,-0.01552609819918871,-0.020709985867142677,0.0146658169105649,-0.030156489461660385,0.0008064207504503429,0.030308838933706284,-0.01360568031668663,-0.03151635453104973,-0.016411535441875458,-0.004288004711270332,0.017796214669942856,0.02117174118757248,-0.0027004608418792486,0.025012344121932983,0.028559664264321327,0.002187200589105487,-0.014453957788646221,-0.018867889419198036,-0.031628310680389404,0.02256992645561695,-0.007103882730007172,-0.018289759755134583,-0.0033283140510320663,-0.009950701147317886,-0.009361128322780132,-0.02336404286324978,-0.02235509268939495,0.012066559866070747,0.0026523196138441563,-0.017078962177038193,-0.007591216824948788,0.009355655871331692,0.0026516374200582504,-0.0322936587035656,0.031895242631435394,0.025884628295898438,0.014744564890861511,-0.014278347603976727,-0.018842842429876328,0.008035237900912762,0.0066418820060789585,-0.015244673006236553,-0.01392554771155119,0.020272046327590942,-0.03266424685716629,-0.03182574361562729,0.01693239063024521,-0.012156115844845772,0.028756987303495407,-0.02441885694861412,0.0008619412546977401,0.022705113515257835,0.011410609818994999,0.007050282787531614,-0.02412109263241291,-0.02596060000360012,0.019718201830983162,-0.02284666709601879,0.00453784829005599,0.02051117829978466,0.014460459351539612,-0.014227277599275112,0.03188199922442436,0.005959615111351013,-0.00617604237049818,-0.013237462379038334,0.022543294355273247,-0.016071423888206482,0.010437753051519394,0.016205312684178352,-0.015528302639722824,0.02647090144455433,-0.031030038371682167,0.0071895793080329895,0.01920204423367977,-0.03118506819009781,-0.029438966885209084,0.02654941752552986,-0.0329534076154232,0.005392237100750208,0.00284806196577847,-0.013946975581347942,0.0014265559148043394,0.015202566049993038,0.01492373552173376,-0.030795224010944366,-0.024941757321357727,-0.01981131173670292,0.01813335344195366,0.03227397799491882,0.005023302044719458,-0.029683992266654968,-0.023889845237135887,-0.01664753444492817,0.0026668542996048927,0.0011517946841195226,-0.026092061772942543,0.031061384826898575,0.0161002017557621,-0.019698837772011757,-0.014600580558180809,-0.006282273214310408,-0.027621077373623848,-0.015083144418895245,0.0018036114051938057,-0.030404044315218925,0.014913099817931652,0.031640563160181046,0.02226727455854416,-0.031337443739175797,-0.01209720317274332,0.01855623349547386,-0.010065151378512383,0.011077596805989742,-0.004309855867177248,-0.0026190306525677443,0.02579197846353054,-0.029140111058950424,0.014683877117931843,0.013551481999456882,0.019195999950170517,0.014036351814866066,0.03239256888628006,-0.022042129188776016,-0.03152206167578697,0.0006374175427481532,-0.0323682501912117,-0.010486342012882233,-0.012780705466866493,0.004075834061950445,0.0198072362691164,-0.02526637353003025,-0.024311209097504616,0.012700888328254223,-0.013587960973381996,0.017677269876003265,0.027658091858029366,0.010957181453704834,-0.013347268104553223,-0.009508651681244373,-0.00977786909788847,-0.0015132945263758302,-0.005361523013561964,0.008091747760772705,0.005064426921308041,0.025615477934479713,-0.019675785675644875,-0.0007045057136565447,-0.022189661860466003,0.007260257378220558,-0.027565982192754745,0.005986683536320925,-0.025735905393958092,0.00285142264328897,-0.031737472862005234,-0.017175335437059402,-0.019176101312041283,-0.0072087254375219345,0.010186886414885521,-0.02650999277830124,-0.0008140542777255177,-0.018485156819224358,0.014789819717407227,-0.0022239291574805975,0.014663135632872581,-0.004982816055417061,-0.032784607261419296,0.02645421400666237,-0.015865487977862358,0.004732109606266022,-0.029117165133357048,0.004002634901553392,-0.007683801930397749,0.0261631328612566,0.000837485131341964,0.032256703823804855,0.030063046142458916,-0.029579201713204384,0.02152840420603752,-0.014880708418786526,0.011459201574325562,-0.03167664259672165,-0.021120663732290268,-0.026687270030379295,0.019540246576070786,0.027347853407263756,-0.008835526183247566,-0.029891977086663246,-0.020167546346783638,-0.01571878232061863,-0.014320419169962406,0.0248580202460289,0.004540523048490286,0.00424026558175683,-0.016272645443677902,-0.03328334540128708,-0.03259938210248947,-0.02867804281413555,0.02552666701376438,0.023026976734399796,0.022446654736995697,-0.02514280378818512,0.029002206400036812,-0.022067325189709663,-0.0016187132569029927,-0.020509907975792885,-0.030135812237858772,0.028597615659236908,0.0032110565807670355,-0.003343955148011446,0.011719904839992523,0.019993528723716736,-0.012919360771775246,0.012234602123498917,0.016703130677342415,-0.008806838653981686,0.02119755931198597,-0.0114347068592906,0.02433278039097786,-0.0002531769860070199,0.03137028589844704,0.008302824571728706,0.03189937770366669,-0.008774151094257832,0.009508020244538784,0.03099626488983631,-0.02154725044965744,-0.02967933937907219,-0.028318172320723534,0.028703052550554276,0.0020449834410101175,0.005338319111615419,0.017413662746548653,-0.0027934620156884193,0.010509070940315723,0.022011686116456985,-0.017386529594659805,-0.029918624088168144,0.012065201066434383,0.007373954635113478,-0.03073769249022007,0.004877376835793257,0.032473981380462646,0.010912472382187843,-0.016385482624173164,0.014325565658509731,0.03049497678875923,-0.015109467320144176,-0.025574861094355583,0.020353997126221657,0.002217367058619857,-0.032834481447935104,0.01205546222627163,-0.025123145431280136,0.02791711688041687,-0.014408900402486324,0.0051544043235480785,0.0061484756879508495,0.008029036223888397,-0.016212524846196175,0.021991753950715065,0.0076888324692845345,0.007447694428265095,-0.011042178608477116,-0.01810162141919136,0.009412787854671478,-0.009955702349543571,0.027993138879537582,-0.005092041566967964,0.03305833041667938,0.018566761165857315,-0.022352058440446854,0.01592509262263775,0.020956335589289665,0.014275764115154743,-0.011709307320415974,0.03325800225138664,0.020069904625415802,0.007605486549437046,-0.012308955192565918,0.02520904690027237,0.014155046083033085,0.01342287752777338,-0.0325089693069458,-0.01210593432188034,-0.01333832647651434,-0.0020967768505215645,-0.012719985097646713,0.020594405010342598,-0.03222709149122238,0.018687773495912552,0.029064496979117393,-0.029342157766222954,-0.011302576400339603,0.012539131566882133,-0.005164468195289373,-0.016204901039600372,-0.028795089572668076,-0.01510682050138712,0.004140868782997131,0.010288321413099766,0.018146364018321037,-0.01657494530081749,-0.008694435469806194,0.0061966064386069775,-0.02927926555275917,-0.03133031725883484,0.0031386655755341053,0.024802250787615776,-0.015108012594282627,0.025168906897306442,-0.019633280113339424,0.009148037061095238,0.006250421516597271,-0.00858354289084673,0.00030567069188691676,-0.006804492324590683,-0.021356632933020592,0.02864108607172966,-0.03059586137533188,0.004047086928039789,-0.014193727634847164,0.028861118480563164,-0.023123187944293022,-0.007464149035513401,-0.018570706248283386,-0.0007198162493295968,0.020908869802951813,0.017810562625527382,0.024289987981319427,0.03216904029250145,0.0042002336122095585,0.03191725164651871,0.021621575579047203,0.012627900578081608,0.031917013227939606,0.005353243090212345,0.02222510799765587,-0.005445629823952913,0.0022460955660790205,-0.01701434515416622,-0.031193099915981293,0.015821214765310287,0.003994140774011612,-0.027170171961188316,-0.014418269507586956,-0.026928788051009178,0.02683524787425995,0.03242893144488335,-0.019026199355721474,0.006242492701858282,0.029100896790623665,0.0008302026544697583,0.013291345909237862,-0.010400776751339436,-0.017594458535313606,-0.01616039127111435,-0.025620918720960617,0.03255952522158623,-0.028115734457969666,0.0037148904521018267,0.031140878796577454,0.022158881649374962,-0.02269122563302517,-0.016749843955039978,-0.02724323980510235,0.021717755123972893,0.0023513182532042265,-0.03099723346531391,0.02488739788532257,0.0310420673340559,-0.021227430552244186,-0.012924849055707455,0.018162358552217484,-0.019382502883672714,0.016344979405403137,-0.02923586033284664,-0.032893598079681396,0.02569025382399559,0.017653394490480423,-0.016355201601982117,-0.016028692945837975,0.028295064345002174,0.01210927963256836,0.012725003063678741,0.00543920649215579,-0.024410430341959,-0.02564598247408867,0.021050119772553444,0.02155383490025997,0.027197837829589844,-0.008285042829811573,0.03110729530453682,0.017057429999113083,0.014396345242857933,0.009292402304708958,-0.010015270672738552,0.006175728049129248,0.016555186361074448,0.009446918964385986,-0.006181236356496811,0.015412120148539543,-0.000908655405510217,-0.02671240270137787,0.014581495895981789,0.005413843784481287,0.023691177368164062,0.011070274747908115,0.029588043689727783,-0.008275697939097881,-0.03180057555437088,-0.028957054018974304,0.011078760959208012,-0.022692112252116203,-0.004827873315662146,-0.008238719776272774,-0.008370491676032543,-0.009915823116898537,0.020811183378100395,0.032467734068632126,-0.012603994458913803,-0.030567584559321404,0.014561239629983902,0.03276385739445686,-0.004616744350641966,0.009949733503162861,0.032875895500183105,-0.011241571046411991,0.020694123581051826,0.007981070317327976,0.015794571489095688,0.033208709210157394,0.01906389743089676,0.006459821481257677,-0.00015400105621665716,0.0181758813560009,0.026459140703082085,0.02453901804983616,0.02944372408092022,-0.0035892061423510313,-0.009365424513816833,-0.03326155245304108,0.014211693778634071,0.014353934675455093,0.008853615261614323,-0.00659628352150321,0.004360972438007593,-0.005073534790426493,0.029265999794006348,0.017601722851395607,-0.017661094665527344,-0.014355168677866459,-0.0040852781385183334,-0.0022639886010438204,0.02102392353117466,-0.021724466234445572,-0.006646851077675819,-0.025455519556999207,-0.026730112731456757,-0.03260036185383797,0.028629286214709282,0.0013945294776931405,0.0009414825472049415,-0.024086974561214447,0.01792122796177864,-0.0317821279168129,-0.0006114185671322048,-0.012466699816286564,0.021183116361498833,-0.019957218319177628,0.005785373505204916,-0.021958474069833755,0.018487386405467987,0.0008724723593331873,0.02232118882238865,-0.0307081900537014,0.008996768854558468,0.025094280019402504,-0.014824739657342434,-0.004392450675368309,-0.03245781734585762,-0.024423472583293915,0.025859329849481583,0.010827044025063515,-0.017611093819141388,-0.011398706585168839,0.02888849936425686,0.025119982659816742,-0.005547615699470043,0.014813989400863647,-0.02577398717403412,-0.009964664466679096,0.022767143324017525,0.019478466361761093,0.01831803284585476,0.0048021841794252396,-0.01998366229236126,0.03209348022937775,0.003575883572921157,-0.0007795409765094519,-0.0029562830459326506,-0.026530416682362556,-0.001572163193486631,-0.022962385788559914,-0.014064295217394829,-0.006759889889508486,-0.003729642368853092,-0.007419280707836151,-0.0025569170247763395,-0.018862461671233177,-0.027765445411205292,0.007973795756697655,-0.011420561000704765,-0.014224962331354618,-0.022134460508823395,-0.0298224575817585,-0.008526400662958622,0.004281216766685247,0.004003367852419615,0.014142661355435848,-0.0060834381729364395,0.025303373113274574,0.011772395111620426,0.006532707251608372,-0.0256564449518919,-0.0029024367686361074,-0.015028483234345913,-0.012999236583709717,-0.021923834457993507,0.03150681406259537,-0.0066108726896345615,0.015478143468499184,0.00822474341839552,0.02069210074841976,-0.010258697904646397,0.024777835234999657,-0.0006098272278904915,-0.027056163176894188,-0.018941335380077362,-0.0031975002493709326,-0.0065529970452189445,-0.0049660964868962765,0.007698350120335817,0.008711777627468109,-0.0022035723086446524,0.015517357736825943,-0.008809561841189861,-0.004468826111406088,-0.027130307629704475,-0.0042849136516451836,-0.019833380356431007,-0.004639298189431429,0.03203986957669258,0.007438930217176676,0.010030259378254414,-0.018167709931731224,-0.03054146282374859,-0.0073738787323236465,0.01524900458753109,-0.013426052406430244,-0.013758296146988869,0.004825366195291281,0.0035935984924435616,0.009179772809147835,-0.010556073859333992,-0.01251443475484848,0.023418424651026726,-0.002840980887413025,-0.018387392163276672,0.010831959545612335,0.010661412961781025,-0.013933338224887848,-0.0005410224548541009,-0.018147826194763184,-0.004795621614903212,0.01537859346717596,-0.0015071179950609803,-0.013319026678800583,0.024437228217720985,0.007187064737081528,0.025445880368351936,-0.03206207975745201,0.03117348439991474,0.027769343927502632,0.006110354792326689,-0.0043846601620316505,0.012140697799623013,-0.004243018571287394,0.018102575093507767,0.010521944612264633,0.021052667871117592,0.00823736097663641,-0.030669400468468666,0.00514953164383769,-0.02805539406836033,-0.023648161441087723,-0.026612233370542526,-0.006028593983501196,0.007015362847596407,-0.01438338216394186,0.03311913087964058,0.02394329197704792,0.006514483597129583,0.0048493132926523685,0.01694365218281746,0.004278642125427723,-0.007682981435209513,0.017177758738398552,0.026124749332666397,0.001986701972782612,-0.011755329556763172,0.0005465534632094204,-0.026586025953292847,-0.0310756154358387,-0.010487046092748642,-0.01671437919139862,-0.02317923493683338,-0.02025662176311016,0.024344593286514282,0.0243679229170084,0.015171128325164318,0.014674638397991657,-0.020067762583494186,-0.033006154000759125,0.008610817603766918,0.004103821236640215,-0.009362264536321163,-0.01806670054793358,-0.024419257417321205,0.023538237437605858,0.026261672377586365,0.02656671032309532,0.003280588425695896,0.031887948513031006,0.0023905595298856497,0.00098356360103935,0.0279088094830513,-0.03045884519815445,-0.013244337402284145,0.025277795270085335,0.031459659337997437,-0.01372948195785284,-0.007936804555356503,-0.017925340682268143,-0.02036607638001442,0.006269101984798908,-0.021808167919516563,-0.014660811983048916,0.024395400658249855,0.005607764236629009,-0.03200424090027809,0.009097029455006123,0.02862119860947132,-0.031054431572556496,0.02389110065996647,-0.023133715614676476,0.017229607328772545,-0.017521025612950325,-0.031051533296704292,-0.004769211169332266,0.018894590437412262,-0.0091147031635046,-0.020665688440203667,-0.018534483388066292,-0.0024715701583772898,0.02009529620409012,-0.021047834306955338,-0.025501497089862823,0.01886875554919243,-0.010473962873220444,0.01500838715583086,0.016378087922930717,-0.02045901119709015,-0.007595441769808531,-0.0034232765901833773,0.029273882508277893,0.031103534623980522,0.014468039385974407,0.016924846917390823,0.022294454276561737,-0.019452786073088646,-0.0061088441871106625,0.026382483541965485,-0.010983261279761791,-0.007389713544398546,-0.003473422722890973,-0.016293738037347794,-0.0011112826177850366,-0.019497521221637726,0.017447253689169884,0.02480054832994938,0.0030192104168236256,-0.02834436669945717,0.015274318866431713,0.010266264900565147,-0.015580802224576473,0.023236077278852463,0.0258121769875288,-0.029666779562830925,0.03300042822957039,-0.024291811510920525,-0.005276618525385857,-0.008421523496508598,0.02236563339829445,0.013996054418385029,0.01431225799024105,-0.004399924073368311,-0.01568308100104332,0.018086368218064308,-0.01197810284793377,-0.0293178278952837,0.01159431878477335,0.00828575436025858,-0.033234015107154846,-0.027615996077656746,0.01864086650311947,-0.02063857764005661,-0.0312447939068079,-0.002302453387528658,0.012735857628285885,0.016577795147895813,-0.02786337397992611,0.010735098272562027,-0.023433657363057137,-0.030134618282318115,-0.028603170067071915,-0.027266645804047585,0.032951243221759796,0.002724968595430255,-0.029857520014047623,0.009014075621962547,-0.015914997085928917,0.028102001175284386,0.008174596354365349,-0.013769847340881824,0.005525344517081976,-0.0006374354125000536,0.024153731763362885,0.010371661745011806,0.00376143422909081,-0.013591596856713295,0.028977809473872185,0.013625320047140121,0.008993363007903099,0.007814140990376472,-0.013916115276515484,0.006755100097507238,0.025787116959691048,0.012608327902853489,0.01231745071709156,-0.021551981568336487,0.005174200516194105,0.017434362322092056,0.00946479570120573,0.02702707052230835,0.005296952091157436,-0.027850322425365448,0.024502256885170937,-0.0037808201741427183,0.014237643219530582,-0.02540207840502262,-0.012051566503942013,-0.015274977311491966,0.013146103359758854,0.017542649060487747,-0.010446444153785706,-0.014497424475848675,0.004469947423785925,-0.0012021968141198158,-0.025151753798127174,-0.005062262061983347,0.015406019054353237,-0.003933964762836695,0.012742412276566029,0.0016900163609534502,-0.02337084524333477,0.023920882493257523,-0.03182162344455719,0.006493078079074621,0.031378574669361115,0.02198948711156845,-0.009085937403142452,0.0244685597717762,0.0178974736481905,0.0322774313390255,-0.005578991957008839,-0.0048608859069645405,0.024487566202878952,0.0012683965032920241,0.014800706878304482,-0.007244298234581947,-0.0033120259176939726,0.019116075709462166,0.0018007615581154823,0.00906926766037941,-0.028049729764461517,-0.005481959320604801,0.010858121328055859,0.030920332297682762,-0.004456732887774706,0.03297671675682068,0.0009983326308429241,-0.006168372929096222,-0.0025045345537364483,0.015924260020256042,-0.0028905807994306087,0.023817062377929688,-0.00677021499723196,0.017339281737804413,0.023384423926472664,-0.0023610081989318132,-0.007195744663476944,0.005908858962357044,-0.010370026342570782,0.014561211690306664,-0.012541543692350388,-0.022210678085684776,-0.030326467007398605,0.027674483135342598,-0.002578595420345664,0.021449489519000053,0.01767049916088581,-0.025781193748116493,0.0032424554228782654,0.02590988017618656,0.013276520185172558,-0.006017127074301243,-0.020847860723733902,-0.015497811138629913,-0.022702811285853386,-0.016545405611395836,0.020321382209658623,0.003412024350836873,-0.0070081776939332485,0.016727758571505547,-0.005374917760491371,-0.02587123215198517,-0.007703287526965141,0.032533206045627594,0.017770452424883842,-0.022128239274024963,0.016312697902321815,-0.015201053582131863,0.005845025647431612,0.03108266368508339,-0.016061440110206604,0.008798194117844105,0.009396062232553959,0.004675663076341152,-0.028769953176379204,-0.011798001825809479,0.010907911695539951,-0.0014196117408573627,-0.01489161979407072,0.004234764259308577,-0.029876844957470894,-0.0049821301363408566,-0.020307593047618866,-0.02677110582590103,0.027205107733607292,-0.027361154556274414,-0.0052742911502718925,-0.025095857679843903,-0.003638052847236395,0.0071435668505728245,0.023059222847223282,0.030314696952700615,-0.021461041644215584,-0.009352345950901508,-0.007846648804843426,-0.007809222675859928,-0.010515576228499413,0.020087512210011482,-0.011971363797783852,-0.009633383713662624,0.019002491608262062,-0.020689036697149277,0.011538603343069553,-0.021340522915124893,0.023945851251482964,-0.0038183012511581182,-0.019751932471990585,-0.022998742759227753,-0.005044376943260431,0.02861623466014862,-0.010581613518297672,0.013101061806082726,-0.030957508832216263,-0.021385306492447853,0.016288181766867638,0.013865305110812187,0.02733212150633335,-0.03253135457634926,0.0005554788513109088,-0.0056466031819581985,0.0013902777573093772,-0.02112964168190956,-0.025890503078699112,0.03311566263437271,-0.004662246908992529,0.02623625099658966,-0.006219761446118355,0.02494243159890175,-0.029621437191963196,0.031871598213911057,0.009462366811931133,-0.014535180293023586,0.002307076472789049,0.022792499512434006,-0.01940634660422802,-0.017507538199424744,-0.01772879622876644,0.02320789359509945,0.0124371238052845,0.020035797730088234,-0.007038100156933069,0.01799733191728592,-0.028332743793725967,-0.03233149275183678,0.002675394993275404,0.019471464678645134,0.0122774513438344,-0.030873922631144524,0.030538180842995644,-0.024731915444135666,0.023665880784392357,0.019329430535435677,-0.02144531160593033,-0.008905747905373573,0.011914093047380447,-0.02018049731850624,0.03145090118050575,0.028901800513267517,-0.020155826583504677,0.029746677726507187,0.02260603941977024,0.004624729976058006,0.006007900461554527,-0.02455448918044567,-0.014707891270518303,-0.029970498755574226,-0.03037150576710701,0.030613955110311508,-0.0192610751837492,0.033212728798389435,0.0138105982914567,0.024026095867156982,-0.012378444895148277,-0.025253036990761757,0.030070144683122635,0.02586984634399414,0.032508283853530884,-0.009538806974887848,-0.03119838424026966,-0.008397570811212063,-0.004565507173538208,0.014735345728695393,-0.013820476830005646,-0.029338311403989792,-0.028609877452254295,-0.018426353111863136,-0.00021785632998216897,-0.0010626933071762323,0.012564322911202908,0.013329485431313515,0.0249040350317955,0.015586692839860916,-0.029644915834069252,0.00575812766328454,-0.016491485759615898,-0.007003039587289095,-0.006668668705970049,0.015979669988155365,-0.016462821513414383,0.007790020201355219,0.005438600201159716,-0.0302964448928833,0.0018757907673716545,0.023484932258725166,-0.030571887269616127,-0.011155672371387482,0.02768264338374138,-0.020331695675849915,0.012550270184874535,-0.005236832890659571,0.022255754098296165,0.02891952358186245,-0.011724571697413921,0.0002240676840301603,0.005275529809296131,0.024534938856959343,0.03194892033934593,0.02956971526145935,0.01687958836555481,-0.02740240842103958,0.011179205030202866,0.025177879258990288,-0.0054778726771473885,0.016652578487992287,-0.01600724458694458,0.02664829231798649,0.0007241975981742144,0.017908569425344467,0.00008952438656706363,-0.020207615569233894,0.005588834639638662,-0.029612576588988304,0.005757514853030443,-0.01968534290790558,-0.009398079477250576,-0.013944505713880062,0.03260025009512901,0.006307428702712059,0.000005292056357575348,0.026623424142599106,0.00429267855361104,0.01784202829003334,-0.02234489470720291,0.01756703108549118,0.0035464398097246885,0.011014723218977451,0.01368976105004549,0.005219853483140469,0.031832821667194366,-0.014301625080406666,0.02291313372552395,-0.0045389896258711815,-0.007813017815351486,0.033253829926252365,-0.012042714282870293,-0.016477132216095924,0.016235968098044395,0.00662563182413578,-0.02066132239997387,0.009696737863123417,0.022244462743401527,0.02613847702741623,0.00954300258308649,-0.016680577769875526,0.025584883987903595,0.0030088452622294426,0.027085451409220695,0.013964333571493626,-0.017202548682689667,-0.014760050922632217,0.030471520498394966,0.002350530819967389,-0.018449081107974052,0.008152073249220848,-0.019874734804034233,-0.001905633369460702,0.013357504270970821,0.010794158093631268,0.017395073547959328,0.03174007311463356,-0.0224846750497818,0.027139922603964806,-0.03317360579967499,-0.003790914313867688,0.020841475576162338,0.015272658318281174,0.003272945759817958,-0.0005672431434504688,-0.004320727661252022,-0.010538727045059204,0.02227959595620632,0.024782661348581314,-0.0003063006734009832,0.0004371573741082102,-0.0017513948259875178,-0.027231384068727493,0.027024464681744576,0.0009415503591299057,0.003925958648324013,0.026156187057495117,-0.019315533339977264,-0.01365718338638544,-0.019838139414787292,-0.010988743044435978,-0.023050513118505478,-0.02454499900341034,0.013971771113574505,-0.017842382192611694,0.003183476161211729,0.015396110713481903,0.018695592880249023,0.00144425209145993,0.002645649714395404,0.032285165041685104,-0.02477441355586052,0.013437163084745407,0.0067772469483315945,-0.002948837587609887,-0.0076011852361261845,0.01571689173579216,0.008699953556060791,0.009026946499943733,-0.00027381189283914864,0.018829450011253357,0.00815421063452959,0.015436902642250061,-0.015609905123710632,0.024114713072776794,0.027005087584257126,-0.024459948763251305,0.004994108807295561,-0.004190453793853521,-0.02018158510327339,0.00380910886451602,-0.010650102980434895,0.002833297476172447,0.02989567257463932,0.03039691038429737,-0.0177494827657938,0.02673441730439663,-0.02797580696642399,0.020554807037115097,0.014117816463112831,-0.009741026908159256,0.007903913035988808,-0.017317255958914757,0.028429577127099037,0.001996495993807912,-0.0036816587671637535,-0.02013472095131874,-0.011163249611854553,0.021629679948091507,0.015431270934641361,0.02207580953836441,0.020687147974967957,0.006804414559155703,-0.020859245210886,0.027614906430244446,-0.005912592634558678,0.025342650711536407,0.0018943712348118424,0.028198326006531715,-0.030384840443730354,-0.019661523401737213,0.019559327512979507,-0.017186572775244713,0.008795264177024364,-0.006239096634089947,0.0015145961660891771,0.02277393452823162,0.01847037859261036,0.02550034411251545,-0.017324184998869896,0.03252086043357849,0.016784317791461945,-0.016522474586963654,0.00689966743811965,-0.032771605998277664,0.02498907409608364,-0.002255426486954093,-0.01159420795738697,0.01858920231461525,-0.004202405922114849,0.0025547833647578955,0.022334624081850052,0.014786465093493462,0.01873737759888172,0.009746312163770199,-0.02642671763896942,-0.0022974666208028793,-0.007005881983786821,-0.004162459634244442,-0.03123355656862259,-0.003871814114972949,-0.01008427795022726,0.03169674053788185,0.019723888486623764,0.029662154614925385,-0.026242604479193687,-0.003999673295766115,0.017404012382030487,0.0060250768437981606,-0.015269707888364792,0.032080769538879395,0.026376616209745407,0.026679627597332,0.03261978551745415,0.03186209127306938,0.0008326969109475613,0.02504773437976837,0.02755950391292572,0.021461939439177513,0.01844821684062481,-0.027151059359312057,0.023359473794698715,0.03318630903959274,-0.005628829821944237,-0.029835354536771774,0.027979131788015366,-0.012380466796457767,0.011460543610155582,-0.02935698814690113,-0.013630661182105541,0.014743232168257236,-0.0027482069563120604,0.03223291411995888,0.0082987230271101,-0.012558347545564175,0.019397791475057602,0.0023930552415549755,-0.014400633051991463,-0.017840974032878876,0.03182460740208626,0.013773977756500244,0.0004451657005120069,-0.005673135165125132,0.005069307051599026,-0.030238334089517593,-0.022501837462186813,-0.019091414287686348,-0.02679244615137577,0.006542123854160309,-0.0025639061350375414,-0.012339172884821892,-0.013591039925813675,-0.018200483173131943,-0.02144281566143036,-0.03068668022751808,-0.02732478640973568,-0.004279053770005703,-0.026784416288137436,-0.027388330549001694,-0.018917057663202286,-0.02754630148410797,0.023671913892030716,-0.01598375104367733,0.006465435028076172,0.027667801827192307,0.029112137854099274,0.019544631242752075,0.03024914115667343,0.029867051169276237,-0.010643813759088516,-0.010006427764892578,-0.02597852423787117,-0.007630219683051109,0.03176863491535187,-0.03202751651406288,-0.03303508833050728,-0.01765800081193447,-0.01601235382258892,0.0030625895597040653,-0.013939487747848034,-0.0225879717618227,0.012575753033161163,-0.004892691504210234,0.02924877218902111,0.010151554830372334,-0.01953842304646969,0.027066512033343315,0.01609703339636326,-0.004405624233186245,-0.0037437069695442915,0.03316117078065872,-0.021600335836410522,0.026137862354516983,0.026167036965489388,-0.01281765103340149,-0.008593385107815266,-0.012537532486021519,0.008858591318130493,0.007893231697380543,0.03149201720952988,-0.023911919444799423,0.0025320635177195072,-0.00003799739351961762,0.02642202377319336,-0.012015137821435928,0.020095519721508026,0.010806538164615631,-0.018457593396306038,0.0005182907334528863,0.014904928393661976,0.0038305497728288174,0.017740242183208466,0.00922689400613308,0.03303712606430054,0.024331986904144287,0.007270929869264364,-0.00046299121459014714,0.018428461626172066,-0.024945691227912903,-0.019879627972841263,0.00011926951265195385,-0.0061920415610075,0.031667377799749374,0.015639545395970345,0.009888727217912674,0.005273823160678148,0.03063633292913437,0.02554045058786869,0.024130692705512047,0.005771507043391466,-0.026664000004529953,0.014098511077463627,-0.027569804340600967,0.0205866526812315,0.0024512235540896654,-0.0010591249447315931,0.022050905972719193,0.01625918596982956,-0.019618777558207512,-0.021157974377274513,-0.015004933811724186,-0.01853833720088005,0.00007419582834700122,-0.023782821372151375,-0.009804931469261646,-0.022658366709947586,-0.011407723650336266,0.011734357103705406,-0.02283899113535881,-0.02088153548538685,0.0006960274185985327,0.003243169281631708,-0.026958512142300606,-0.003885770682245493,0.006319315638393164,0.018770521506667137,-0.01952226646244526,-0.02669706381857395,-0.02381713315844536,-0.022150173783302307,-0.004394051618874073,-0.008857496082782745,0.023215483874082565,-0.019089359790086746,0.027714768424630165,-0.004437393508851528,-0.012639698572456837,0.019808299839496613,0.018453449010849,-0.03282204270362854,-0.0295212771743536,0.009118911810219288,-0.012857136316597462,0.021371405571699142,-0.03233308345079422,0.008781063370406628,-0.03321240097284317,-0.03214268013834953,-0.028012363240122795,-0.03050830215215683,-0.008240068331360817,-0.025143906474113464,0.03210945427417755,0.012545024044811726,-0.02685355953872204,0.004511954262852669,-0.02695457451045513,0.02417892962694168,-0.02433706261217594,0.014386791735887527,0.01059013418853283,-0.007702918723225594,0.005998097825795412,0.008431612513959408,-0.026785610243678093,0.024560391902923584,-0.0020900354720652103,0.01932637207210064,-0.031178906559944153,0.005573473870754242,-0.02320101484656334,0.024332264438271523,-0.03137935698032379,-0.0047166054137051105,-0.009763294830918312,0.0025249063037335873,-0.028851114213466644,-0.0004370299866423011,-0.022043418139219284,-0.021622296422719955,-0.02489410899579525,0.010357909835875034,0.0035540901590138674,0.012567810714244843,-0.007214440032839775,0.03063398227095604,-0.02824298106133938,-0.00823820848017931,0.004432311747223139,-0.0033333657775074244,0.02411932311952114,0.01581532135605812,0.003950301092118025,-0.025145847350358963,-0.03328418359160423,-0.02113153785467148,-0.02119181863963604,0.01612117886543274,-0.013179438188672066,-0.00483722984790802,0.03168342635035515,-0.02066640369594097,-0.02150227315723896,0.0021340735256671906,-0.023892803117632866,-0.032747674733400345,-0.02111058123409748,-0.02144172228872776,-0.004625412635505199,-0.012187695130705833,-0.028600851073861122,0.012523435987532139,-0.011256798170506954,-0.002810068428516388,-0.03068956360220909,0.006421795580536127,-0.004528077784925699,0.022464372217655182,-0.023524843156337738,0.011135843582451344,0.0046637705527246,0.010814552195370197,-0.021203182637691498,0.018992824479937553,-0.0156699288636446,0.023607948794960976,-0.008724293671548367,-0.012719910591840744,0.003625914454460144,-0.02228671871125698,0.031449489295482635,-0.007085373159497976,-0.020767278969287872,0.018918130546808243,-0.0032228585332632065,-0.00810182187706232,0.014134444296360016,0.030994011089205742,-0.00961751863360405,-0.010495774447917938,0.005210587289184332,0.02485005185008049,-0.017858028411865234,0.005159868858754635,0.01774316094815731,0.020250841975212097,-0.023721344769001007,0.012368014082312584,0.024529729038476944,0.02510141208767891,-0.007211054675281048,-0.00888078287243843,-0.019200388342142105,0.007134739309549332,0.0024077268317341805,0.0020268168300390244,-0.003541322657838464,-0.022751428186893463,0.027262430638074875,-0.029920117929577827,0.021203026175498962,0.0005643953336402774,0.03277648985385895,0.026315193623304367,0.003526549320667982,-0.006549588404595852,-0.017404526472091675,-0.0017451434396207333,0.025572074577212334,0.008455024100840092,-0.005145206581801176,0.018903708085417747,-0.009300312027335167,-0.03049236349761486,-0.012517133727669716,-0.009204283356666565,0.014812808483839035,0.0019759288989007473,-0.004390372429043055,0.01132575049996376,-0.009972416795790195,0.027377868071198463,0.017291564494371414,0.024320021271705627,0.0020669586956501007,-0.021794497966766357,-0.030511755496263504,0.02300877496600151,-0.0009413903462700546,-0.005321011412888765,0.024693256244063377,-0.03231724351644516,-0.014107405208051205,0.004161427728831768,0.029745453968644142,-0.01703728549182415,0.003013104433193803,-0.004146720748394728,0.01413522008806467,-0.0014433563919737935,0.02217063121497631,0.025529418140649796,0.024196147918701172,-0.011890892870724201,-0.0013841473264619708,-0.0071657635271549225,-0.026843789964914322,-0.021116157993674278,-0.013034792616963387,0.029518743976950645,0.03123590350151062,0.0155260618776083,0.01139877550303936,0.03266427293419838,-0.024943523108959198,-0.010737939737737179,0.010612145066261292,-0.026811806485056877,0.02306089736521244,0.0076461900025606155,-0.02115553617477417,0.010380237363278866,-0.014876915141940117,0.028432441875338554,0.022627325728535652,-0.012553100474178791,-0.02793077938258648,-0.027499880641698837,0.0020578664261847734,0.030215894803404808,-0.024613425135612488,-0.03174562752246857,0.028399689123034477,-0.016984790563583374,-0.004260947462171316,-0.0059885564260184765,-0.0172707699239254,0.026210106909275055,0.0016936331521719694,-0.03058367222547531,-0.02333177998661995,0.0022597680799663067,0.013251218013465405,-0.02061769925057888,-0.029446231201291084,0.01953955367207527,0.0237425584346056,-0.02215586230158806,-0.01162817794829607,0.00044414971489459276,-0.0008192167151719332,0.032692987471818924,-0.023137595504522324,0.023146899417042732,-0.016892991960048676,-0.03170638158917427,-0.024418028071522713,-0.01577727496623993,-0.023034928366541862,-0.024472059682011604,-0.00929994322359562,0.020101195201277733,-0.026166673749685287,-0.005194539204239845,0.012054013088345528,0.024491088464856148,-0.0036234694998711348,0.015480344183743,-0.01349416933953762,-0.004819944500923157,0.026971453800797462,0.029318377375602722,0.013022602535784245,0.0296757984906435,0.0003860772412735969,0.020446481183171272,0.007609047926962376,-0.028809569776058197,-0.01720191165804863,0.005038529634475708,0.03286700323224068,0.02780383825302124,-0.017012944445014,-0.007616268005222082,0.02648300863802433,-0.021857494488358498,-0.0036142212338745594,-0.028220659121870995,-0.0032440179493278265,0.014284394681453705,0.020347556099295616,-0.0031203823164105415,0.019078973680734634,-0.027537140995264053,-0.026168253272771835,0.012636953964829445,0.02069125510752201,-0.0003308852028567344,0.012400508858263493,-0.00005320164927979931,-0.02222634106874466,0.016590585932135582,0.02972348779439926,0.0332166962325573,0.02892550453543663,-0.030236171558499336,-0.0006232929299585521,0.012021214701235294,0.01628035306930542,-0.020391661673784256,-0.003193044802173972,-0.0021033030934631824,0.02472776547074318,0.02002367563545704,-0.0029370991978794336,0.025539234280586243,0.030358945950865746,-0.030038602650165558,-0.028381451964378357,0.02209118753671646,0.0230118278414011,-0.012556765228509903,-0.0077684009447693825,-0.03246571868658066,-0.030973153188824654,-0.032445430755615234,0.000864327244926244,0.0036580567248165607,-0.03153998777270317,0.013043326325714588,-0.02180219069123268,0.030392847955226898,0.026974234730005264,-0.006988728418946266,-0.003007860155776143,0.005214492324739695,0.0026211771182715893,-0.029657570645213127,-0.029117634519934654,0.0009103267802856863,0.016515057533979416,-0.00555817037820816,0.004363983869552612,0.012050122953951359,-0.006251602433621883,0.002160789677873254,0.02143090032041073,-0.013557925820350647,-0.012302201241254807,0.027768762782216072,0.026543572545051575,-0.01388497930020094,-0.0021342847030609846,0.00003595939779188484,-0.025687837973237038,-0.024130696430802345,-0.02428394928574562,-0.03306902199983597,-0.00846434012055397,0.014476997777819633,0.022762198001146317,0.009551197290420532,-0.03144325688481331,-0.032719168812036514,-0.02309396117925644,0.015589520335197449,-0.0180241446942091,0.0014039995148777962,0.020538102835416794,-0.009691189974546432,-0.025138413533568382,0.00965967122465372,-0.029551103711128235,-0.0023157289251685143,0.0012817381648346782,-0.031173618510365486,0.020243695005774498,-0.017309920862317085,-0.0020140844862908125,0.007619029842317104,-0.0008907350129447877,0.007192607503384352,-0.00802946463227272,-0.0029987688176333904,0.009292632341384888,-0.005849609617143869,-0.010128525085747242,0.026265660300850868,0.019808415323495865,0.001936035812832415,-0.015389544889330864,-0.0007658899412490427,0.010644885711371899,0.029552293941378593,0.007000166457146406,0.0009581081685610116,-0.017644809558987617,0.0035664334427565336,0.026313811540603638,-0.012435449287295341,0.019369788467884064,0.015621503815054893,0.014214243739843369,0.028580378741025925,-0.015462294220924377,-0.005035744048655033,-0.003848343389108777,-0.006847226992249489,0.024889713153243065,0.019243324175477028,0.03278467431664467,0.005327642895281315,-0.002281307242810726,-0.021706391125917435,0.009512591175734997,0.027137059718370438,0.02287839725613594,0.017743507400155067,0.03155162185430527,0.020664969459176064,0.02172640897333622,-0.01897064782679081,-0.0013399551389738917,0.024440530687570572,-0.0011866023996844888,-0.01791026070713997,0.014258726499974728,0.028021568432450294,0.009083875454962254,0.03283660113811493,0.016795147210359573,0.01319063175469637,0.01175619661808014,0.004085767548531294,0.02242034301161766,-0.028714844956994057,0.009610909968614578,-0.003131812671199441,0.030188951641321182,0.028690556064248085,-0.017823973670601845,0.024403659626841545,0.02272651344537735,0.03226395323872566,0.03148907050490379,0.025370826944708824,-0.029234066605567932,-0.0030292305164039135,-0.008070618845522404,0.0009069171501323581,0.028843220323324203,-0.02179175801575184,0.020217522978782654,-0.013719704002141953,-0.00877514760941267,-0.026563532650470734,0.010650284588336945,0.00008784288365859538,0.0008963241125456989,0.012835094705224037,0.03178848326206207,-0.02664516493678093,0.01142166554927826,0.020487472414970398,0.009628985077142715,-0.02504434995353222,-0.027650000527501106,-0.020327279344201088,-0.000668634194880724,-0.010615427047014236,0.002045032801106572,-0.023786179721355438,0.0254841111600399,-0.004256966523826122,-0.0026414792519062757,-0.021802129223942757,-0.004345502704381943,0.03291954845190048,0.007050498854368925,-0.014328883960843086,-0.03261908143758774,0.0117335868999362,-0.01179465465247631,-0.026957282796502113,0.02073455974459648,0.00776577228680253,-0.030881736427545547,0.014561138115823269,-0.01851222850382328,0.02407904714345932,0.003162331646308303,-0.016050910577178,0.010943026281893253,0.007741892244666815,-0.01442953385412693,-0.02222263813018799,0.031305260956287384,-0.0002825365518219769,-0.012063886038959026,0.03327151760458946,-0.016495507210493088,-0.0029778974130749702,0.0013116414193063974,-0.026347383856773376,0.021730488166213036,-0.009180024266242981,0.022522594779729843,0.012578941881656647,-0.01612236350774765,0.017317311838269234,0.009100835770368576,-0.008141000755131245,-0.02865726314485073,-0.004064694978296757,0.03314951807260513,-0.014793969690799713,0.005049484316259623,-0.01986321620643139,0.011164824478328228,-0.03081125020980835,-0.02254648506641388,-0.018952177837491035,-0.029943346977233887,0.026852194219827652,0.010258279740810394,0.03209385648369789,0.0003283560508862138,-0.025627322494983673,-0.024116622284054756,-0.025962160900235176,0.0019722518045455217,-0.021715722978115082,-0.031168773770332336,-0.014892471954226494,-0.017282864078879356,-0.0069446079432964325,-0.027568671852350235,0.0003532643895596266,-0.00026914349291473627,0.0002898811944760382,0.003750756848603487,-0.02981039695441723,-0.0034885809291154146,-0.029640765860676765,0.031401414424180984,-0.01122511550784111,-0.01593303680419922,-0.0026910591404885054,-0.03056534007191658,0.004619693383574486,-0.007031870074570179,-0.009531397372484207,0.013869798742234707,-0.012817083857953548,0.029841415584087372,-0.01990722306072712,-0.02235010452568531,-0.004562612622976303,0.030452892184257507,0.027894023805856705,0.022395800799131393,0.018446968868374825,-0.007956485264003277,-0.023358572274446487,-0.012218903750181198,-0.009993074461817741,-0.0077415513806045055,-0.018121901899576187,-0.026633189991116524,0.024837693199515343,0.01657322607934475,-0.0066385106183588505,0.029168980196118355,0.0036206014920026064,-0.01923554576933384,-0.014043633826076984,0.028678279370069504,0.011874684132635593,-0.017121097072958946,-0.0005660300957970321,-0.004816546570509672,0.029196372255682945,0.011235270649194717,-0.027552442625164986,0.031213270500302315,-0.023271793499588966,-0.01286247093230486,0.01702681928873062,-0.004218054935336113,0.0283163171261549,-0.02491036430001259,-0.02310645394027233,-0.008393889293074608,0.027431802824139595,0.011995856650173664,-0.0052881306037306786,-0.024962792173027992,0.0010713085066527128,0.018722601234912872,-0.025375379249453545,0.021698443219065666,-0.03045308031141758,-0.008753431029617786,0.006634090561419725,-0.029236922040581703,-0.020126909017562866,-0.02131778374314308,-0.02542898617684841,-0.024931669235229492,0.020100275054574013,0.010232172906398773,0.024286681786179543,-0.020961910486221313,-0.010275835171341896,-0.02864677645266056,0.012395205907523632,-0.022221814841032028,0.00998540036380291,0.015015754848718643,-0.006669231224805117,0.026252001523971558,-0.006139183882623911,-0.03142485022544861,0.0027541310992091894,0.015297462232410908,-0.0005772486911155283,-0.009521352127194405,0.024737263098359108,-0.007213657256215811,0.023230714723467827,-0.029795855283737183,0.006591243203729391,0.028064128011465073,-0.019630087539553642,-0.0006900737062096596,0.024425670504570007,-0.018162300810217857,0.02854764461517334,0.019076284021139145,-0.030660388991236687,0.02671397663652897,-0.030012575909495354,-0.026976076886057854,-0.005781257059425116,-0.02871610037982464,0.01913728378713131,-0.03270949795842171,0.0034995656460523605,-0.0048988270573318005,-0.0003153195430058986,-0.026595337316393852,0.010886023752391338,-0.00046629266580566764,-0.016892075538635254,-0.013327552936971188,-0.02943824604153633,0.03099018521606922,0.003926296718418598,-0.03270841762423515,0.022736195474863052,-0.013840495608747005,-0.005762911401689053,0.0269582811743021,0.009444817900657654,-0.03235800191760063,-0.006250923965126276,0.008781908079981804,-0.018307583406567574,0.030517207458615303,0.010641061700880527,0.02563166432082653,0.026667505502700806,0.023186467587947845,-0.008788137696683407,-0.029443632811307907,0.01604151725769043,-0.01611909084022045,0.022665048018097878,-0.025033533573150635,-0.029368147253990173,0.007393777836114168,-0.015762681141495705,-0.00621835608035326,0.010098271071910858,-0.015450497157871723,0.03049684502184391,0.016885483637452126,0.016736388206481934,-0.016515737399458885,0.0041463300585746765,-0.024266164749860764,0.013120532967150211,0.015761949121952057,0.01272813230752945,-0.03211868554353714,-0.012235984206199646,0.025968097150325775,-0.00324055552482605,-0.013894980773329735,-0.023681536316871643,0.017642686143517494,0.014494620263576508,-0.006327016744762659,0.020329397171735764,0.028827756643295288,-0.008440307341516018,-0.017514899373054504,-0.030230041593313217,-0.005260154604911804,0.012714757584035397,0.011317582800984383,0.013303372077643871,-0.013242226094007492,-0.0274514053016901,-0.00428309291601181,-0.01748402789235115,0.018376322463154793,-0.023177355527877808,0.023037666454911232,-0.01883014477789402,0.03181164339184761,-0.006038628984242678,-0.004663785453885794,0.021985163912177086,0.02643672190606594,-0.013879414647817612,0.0017720871837809682,-0.030549146234989166,-0.02384413406252861,0.007009503897279501,0.008361316286027431,-0.0018744925037026405,-0.03280745446681976,-0.015443593263626099,0.003995448816567659,-0.0028911849949508905,0.02890860289335251,-0.025304710492491722,0.03330717980861664,0.008549803867936134,0.010821214877068996,0.031151000410318375,0.027263376861810684,0.01678958721458912,0.010643629357218742,0.012515281327068806,0.02898821048438549,0.023325758054852486,0.01851564273238182,-0.032429710030555725,-0.03258637711405754,-0.00514695281162858,-0.0013241920387372375,0.004287779331207275,0.0021926513873040676,-0.027309179306030273,-0.017448531463742256,0.02850738912820816,0.005677606910467148,0.014579453505575657,0.0033269142732024193,-0.02081003226339817,-0.009781480766832829,0.005937973503023386,0.018324416130781174,0.014951331540942192,-0.025534190237522125,-0.03056839480996132,-0.015011784620583057,-0.0025397760327905416,-0.022356238216161728,0.01699204184114933,0.007719583809375763,-0.02403605356812477,-0.018339065834879875,-0.011819479987025261,-0.009020850993692875,0.008110408671200275,0.009233405813574791,-0.025236541405320168,0.011747010983526707,-0.022929823026061058,-0.0013549227733165026,0.024746974930167198,0.021650388836860657,0.002747706836089492,-0.0015097209252417088,0.0057258158922195435,0.01024420466274023,-0.023366045206785202,-0.0185638926923275,0.0017664956394582987,-0.026229018345475197,-0.02650020457804203,0.009086010046303272,0.023140814155340195,0.017374910414218903,-0.029430000111460686,0.022750847041606903,0.02832983434200287,-0.006839169189333916,0.03172663226723671,-0.01069895550608635,-0.010417692363262177,0.008959791623055935,0.015622403472661972,-0.02364834025502205,-0.02658766508102417,-0.020277300849556923,0.003993071150034666,-0.030133647844195366,0.009838185273110867,0.008030575700104237,-0.008994377218186855,-0.029986828565597534,-0.005195885896682739,-0.0073887985199689865,0.017341064289212227,-0.009494718164205551,0.0069449348375201225,0.007614146452397108,-0.007675898727029562,-0.00040923350024968386,-0.0025794869288802147,-0.026493875309824944,-0.00793921947479248,-0.03166471794247627,0.0008787623373791575,-0.02164718508720398,-0.031262487173080444,0.0013162667164579034,-0.031555384397506714,0.030503595247864723,-0.005857804790139198,0.004224467556923628,0.021973054856061935,-0.01134252455085516,-0.030240554362535477,-0.023334555327892303,0.020820505917072296,0.016033142805099487,-0.012169074267148972,-0.030475107952952385,0.025274863466620445,-0.02964864671230316,0.00019862204499077052,-0.001970610348507762,-0.0004137176147196442,-0.025780629366636276,0.011943100020289421,-0.003224867396056652,0.03167922794818878,-0.018474604934453964,0.021647613495588303,-0.006248549558222294,-0.026082081720232964,-0.013258208520710468,-0.03293461352586746,0.01121282484382391,0.030527491122484207,0.016085051000118256,0.005336863920092583,0.010686417110264301,-0.01649535819888115,0.03236992284655571,-0.011815191246569157,-0.00256526586599648,0.014529955573379993,-0.02938300184905529,0.030282340943813324,-0.0037118790205568075,0.003887796774506569,-0.023126857355237007,0.031906187534332275,0.03145327791571617,0.02955798991024494,0.029069239273667336,-0.014020615257322788,-0.0074918209575116634,-0.0022478708997368813,0.023357167840003967,0.03130021318793297,-0.020877908915281296,-0.029076991602778435,0.024918483570218086,-0.02651778981089592,0.007940915413200855,0.03255672752857208,0.006599505431950092,-0.028777237981557846,-0.02857137843966484,0.02582068368792534,-0.012323915027081966,0.007288385648280382,-0.011289901100099087,-0.028866220265626907,-0.009372646920382977,-0.030786432325839996,0.00036194190033711493,0.007001273334026337,0.00552414683625102,0.03318456932902336,-0.003329451195895672,-0.02520889788866043,-0.02624547854065895,0.012065956369042397,0.0008973933290690184,0.014895999804139137,-0.007231772877275944,-0.008412969298660755,0.02991916798055172,-0.01122521422803402,0.01789752207696438,0.014441420324146748,-0.02631481923162937,0.011954537592828274,-0.017437167465686798,0.0038627316243946552,-0.01007614191621542,-0.009001337923109531,0.012817912735044956,0.019601672887802124,-0.03126462548971176,0.029924822971224785,0.025091927498579025,0.023079322651028633,0.003790193470194936,-0.0029989946633577347,-0.00036460146657191217,-0.0035069030709564686,0.006882139947265387,0.006584123242646456,0.019420232623815536,-0.006628630682826042,0.030086051672697067,-0.022531216964125633,-0.011471466161310673,0.004177180118858814,-0.01482454501092434,-0.019641082733869553,0.02271832339465618,0.0011439435184001923,-0.005656852386891842,-0.006513543426990509,0.023219933733344078,-0.02829887345433235,-0.005503951571881771,0.02073226496577263,0.030639691278338432,-0.006564844865351915,0.005911294836550951,0.00830076914280653,0.011864070780575275,0.024626515805721283,-0.01534104160964489,-0.030390718951821327,-0.0005911413463763893,0.008829155005514622,0.00228847935795784,-0.006828289944678545,-0.03286120295524597,-0.005217313300818205,-0.017262956127524376,0.03065449930727482,-0.005176729988306761,0.01903751865029335,-0.0332690104842186,0.017763003706932068,0.011180690489709377,0.020203564316034317,0.032468751072883606,0.0053054699674248695,0.02785414457321167,-0.016453836113214493,0.0034666527062654495,0.004924387205392122,0.008582113310694695,0.028260063380002975,-0.03104650042951107,-0.017596103250980377,-0.006136199925094843,0.02805854193866253,-0.002859799424186349,0.021985875442624092,0.019230471923947334,0.019847510382533073,-0.012134247459471226,-0.008511076681315899,0.026145894080400467,0.01596529595553875,0.025122353807091713,0.005333596840500832,0.004484684206545353,0.006345713976770639,0.008132168091833591,-0.0311550535261631,0.013753407634794712,-0.018004992976784706,0.020557215437293053,0.01706143468618393,-0.03117641620337963,0.00687509635463357,-0.03311562165617943,0.01497012097388506,0.02542487345635891,-0.008732461370527744,0.009272401221096516,-0.013636471703648567,0.010581288486719131,-0.008217394351959229,-0.028372367843985558,-0.021067552268505096,0.003980252891778946,0.031229577958583832,-0.010017608292400837,0.030980350449681282,0.009828472509980202,-0.016322476789355278,0.007174495607614517,0.008942155167460442,-0.027633769437670708,-0.008834267035126686,-0.025787875056266785,-0.010117331519722939,-0.02341723069548607,-0.02373776212334633,0.025871600955724716,0.007054848596453667,0.03315618634223938,-0.011454159393906593,0.005372009705752134,-0.02482842653989792,-0.03101026453077793,-0.021293075755238533,-0.012690652161836624,-0.01887601800262928,0.0320301316678524,0.0010143781546503305,-0.007756454404443502,0.005248119588941336,-0.021932929754257202,-0.010729138739407063,0.011849894188344479,-0.009975492022931576,-0.023192517459392548,-0.019061459228396416,-0.011318943463265896,-0.032516419887542725,0.007019557990133762,-0.026380416005849838,-0.008397604338824749,-0.001628110883757472,-0.029832297936081886,0.017124252393841743,-0.027089079841971397,0.024525824934244156,-0.01072261668741703,0.010705503635108471,-0.0019720352720469236,0.022113459184765816,0.018285643309354782,0.006610604468733072,0.026102706789970398,-0.019077863544225693,0.0028705624863505363,0.00965301226824522,-0.0042187985964119434,-0.018371090292930603,0.011538425460457802,-0.027873432263731956,0.03295925632119179,-0.009549468755722046,-0.015334773808717728,-0.011027953587472439,0.03291216492652893,-0.014184181578457355,-0.00585809675976634,-0.01077310647815466,-0.02738681435585022,0.0008453429909422994,0.022279607132077217,0.0016771620139479637,0.015607920475304127,-0.014418884180486202,-0.004068680573254824,-0.0249335840344429,0.002619463950395584,0.030978912487626076,-0.0268092043697834,-0.013723654672503471,-0.019970588386058807,-0.030985161662101746,0.013288271613419056,0.015010158531367779,-0.02689123898744583,0.001919771428219974,-0.0071030776016414165,0.008745537139475346,0.0009467941708862782,0.025689799338579178,-0.03314672037959099,-0.01121341623365879,0.004783800803124905,-0.028342684730887413,0.0053209709003567696,-0.010932192206382751,0.022100314497947693,-0.005700366571545601,-0.026187820360064507,-0.0038659493438899517,0.02080696076154709,-0.028050966560840607,0.029801353812217712,-0.00572414742782712,-0.028944997116923332,0.002345339162275195,-0.028622407466173172,-0.002061574487015605,0.011659008450806141,0.02682223543524742,0.021758148446679115,-0.00864569004625082,-0.01739645190536976,-0.010787667706608772,-0.014454975724220276,-0.019408265128731728,-0.01405103038996458,-0.006209380924701691,-0.009292511269450188,0.02606494352221489,0.011234323494136333,-0.024522293359041214,-0.02290552668273449,-0.024513132870197296,-0.020826902240514755,-0.0011991309002041817,-0.0001648727775318548,0.0296232458204031,0.006910928525030613,-0.01932758279144764,-0.00919954851269722,0.02520754002034664,-0.025064073503017426,-0.02456161193549633,0.016063861548900604,0.007043012417852879,0.004193907603621483,-0.023108862340450287,-0.02477172575891018,-0.0008601070730946958,-0.02605449967086315,0.024259883910417557,0.010793427005410194,0.016150791198015213,-0.014592478051781654,0.01158744003623724,0.0037978917825967073,0.0212288536131382,-0.02525196596980095,0.01623457670211792,-0.01540328748524189,0.005416968837380409,-0.02609574981033802,-0.0022253673523664474,0.02982914075255394,0.013939223252236843,-0.007016991265118122,0.010343339294195175,0.007467447780072689,0.031195305287837982,-0.005389229394495487,0.01825079321861267,-0.012406731024384499,0.002252961276099086,0.012697143480181694,-0.01377742737531662,-0.00445164367556572,-0.008332830853760242,-0.0057825613766908646,0.028806360438466072,0.008711514063179493,-0.015570337884128094,-0.023616420105099678,-0.017067350447177887,0.012089528143405914,0.022197367623448372,0.02018570713698864,-0.019389301538467407,-0.0007796405116096139,-0.02208884246647358,-0.0010424917563796043,0.028316471725702286,0.028712483122944832,-0.019543392583727837,-0.002535870298743248,-0.021901333704590797,-0.01497464906424284,0.014246947132050991,-0.010955010540783405,0.016887133941054344,0.02878204546868801,-0.02750389464199543,0.01821785233914852,0.0016039954498410225,-0.011324134655296803,-0.004212230443954468,-0.024010950699448586,-0.02085905522108078,0.013463574461638927,-0.024115094915032387,-0.03189203888177872,0.0011930675245821476,-0.030304642394185066,0.013407375663518906,-0.011519726365804672,-0.024462319910526276,0.02131156623363495,-0.029915595427155495,-0.02383030205965042,0.014147056266665459,-0.003961015492677689,-0.019691674038767815,0.02341097593307495,0.029815245419740677,-0.03304871544241905,-0.02793930470943451,0.013380191288888454,0.007645442150533199,0.0004058812919538468,-0.00038299255538731813,0.0007277446566149592,0.02048126608133316,-0.03172842413187027,-0.0069555784575641155,-0.007025209721177816,0.022825326770544052,-0.0181222315877676,-0.01212508138269186,-0.02802419289946556,-0.019265513867139816,0.010101251304149628,-0.016436148434877396,-0.030586091801524162,-0.025896990671753883,-0.020020753145217896,0.033234961330890656,-0.014647805131971836,-0.027039149776101112,-0.004919424187391996,-0.018529491499066353,-0.023828130215406418,-0.016273995861411095,0.022467833012342453,-0.025575339794158936,0.0029599687550216913,-0.0236826129257679,0.032512832432985306,0.018295511603355408,-0.025469627231359482,0.022348999977111816,-0.012746481224894524,-0.02914845570921898,0.023020152002573013,-0.004249424673616886,-0.017345288768410683,-0.028642509132623672,0.0025188338477164507,-0.0331902839243412,-0.01318406406790018,-0.012556886300444603,-0.022999316453933716,0.008888870477676392,-0.0009827218018472195,-0.012590077705681324,-0.009473002515733242,0.007845660671591759,0.020870670676231384,0.021920209750533104,-0.01132418867200613,-0.0222857017070055,0.013210287317633629,0.008031860925257206,0.024727201089262962,-0.0005085449083708227,0.02272080071270466,-0.009448536671698093,-0.02602587826550007,0.01102081872522831,0.000032347139494959265,-0.027551863342523575,0.02908923290669918,-0.009648325853049755,0.017255565151572227,0.0028720940463244915,-0.010799351148307323,0.002534972270950675,0.023630278185009956,0.030901309102773666,-0.0006882721791043878,0.021195566281676292,0.025431238114833832,-0.017475875094532967,-0.01073258277028799,-0.010714990086853504,0.0031286124140024185,0.024947714060544968,0.031729742884635925,0.016771800816059113,0.004527566023170948,-0.03279246389865875,0.013265499845147133,0.026286493986845016,-0.01852102018892765,0.00042367272544652224,-0.022726237773895264,-0.002925524255260825,0.005701325833797455,0.01721859909594059,0.0080448929220438,0.023383954539895058,0.014887817203998566,-0.03009038418531418,-0.012935924343764782,0.013366452418267727,-0.004682202357798815,-0.02678683027625084,-0.020493028685450554,0.0190855972468853,-0.0025901272892951965,0.011777782812714577,0.000022541331418324262,0.007715635932981968,-0.021994518116116524,0.019135892391204834,-0.008700230158865452,-0.014420772902667522,0.004674963187426329,0.030739864334464073,-0.01729622483253479,0.018955335021018982,-0.03190797194838524,-0.024117987602949142,0.0303024984896183,-0.006451744120568037,-0.025114309042692184,0.01486360002309084,0.022826483473181725,-0.004979586694389582,0.015676164999604225,-0.025765206664800644,0.008994079194962978,0.009720675647258759,0.0031520093325525522,0.019281664863228798,0.024617373943328857,-0.029671914875507355,-0.025574320927262306,0.026912832632660866,-0.031676825135946274,0.01808794215321541,-0.003955867141485214,-0.011557078920304775,-0.0286688394844532,0.010730639100074768,0.027488576248288155,-0.013518675230443478,0.0040912325493991375,0.028061136603355408,0.0031731994822621346,0.017955252900719643,0.02157742716372013,-0.0273161418735981,-0.013377360068261623,-0.0030292654410004616,0.012823132798075676,-0.016702095046639442,0.023960720747709274,0.010061942040920258,-0.02333802916109562,0.008393868803977966,-0.03094545565545559,0.0038154851645231247,0.008156109601259232,-0.02594575099647045,0.011061605997383595,0.0038846430834382772,-0.012647458352148533,-0.0028593800961971283,0.012604662217199802,0.021822500973939896,0.031082523986697197,0.00385850016027689,-0.010650990530848503,-0.0204013679176569,-0.007560753729194403,-0.00994575023651123,0.010161730460822582,0.015405728481709957,0.011701557785272598,0.019219771027565002,0.02756466530263424,-0.026471111923456192,-0.0028287528548389673,-0.02925940789282322,-0.02057434432208538,0.018494900315999985,-0.016995534300804138,-0.01359755452722311,-0.029157865792512894,0.02757655456662178,-0.0013084609527140856,-0.019262665882706642,-0.007435097824782133,0.02786746621131897,-0.023450592532753944,0.025822870433330536,-0.014842315576970577,-0.028512241318821907,0.028321152552962303,-0.025820773094892502,0.03092179261147976,0.0029781293123960495,-0.019021421670913696,-0.0292439516633749,-0.0023863210808485746,0.026091301813721657,-0.03111036866903305,0.02870757505297661,-0.01808149181306362,0.025219513103365898,-0.011877095326781273,-0.013741930946707726,0.025820890441536903,0.01795142889022827,-0.0033368004951626062,-0.029872005805373192,-0.030193191021680832,0.020988795906305313,-0.017915161326527596,-0.009903782978653908,-0.028135845437645912,-0.0323096327483654,-0.014201408252120018,-0.013921101577579975,0.014783221296966076,-0.004715620540082455,0.032454825937747955,0.02827472984790802,0.021834777668118477,0.014157871715724468,-0.006921823602169752,-0.012735862284898758,0.0031127026304602623,0.013759401626884937,0.01855248585343361,-0.010296748951077461,0.009095940738916397,0.030595922842621803,-0.003655353095382452,0.021213676780462265,-0.016159145161509514,-0.020496968179941177,-0.018105266615748405,0.0236445814371109,0.016560159623622894,0.026862530037760735,-0.004829635377973318,0.03262394666671753,-0.0014657663414254785,-0.008441846817731857,0.000949379988014698,-0.030935345217585564,0.002624416258186102,-0.020408298820257187,0.0057740542106330395,0.011319724842905998,-0.028140900656580925,-0.032634004950523376,0.005480428691953421,-0.004875580780208111,-0.01006644032895565,0.019428396597504616,0.02824031189084053,-0.009465022943913937,0.024027621373534203,-0.026069318875670433,-0.032650336623191833,0.025022611021995544,-0.03022565133869648,0.029678702354431152,-0.03193413466215134,-0.027068981900811195,-0.0007365912315435708,-0.01506488211452961,0.00919993408024311,-0.033091362565755844,-0.0014785222010686994,-0.010306539945304394,-0.004942700732499361,-0.029807215556502342,-0.004674823489040136,-0.03108452633023262,-0.021624412387609482,-0.016988657414913177,-0.003503120969980955,0.031472861766815186,-0.010460425168275833,0.026084480807185173,0.009582782164216042,0.024597030133008957,-0.0016351380618289113,0.003848418826237321,-0.030939379706978798,0.006820607930421829,-0.016606181859970093,-0.029059458523988724,0.03268920257687569,0.002994945738464594,-0.010013634338974953,-0.011032330803573132,0.011542134918272495,-0.0023230507504194975,-0.03090035170316696,-0.008168410509824753,-0.015442488715052605,-0.02394605427980423,-0.005464640911668539,-0.022357603535056114,-0.004918462596833706,0.008031947538256645,-0.028731053695082664,0.0007042094366624951,0.003048889571800828,-0.0025055527221411467,0.028650108724832535,0.004806709475815296,0.030999228358268738,0.020787617191672325,0.006361108273267746,-0.011005504988133907,-0.021756641566753387,0.010150503367185593,0.006265958771109581,-0.0008261421462520957,0.021019039675593376,-0.032097022980451584,-0.021825067698955536,-0.03162285313010216,-0.010950593277812004,-0.009077826514840126,-0.02757480926811695,-0.014422094449400902,0.0014312732964754105,-0.004405135754495859,0.01867762580513954,0.017882859334349632,0.02625679038465023,0.018625060096383095,-0.0038562749978154898,0.029608188197016716,-0.02965390309691429,-0.001698084408417344,0.014843613840639591,-0.010632582008838654,0.014264753088355064,0.014148603193461895,-0.01565118506550789,-0.024406807497143745,-0.0008326123934239149,0.012611531652510166,-0.019346443936228752,-0.01930764690041542,-0.01340777613222599,-0.023572346195578575,-0.0014372263103723526,-0.03141048550605774,-0.013760517351329327,-0.0007381662144325674,-0.003330776933580637,-0.008318246342241764,0.005977698136121035,0.01298810075968504,0.029209597036242485,0.005605258978903294,-0.010334426537156105,-0.0028831185773015022,0.0212883148342371,-0.014431023970246315,-0.019270271062850952,-0.030502578243613243,-0.018007906153798103,-0.02159886248409748,0.03160741180181503,0.030091239139437675,-0.03184451162815094,-0.003750208765268326,0.014021196402609348,-0.00501766474917531,-0.011370399966835976,-0.006986122578382492,-0.01886676996946335,-0.004223368596285582,0.02298736944794655,0.01994585618376732,0.030990678817033768,0.0031637169886380434,0.02808685041964054,0.021274199709296227,-0.011232754215598106,0.028254179283976555,0.02162931300699711,0.021292319521307945,-0.0007051746360957623,0.023889418691396713,-0.02045220136642456,-0.0016860676696524024,-0.007600456941872835,-0.014864648692309856,0.009324348531663418,-0.02468937449157238,-0.003043675795197487,0.0017397310584783554,-0.021392473950982094,0.029636148363351822,-0.01660882867872715,0.019070040434598923,-0.007319180760532618,-0.011393371969461441,0.030167315155267715,0.03260498493909836,0.029963230714201927,-0.015924379229545593,0.020984811708331108,-0.011993234977126122,-0.009774487465620041,0.00029044580878689885,0.001006526523269713,-0.026559893041849136,-0.020580461248755455,0.0245771873742342,0.01863144338130951,-0.01774461939930916,0.006117386743426323,0.03228596970438957,0.02871095761656761,0.03027399256825447,0.031727321445941925,0.012194789946079254,-0.012805778533220291,-0.009686957113444805,0.007035307586193085,-0.021671112626791,-0.017736168578267097,-0.0032332944683730602,-0.0064517720602452755,-0.031590014696121216,-0.0036394272465258837,-0.02257937379181385,0.021598001942038536,-0.014872624538838863,-0.016819726675748825,-0.016409507021307945,0.020073022693395615,0.008481035009026527,-0.030736539512872696,-0.006031244993209839,0.012202293612062931,0.033328089863061905,0.00807358231395483,0.009440428577363491,-0.027562107890844345,0.027985822409391403,-0.015307873487472534,0.030765296891331673,0.004485552664846182,0.025900455191731453,0.02224416472017765,0.02407783642411232,0.02184387296438217,-0.013665719889104366,-0.005662910640239716,-0.03309396654367447,0.012874078005552292,-0.0041363416239619255,0.010724428109824657,0.025642380118370056,0.014128860086202621,0.02348998747766018,0.0004974438925273716,-0.013923175632953644,0.03088536486029625,-0.015141217038035393,-0.014183982275426388,0.01482465025037527,-0.021874111145734787,0.0008541670977137983,-0.0331694558262825,0.0194033645093441,-0.008360007777810097,-0.0227170642465353,